{"learner":{"attributes":{"best_iteration":"83","best_score":"9.025642334496649"},"feature_names":["precipitation_sum","temperature_2m_max","temperature_2m_min","snowfall_sum","snow_depth_mean","soil_moisture_0_to_7cm_mean","et0_fao_evapotranspiration","rain_sum","level_lag_1","level_lag_2","level_lag_3","level_lag_7","level_lag_14","precip_3d","precip_7d","precip_14d","tmax_3d","tmin_3d","tmax_7d","snow_melt_3d","snow_melt_7d","soil_moisture_change_7d","level_change_1d","level_change_3d","level_change_7d","sin_doy","cos_doy","month"],"feature_types":[],"gradient_booster":{"model":{"cats":{"enc":[],"feature_segments":[],"sorted_idx":[]},"gbtree_model_param":{"num_parallel_tree":"1","num_trees":"134"},"iteration_indptr":[0,1,2,3,4,5,6,7,8,9,10,11,12,13,14,15,16,17,18,19,20,21,22,23,24,25,26,27,28,29,30,31,32,33,34,35,36,37,38,39,40,41,42,43,44,45,46,47,48,49,50,51,52,53,54,55,56,57,58,59,60,61,62,63,64,65,66,67,68,69,70,71,72,73,74,75,76,77,78,79,80,81,82,83,84,85,86,87,88,89,90,91,92,93,94,95,96,97,98,99,100,101,102,103,104,105,106,107,108,109,110,111,112,113,114,115,116,117,118,119,120,121,122,123,124,125,126,127,128,129,130,131,132,133,134],"tree_info":[0,0,0,0,0,0,0,0,0,0,0,0,0,0,0,0,0,0,0,0,0,0,0,0,0,0,0,0,0,0,0,0,0,0,0,0,0,0,0,0,0,0,0,0,0,0,0,0,0,0,0,0,0,0,0,0,0,0,0,0,0,0,0,0,0,0,0,0,0,0,0,0,0,0,0,0,0,0,0,0,0,0,0,0,0,0,0,0,0,0,0,0,0,0,0,0,0,0,0,0,0,0,0,0,0,0,0,0,0,0,0,0,0,0,0,0,0,0,0,0,0,0,0,0,0,0,0,0,0,0,0,0,0,0],"trees":[{"base_weights":[3.0106372E-1,-2.9953482E1,4.7350136E1,-4.9193214E1,-9.436518E0,3.226854E1,7.870429E1,-5.918005E1,-4.0291595E1,-2.0793098E1,-1.3375571E0,1.7785912E1,4.1980186E1,6.2960735E1,8.854944E1,-7.7779366E1,-5.712146E1,-4.383623E1,-3.249347E1,-2.3372698E1,-3.3772423E0,-4.17131E0,1.6096235E1,1.2874487E1,3.0934757E1,3.775972E1,5.353636E1,4.30067E1,6.527416E1,5.118592E1,9.0798965E1,-4.011158E0,-2.5468953E0,-5.73988E1,-1.0087098E0,-4.4525646E1,-3.1318068E1,-3.3193134E1,-3.7643433E-4,-2.5289978E1,-1.6487642E1,-6.284655E0,1.2251843E0,-8.895713E0,1.3511904E0,5.373546E0,2.4908747E1,9.168713E0,1.8275427E1,3.833845E1,1.9940022E1,3.207882E1,4.6672104E1,4.230698E1,6.0198174E1,2.393871E0,1.1466129E0,4.2427418E1,6.747394E1,1.3251842E0,2.9389515E0,9.196634E1,1.9725984E0,-3.107618E0,-2.7161624E0,-2.3543563E0,-2.0713346E0,-1.7024329E0,-8.7338716E-1,-1.3950132E0,-1.7723545E0,-1.311712E0,-9.486354E-1,-2.7258074E-1,-8.847179E-1,-7.7812666E-1,-1.2269973E-2,-1.1830267E0,-3.6617035E-1,-5.456487E-4,5.803942E-1,6.1298627E-1,-3.772044E-1,1.8008398E0,6.855306E-1,4.9358055E-1,-2.8980657E-1,7.504456E-1,1.2050065E0,4.729569E-1,2.0118787E0,6.784573E-1,1.7108265E0,1.4130228E0,1.8272135E0,3.8962358E-1,2.3811834E0,3.1523118E0,1.8157762E0,2.1913707E0,3.1490324E0,1.1812903E0,2.355645E0,3.1210403E0,3.9928493E0,4.2732177E0,5.05356E0],"categories":[],"categories_nodes":[],"categories_segments":[],"categories_sizes":[],"default_left":[0,0,0,0,0,0,0,0,0,0,0,0,0,0,0,0,0,0,0,0,0,0,0,0,0,0,0,0,0,0,0,0,0,0,0,0,0,0,0,0,0,0,0,0,0,0,0,0,0,0,0,0,0,0,0,0,0,0,0,0,0,0,0,0,0,0,0,0,0,0,0,0,0,0,0,0,0,0,0,0,0,0,0,0,0,0,0,0,0,0,0,0,0,0,0,0,0,0,0,0,0,0,0,0,0,0,0],"id":0,"left_children":[1,3,5,7,9,11,13,15,17,19,21,23,25,27,29,31,33,35,37,39,41,43,45,47,49,51,53,55,57,59,61,-1,-1,63,-1,65,67,69,-1,71,73,75,-1,77,79,81,83,85,87,89,91,93,95,97,99,-1,-1,101,103,-1,-1,105,-1,-1,-1,-1,-1,-1,-1,-1,-1,-1,-1,-1,-1,-1,-1,-1,-1,-1,-1,-1,-1,-1,-1,-1,-1,-1,-1,-1,-1,-1,-1,-1,-1,-1,-1,-1,-1,-1,-1,-1,-1,-1,-1,-1,-1],"loss_changes":[6.3685045E6,1.0744092E6,8.25446E5,1.2250875E5,1.21286984E5,1.6577712E5,8.24485E4,2.0814E4,1.91885E4,2.4582719E4,3.8155707E4,3.0401781E4,3.250025E4,7.4299375E3,2.45035E4,3.296875E1,4.961875E3,2.9994375E3,5.38325E3,5.8887344E3,5.9885938E3,1.7336879E4,1.0068457E4,6.8148125E3,9.730523E3,2.4924E4,1.14320625E4,1.4371836E3,7.027E3,2.5567422E3,1.58995E4,0E0,0E0,5.2815E3,0E0,1.8585625E3,5.3468164E2,1.7724219E3,0E0,1.7167812E3,1.3261777E3,3.692678E3,0E0,8.1345293E3,4.2902837E3,4.5406167E3,6.8401875E3,2.2560488E3,2.3171055E3,3.782664E3,4.4424414E3,4.4510938E3,7.059625E3,6.771367E3,2.467375E3,0E0,0E0,6.417383E2,6.1390625E3,0E0,0E0,1.016875E4,0E0,0E0,0E0,0E0,0E0,0E0,0E0,0E0,0E0,0E0,0E0,0E0,0E0,0E0,0E0,0E0,0E0,0E0,0E0,0E0,0E0,0E0,0E0,0E0,0E0,0E0,0E0,0E0,0E0,0E0,0E0,0E0,0E0,0E0,0E0,0E0,0E0,0E0,0E0,0E0,0E0,0E0,0E0,0E0,0E0],"parents":[2147483647,0,0,1,1,2,2,3,3,4,4,5,5,6,6,7,7,8,8,9,9,10,10,11,11,12,12,13,13,14,14,15,15,16,16,17,17,18,18,19,19,20,20,21,21,22,22,23,23,24,24,25,25,26,26,27,27,28,28,29,29,30,30,33,33,35,35,36,36,37,37,39,39,40,40,41,41,43,43,44,44,45,45,46,46,47,47,48,48,49,49,50,50,51,51,52,52,53,53,54,54,57,57,58,58,61,61],"right_children":[2,4,6,8,10,12,14,16,18,20,22,24,26,28,30,32,34,36,38,40,42,44,46,48,50,52,54,56,58,60,62,-1,-1,64,-1,66,68,70,-1,72,74,76,-1,78,80,82,84,86,88,90,92,94,96,98,100,-1,-1,102,104,-1,-1,106,-1,-1,-1,-1,-1,-1,-1,-1,-1,-1,-1,-1,-1,-1,-1,-1,-1,-1,-1,-1,-1,-1,-1,-1,-1,-1,-1,-1,-1,-1,-1,-1,-1,-1,-1,-1,-1,-1,-1,-1,-1,-1,-1,-1,-1],"split_conditions":[2.04E2,1.66E2,2.57E2,1.45E2,1.82E2,2.22E2,2.72E2,1.23E2,1.58E2,6E0,5E0,1.4782713E-1,6E0,-1.6E1,2.58E2,8.806829E-1,1.5E1,4E0,2.6E1,1.78E2,3.6E1,1.95E2,1.88E2,2.15E2,8.4E0,2.42E2,2.27E2,1.28E1,2.49E2,1E1,8.5840154E-1,-4.011158E0,-2.5468953E0,1.36E2,-1.0087098E0,1.52E2,3.06E0,-1.6126573E-2,-3.7643433E-4,9.039462E-1,-9.7485954E-1,1.68E2,1.2251843E0,-1.6428572E0,7.8659654E-1,9E0,1.39E1,7.5E1,-2E0,-2.5E1,1.2E1,-5.587876E-2,-4.4E1,1.03E1,1.58E1,2.393871E0,1.1466129E0,1E0,5E0,1.3251842E0,2.9389515E0,2.92E2,1.9725984E0,-3.107618E0,-2.7161624E0,-2.3543563E0,-2.0713346E0,-1.7024329E0,-8.7338716E-1,-1.3950132E0,-1.7723545E0,-1.311712E0,-9.486354E-1,-2.7258074E-1,-8.847179E-1,-7.7812666E-1,-1.2269973E-2,-1.1830267E0,-3.6617035E-1,-5.456487E-4,5.803942E-1,6.1298627E-1,-3.772044E-1,1.8008398E0,6.855306E-1,4.9358055E-1,-2.8980657E-1,7.504456E-1,1.2050065E0,4.729569E-1,2.0118787E0,6.784573E-1,1.7108265E0,1.4130228E0,1.8272135E0,3.8962358E-1,2.3811834E0,3.1523118E0,1.8157762E0,2.1913707E0,3.1490324E0,1.1812903E0,2.355645E0,3.1210403E0,3.9928493E0,4.2732177E0,5.05356E0],"split_indices":[9,9,9,9,9,9,9,10,9,23,23,25,23,23,10,25,23,22,24,10,23,10,10,10,13,9,10,13,10,23,25,0,0,10,0,9,6,26,0,25,25,10,0,18,25,27,14,15,23,23,23,25,24,14,16,0,0,24,23,0,0,9,0,0,0,0,0,0,0,0,0,0,0,0,0,0,0,0,0,0,0,0,0,0,0,0,0,0,0,0,0,0,0,0,0,0,0,0,0,0,0,0,0,0,0,0,0],"split_type":[0,0,0,0,0,0,0,0,0,0,0,0,0,0,0,0,0,0,0,0,0,0,0,0,0,0,0,0,0,0,0,0,0,0,0,0,0,0,0,0,0,0,0,0,0,0,0,0,0,0,0,0,0,0,0,0,0,0,0,0,0,0,0,0,0,0,0,0,0,0,0,0,0,0,0,0,0,0,0,0,0,0,0,0,0,0,0,0,0,0,0,0,0,0,0,0,0,0,0,0,0,0,0,0,0,0,0],"sum_hessian":[4.472E3,2.722E3,1.75E3,1.404E3,1.318E3,1.183E3,5.67E2,6.59E2,7.45E2,5.48E2,7.7E2,4.76E2,7.07E2,2.21E2,3.46E2,6.2E1,5.97E2,5.09E2,2.36E2,4.77E2,7.1E1,6.63E2,1.07E2,3.48E2,1.28E2,5.21E2,1.86E2,2.5E1,1.96E2,2.1E1,3.25E2,5.5E1,7E0,5.92E2,5E0,4.8E2,2.9E1,2.31E2,5E0,3.71E2,1.06E2,6.5E1,6E0,3.57E2,3.06E2,4.9E1,5.8E1,2.08E2,1.4E2,7.5E1,5.3E1,3.21E2,2E2,7.2E1,1.14E2,1.9E1,6E0,1.9E1,1.77E2,6E0,1.5E1,3.17E2,8E0,2.25E2,3.67E2,2.55E2,2.25E2,2.3E1,6E0,7.3E1,1.58E2,3.2E2,5.1E1,1.1E1,9.5E1,2.5E1,4E1,3.3E1,3.24E2,2.71E2,3.5E1,3.2E1,1.7E1,2.8E1,3E1,1.99E2,9E0,9.2E1,4.8E1,5E0,7E1,3.8E1,1.5E1,1.77E2,1.44E2,5E0,1.95E2,1.4E1,5.8E1,1.9E1,9.5E1,5E0,1.4E1,1.3E2,4.7E1,1.91E2,1.26E2],"tree_param":{"num_deleted":"0","num_feature":"28","num_nodes":"107","size_leaf_vector":"1"}},{"base_weights":[-2.3128846E-1,-3.1849249E1,4.0062397E1,-4.850362E1,-1.5102848E1,1.9592482E1,6.483417E1,-5.6042E1,-4.0441532E1,-2.3243364E1,-6.3586206E0,1.0421336E1,2.8659613E1,5.2879707E1,8.448118E1,-5.6517143E1,2.0610802E-1,-4.351414E1,-3.6399406E1,-2.471004E1,-9.472299E0,-8.413445E0,5.648158E0,7.778146E0,2.827319E1,3.5621662E1,2.3490602E1,4.103342E1,5.6997814E1,5.1218414E1,8.7230446E1,-3.7636955E0,-5.456072E1,-2.2108047E0,-2.9996859E1,-3.1444847E1,-1.9412215E0,-2.7214579E1,-1.8537426E1,-1.1999861E1,4.8540625E-1,-2.4557425E1,-7.368319E0,1.3750458E1,-4.1703987E0,4.3044558E0,1.2170301E1,3.3273697E1,1.8137352E1,2.5220684E1,4.042393E1,1.9001568E1,2.80305E1,3.581305E1,5.1714825E1,5.1781723E1,6.427702E1,1.8394047E0,2.9192896E0,7.956131E1,4.953465E0,-2.9668794E0,-2.6179912E0,-1.8407421E0,-1.0531306E0,-1.6190647E0,-7.58297E-1,-1.3808933E0,-4.0749812E-1,-9.7349596E-1,-2.236685E-1,-9.8554724E-1,-2.8957343E-1,-5.4760833E0,-2.0009641E-1,-7.408892E-2,-5.0172526E-1,2.5973627E-1,1.0876086E0,-3.752278E-1,8.256473E-1,1.8711868E-1,1.0905391E0,6.9982594E-1,3.0770242E-1,1.7873194E0,5.613396E-1,5.8582777E-1,1.2054251E0,2.3124094E-1,1.4158295E0,2.2091854E0,1.4052767E0,4.089132E-1,1.0110916E0,2.3450227E-1,1.4638311E0,4.0979084E-1,1.8575548E0,1.482833E0,2.88986E0,2.3778303E0,2.8953419E0,3.2641873E0,1.8047771E0,4.038486E0,2.3002386E0],"categories":[],"categories_nodes":[],"categories_segments":[],"categories_sizes":[],"default_left":[0,0,0,0,0,0,0,0,0,0,0,0,0,0,0,0,0,0,0,0,0,0,0,0,0,0,0,0,0,0,0,0,0,0,0,0,0,0,0,0,0,0,0,0,0,0,0,0,0,0,0,0,0,0,0,0,0,0,0,0,0,0,0,0,0,0,0,0,0,0,0,0,0,0,0,0,0,0,0,0,0,0,0,0,0,0,0,0,0,0,0,0,0,0,0,0,0,0,0,0,0,0,0,0,0,0,0],"id":1,"left_children":[1,3,5,7,9,11,13,15,17,19,21,23,25,27,29,31,-1,33,35,37,39,41,43,45,47,49,51,53,55,57,59,-1,61,-1,63,65,-1,67,69,71,-1,73,75,77,79,81,83,85,87,89,91,93,95,97,99,101,103,-1,-1,105,-1,-1,-1,-1,-1,-1,-1,-1,-1,-1,-1,-1,-1,-1,-1,-1,-1,-1,-1,-1,-1,-1,-1,-1,-1,-1,-1,-1,-1,-1,-1,-1,-1,-1,-1,-1,-1,-1,-1,-1,-1,-1,-1,-1,-1,-1,-1],"loss_changes":[5.7024435E6,6.98744E5,9.9664725E5,7.411825E4,8.896978E4,8.942269E4,2.045525E5,1.8733875E4,5.9966875E3,1.2850656E4,1.4974256E4,2.5162465E4,1.866225E4,2.47755E4,2.61535E4,1.9439E4,0E0,1.9113125E3,2.0161875E3,8.53475E3,3.2194282E3,8.538945E3,7.1385107E3,7.116752E3,2.8885781E3,1.04120625E4,5.861922E3,6.3360312E3,1.2227125E4,7.385469E2,2.00645E4,0E0,3.03225E3,0E0,4.370664E2,9.371172E2,0E0,2.9544062E3,2.1662227E3,2.61208E3,0E0,5.3691297E4,7.627258E3,3.238873E3,2.950444E3,2.5135786E3,2.1861582E3,2.0471719E3,6.724385E2,4.647961E3,5.929703E3,1.9581484E3,4.338375E3,3.4601875E3,4.4488125E3,3.5501875E3,2.371375E3,0E0,0E0,4.05725E3,0E0,0E0,0E0,0E0,0E0,0E0,0E0,0E0,0E0,0E0,0E0,0E0,0E0,0E0,0E0,0E0,0E0,0E0,0E0,0E0,0E0,0E0,0E0,0E0,0E0,0E0,0E0,0E0,0E0,0E0,0E0,0E0,0E0,0E0,0E0,0E0,0E0,0E0,0E0,0E0,0E0,0E0,0E0,0E0,0E0,0E0,0E0],"parents":[2147483647,0,0,1,1,2,2,3,3,4,4,5,5,6,6,7,7,8,8,9,9,10,10,11,11,12,12,13,13,14,14,15,15,17,17,18,18,19,19,20,20,21,21,22,22,23,23,24,24,25,25,26,26,27,27,28,28,29,29,30,30,32,32,34,34,35,35,37,37,38,38,39,39,41,41,42,42,43,43,44,44,45,45,46,46,47,47,48,48,49,49,50,50,51,51,52,52,53,53,54,54,55,55,56,56,59,59],"right_children":[2,4,6,8,10,12,14,16,18,20,22,24,26,28,30,32,-1,34,36,38,40,42,44,46,48,50,52,54,56,58,60,-1,62,-1,64,66,-1,68,70,72,-1,74,76,78,80,82,84,86,88,90,92,94,96,98,100,102,104,-1,-1,106,-1,-1,-1,-1,-1,-1,-1,-1,-1,-1,-1,-1,-1,-1,-1,-1,-1,-1,-1,-1,-1,-1,-1,-1,-1,-1,-1,-1,-1,-1,-1,-1,-1,-1,-1,-1,-1,-1,-1,-1,-1,-1,-1,-1,-1,-1,-1],"split_conditions":[1.97E2,1.61E2,2.38E2,1.45E2,1.79E2,2.15E2,2.72E2,2.3E1,1.53E2,4E0,3E0,4E0,7E0,-4E0,2.49E2,1.24E2,2.0610802E-1,6E0,2.228204E-1,1.73E2,2.4E1,-1.6428572E0,6E0,2.06E2,1.04E1,2.88E0,2.24E2,2.61E2,2.56E2,2.34E2,2.94E2,-3.7636955E0,1.35E2,-2.2108047E0,3.8E-1,7E0,-1.9412215E0,1.95E2,4.2E0,1.68E2,4.8540625E-1,5.707842E-1,7E0,7E0,3.06E1,7E0,1.26E1,9E0,4.03E-1,1.86E2,1.24E1,2.15E2,2.02E2,-4.6E1,-1.9E1,4E0,7.66E1,1.8394047E0,2.9192896E0,-4.9253273E-1,4.953465E0,-2.9668794E0,-2.6179912E0,-1.8407421E0,-1.0531306E0,-1.6190647E0,-7.58297E-1,-1.3808933E0,-4.0749812E-1,-9.7349596E-1,-2.236685E-1,-9.8554724E-1,-2.8957343E-1,-5.4760833E0,-2.0009641E-1,-7.408892E-2,-5.0172526E-1,2.5973627E-1,1.0876086E0,-3.752278E-1,8.256473E-1,1.8711868E-1,1.0905391E0,6.9982594E-1,3.0770242E-1,1.7873194E0,5.613396E-1,5.8582777E-1,1.2054251E0,2.3124094E-1,1.4158295E0,2.2091854E0,1.4052767E0,4.089132E-1,1.0110916E0,2.3450227E-1,1.4638311E0,4.0979084E-1,1.8575548E0,1.482833E0,2.88986E0,2.3778303E0,2.8953419E0,3.2641873E0,1.8047771E0,4.038486E0,2.3002386E0],"split_indices":[8,8,8,8,8,8,8,22,8,22,22,22,27,22,10,8,0,22,26,8,22,18,27,8,13,6,8,8,8,10,8,0,8,0,5,22,0,12,7,8,0,26,27,22,14,7,2,27,5,12,2,10,12,24,22,24,15,0,0,26,0,0,0,0,0,0,0,0,0,0,0,0,0,0,0,0,0,0,0,0,0,0,0,0,0,0,0,0,0,0,0,0,0,0,0,0,0,0,0,0,0,0,0,0,0,0,0],"split_type":[0,0,0,0,0,0,0,0,0,0,0,0,0,0,0,0,0,0,0,0,0,0,0,0,0,0,0,0,0,0,0,0,0,0,0,0,0,0,0,0,0,0,0,0,0,0,0,0,0,0,0,0,0,0,0,0,0,0,0,0,0,0,0,0,0,0,0,0,0,0,0,0,0,0,0,0,0,0,0,0,0,0,0,0,0,0,0,0,0,0,0,0,0,0,0,0,0,0,0,0,0,0,0,0,0,0,0],"sum_hessian":[4.474E3,2.507E3,1.967E3,1.256E3,1.251E3,1.078E3,8.89E2,6.46E2,6.1E2,6.47E2,6.04E2,5.37E2,5.41E2,5.55E2,3.34E2,6.41E2,5E0,3.41E2,2.69E2,5.84E2,6.3E1,5.16E2,8.8E1,4.69E2,6.8E1,2.28E2,3.13E2,1.46E2,4.09E2,2.7E1,3.07E2,5.7E1,5.84E2,3.22E2,1.9E1,9.3E1,1.76E2,4.13E2,1.71E2,5.6E1,7E0,3E1,4.86E2,4.8E1,4E1,2.63E2,2.06E2,4.4E1,2.4E1,7.4E1,1.54E2,1.6E2,1.53E2,1.01E2,4.5E1,2.43E2,1.66E2,1.1E1,1.6E1,1.91E2,1.16E2,1.76E2,4.08E2,9E0,1E1,8.7E1,6E0,4.04E2,9E0,1.6E2,1.1E1,2.4E1,3.2E1,5E0,2.5E1,1.52E2,3.34E2,2.4E1,2.4E1,3.5E1,5E0,2.56E2,7E0,1.57E2,4.9E1,3.9E1,5E0,1.3E1,1.1E1,1E1,6.4E1,1.16E2,3.8E1,1.7E1,1.43E2,8E0,1.45E2,5E0,9.6E1,1.1E1,3.4E1,1.49E2,9.4E1,1.59E2,7E0,1.83E2,8E0],"tree_param":{"num_deleted":"0","num_feature":"28","num_nodes":"107","size_leaf_vector":"1"}},{"base_weights":[2.1772453E-1,-3.0135654E1,3.804613E1,-4.6248158E1,-1.427967E1,1.8999956E1,6.204125E1,-5.3730087E1,-3.905758E1,-2.190019E1,-5.7827644E0,9.446301E0,2.741552E1,5.0623722E1,8.050377E1,-3.5028214E0,-5.2005848E1,-3.9378967E1,6.440269E-2,-2.4594591E1,-1.6093817E1,-7.0286865E0,1.3329038E1,7.1629148E0,2.400914E1,2.1796087E1,3.4544308E1,3.9704445E1,5.4599064E1,6.0721867E1,8.438423E1,-5.2283325E1,-9.0125257E-1,-4.2306E1,-3.4942997E1,-2.512605E1,-4.666245E0,-1.7261087E1,5.3605896E-1,-2.7240587E1,-6.3874965E0,2.4716007E-2,2.3459724E1,4.332766E0,1.1262579E1,2.9190878E1,1.4479981E1,1.637797E1,2.680577E1,2.715871E1,3.9827927E1,3.0814207E1,4.624376E1,4.9309456E1,6.152718E1,4.39978E1,6.8167595E1,3.862728E0,9.438806E1,-2.81937E0,-2.5023706E0,-2.127079E0,-1.0335859E0,-1.7994505E0,-1.4183075E0,-1.2754228E0,-5.283138E-1,-5.5557853E-1,3.69265E-2,-9.3829453E-1,-5.0609684E-1,1.0907705E0,-6.137578E-1,-1.3969444E-1,-3.578861E0,-4.5284534E-1,-7.8017674E-2,-4.3390217E-1,5.456288E-1,2.574096E-1,1.4427034E0,-5.676194E-2,2.8001013E-1,4.661405E-1,1.0151628E0,1.5852259E0,5.5009454E-1,1.9734006E-1,8.9821273E-1,2.4774868E-2,8.4886664E-1,4.0477967E-1,1.3831631E0,1.0501298E0,1.7321526E0,1.5076616E0,2.2181373E0,1.6688225E0,3.8665557E-1,1.3713635E0,2.510403E0,2.2651052E0,2.7756288E0,2.6455872E0,3.224117E0,1.3354023E0,2.3862674E0,3.755655E0,2.5196273E0,5.0183215E0,4.079244E0],"categories":[],"categories_nodes":[],"categories_segments":[],"categories_sizes":[],"default_left":[0,0,0,0,0,0,0,0,0,0,0,0,0,0,0,0,0,0,0,0,0,0,0,0,0,0,0,0,0,0,0,0,0,0,0,0,0,0,0,0,0,0,0,0,0,0,0,0,0,0,0,0,0,0,0,0,0,0,0,0,0,0,0,0,0,0,0,0,0,0,0,0,0,0,0,0,0,0,0,0,0,0,0,0,0,0,0,0,0,0,0,0,0,0,0,0,0,0,0,0,0,0,0,0,0,0,0,0,0,0,0],"id":2,"left_children":[1,3,5,7,9,11,13,15,17,19,21,23,25,27,29,-1,31,33,-1,35,37,39,41,43,45,47,49,51,53,55,57,59,-1,61,63,65,67,69,71,73,75,77,79,81,83,85,87,89,91,93,95,97,99,101,103,105,107,-1,109,-1,-1,-1,-1,-1,-1,-1,-1,-1,-1,-1,-1,-1,-1,-1,-1,-1,-1,-1,-1,-1,-1,-1,-1,-1,-1,-1,-1,-1,-1,-1,-1,-1,-1,-1,-1,-1,-1,-1,-1,-1,-1,-1,-1,-1,-1,-1,-1,-1,-1,-1,-1],"loss_changes":[5.184212E6,6.3930975E5,9.1741375E5,6.471125E4,8.171566E4,8.994547E4,1.8330925E5,1.34035E4,8.314125E3,1.00195E4,1.435633E4,1.7349027E4,2.3117031E4,2.1783875E4,2.08075E4,0E0,4.25525E3,6.7200625E3,0E0,4.6775312E3,4.165004E3,7.1189355E3,4.9840034E3,5.2520566E3,3.078754E3,8.676734E3,9.0965625E3,7.3458906E3,1.1687125E4,4.3364062E3,1.2661625E4,2.186875E3,0E0,1.030625E3,7.406875E2,2.18225E3,4.6210547E2,1.9557656E3,4.357956E3,1.8218617E4,7.033242E3,1.7057484E3,1.9224053E3,1.8918594E3,3.0696035E3,1.7043477E3,9.178198E2,1.5510156E3,2.5480625E3,4.4271797E3,5.235797E3,3.7001172E3,4.955672E3,3.2670625E3,9.04625E2,7.132031E1,1.0171094E3,0E0,3.661875E2,0E0,0E0,0E0,0E0,0E0,0E0,0E0,0E0,0E0,0E0,0E0,0E0,0E0,0E0,0E0,0E0,0E0,0E0,0E0,0E0,0E0,0E0,0E0,0E0,0E0,0E0,0E0,0E0,0E0,0E0,0E0,0E0,0E0,0E0,0E0,0E0,0E0,0E0,0E0,0E0,0E0,0E0,0E0,0E0,0E0,0E0,0E0,0E0,0E0,0E0,0E0,0E0],"parents":[2147483647,0,0,1,1,2,2,3,3,4,4,5,5,6,6,7,7,8,8,9,9,10,10,11,11,12,12,13,13,14,14,16,16,17,17,19,19,20,20,21,21,22,22,23,23,24,24,25,25,26,26,27,27,28,28,29,29,30,30,31,31,33,33,34,34,35,35,36,36,37,37,38,38,39,39,40,40,41,41,42,42,43,43,44,44,45,45,46,46,47,47,48,48,49,49,50,50,51,51,52,52,53,53,54,54,55,55,56,56,58,58],"right_children":[2,4,6,8,10,12,14,16,18,20,22,24,26,28,30,-1,32,34,-1,36,38,40,42,44,46,48,50,52,54,56,58,60,-1,62,64,66,68,70,72,74,76,78,80,82,84,86,88,90,92,94,96,98,100,102,104,106,108,-1,110,-1,-1,-1,-1,-1,-1,-1,-1,-1,-1,-1,-1,-1,-1,-1,-1,-1,-1,-1,-1,-1,-1,-1,-1,-1,-1,-1,-1,-1,-1,-1,-1,-1,-1,-1,-1,-1,-1,-1,-1,-1,-1,-1,-1,-1,-1,-1,-1,-1,-1,-1,-1],"split_conditions":[1.97E2,1.61E2,2.39E2,1.44E2,1.8E2,2.14E2,2.72E2,1.24E2,2.6E1,1.73E2,7E0,4E0,-5.802557E-2,-4E0,2.52E2,-3.5028214E0,1.6E1,1.53E2,6.440269E-2,1E1,4.9E0,-1.4E-1,-2.7591294E-1,2.06E2,1.04E1,2.23E2,3.22E0,2.52E2,2.56E2,1.66E1,2.94E2,1.35E2,-9.0125257E-1,1.62E2,9.7627664E-1,1.95E2,1.65E2,7.8659654E-1,-2.3328854E-1,-3E-2,2.7950298E-2,1.7E1,1.64E2,-5.331371E-1,8.59061E-2,9E0,1.91E2,-9.987235E-1,1.87E2,2.12E2,3.5344467E-1,8.4024805E-1,-1.9E1,3E0,-1.09445766E-1,1.0766666E1,2.97E1,3.862728E0,-9.2023855E-1,-2.81937E0,-2.5023706E0,-2.127079E0,-1.0335859E0,-1.7994505E0,-1.4183075E0,-1.2754228E0,-5.283138E-1,-5.5557853E-1,3.69265E-2,-9.3829453E-1,-5.0609684E-1,1.0907705E0,-6.137578E-1,-1.3969444E-1,-3.578861E0,-4.5284534E-1,-7.8017674E-2,-4.3390217E-1,5.456288E-1,2.574096E-1,1.4427034E0,-5.676194E-2,2.8001013E-1,4.661405E-1,1.0151628E0,1.5852259E0,5.5009454E-1,1.9734006E-1,8.9821273E-1,2.4774868E-2,8.4886664E-1,4.0477967E-1,1.3831631E0,1.0501298E0,1.7321526E0,1.5076616E0,2.2181373E0,1.6688225E0,3.8665557E-1,1.3713635E0,2.510403E0,2.2651052E0,2.7756288E0,2.6455872E0,3.224117E0,1.3354023E0,2.3862674E0,3.755655E0,2.5196273E0,5.0183215E0,4.079244E0],"split_indices":[8,8,8,9,8,8,8,11,22,8,22,22,25,22,11,0,23,8,0,22,7,20,25,8,13,9,6,8,8,16,8,8,0,11,25,12,11,25,26,19,25,22,12,26,25,27,11,25,11,12,25,25,22,22,25,16,14,0,26,0,0,0,0,0,0,0,0,0,0,0,0,0,0,0,0,0,0,0,0,0,0,0,0,0,0,0,0,0,0,0,0,0,0,0,0,0,0,0,0,0,0,0,0,0,0,0,0,0,0,0,0],"split_type":[0,0,0,0,0,0,0,0,0,0,0,0,0,0,0,0,0,0,0,0,0,0,0,0,0,0,0,0,0,0,0,0,0,0,0,0,0,0,0,0,0,0,0,0,0,0,0,0,0,0,0,0,0,0,0,0,0,0,0,0,0,0,0,0,0,0,0,0,0,0,0,0,0,0,0,0,0,0,0,0,0,0,0,0,0,0,0,0,0,0,0,0,0,0,0,0,0,0,0,0,0,0,0,0,0,0,0,0,0,0,0],"sum_hessian":[4.513E3,2.504E3,2.009E3,1.241E3,1.263E3,1.121E3,8.88E2,6.05E2,6.36E2,6.65E2,5.98E2,5.26E2,5.95E2,5.51E2,3.37E2,5.4E1,5.51E2,6.31E2,5E0,4.52E2,2.13E2,5.62E2,3.6E1,4.56E2,7E1,3.35E2,2.6E2,1.5E2,4.01E2,5.8E1,2.79E2,5.46E2,5E0,3.75E2,2.56E2,4.4E2,1.2E1,1.99E2,1.4E1,1.6E1,5.46E2,1.6E1,2E1,2.71E2,1.85E2,4.4E1,2.6E1,1.63E2,1.72E2,1.11E2,1.49E2,6.6E1,8.4E1,2.32E2,1.69E2,2E1,3.8E1,1.68E2,1.11E2,1.84E2,3.62E2,3.7E2,5E0,2.17E2,3.9E1,4.28E2,1.2E1,5E0,7E0,1.63E2,3.6E1,5E0,9E0,1.1E1,5E0,3.51E2,1.95E2,9E0,7E0,5E0,1.5E1,5.1E1,2.2E2,1.54E2,3.1E1,3.8E1,6E0,7E0,1.9E1,6E0,1.57E2,8E0,1.64E2,6.3E1,4.8E1,5E1,9.9E1,5.9E1,7E0,1.6E1,6.8E1,1.46E2,8.6E1,4.8E1,1.21E2,5E0,1.5E1,2.5E1,1.3E1,7.1E1,4E1],"tree_param":{"num_deleted":"0","num_feature":"28","num_nodes":"111","size_leaf_vector":"1"}},{"base_weights":[7.9892635E-2,-2.874136E1,3.7040287E1,-4.355045E1,-1.3193631E1,1.9156874E1,5.920609E1,-5.0755768E1,-3.5994926E1,-2.1129465E1,-5.3000817E0,1.1694634E1,2.969289E1,4.8202015E1,7.620867E1,-6.642131E1,-4.923175E1,-3.8146236E1,-3.1081568E1,-2.2369137E1,-6.8823557E0,-7.269412E0,6.9378467E0,9.786916E0,3.1200804E1,2.676396E1,4.0509212E1,4.351861E1,5.5025185E1,6.829873E1,8.866851E1,-1.8373755E0,-3.4304001E0,-4.9485928E1,-7.711365E-1,-1.9335253E0,-2.642284E1,-3.1753551E1,-9.4825345E-1,-2.56745E1,-1.8961382E1,-1.2267048E1,-2.017536E0,-9.619616E0,-2.3802447E0,-2.3022785E0,1.3203359E1,5.4300194E0,1.4674358E1,2.3831377E0,2.832758E1,2.2568413E1,3.1555906E1,2.3767155E1,4.3108246E1,3.4811504E1,4.6360664E1,2.7248816E1,5.711055E1,7.039714E1,2.2104719E0,2.41446E0,9.0557755E1,-2.688905E0,-2.370834E0,-1.563573E0,-7.966781E-1,-8.9325935E-1,-1.605635E0,-1.3208607E0,-1.0064744E0,-9.96321E-1,-6.192736E-1,-9.14169E-1,-1.0029216E-1,7.558379E-2,-7.613296E-1,-9.609756E-1,-4.348372E-1,-4.1812477E-1,-6.197087E-2,-2.7198347E-1,7.1373093E-1,2.1126378E-1,1.1007543E0,2.0632258E-1,6.651752E-1,5.982896E-1,1.1661414E0,9.780138E-1,1.6459391E0,1.1609514E0,8.3528616E-2,1.2410597E0,1.9157765E0,1.4284586E0,5.8929676E-1,1.6827818E0,2.373259E0,1.8299637E0,1.3627844E0,2.1472135E0,2.5390756E0,1.6303875E0,7.4603313E-1,2.6865385E0,3.377789E0,1.4348227E0,3.5666559E0,4.81859E0,3.9844944E0],"categories":[],"categories_nodes":[],"categories_segments":[],"categories_sizes":[],"default_left":[0,0,0,0,0,0,0,0,0,0,0,0,0,0,0,0,0,0,0,0,0,0,0,0,0,0,0,0,0,0,0,0,0,0,0,0,0,0,0,0,0,0,0,0,0,0,0,0,0,0,0,0,0,0,0,0,0,0,0,0,0,0,0,0,0,0,0,0,0,0,0,0,0,0,0,0,0,0,0,0,0,0,0,0,0,0,0,0,0,0,0,0,0,0,0,0,0,0,0,0,0,0,0,0,0,0,0,0,0,0,0],"id":3,"left_children":[1,3,5,7,9,11,13,15,17,19,21,23,25,27,29,31,33,35,37,39,41,43,45,47,49,51,53,55,57,59,61,-1,-1,63,-1,-1,65,67,-1,69,71,73,75,77,79,81,83,85,87,-1,89,91,93,95,97,99,101,103,105,107,-1,-1,109,-1,-1,-1,-1,-1,-1,-1,-1,-1,-1,-1,-1,-1,-1,-1,-1,-1,-1,-1,-1,-1,-1,-1,-1,-1,-1,-1,-1,-1,-1,-1,-1,-1,-1,-1,-1,-1,-1,-1,-1,-1,-1,-1,-1,-1,-1,-1,-1],"loss_changes":[4.8212985E6,5.849395E5,7.8491975E5,6.904525E4,7.768659E4,8.605447E4,1.618955E5,1.2571125E4,5.56175E3,1.0775781E4,1.5089191E4,2.369246E4,1.3323625E4,1.48515E4,2.8029E4,1.1020156E3,4.463625E3,1.6760625E3,1.0211406E3,5.9178438E3,1.3097959E3,6.1578145E3,5.0682764E3,1.2460523E4,1.3382656E3,6.54025E3,3.1025E3,6.4204375E3,1.0946875E4,7.7949375E3,5.6066875E3,0E0,0E0,2.804375E3,0E0,0E0,6.159004E2,3.590625E2,0E0,6.414375E2,1.5522266E3,1.4429329E3,1.3296807E3,3.0460508E3,1.189825E3,1.9490609E3,4.0182021E3,3.155874E3,6.2061055E3,0E0,1.4037266E3,2.623625E3,6.5996562E3,5.2225977E2,1.7303594E3,1.3075781E2,1.464875E3,6.3183594E2,3.4185625E3,5.6320625E3,0E0,0E0,1.375625E2,0E0,0E0,0E0,0E0,0E0,0E0,0E0,0E0,0E0,0E0,0E0,0E0,0E0,0E0,0E0,0E0,0E0,0E0,0E0,0E0,0E0,0E0,0E0,0E0,0E0,0E0,0E0,0E0,0E0,0E0,0E0,0E0,0E0,0E0,0E0,0E0,0E0,0E0,0E0,0E0,0E0,0E0,0E0,0E0,0E0,0E0,0E0,0E0],"parents":[2147483647,0,0,1,1,2,2,3,3,4,4,5,5,6,6,7,7,8,8,9,9,10,10,11,11,12,12,13,13,14,14,15,15,16,16,17,17,18,18,19,19,20,20,21,21,22,22,23,23,24,24,25,25,26,26,27,27,28,28,29,29,30,30,33,33,36,36,37,37,39,39,40,40,41,41,42,42,43,43,44,44,45,45,46,46,47,47,48,48,50,50,51,51,52,52,53,53,54,54,55,55,56,56,57,57,58,58,59,59,62,62],"right_children":[2,4,6,8,10,12,14,16,18,20,22,24,26,28,30,32,34,36,38,40,42,44,46,48,50,52,54,56,58,60,62,-1,-1,64,-1,-1,66,68,-1,70,72,74,76,78,80,82,84,86,88,-1,90,92,94,96,98,100,102,104,106,108,-1,-1,110,-1,-1,-1,-1,-1,-1,-1,-1,-1,-1,-1,-1,-1,-1,-1,-1,-1,-1,-1,-1,-1,-1,-1,-1,-1,-1,-1,-1,-1,-1,-1,-1,-1,-1,-1,-1,-1,-1,-1,-1,-1,-1,-1,-1,-1,-1,-1,-1],"split_conditions":[1.98E2,1.62E2,2.39E2,1.45E2,1.79E2,2.2E2,2.72E2,1.24E2,1.56E2,4E0,3E0,8E0,5E0,2.57E2,2.94E2,5.4E-1,1.5E1,6E0,5E0,1.7E2,1.42E1,1.92E2,-4.5370308E-1,2.08E2,3E0,-5.587876E-2,2.13E2,-4E0,-1.7E1,-5.5120456E-1,2.54E2,-1.8373755E0,-3.4304001E0,1.35E2,-7.711365E-1,-1.9335253E0,1E-2,-9.9262893E-1,-9.4825345E-1,9.776531E-1,9.039462E-1,1.69E2,1.3E1,-1E-1,-3E0,3.01E1,7E0,7.971016E-1,1.4782713E-1,2.3831377E0,1.7E1,2.9E1,3.57E0,4.1E-1,2.7950298E-2,4.9E0,3.953118E-1,1.3E0,4E0,2.34E2,2.2104719E0,2.41446E0,-9.252111E-1,-2.688905E0,-2.370834E0,-1.563573E0,-7.966781E-1,-8.9325935E-1,-1.605635E0,-1.3208607E0,-1.0064744E0,-9.96321E-1,-6.192736E-1,-9.14169E-1,-1.0029216E-1,7.558379E-2,-7.613296E-1,-9.609756E-1,-4.348372E-1,-4.1812477E-1,-6.197087E-2,-2.7198347E-1,7.1373093E-1,2.1126378E-1,1.1007543E0,2.0632258E-1,6.651752E-1,5.982896E-1,1.1661414E0,9.780138E-1,1.6459391E0,1.1609514E0,8.3528616E-2,1.2410597E0,1.9157765E0,1.4284586E0,5.8929676E-1,1.6827818E0,2.373259E0,1.8299637E0,1.3627844E0,2.1472135E0,2.5390756E0,1.6303875E0,7.4603313E-1,2.6865385E0,3.377789E0,1.4348227E0,3.5666559E0,4.81859E0,3.9844944E0],"split_indices":[8,8,8,8,8,8,8,10,8,22,22,22,22,8,8,4,22,22,22,8,1,8,25,8,23,25,10,22,22,26,10,0,0,10,0,0,20,25,0,25,25,10,2,20,22,14,22,25,25,0,23,24,6,5,25,0,25,0,22,10,0,0,26,0,0,0,0,0,0,0,0,0,0,0,0,0,0,0,0,0,0,0,0,0,0,0,0,0,0,0,0,0,0,0,0,0,0,0,0,0,0,0,0,0,0,0,0,0,0,0,0],"split_type":[0,0,0,0,0,0,0,0,0,0,0,0,0,0,0,0,0,0,0,0,0,0,0,0,0,0,0,0,0,0,0,0,0,0,0,0,0,0,0,0,0,0,0,0,0,0,0,0,0,0,0,0,0,0,0,0,0,0,0,0,0,0,0,0,0,0,0,0,0,0,0,0,0,0,0,0,0,0,0,0,0,0,0,0,0,0,0,0,0,0,0,0,0,0,0,0,0,0,0,0,0,0,0,0,0,0,0,0,0,0,0],"sum_hessian":[4.524E3,2.542E3,1.982E3,1.301E3,1.241E3,1.098E3,8.84E2,6.63E2,6.38E2,6.18E2,6.23E2,6.44E2,4.54E2,5.39E2,3.45E2,5.5E1,6.08E2,4.39E2,1.99E2,5.68E2,5E1,5.37E2,8.6E1,5.88E2,5.6E1,3.6E2,9.4E1,3.24E2,2.15E2,2.15E2,1.3E2,5E0,5E1,6.03E2,5E0,4.18E2,2.1E1,1.87E2,1.2E1,2.85E2,2.83E2,2.3E1,2.7E1,3.62E2,1.75E2,3.5E1,5.1E1,3.12E2,2.76E2,6E0,5E1,1.95E2,1.65E2,1.4E1,8E1,8.3E1,2.41E2,1.6E1,1.99E2,1.96E2,1.9E1,7E0,1.23E2,1.88E2,4.15E2,1.3E1,8E0,6E0,1.81E2,2.48E2,3.7E1,2.45E2,3.8E1,1.4E1,9E0,2.2E1,5E0,3E1,3.32E2,2.7E1,1.48E2,3E1,5E0,2.6E1,2.5E1,2.69E2,4.3E1,2.12E2,6.4E1,1.9E1,3.1E1,1.89E2,6E0,8.5E1,8E1,9E0,5E0,2.8E1,5.2E1,6.4E1,1.9E1,1.42E2,9.9E1,1E1,6E0,1.55E2,4.4E1,5E0,1.91E2,7.5E1,4.8E1],"tree_param":{"num_deleted":"0","num_feature":"28","num_nodes":"111","size_leaf_vector":"1"}},{"base_weights":[3.2853556E-1,-2.730973E1,3.4550495E1,-4.1152397E1,-1.194741E1,2.1238731E1,6.285653E1,-4.8626633E1,-3.4323406E1,-1.9430378E1,-4.5819416E0,1.11660185E1,3.2741795E1,5.08308E1,7.339279E1,-3.2171247E0,-4.6933075E1,-3.754573E1,-3.0619883E1,-2.0638004E1,-1.050447E1,-6.2466226E0,6.1191306E0,9.230258E0,2.707307E1,2.6459665E1,3.76161E1,2.6286774E1,5.2192688E1,6.934186E1,9.016608E1,-4.7326115E1,-1.1398079E-1,-1.9026597E0,-1.948085E1,-2.6516605E1,-1.6487494E0,-2.3407034E1,-1.7430382E1,-1.5462211E1,-6.5926976E0,-8.918057E0,-3.368969E0,-3.6735672E-1,1.1584298E1,5.026675E0,1.3668877E1,3.0600896E-1,2.840475E1,8.608647E0,2.7857233E1,2.3464592E1,3.962701E1,5.764882E-1,1.5533975E0,4.8152027E1,5.9378464E1,5.483028E1,7.250197E1,2.8730857E0,4.693825E0,-2.5716293E0,-2.2570465E0,-1.1825849E0,-6.554287E-1,-1.453276E0,-1.121323E0,-1.0111032E0,-1.2285419E0,-9.261038E-1,-4.6819407E-1,-3.6903918E-1,-8.973946E-1,2.6378265E-1,-4.3600398E-1,-5.797618E-1,-8.032409E-2,-8.6980134E-2,-5.024203E-1,-2.2571588E-1,1.1242744E0,7.7299136E-1,-7.1931764E-2,1.8570215E-1,6.438851E-1,5.8873373E-1,1.0500474E0,1.3049413E0,1.9614851E0,1.4974076E-1,1.1531532E0,1.1242906E0,1.6528122E0,8.5361786E-2,1.3005862E0,1.7838646E0,2.2476382E0,2.4765673E0,1.7377036E0,3.0159652E0,1.7362766E0,1.5673493E0,2.8292382E0,3.676677E0,1.972401E0],"categories":[],"categories_nodes":[],"categories_segments":[],"categories_sizes":[],"default_left":[0,0,0,0,0,0,0,0,0,0,0,0,0,0,0,0,0,0,0,0,0,0,0,0,0,0,0,0,0,0,0,0,0,0,0,0,0,0,0,0,0,0,0,0,0,0,0,0,0,0,0,0,0,0,0,0,0,0,0,0,0,0,0,0,0,0,0,0,0,0,0,0,0,0,0,0,0,0,0,0,0,0,0,0,0,0,0,0,0,0,0,0,0,0,0,0,0,0,0,0,0,0,0,0,0],"id":4,"left_children":[1,3,5,7,9,11,13,15,17,19,21,23,25,27,29,-1,31,33,35,37,39,41,43,45,47,49,51,53,55,57,59,61,-1,-1,63,65,-1,67,69,71,73,75,77,79,81,83,85,-1,87,89,91,93,95,-1,-1,97,99,101,103,-1,-1,-1,-1,-1,-1,-1,-1,-1,-1,-1,-1,-1,-1,-1,-1,-1,-1,-1,-1,-1,-1,-1,-1,-1,-1,-1,-1,-1,-1,-1,-1,-1,-1,-1,-1,-1,-1,-1,-1,-1,-1,-1,-1,-1,-1],"loss_changes":[4.265717E6,5.300785E5,7.5791525E5,6.5289E4,6.516542E4,1.5859969E5,7.785575E4,1.357725E4,7.066E3,6.1074688E3,1.0690933E4,2.2317195E4,1.8595688E4,8.7816875E3,1.6901875E4,0E0,9.838375E3,2.58975E3,2.2700312E3,4.1710312E3,1.2921929E3,3.950832E3,2.8768062E3,1.2150469E4,2.0270039E3,6.816828E3,9.251656E3,9.0753906E2,5.4631875E3,8.80625E3,2.2354062E3,2.711625E3,0E0,0E0,5.217285E0,6.357656E2,0E0,5.142656E2,1.9636641E3,4.8771973E2,1.1067865E3,5.2259883E3,2.7130361E3,3.7009639E3,2.2443564E3,3.4337744E3,4.165965E3,0E0,8.1677344E2,1.7135074E3,6.5677656E3,2.557504E3,4.951125E3,0E0,0E0,1.7628438E3,1.9215625E2,4.4229688E2,4.794125E3,0E0,0E0,0E0,0E0,0E0,0E0,0E0,0E0,0E0,0E0,0E0,0E0,0E0,0E0,0E0,0E0,0E0,0E0,0E0,0E0,0E0,0E0,0E0,0E0,0E0,0E0,0E0,0E0,0E0,0E0,0E0,0E0,0E0,0E0,0E0,0E0,0E0,0E0,0E0,0E0,0E0,0E0,0E0,0E0,0E0,0E0],"parents":[2147483647,0,0,1,1,2,2,3,3,4,4,5,5,6,6,7,7,8,8,9,9,10,10,11,11,12,12,13,13,14,14,16,16,17,17,18,18,19,19,20,20,21,21,22,22,23,23,24,24,25,25,26,26,27,27,28,28,29,29,30,30,31,31,34,34,35,35,37,37,38,38,39,39,40,40,41,41,42,42,43,43,44,44,45,45,46,46,48,48,49,49,50,50,51,51,52,52,55,55,56,56,57,57,58,58],"right_children":[2,4,6,8,10,12,14,16,18,20,22,24,26,28,30,-1,32,34,36,38,40,42,44,46,48,50,52,54,56,58,60,62,-1,-1,64,66,-1,68,70,72,74,76,78,80,82,84,86,-1,88,90,92,94,96,-1,-1,98,100,102,104,-1,-1,-1,-1,-1,-1,-1,-1,-1,-1,-1,-1,-1,-1,-1,-1,-1,-1,-1,-1,-1,-1,-1,-1,-1,-1,-1,-1,-1,-1,-1,-1,-1,-1,-1,-1,-1,-1,-1,-1,-1,-1,-1,-1,-1,-1],"split_conditions":[1.97E2,1.63E2,2.52E2,1.44E2,1.79E2,2.22E2,2.72E2,1.23E2,1.53E2,3E0,3E0,6E0,2.34E2,-1.9E1,3.08E2,-3.2171247E0,1.6E1,7E0,2.2701082E-1,1.71E2,1.7E2,1.92E2,5.230943E-1,2.08E2,1.71E2,1.89E2,-7E0,2.33E2,2E0,-9E0,2.61E2,1.35E2,-1.1398079E-1,-1.9026597E0,1.01E1,1E0,-1.6487494E0,-2.9025013E-2,9.1116863E-1,1.55E2,1.71E2,8.5840154E-1,2.4171429E1,3.3E1,3E0,8.271893E-1,1.5420404E-1,3.0600896E-1,2.5E1,2E-2,-5.802557E-2,2.11E1,3.474028E-1,5.764882E-1,1.5533975E0,7.3E1,4.22E-1,3.15E-1,-4.9253273E-1,2.8730857E0,4.693825E0,-2.5716293E0,-2.2570465E0,-1.1825849E0,-6.554287E-1,-1.453276E0,-1.121323E0,-1.0111032E0,-1.2285419E0,-9.261038E-1,-4.6819407E-1,-3.6903918E-1,-8.973946E-1,2.6378265E-1,-4.3600398E-1,-5.797618E-1,-8.032409E-2,-8.6980134E-2,-5.024203E-1,-2.2571588E-1,1.1242744E0,7.7299136E-1,-7.1931764E-2,1.8570215E-1,6.438851E-1,5.8873373E-1,1.0500474E0,1.3049413E0,1.9614851E0,1.4974076E-1,1.1531532E0,1.1242906E0,1.6528122E0,8.5361786E-2,1.3005862E0,1.7838646E0,2.2476382E0,2.4765673E0,1.7377036E0,3.0159652E0,1.7362766E0,1.5673493E0,2.8292382E0,3.676677E0,1.972401E0],"split_indices":[8,8,8,8,8,8,8,11,8,22,22,22,8,22,8,0,22,22,26,8,8,11,25,8,11,12,22,9,22,22,12,11,0,0,1,22,0,26,25,12,8,25,18,14,0,25,25,0,22,20,25,15,25,0,0,15,5,5,26,0,0,0,0,0,0,0,0,0,0,0,0,0,0,0,0,0,0,0,0,0,0,0,0,0,0,0,0,0,0,0,0,0,0,0,0,0,0,0,0,0,0,0,0,0,0],"split_type":[0,0,0,0,0,0,0,0,0,0,0,0,0,0,0,0,0,0,0,0,0,0,0,0,0,0,0,0,0,0,0,0,0,0,0,0,0,0,0,0,0,0,0,0,0,0,0,0,0,0,0,0,0,0,0,0,0,0,0,0,0,0,0,0,0,0,0,0,0,0,0,0,0,0,0,0,0,0,0,0,0,0,0,0,0,0,0,0,0,0,0,0,0,0,0,0,0,0,0,0,0,0,0,0,0],"sum_hessian":[4.508E3,2.494E3,2.014E3,1.311E3,1.183E3,1.371E3,6.43E2,6.23E2,6.88E2,5.86E2,5.97E2,7.32E2,6.39E2,3.03E2,3.4E2,5.7E1,5.66E2,3.63E2,3.25E2,5.15E2,7.1E1,5.17E2,8E1,6.54E2,7.8E1,2.82E2,3.57E2,1.7E1,2.86E2,2.78E2,6.2E1,5.61E2,5E0,3.52E2,1.1E1,1.23E2,2.02E2,2.73E2,2.42E2,3E1,4.1E1,2.67E2,2.5E2,3.7E1,4.3E1,3.37E2,3.17E2,5E0,7.3E1,2.1E1,2.61E2,4.6E1,3.11E2,5E0,1.2E1,1.88E2,9.8E1,5.3E1,2.25E2,8E0,5.4E1,1.87E2,3.74E2,5E0,6E0,7.2E1,5.1E1,7.8E1,1.95E2,2.12E2,3E1,8E0,2.2E1,6E0,3.5E1,1.95E2,7.2E1,2.02E2,4.8E1,3.2E1,5E0,3.3E1,1E1,2.9E2,4.7E1,2.54E2,6.3E1,6.3E1,1E1,1.6E1,5E0,1.31E2,1.3E2,5E0,4.1E1,1.83E2,1.28E2,1.68E2,2E1,9.3E1,5E0,5E0,4.8E1,2.17E2,8E0],"tree_param":{"num_deleted":"0","num_feature":"28","num_nodes":"105","size_leaf_vector":"1"}},{"base_weights":[6.702447E-2,-2.6387238E1,3.2858757E1,-3.9750145E1,-1.2666591E1,1.7874865E1,5.534951E1,-4.6644012E1,-3.3789825E1,-1.951175E1,-5.8340025E0,8.366185E0,2.6371714E1,4.4712822E1,7.0031525E1,-2.9227228E0,-4.46492E1,-3.6595E1,-3.0491495E1,-2.0562405E1,-8.654996E0,-6.8274136E0,1.09056015E1,6.274662E0,1.9797125E1,2.03261E1,3.0723595E1,4.1088303E1,5.2146378E1,5.0274124E1,7.38031E1,-4.50763E1,-3.9662197E-1,-3.6840107E1,-7.927295E-1,-3.0969215E1,-7.840356E-1,-2.2694933E1,-1.6221468E1,-1.060789E0,-3.9605494E0,-1.17882595E1,-5.085443E0,-5.2185783E0,2.190832E1,3.7380683E0,1.0513813E1,1.7604788E1,1.9753695E0,1.8483397E1,3.299691E1,2.7266699E1,3.793531E1,3.8323147E1,5.024465E1,4.7940258E1,3.0305755E0,1.6188258E0,5.5892876E1,6.960108E1,4.5049276E0,-2.2709634E0,-1.4402963E0,-1.8710989E0,-1.4613785E0,-9.7371143E-1,-1.5644635E0,-1.0287911E0,-1.2551891E0,-8.951707E-1,-4.1772905E-1,-3.7649617E-1,9.3470067E-1,-6.589287E-1,1.375572E-1,-6.902583E-1,-2.1428525E-1,-5.163796E-1,2.0747697E-1,1.0617757E-1,1.3976045E0,1.3381746E-1,5.351275E-1,1.7125103E0,4.822156E-1,4.6802646E-1,1.0890874E0,-1.7911166E-1,9.486356E-1,1.9435183E0,1.216036E0,3.3307916E-1,1.4043411E0,1.0704052E0,1.9809647E0,9.344179E-1,1.9531491E0,1.1635159E0,2.5967033E0,2.5174534E0,1.8579444E0,2.9257078E0,1.5198083E0,2.723016E0,3.5947666E0],"categories":[],"categories_nodes":[],"categories_segments":[],"categories_sizes":[],"default_left":[0,0,0,0,0,0,0,0,0,0,0,0,0,0,0,0,0,0,0,0,0,0,0,0,0,0,0,0,0,0,0,0,0,0,0,0,0,0,0,0,0,0,0,0,0,0,0,0,0,0,0,0,0,0,0,0,0,0,0,0,0,0,0,0,0,0,0,0,0,0,0,0,0,0,0,0,0,0,0,0,0,0,0,0,0,0,0,0,0,0,0,0,0,0,0,0,0,0,0,0,0,0,0,0,0],"id":5,"left_children":[1,3,5,7,9,11,13,15,17,19,21,23,25,27,29,-1,31,33,35,37,39,41,43,45,47,49,51,53,55,57,59,61,-1,63,-1,65,-1,67,69,-1,71,73,75,77,79,81,83,85,-1,87,89,91,93,95,97,99,-1,-1,101,103,-1,-1,-1,-1,-1,-1,-1,-1,-1,-1,-1,-1,-1,-1,-1,-1,-1,-1,-1,-1,-1,-1,-1,-1,-1,-1,-1,-1,-1,-1,-1,-1,-1,-1,-1,-1,-1,-1,-1,-1,-1,-1,-1,-1,-1],"loss_changes":[3.9088702E6,4.5676038E5,6.7704525E5,5.031225E4,5.7504453E4,9.745559E4,1.22416E5,1.1115E4,5.1783125E3,6.8342188E3,1.0350961E4,1.3548598E4,1.6156031E4,1.04844375E4,2.131475E4,0E0,7.5250625E3,1.256E3,1.7667812E3,4.812E3,3.2155483E3,4.985088E3,6.325342E3,5.1744805E3,3.1013828E3,5.6890547E3,8.1583438E3,6.1675625E3,2.4242188E3,3.9135938E3,1.2885625E4,1.4575625E3,0E0,4.8534375E2,0E0,5.1871875E2,0E0,1.3829219E3,2.3353477E3,0E0,3.5358774E3,3.089664E3,2.9655225E3,7.6140027E2,2.4487012E3,2.225287E3,3.400918E3,2.5823066E3,0E0,2.6392031E3,7.2997656E2,4.0847969E3,2.4020156E3,2.8958438E3,2.0195E3,8.472031E2,0E0,0E0,1.0195156E3,3.957125E3,0E0,0E0,0E0,0E0,0E0,0E0,0E0,0E0,0E0,0E0,0E0,0E0,0E0,0E0,0E0,0E0,0E0,0E0,0E0,0E0,0E0,0E0,0E0,0E0,0E0,0E0,0E0,0E0,0E0,0E0,0E0,0E0,0E0,0E0,0E0,0E0,0E0,0E0,0E0,0E0,0E0,0E0,0E0,0E0,0E0],"parents":[2147483647,0,0,1,1,2,2,3,3,4,4,5,5,6,6,7,7,8,8,9,9,10,10,11,11,12,12,13,13,14,14,16,16,17,17,18,18,19,19,20,20,21,21,22,22,23,23,24,24,25,25,26,26,27,27,28,28,29,29,30,30,31,31,33,33,35,35,37,37,38,38,40,40,41,41,42,42,43,43,44,44,45,45,46,46,47,47,49,49,50,50,51,51,52,52,53,53,54,54,55,55,58,58,59,59],"right_children":[2,4,6,8,10,12,14,16,18,20,22,24,26,28,30,-1,32,34,36,38,40,42,44,46,48,50,52,54,56,58,60,62,-1,64,-1,66,-1,68,70,-1,72,74,76,78,80,82,84,86,-1,88,90,92,94,96,98,100,-1,-1,102,104,-1,-1,-1,-1,-1,-1,-1,-1,-1,-1,-1,-1,-1,-1,-1,-1,-1,-1,-1,-1,-1,-1,-1,-1,-1,-1,-1,-1,-1,-1,-1,-1,-1,-1,-1,-1,-1,-1,-1,-1,-1,-1,-1,-1,-1],"split_conditions":[1.97E2,1.61E2,2.43E2,1.43E2,1.78E2,2.15E2,2.72E2,1.29E2,1.52E2,4E0,7E0,3E0,2.26E2,2E0,2.4E2,-2.9227228E0,1.52E2,4.2E0,7E0,1.72E2,3.56E-1,1.83E2,-4.5370308E-1,2.07E2,2.6E1,8E0,2E0,2.65E2,2.62E2,2.28E2,3.08E2,5.44E1,-3.9662197E-1,9.888537E-1,-7.927295E-1,-9.8787266E-1,-7.840356E-1,9E0,8.073707E-1,-1.060789E0,1.74E2,3.8E0,-1E-1,1.17E1,1.54E2,8.271893E-1,2.39E-1,-1.9443122E-1,1.9753695E0,-9.987235E-1,9.333333E0,1.84E2,-8.3318293E-1,-2E1,2.37E2,1.38E1,3.0305755E0,1.6188258E0,4.08E-1,-9E0,4.5049276E0,-2.2709634E0,-1.4402963E0,-1.8710989E0,-1.4613785E0,-9.7371143E-1,-1.5644635E0,-1.0287911E0,-1.2551891E0,-8.951707E-1,-4.1772905E-1,-3.7649617E-1,9.3470067E-1,-6.589287E-1,1.375572E-1,-6.902583E-1,-2.1428525E-1,-5.163796E-1,2.0747697E-1,1.0617757E-1,1.3976045E0,1.3381746E-1,5.351275E-1,1.7125103E0,4.822156E-1,4.6802646E-1,1.0890874E0,-1.7911166E-1,9.486356E-1,1.9435183E0,1.216036E0,3.3307916E-1,1.4043411E0,1.0704052E0,1.9809647E0,9.344179E-1,1.9531491E0,1.1635159E0,2.5967033E0,2.5174534E0,1.8579444E0,2.9257078E0,1.5198083E0,2.723016E0,3.5947666E0],"split_indices":[8,8,8,8,9,8,8,11,8,22,22,22,8,22,12,0,11,7,22,8,5,8,25,8,22,22,22,8,9,11,8,15,0,25,0,25,0,27,25,0,12,7,20,13,12,25,5,25,0,25,17,12,25,22,10,17,0,0,5,22,0,0,0,0,0,0,0,0,0,0,0,0,0,0,0,0,0,0,0,0,0,0,0,0,0,0,0,0,0,0,0,0,0,0,0,0,0,0,0,0,0,0,0,0,0],"split_type":[0,0,0,0,0,0,0,0,0,0,0,0,0,0,0,0,0,0,0,0,0,0,0,0,0,0,0,0,0,0,0,0,0,0,0,0,0,0,0,0,0,0,0,0,0,0,0,0,0,0,0,0,0,0,0,0,0,0,0,0,0,0,0,0,0,0,0,0,0,0,0,0,0,0,0,0,0,0,0,0,0,0,0,0,0,0,0,0,0,0,0,0,0,0,0,0,0,0,0,0,0,0,0,0,0],"sum_hessian":[4.504E3,2.493E3,2.011E3,1.262E3,1.231E3,1.208E3,8.03E2,5.82E2,6.8E2,6.14E2,6.17E2,5.71E2,6.37E2,4.68E2,3.35E2,8E1,5.02E2,3.62E2,3.18E2,5.59E2,5.5E1,5.83E2,3.4E1,4.84E2,8.7E1,2.69E2,3.68E2,3.19E2,1.49E2,5.6E1,2.79E2,4.96E2,6E0,3.57E2,5E0,3.07E2,1.1E1,3.72E2,1.87E2,1.4E1,4.1E1,1.5E2,4.33E2,1.4E1,2E1,3.04E2,1.8E2,8E1,7E0,2.37E2,3.2E1,2.52E2,1.16E2,2.49E2,7E1,1.04E2,4.5E1,1.5E1,4.1E1,2.26E2,5.3E1,4.84E2,1.2E1,3.28E2,2.9E1,1E1,2.97E2,2.03E2,1.69E2,1.53E2,3.4E1,3.6E1,5E0,1.37E2,1.3E1,3.5E1,3.98E2,9E0,5E0,5E0,1.5E1,2.65E2,3.9E1,5E0,1.75E2,2.8E1,5.2E1,5E0,2.32E2,1.7E1,1.5E1,1E1,2.42E2,1.2E1,1.04E2,1E1,2.39E2,5E0,6.5E1,8.2E1,2.2E1,3.6E1,5E0,3.3E1,1.93E2],"tree_param":{"num_deleted":"0","num_feature":"28","num_nodes":"105","size_leaf_vector":"1"}},{"base_weights":[-1.281548E-2,-2.2587234E1,3.331841E1,-3.6862595E1,-8.901823E0,2.150444E1,5.5995335E1,-4.3467438E1,-3.0440268E1,-1.6441647E1,-2.0243027E0,1.3094911E1,3.1117533E1,5.118467E1,7.5172516E1,-2.9033794E0,-4.1945427E1,-3.0744339E1,4.0574715E-1,-1.7757177E1,-3.4249175E0,-3.098983E0,1.2971754E1,1.001841E1,2.1159054E1,1.7697527E1,3.292356E1,4.4026783E1,5.6293335E1,1.585311E0,7.67582E1,-4.5019943E1,-3.9415955E1,-3.291201E1,-2.6279238E1,-1.9999704E1,-1.3339146E1,-1.1039091E1,3.8172743E0,-6.396779E0,8.943909E-1,1.7522234E0,8.34606E0,5.6555204E0,1.4013454E1,1.5971723E1,3.1615782E1,-1.6551964E-1,1.9418955E1,2.8205647E1,3.7923756E1,3.3352306E1,4.74633E1,3.2788292E1,5.7743904E1,3.204582E0,8.138184E1,-2.266044E0,-1.3891845E0,-1.9974022E0,-1.2291671E0,-1.6711556E0,-1.1533202E0,-1.4000317E0,-1.1202172E0,-1.009785E0,-2.0366395E-1,-7.074824E-1,-2.2978118E-2,-7.825316E-1,-3.0097893E-1,-1.3654344E-1,1.3803954E0,-5.779204E-1,-2.2721663E-1,-2.5526091E-2,3.3574432E-1,2.2432463E-1,1.0779678E0,3.3187774E-1,-1.0183611E-1,6.518009E-1,1.237133E0,5.261153E-1,1.190551E0,1.6843045E0,9.943331E-1,-4.7513124E-2,1.0596515E0,1.1641668E0,1.7397772E0,1.5991496E0,2.028914E0,7.699184E-1,1.8039273E0,2.1117096E0,2.65606E0,1.1067448E0,2.0076432E0,1.1924815E0,2.9213047E0,4.507831E0,3.4423203E0],"categories":[],"categories_nodes":[],"categories_segments":[],"categories_sizes":[],"default_left":[0,0,0,0,0,0,0,0,0,0,0,0,0,0,0,0,0,0,0,0,0,0,0,0,0,0,0,0,0,0,0,0,0,0,0,0,0,0,0,0,0,0,0,0,0,0,0,0,0,0,0,0,0,0,0,0,0,0,0,0,0,0,0,0,0,0,0,0,0,0,0,0,0,0,0,0,0,0,0,0,0,0,0,0,0,0,0,0,0,0,0,0,0,0,0,0,0,0,0,0,0,0,0],"id":6,"left_children":[1,3,5,7,9,11,13,15,17,19,21,23,25,27,29,-1,31,33,-1,35,37,39,41,43,45,47,49,51,53,-1,55,57,59,61,63,65,67,69,71,73,75,-1,77,79,81,83,85,-1,87,89,91,93,95,97,99,-1,101,-1,-1,-1,-1,-1,-1,-1,-1,-1,-1,-1,-1,-1,-1,-1,-1,-1,-1,-1,-1,-1,-1,-1,-1,-1,-1,-1,-1,-1,-1,-1,-1,-1,-1,-1,-1,-1,-1,-1,-1,-1,-1,-1,-1,-1,-1],"loss_changes":[3.3708988E6,5.2148525E5,4.8342762E5,5.4110375E4,7.074732E4,9.5870375E4,5.32455E4,1.18205E4,8.0596875E3,1.1084734E4,1.1562129E4,1.5588461E4,1.286375E4,1.5722E4,5.9641875E3,0E0,2.7664375E3,5.526875E3,0E0,5.58525E3,3.406603E3,8.803386E3,4.604056E3,7.9888477E3,8.982727E3,2.5250215E3,1.0435875E4,6.1856875E3,7.8830625E3,0E0,1.6216875E3,6.65625E1,1.6080625E3,1.4425312E3,8.4175E2,1.1327031E3,2.1006992E3,5.980532E2,5.062985E3,3.4454248E3,2.4817664E3,0E0,1.9915708E3,1.6985317E3,2.2010703E3,4.8296523E3,7.088594E2,0E0,2.2987637E3,7.4556094E3,2.3850938E3,2.131371E3,2.4215E3,5.956875E2,4.81825E3,0E0,2.7968125E3,0E0,0E0,0E0,0E0,0E0,0E0,0E0,0E0,0E0,0E0,0E0,0E0,0E0,0E0,0E0,0E0,0E0,0E0,0E0,0E0,0E0,0E0,0E0,0E0,0E0,0E0,0E0,0E0,0E0,0E0,0E0,0E0,0E0,0E0,0E0,0E0,0E0,0E0,0E0,0E0,0E0,0E0,0E0,0E0,0E0,0E0],"parents":[2147483647,0,0,1,1,2,2,3,3,4,4,5,5,6,6,7,7,8,8,9,9,10,10,11,11,12,12,13,13,14,14,16,16,17,17,19,19,20,20,21,21,22,22,23,23,24,24,25,25,26,26,27,27,28,28,30,30,31,31,32,32,33,33,34,34,35,35,36,36,37,37,38,38,39,39,40,40,42,42,43,43,44,44,45,45,46,46,48,48,49,49,50,50,51,51,52,52,53,53,54,54,56,56],"right_children":[2,4,6,8,10,12,14,16,18,20,22,24,26,28,30,-1,32,34,-1,36,38,40,42,44,46,48,50,52,54,-1,56,58,60,62,64,66,68,70,72,74,76,-1,78,80,82,84,86,-1,88,90,92,94,96,98,100,-1,102,-1,-1,-1,-1,-1,-1,-1,-1,-1,-1,-1,-1,-1,-1,-1,-1,-1,-1,-1,-1,-1,-1,-1,-1,-1,-1,-1,-1,-1,-1,-1,-1,-1,-1,-1,-1,-1,-1,-1,-1,-1,-1,-1,-1,-1,-1],"split_conditions":[2.02E2,1.63E2,2.52E2,1.45E2,1.82E2,2.25E2,2.94E2,1.24E2,1.72E2,4E0,7E0,1.8175979E-1,-7E0,2.66E2,2.69E2,-2.9033794E0,1.37E2,1.56E2,4.0574715E-1,1.74E2,3.72E-1,1.93E2,1.1542857E1,2.12E2,3.62E0,1.72E2,2.38E2,-5E0,2.37E2,1.585311E0,-4.300593E-3,7E0,1E1,6E0,1E0,2.02E2,4.6E0,1.68E2,1.11E1,1.09E0,7.8659654E-1,1.7522234E0,2.6E1,2.5E1,9.3E0,3E0,2.0114286E1,-1.6551964E-1,2.41E1,3.5344467E-1,-3.7547037E-1,-2E1,4.266741E-1,1.9433332E1,7.7E0,3.204582E0,3.149416E-1,-2.266044E0,-1.3891845E0,-1.9974022E0,-1.2291671E0,-1.6711556E0,-1.1533202E0,-1.4000317E0,-1.1202172E0,-1.009785E0,-2.0366395E-1,-7.074824E-1,-2.2978118E-2,-7.825316E-1,-3.0097893E-1,-1.3654344E-1,1.3803954E0,-5.779204E-1,-2.2721663E-1,-2.5526091E-2,3.3574432E-1,2.2432463E-1,1.0779678E0,3.3187774E-1,-1.0183611E-1,6.518009E-1,1.237133E0,5.261153E-1,1.190551E0,1.6843045E0,9.943331E-1,-4.7513124E-2,1.0596515E0,1.1641668E0,1.7397772E0,1.5991496E0,2.028914E0,7.699184E-1,1.8039273E0,2.1117096E0,2.65606E0,1.1067448E0,2.0076432E0,1.1924815E0,2.9213047E0,4.507831E0,3.4423203E0],"split_indices":[8,8,8,9,8,8,8,10,10,22,22,25,22,8,9,0,8,8,0,8,5,8,18,8,6,12,8,22,10,0,25,22,24,22,22,12,7,10,17,6,25,0,22,18,0,22,18,0,15,25,25,22,25,16,1,0,25,0,0,0,0,0,0,0,0,0,0,0,0,0,0,0,0,0,0,0,0,0,0,0,0,0,0,0,0,0,0,0,0,0,0,0,0,0,0,0,0,0,0,0,0,0,0],"split_type":[0,0,0,0,0,0,0,0,0,0,0,0,0,0,0,0,0,0,0,0,0,0,0,0,0,0,0,0,0,0,0,0,0,0,0,0,0,0,0,0,0,0,0,0,0,0,0,0,0,0,0,0,0,0,0,0,0,0,0,0,0,0,0,0,0,0,0,0,0,0,0,0,0,0,0,0,0,0,0,0,0,0,0,0,0,0,0,0,0,0,0,0,0,0,0,0,0,0,0,0,0,0,0],"sum_hessian":[4.478E3,2.67E3,1.808E3,1.306E3,1.364E3,1.19E3,6.18E2,6.41E2,6.65E2,6.5E2,7.14E2,6.36E2,5.54E2,4.97E2,1.21E2,5.7E1,5.84E2,6.6E2,5E0,5.9E2,6E1,6.67E2,4.7E1,4.62E2,1.74E2,6.7E1,4.87E2,2.11E2,2.86E2,5E0,1.16E2,2.56E2,3.28E2,4.4E2,2.2E2,3.89E2,2.01E2,2.9E1,3.1E1,3.65E2,3.02E2,7E0,4E1,2.22E2,2.4E2,1.18E2,5.6E1,5E0,6.2E1,2.54E2,2.33E2,5.4E1,1.57E2,1.8E1,2.68E2,3.5E1,8.1E1,2.5E2,6E0,3.15E2,1.3E1,4.16E2,2.4E1,1.48E2,7.2E1,3.84E2,5E0,1.89E2,1.2E1,1.4E1,1.5E1,2.5E1,6E0,9.5E1,2.7E2,2.44E2,5.8E1,3.2E1,8E0,1.97E2,2.5E1,2.22E2,1.8E1,7.1E1,4.7E1,4.6E1,1E1,5E0,5.7E1,1.48E2,1.06E2,7.6E1,1.57E2,8E0,4.6E1,8.6E1,7.1E1,9E0,9E0,6E0,2.62E2,4.4E1,3.7E1],"tree_param":{"num_deleted":"0","num_feature":"28","num_nodes":"103","size_leaf_vector":"1"}},{"base_weights":[1.6707012E-1,-2.3362804E1,2.9929527E1,-3.5554764E1,-1.0694421E1,1.5269166E1,4.7982254E1,-4.250741E1,-3.0488739E1,-1.6794075E1,-4.626094E0,7.7421527E0,2.1989178E1,3.712865E1,5.952217E1,-5.464673E1,-4.1033104E1,-3.341166E1,-2.718856E1,-1.8029207E1,-1.2451264E0,-6.280066E0,8.459775E0,4.6019025E0,2.0780432E1,1.8866846E1,3.4264847E1,3.1655746E1,4.228417E1,5.2781677E1,6.805138E1,-2.822706E0,-1.5079737E0,-4.1671444E1,-2.9008663E1,-3.4273426E1,-2.5926012E1,-2.2219574E1,-2.9174358E1,-2.054689E1,-1.4781781E1,-5.2162213E0,1.3371695E0,-9.08154E0,-3.6497974E0,1.7168783E1,-2.6877282E0,-1.4380685E0,6.046134E0,-2.089979E0,2.329015E1,1.5459126E1,2.4490244E1,3.6103737E1,9.612117E-1,1.1401919E-1,3.2295113E1,3.500212E1,4.730665E1,3.0895475E1,5.4359745E1,6.1906067E1,4.043112E0,-2.212386E0,-1.9849663E0,-7.9153454E-1,-1.674166E0,-1.8098496E0,-1.6060234E0,-1.362509E0,-6.3802856E-1,-1.1707343E0,-3.2966948E-1,-1.4734141E0,-8.9439005E-1,-1.0801662E0,-8.3494264E-1,-8.1572694E-1,-3.171897E-1,2.9021308E-2,-6.1345136E-1,-1.4142385E0,-4.1934213E-1,-2.6760915E-1,-2.763609E-2,4.0989923E-1,1.2065674E0,-4.1951862E-1,7.728251E-1,3.443738E-1,-1.2725301E-1,2.8004012E-1,1.2018726E0,-3.7546632E-1,1.8305162E-1,9.1963834E-1,1.5197307E0,6.0533684E-1,9.409877E-1,1.8762859E0,1.0609471E0,1.1943544E0,1.9544424E0,1.272703E0,1.7934303E0,1.081374E0,1.803717E0,2.5493667E0,1.7272761E0,2.028591E0,1.0930811E0,2.2494442E0,2.9047887E0,1.845038E0,3.1505182E0],"categories":[],"categories_nodes":[],"categories_segments":[],"categories_sizes":[],"default_left":[0,0,0,0,0,0,0,0,0,0,0,0,0,0,0,0,0,0,0,0,0,0,0,0,0,0,0,0,0,0,0,0,0,0,0,0,0,0,0,0,0,0,0,0,0,0,0,0,0,0,0,0,0,0,0,0,0,0,0,0,0,0,0,0,0,0,0,0,0,0,0,0,0,0,0,0,0,0,0,0,0,0,0,0,0,0,0,0,0,0,0,0,0,0,0,0,0,0,0,0,0,0,0,0,0,0,0,0,0,0,0,0,0,0,0],"id":7,"left_children":[1,3,5,7,9,11,13,15,17,19,21,23,25,27,29,31,33,35,37,39,41,43,45,47,49,51,53,55,57,59,61,-1,-1,63,65,67,69,71,73,75,77,79,-1,81,83,85,87,89,91,93,95,97,99,101,-1,-1,103,105,107,109,111,113,-1,-1,-1,-1,-1,-1,-1,-1,-1,-1,-1,-1,-1,-1,-1,-1,-1,-1,-1,-1,-1,-1,-1,-1,-1,-1,-1,-1,-1,-1,-1,-1,-1,-1,-1,-1,-1,-1,-1,-1,-1,-1,-1,-1,-1,-1,-1,-1,-1,-1,-1,-1,-1],"loss_changes":[3.1976008E6,3.9346862E5,5.328144E5,4.44505E4,4.6262547E4,5.617472E4,1.10880875E5,7.502E3,6.368375E3,1.1959547E4,1.3666779E4,2.1479035E4,2.18855E4,1.18590625E4,2.1462125E4,7.6715625E2,2.545125E3,1.6599688E3,2.898875E3,4.4184688E3,5.361164E3,4.0846445E3,6.9405356E3,3.7252031E3,5.905418E3,8.643156E3,2.5640469E3,4.2614375E3,7.0405312E3,6.877375E3,9.85925E3,0E0,0E0,5.87375E2,1.1160762E3,2.8828125E2,4.3276562E2,1.8408516E3,3.1075E2,9.484844E2,3.2051875E3,1.7253605E3,0E0,3.3610254E3,1.5254517E3,2.2973281E3,3.440022E3,7.820484E2,2.6185693E3,3.7071075E2,2.6370664E3,3.103836E3,6.7030312E3,2.8526562E3,0E0,0E0,4.6057812E3,6.624219E2,4.7119062E3,7.676699E2,5.4283125E3,1.3098438E3,0E0,0E0,0E0,0E0,0E0,0E0,0E0,0E0,0E0,0E0,0E0,0E0,0E0,0E0,0E0,0E0,0E0,0E0,0E0,0E0,0E0,0E0,0E0,0E0,0E0,0E0,0E0,0E0,0E0,0E0,0E0,0E0,0E0,0E0,0E0,0E0,0E0,0E0,0E0,0E0,0E0,0E0,0E0,0E0,0E0,0E0,0E0,0E0,0E0,0E0,0E0,0E0,0E0],"parents":[2147483647,0,0,1,1,2,2,3,3,4,4,5,5,6,6,7,7,8,8,9,9,10,10,11,11,12,12,13,13,14,14,15,15,16,16,17,17,18,18,19,19,20,20,21,21,22,22,23,23,24,24,25,25,26,26,27,27,28,28,29,29,30,30,33,33,34,34,35,35,36,36,37,37,38,38,39,39,40,40,41,41,43,43,44,44,45,45,46,46,47,47,48,48,49,49,50,50,51,51,52,52,53,53,56,56,57,57,58,58,59,59,60,60,61,61],"right_children":[2,4,6,8,10,12,14,16,18,20,22,24,26,28,30,32,34,36,38,40,42,44,46,48,50,52,54,56,58,60,62,-1,-1,64,66,68,70,72,74,76,78,80,-1,82,84,86,88,90,92,94,96,98,100,102,-1,-1,104,106,108,110,112,114,-1,-1,-1,-1,-1,-1,-1,-1,-1,-1,-1,-1,-1,-1,-1,-1,-1,-1,-1,-1,-1,-1,-1,-1,-1,-1,-1,-1,-1,-1,-1,-1,-1,-1,-1,-1,-1,-1,-1,-1,-1,-1,-1,-1,-1,-1,-1,-1,-1,-1,-1,-1,-1],"split_conditions":[1.97E2,1.62E2,2.39E2,1.42E2,1.79E2,2.14E2,2.66E2,1.24E2,1.52E2,1.1E1,8E0,5E0,4E0,-3E0,2.83E2,8.75539E-1,8E0,5E0,1.9337648E-1,1.71E2,3.6E1,1.9E2,1.08E1,-6.474428E-1,1.71E2,-2.3651127E-2,2.2042856E1,-5.2E1,2.8829065E-1,2.23E2,2E0,-2.822706E0,-1.5079737E0,1.35E2,9.1260724E-2,1.47E2,3.34E0,1.73E2,1.5057143E1,8.4024805E-1,8.88701E-1,6.6E0,1.3371695E0,-1.4E-1,0E0,1.88E2,3.59E1,2.2342857E1,7E0,1.91E2,2.3E1,2.23E2,2.9E0,2.06E2,9.612117E-1,1.1401919E-1,2.46E2,2.36E2,3.4E-2,9.1E0,0E0,-8.776087E-1,4.043112E0,-2.212386E0,-1.9849663E0,-7.9153454E-1,-1.674166E0,-1.8098496E0,-1.6060234E0,-1.362509E0,-6.3802856E-1,-1.1707343E0,-3.2966948E-1,-1.4734141E0,-8.9439005E-1,-1.0801662E0,-8.3494264E-1,-8.1572694E-1,-3.171897E-1,2.9021308E-2,-6.1345136E-1,-1.4142385E0,-4.1934213E-1,-2.6760915E-1,-2.763609E-2,4.0989923E-1,1.2065674E0,-4.1951862E-1,7.728251E-1,3.443738E-1,-1.2725301E-1,2.8004012E-1,1.2018726E0,-3.7546632E-1,1.8305162E-1,9.1963834E-1,1.5197307E0,6.0533684E-1,9.409877E-1,1.8762859E0,1.0609471E0,1.1943544E0,1.9544424E0,1.272703E0,1.7934303E0,1.081374E0,1.803717E0,2.5493667E0,1.7272761E0,2.028591E0,1.0930811E0,2.2494442E0,2.9047887E0,1.845038E0,3.1505182E0],"split_indices":[9,9,9,10,9,9,9,9,10,23,23,23,22,23,11,25,23,23,26,9,23,10,13,26,11,25,18,24,25,11,24,0,0,9,26,9,6,11,18,25,25,13,0,20,23,9,14,18,22,10,24,9,13,11,0,0,11,10,21,13,24,25,0,0,0,0,0,0,0,0,0,0,0,0,0,0,0,0,0,0,0,0,0,0,0,0,0,0,0,0,0,0,0,0,0,0,0,0,0,0,0,0,0,0,0,0,0,0,0,0,0,0,0,0,0],"split_type":[0,0,0,0,0,0,0,0,0,0,0,0,0,0,0,0,0,0,0,0,0,0,0,0,0,0,0,0,0,0,0,0,0,0,0,0,0,0,0,0,0,0,0,0,0,0,0,0,0,0,0,0,0,0,0,0,0,0,0,0,0,0,0,0,0,0,0,0,0,0,0,0,0,0,0,0,0,0,0,0,0,0,0,0,0,0,0,0,0,0,0,0,0,0,0,0,0,0,0,0,0,0,0,0,0,0,0,0,0,0,0,0,0,0,0],"sum_hessian":[4.564E3,2.549E3,2.015E3,1.298E3,1.251E3,1.113E3,9.02E2,5.44E2,7.54E2,6.23E2,6.28E2,5.26E2,5.87E2,4.67E2,4.35E2,5.5E1,4.89E2,3.95E2,3.59E2,5.77E2,4.6E1,5.58E2,7E1,4.25E2,1.01E2,4.7E2,1.17E2,2.3E2,2.37E2,2.47E2,1.88E2,5E1,5E0,4.62E2,2.7E1,3.51E2,4.4E1,1.06E2,2.53E2,3.22E2,2.55E2,4.1E1,5E0,2.69E2,2.89E2,3.9E1,3.1E1,8.2E1,3.43E2,1E1,9.1E1,2.95E2,1.75E2,1.03E2,1.4E1,5E0,2.25E2,1E2,1.37E2,1.8E1,2.29E2,1.31E2,5.7E1,1.91E2,2.71E2,8E0,1.9E1,1.77E2,1.74E2,3.9E1,5E0,9.8E1,8E0,2.45E2,8E0,2.49E2,7.3E1,2.15E2,4E1,2.3E1,1.8E1,8E0,2.61E2,1.86E2,1.03E2,1.8E1,2.1E1,2.4E1,7E0,9E0,7.3E1,3.36E2,7E0,5E0,5E0,5.6E1,3.5E1,1.5E2,1.45E2,3.3E1,1.42E2,2.2E1,8.1E1,8E1,1.45E2,9E0,9.1E1,1.04E2,3.3E1,7E0,1.1E1,6.9E1,1.6E2,7E0,1.24E2],"tree_param":{"num_deleted":"0","num_feature":"28","num_nodes":"115","size_leaf_vector":"1"}},{"base_weights":[4.4028677E-2,-1.9422468E1,3.263832E1,-3.24907E1,-5.811359E0,2.2716007E1,5.292614E1,-3.886649E1,-2.6423702E1,-1.3450534E1,-2.672603E-1,1.616406E1,3.3051632E1,4.8492115E1,6.9211296E1,-4.66341E1,-3.6699203E1,-2.899289E1,-2.2281569E1,-1.4714347E1,-8.1891274E-1,-1.5214949E0,1.501247E1,1.1959185E1,2.2875042E1,2.1048962E1,3.500647E1,4.538848E1,5.8269886E1,1.275437E0,3.5474584E0,-4.7429646E1,-9.87601E-1,-3.6968143E1,-3.0238244E-1,-2.935103E1,-1.868175E1,-2.3423386E1,-1.7241516E1,-1.7013105E1,-1.1765632E1,-5.331268E0,5.982298E0,-4.2209854E0,2.5008955E0,1.1199444E1,2.9640707E1,8.604622E0,1.7795374E1,1.8766241E1,2.8842722E1,2.3039858E-1,2.3313604E1,3.243041E1,4.2716877E1,2.8902182E1,4.708271E1,2.2829254E0,6.1563663E1,-2.6707447E0,-2.1506364E0,-1.9207436E0,-1.7079554E0,-1.4770808E0,-6.704577E-1,-1.2993983E0,-5.113989E-1,-1.1811116E0,-6.821529E-1,-4.7019026E-1,-9.5601887E-1,-8.6425555E-1,-5.069992E-2,-6.2781686E-1,-1.3163637E-1,-4.523428E-1,2.7855313E-1,-1.0670879E-1,1.1846955E0,-6.431574E-1,-1.7143057E-1,7.1210705E-2,5.5667067E-1,4.2330867E-1,1.4907867E0,5.99341E-1,2.2640064E0,1.01513945E-1,4.8410168E-1,-8.2699E-2,9.225504E-1,6.998021E-1,1.270943E0,1.7085361E0,8.6913806E-1,9.563776E-1,1.424185E0,1.1442144E0,1.7012528E0,2.6757145E0,1.8263876E0,9.736226E-1,1.6903807E0,2.1212122E0,2.5981739E0,1.8222952E0,3.1391716E0],"categories":[],"categories_nodes":[],"categories_segments":[],"categories_sizes":[],"default_left":[0,0,0,0,0,0,0,0,0,0,0,0,0,0,0,0,0,0,0,0,0,0,0,0,0,0,0,0,0,0,0,0,0,0,0,0,0,0,0,0,0,0,0,0,0,0,0,0,0,0,0,0,0,0,0,0,0,0,0,0,0,0,0,0,0,0,0,0,0,0,0,0,0,0,0,0,0,0,0,0,0,0,0,0,0,0,0,0,0,0,0,0,0,0,0,0,0,0,0,0,0,0,0,0,0,0,0],"id":8,"left_children":[1,3,5,7,9,11,13,15,17,19,21,23,25,27,29,31,33,35,37,39,41,43,45,47,49,51,53,55,57,-1,-1,59,-1,61,-1,63,65,67,69,71,73,75,77,79,81,83,85,87,89,91,93,-1,95,97,99,101,103,-1,105,-1,-1,-1,-1,-1,-1,-1,-1,-1,-1,-1,-1,-1,-1,-1,-1,-1,-1,-1,-1,-1,-1,-1,-1,-1,-1,-1,-1,-1,-1,-1,-1,-1,-1,-1,-1,-1,-1,-1,-1,-1,-1,-1,-1,-1,-1,-1,-1],"loss_changes":[2.8609462E6,5.0194325E5,3.381855E5,5.466825E4,5.8610676E4,7.625356E4,3.6563625E4,1.00645E4,7.2345E3,9.277445E3,1.5410478E4,1.9363266E4,9.557906E3,1.06366875E4,6.9906875E3,2.2429375E3,4.3225E3,1.1234062E3,1.2494688E3,3.3827188E3,1.68906E3,8.078523E3,3.0664053E3,8.262711E3,6.0008125E3,2.2726914E3,6.0754375E3,8.0445E3,1.4153438E3,0E0,0E0,1.4996562E3,0E0,9.035E2,0E0,9.273125E2,8.423457E2,1.251875E2,6.567246E2,1.2644375E3,1.6624609E3,1.3875309E3,3.215351E3,3.0015503E3,2.761935E3,2.287914E3,2.764667E3,1.9270703E3,2.0214609E3,4.7495156E3,5.9341406E3,0E0,6.6238477E2,3.569375E3,4.117453E3,9.0908984E2,4.6980625E3,0E0,9.159375E1,0E0,0E0,0E0,0E0,0E0,0E0,0E0,0E0,0E0,0E0,0E0,0E0,0E0,0E0,0E0,0E0,0E0,0E0,0E0,0E0,0E0,0E0,0E0,0E0,0E0,0E0,0E0,0E0,0E0,0E0,0E0,0E0,0E0,0E0,0E0,0E0,0E0,0E0,0E0,0E0,0E0,0E0,0E0,0E0,0E0,0E0,0E0,0E0],"parents":[2147483647,0,0,1,1,2,2,3,3,4,4,5,5,6,6,7,7,8,8,9,9,10,10,11,11,12,12,13,13,14,14,15,15,16,16,17,17,18,18,19,19,20,20,21,21,22,22,23,23,24,24,25,25,26,26,27,27,28,28,31,31,33,33,35,35,36,36,37,37,38,38,39,39,40,40,41,41,42,42,43,43,44,44,45,45,46,46,47,47,48,48,49,49,50,50,52,52,53,53,54,54,55,55,56,56,58,58],"right_children":[2,4,6,8,10,12,14,16,18,20,22,24,26,28,30,32,34,36,38,40,42,44,46,48,50,52,54,56,58,-1,-1,60,-1,62,-1,64,66,68,70,72,74,76,78,80,82,84,86,88,90,92,94,-1,96,98,100,102,104,-1,106,-1,-1,-1,-1,-1,-1,-1,-1,-1,-1,-1,-1,-1,-1,-1,-1,-1,-1,-1,-1,-1,-1,-1,-1,-1,-1,-1,-1,-1,-1,-1,-1,-1,-1,-1,-1,-1,-1,-1,-1,-1,-1,-1,-1,-1,-1,-1,-1],"split_conditions":[2.06E2,1.66E2,2.57E2,1.46E2,1.83E2,2.34E2,2.94E2,1.32E2,1.57E2,4E0,6E0,-5.802557E-2,-7E0,4E0,2.68E2,5E0,1.71E2,6E0,2E0,1.74E2,1.8E1,1.97E2,2E-2,2.2E2,3.62E0,-2.9E1,9E0,2.44E2,2.58E2,1.275437E0,3.5474584E0,1.24E2,-9.87601E-1,1.41E2,-3.0238244E-1,8E-2,1.42E2,4.16E-1,-1.4E-2,1.17E-1,4.6E0,1.1E1,3.75E-1,-1.9E0,8.271893E-1,3.4E1,3.2E0,-3E0,2.06E2,2.11E2,1.23E1,2.3039858E-1,5.9437615E-1,2.37E2,8E-1,2.82E0,2.72E2,2.2829254E0,1.69E1,-2.6707447E0,-2.1506364E0,-1.9207436E0,-1.7079554E0,-1.4770808E0,-6.704577E-1,-1.2993983E0,-5.113989E-1,-1.1811116E0,-6.821529E-1,-4.7019026E-1,-9.5601887E-1,-8.6425555E-1,-5.069992E-2,-6.2781686E-1,-1.3163637E-1,-4.523428E-1,2.7855313E-1,-1.0670879E-1,1.1846955E0,-6.431574E-1,-1.7143057E-1,7.1210705E-2,5.5667067E-1,4.2330867E-1,1.4907867E0,5.99341E-1,2.2640064E0,1.01513945E-1,4.8410168E-1,-8.2699E-2,9.225504E-1,6.998021E-1,1.270943E0,1.7085361E0,8.6913806E-1,9.563776E-1,1.424185E0,1.1442144E0,1.7012528E0,2.6757145E0,1.8263876E0,9.736226E-1,1.6903807E0,2.1212122E0,2.5981739E0,1.8222952E0,3.1391716E0],"split_indices":[8,8,8,8,8,8,8,10,8,22,22,25,22,22,9,22,12,22,22,8,1,9,19,8,6,23,23,10,10,0,0,8,0,8,0,21,12,5,21,21,7,22,5,1,25,22,2,22,9,12,2,0,25,8,0,6,8,0,15,0,0,0,0,0,0,0,0,0,0,0,0,0,0,0,0,0,0,0,0,0,0,0,0,0,0,0,0,0,0,0,0,0,0,0,0,0,0,0,0,0,0,0,0,0,0,0,0],"split_type":[0,0,0,0,0,0,0,0,0,0,0,0,0,0,0,0,0,0,0,0,0,0,0,0,0,0,0,0,0,0,0,0,0,0,0,0,0,0,0,0,0,0,0,0,0,0,0,0,0,0,0,0,0,0,0,0,0,0,0,0,0,0,0,0,0,0,0,0,0,0,0,0,0,0,0,0,0,0,0,0,0,0,0,0,0,0,0,0,0,0,0,0,0,0,0,0,0,0,0,0,0,0,0,0,0,0,0],"sum_hessian":[4.507E3,2.822E3,1.685E3,1.439E3,1.383E3,1.133E3,5.52E2,6.99E2,7.4E2,5.81E2,8.02E2,6.95E2,4.38E2,4.37E2,1.15E2,1.48E2,5.51E2,4.53E2,2.87E2,5.28E2,5.3E1,7.42E2,6E1,4.29E2,2.66E2,6.3E1,3.75E2,3.36E2,1.01E2,5E0,1.1E2,1.43E2,5E0,5.46E2,5E0,4.36E2,1.7E1,2.31E2,5.6E1,2.94E2,2.34E2,3.2E1,2.1E1,4.44E2,2.98E2,4.9E1,1.1E1,2.74E2,1.55E2,1.6E2,1.06E2,8E0,5.5E1,2.85E2,9E1,3.3E1,3.03E2,2.4E1,7.7E1,5.6E1,8.7E1,3.52E2,1.94E2,4.3E2,6E0,8E0,9E0,2.25E2,6E0,1.2E1,4.4E1,2.89E2,5E0,2.15E2,1.9E1,2.4E1,8E0,1.5E1,6E0,3.6E1,4.08E2,2.66E2,3.2E1,4.4E1,5E0,6E0,5E0,3.9E1,2.35E2,5E0,1.5E2,9.5E1,6.5E1,7.1E1,3.5E1,3.3E1,2.2E1,4.3E1,2.42E2,3E1,6E1,1.3E1,2E1,1.6E2,1.43E2,5E0,7.2E1],"tree_param":{"num_deleted":"0","num_feature":"28","num_nodes":"107","size_leaf_vector":"1"}},{"base_weights":[-1.7889445E-1,-1.9155544E1,2.9184679E1,-3.1016308E1,-6.43945E0,1.9009356E1,4.8187214E1,-3.698115E1,-2.4758223E1,-1.2772074E1,-9.769381E-1,1.1997796E1,2.7054071E1,3.973244E1,5.5589375E1,-4.4103092E1,-3.472001E1,-2.6941402E1,-2.0217339E1,-1.4059045E1,-2.568199E0,-2.0108886E0,1.2481612E1,9.333397E0,1.8995127E1,1.1809721E1,2.8695393E1,2.0066631E1,4.0950756E1,3.259457E1,5.771741E1,-2.6063676E0,-4.1170616E1,-3.49926E1,-2.0655733E1,-5.802324E-1,-2.7149342E1,-2.1198593E1,-1.0460017E1,-1.6256704E1,-1.1046055E1,-5.9308486E0,9.0953934E-1,-4.8124714E0,9.172578E-1,1.7028364E1,2.3805583E0,6.774004E0,1.5880448E1,1.3205468E1,2.6151287E1,-5.973627E-1,1.4479765E1,2.6110502E1,3.5339535E1,5.271089E-1,1.1821951E0,3.712206E1,4.4846035E1,2.2988419E1,3.6243225E1,5.4672516E1,3.5534394E0,-2.0831E0,-1.2027535E0,-1.8316768E0,-1.6308625E0,-1.267494E0,-5.468791E-1,-1.3894271E0,-1.060938E0,-1.1418847E0,-8.576107E-1,-7.124142E-1,-2.0502214E-1,-8.254153E-1,-3.0750325E-2,-5.9203E-1,-1.241421E-2,-5.028401E-1,-6.644019E-2,-2.6274148E-1,5.990033E-1,1.8235292E-2,7.6454645E-1,4.4787094E-1,1.2073867E0,-2.884966E-1,9.150724E-1,9.7038314E-2,3.9734265E-1,6.710661E-1,1.4118876E0,2.4693695E-1,8.6300516E-1,8.823988E-1,1.5563122E0,1.8652278E-1,8.4012985E-1,1.0567098E0,1.4799786E0,1.0021977E0,1.8629534E0,2.1314027E0,1.6511778E0,1.7125291E0,2.3010743E0,6.7365426E-1,1.4327841E0,1.2109784E0,2.0423384E0,2.768815E0,1.4948643E0],"categories":[],"categories_nodes":[],"categories_segments":[],"categories_sizes":[],"default_left":[0,0,0,0,0,0,0,0,0,0,0,0,0,0,0,0,0,0,0,0,0,0,0,0,0,0,0,0,0,0,0,0,0,0,0,0,0,0,0,0,0,0,0,0,0,0,0,0,0,0,0,0,0,0,0,0,0,0,0,0,0,0,0,0,0,0,0,0,0,0,0,0,0,0,0,0,0,0,0,0,0,0,0,0,0,0,0,0,0,0,0,0,0,0,0,0,0,0,0,0,0,0,0,0,0,0,0,0,0,0,0,0,0],"id":9,"left_children":[1,3,5,7,9,11,13,15,17,19,21,23,25,27,29,31,33,35,37,39,41,43,45,47,49,51,53,55,57,59,61,-1,63,65,67,-1,69,71,73,75,77,79,-1,81,83,85,87,89,91,93,95,-1,97,99,101,-1,-1,103,105,107,109,111,-1,-1,-1,-1,-1,-1,-1,-1,-1,-1,-1,-1,-1,-1,-1,-1,-1,-1,-1,-1,-1,-1,-1,-1,-1,-1,-1,-1,-1,-1,-1,-1,-1,-1,-1,-1,-1,-1,-1,-1,-1,-1,-1,-1,-1,-1,-1,-1,-1,-1,-1],"loss_changes":[2.5180882E6,4.1380462E5,3.420925E5,5.208475E4,4.5855184E4,6.493328E4,3.6458375E4,1.01359375E4,6.3504375E3,8.025336E3,9.945784E3,1.1378953E4,1.311825E4,6.1682188E3,1.4111E4,1.8683438E3,1.399375E3,1.1704062E3,1.9772188E3,3.4264219E3,4.9930244E3,5.4436885E3,2.2997983E3,7.447332E3,6.694121E3,3.598583E3,7.4007188E3,3.9468262E2,2.4134375E3,2.1238672E2,8.21675E3,0E0,8.4578125E1,9.1475E2,3.1214453E2,0E0,1.14925E3,9.838281E2,4.9385132E2,1.2199453E3,1.994832E3,1.1437551E3,0E0,2.580475E3,2.5740725E3,1.7914902E3,2.312823E3,1.8315732E3,3.4457559E3,3.1303203E3,2.6185742E3,0E0,1.1587393E3,5.4983906E3,3.152375E3,0E0,0E0,1.83425E3,4.725E1,2.0289111E2,1.1123047E2,2.642625E3,0E0,0E0,0E0,0E0,0E0,0E0,0E0,0E0,0E0,0E0,0E0,0E0,0E0,0E0,0E0,0E0,0E0,0E0,0E0,0E0,0E0,0E0,0E0,0E0,0E0,0E0,0E0,0E0,0E0,0E0,0E0,0E0,0E0,0E0,0E0,0E0,0E0,0E0,0E0,0E0,0E0,0E0,0E0,0E0,0E0,0E0,0E0,0E0,0E0,0E0,0E0],"parents":[2147483647,0,0,1,1,2,2,3,3,4,4,5,5,6,6,7,7,8,8,9,9,10,10,11,11,12,12,13,13,14,14,15,15,16,16,17,17,18,18,19,19,20,20,21,21,22,22,23,23,24,24,25,25,26,26,27,27,28,28,29,29,30,30,32,32,33,33,34,34,36,36,37,37,38,38,39,39,40,40,41,41,43,43,44,44,45,45,46,46,47,47,48,48,49,49,50,50,52,52,53,53,54,54,57,57,58,58,59,59,60,60,61,61],"right_children":[2,4,6,8,10,12,14,16,18,20,22,24,26,28,30,32,34,36,38,40,42,44,46,48,50,52,54,56,58,60,62,-1,64,66,68,-1,70,72,74,76,78,80,-1,82,84,86,88,90,92,94,96,-1,98,100,102,-1,-1,104,106,108,110,112,-1,-1,-1,-1,-1,-1,-1,-1,-1,-1,-1,-1,-1,-1,-1,-1,-1,-1,-1,-1,-1,-1,-1,-1,-1,-1,-1,-1,-1,-1,-1,-1,-1,-1,-1,-1,-1,-1,-1,-1,-1,-1,-1,-1,-1,-1,-1,-1,-1,-1,-1],"split_conditions":[2.03E2,1.66E2,2.52E2,1.47E2,1.83E2,2.26E2,2.72E2,1.33E2,1.59E2,3E0,7E0,1.8175979E-1,-8E0,-1.9E1,2.49E2,1.18E2,1E1,-9.8787266E-1,5E0,1.74E2,3.01E1,1.93E2,3.9E0,2.2E2,3.32E0,-2.9E1,6E0,2.12E2,2.63E2,2.34E2,3.08E2,-2.6063676E0,9E0,1.41E2,2E1,-5.802324E-1,9.8314697E-1,6.990793E-1,2.6E1,8E-2,4.6E0,1.76E2,9.0953934E-1,9.989315E-1,7E0,3.73E-1,3.4E1,-7.3430425E-1,3.53E1,-2E0,1.99E2,-5.973627E-1,2.15E2,2.37E2,1.49E0,5.271089E-1,1.1821951E0,1.9357143E1,-4.20831E-1,4.9E1,3.1E1,-4.9253273E-1,3.5534394E0,-2.0831E0,-1.2027535E0,-1.8316768E0,-1.6308625E0,-1.267494E0,-5.468791E-1,-1.3894271E0,-1.060938E0,-1.1418847E0,-8.576107E-1,-7.124142E-1,-2.0502214E-1,-8.254153E-1,-3.0750325E-2,-5.9203E-1,-1.241421E-2,-5.028401E-1,-6.644019E-2,-2.6274148E-1,5.990033E-1,1.8235292E-2,7.6454645E-1,4.4787094E-1,1.2073867E0,-2.884966E-1,9.150724E-1,9.7038314E-2,3.9734265E-1,6.710661E-1,1.4118876E0,2.4693695E-1,8.6300516E-1,8.823988E-1,1.5563122E0,1.8652278E-1,8.4012985E-1,1.0567098E0,1.4799786E0,1.0021977E0,1.8629534E0,2.1314027E0,1.6511778E0,1.7125291E0,2.3010743E0,6.7365426E-1,1.4327841E0,1.2109784E0,2.0423384E0,2.768815E0,1.4948643E0],"split_indices":[8,9,8,8,8,8,8,10,8,22,22,25,22,22,10,11,24,25,22,8,14,8,0,9,6,23,23,12,8,10,8,0,23,10,15,0,25,25,24,21,7,9,0,25,7,5,22,26,14,22,11,0,10,8,6,0,0,18,25,23,23,26,0,0,0,0,0,0,0,0,0,0,0,0,0,0,0,0,0,0,0,0,0,0,0,0,0,0,0,0,0,0,0,0,0,0,0,0,0,0,0,0,0,0,0,0,0,0,0,0,0,0,0],"split_type":[0,0,0,0,0,0,0,0,0,0,0,0,0,0,0,0,0,0,0,0,0,0,0,0,0,0,0,0,0,0,0,0,0,0,0,0,0,0,0,0,0,0,0,0,0,0,0,0,0,0,0,0,0,0,0,0,0,0,0,0,0,0,0,0,0,0,0,0,0,0,0,0,0,0,0,0,0,0,0,0,0,0,0,0,0,0,0,0,0,0,0,0,0,0,0,0,0,0,0,0,0,0,0,0,0,0,0,0,0,0,0,0,0],"sum_hessian":[4.517E3,2.744E3,1.773E3,1.419E3,1.325E3,1.156E3,6.17E2,7.24E2,6.95E2,6.13E2,7.12E2,6.19E2,5.37E2,2.91E2,3.26E2,1.7E2,5.54E2,4.66E2,2.29E2,5.44E2,6.9E1,6.62E2,5E1,4.5E2,1.69E2,5.3E1,4.84E2,1.8E1,2.73E2,2.9E1,2.97E2,4.1E1,1.29E2,5.42E2,1.2E1,7E0,4.59E2,2.07E2,2.2E1,3.12E2,2.32E2,6E1,9E0,3.38E2,3.24E2,3.4E1,1.6E1,3.25E2,1.25E2,9.5E1,7.4E1,5E0,4.8E1,3.52E2,1.32E2,6E0,1.2E1,1.43E2,1.3E2,1E1,1.9E1,2.46E2,5.1E1,1.24E2,5E0,3.12E2,2.3E2,7E0,5E0,4.11E2,4.8E1,1.44E2,6.3E1,1.3E1,9E0,3.07E2,5E0,2.16E2,1.6E1,3.1E1,2.9E1,3.3E2,8E0,3.13E2,1.1E1,1.7E1,1.7E1,1.1E1,5E0,6.4E1,2.61E2,1.06E2,1.9E1,3.2E1,6.3E1,2.9E1,4.5E1,9E0,3.9E1,1.48E2,2.04E2,1.6E1,1.16E2,5.7E1,8.6E1,1.6E1,1.14E2,5E0,5E0,7E0,1.2E1,2.38E2,8E0],"tree_param":{"num_deleted":"0","num_feature":"28","num_nodes":"113","size_leaf_vector":"1"}},{"base_weights":[-3.9348837E-2,-2.0009018E1,2.6121712E1,-3.0143934E1,-8.688863E0,1.45313225E1,4.2965885E1,-3.5149475E1,-2.4587137E1,-1.4266084E1,-3.7135608E0,8.125379E0,2.1987356E1,3.3209E1,5.1369E1,-4.259419E1,-3.3178432E1,-2.4838894E1,2.9851815E-1,-1.5326868E1,-3.9618847E0,-5.286199E0,5.263683E0,6.6659026E0,2.32435E1,1.9928602E1,2.9736425E1,3.1069393E1,4.5854996E1,4.700648E1,6.179586E1,-2.4240546E0,-3.8246517E1,-3.3387436E1,-4.1844082E-1,-2.7475195E1,-2.2271868E1,-1.7324142E1,-1.2849869E1,-6.1087985E0,7.107447E-1,-1.9788708E1,-4.3941126E0,3.6263926E0,1.1301707E0,3.2660131E0,9.076836E0,1.9926537E1,1.6591997E0,3.0655062E0,2.089515E1,1.4485451E1,3.2396004E1,2.0985386E1,3.3013966E1,2.522351E0,2.6718666E1,4.9049095E1,3.1576023E1,1.0939639E0,6.3326927E1,-1.9544611E0,-1.0169218E0,-1.6841205E0,-9.267975E-1,-7.721552E-1,-1.3913991E0,-8.9374346E-1,-1.1877122E0,-8.843498E-1,-3.4168622E-1,-6.809599E-1,-3.606207E-1,-1.65293E-1,-7.7410275E-1,-1.10366065E-2,-5.0634246E0,-4.0417033E-1,-1.0982092E-1,4.0376335E-1,-2.2041821E-1,2.2392623E-1,-1.7958944E-1,-2.847632E-1,4.8021927E-1,1.1791518E0,4.2534995E-1,-3.426976E-1,3.0209437E-1,8.8679504E-1,1.231113E0,1.0776821E0,4.0094993E-1,2.0829184E0,1.4621572E0,-1.2193532E-1,1.1713705E0,1.7174023E0,1.2458842E0,8.010346E-1,1.602856E0,2.3377144E0,2.9587982E0,7.696368E-1,1.7063122E0,2.5953681E0,3.3352878E0],"categories":[],"categories_nodes":[],"categories_segments":[],"categories_sizes":[],"default_left":[0,0,0,0,0,0,0,0,0,0,0,0,0,0,0,0,0,0,0,0,0,0,0,0,0,0,0,0,0,0,0,0,0,0,0,0,0,0,0,0,0,0,0,0,0,0,0,0,0,0,0,0,0,0,0,0,0,0,0,0,0,0,0,0,0,0,0,0,0,0,0,0,0,0,0,0,0,0,0,0,0,0,0,0,0,0,0,0,0,0,0,0,0,0,0,0,0,0,0,0,0,0,0,0,0,0,0],"id":10,"left_children":[1,3,5,7,9,11,13,15,17,19,21,23,25,27,29,31,33,35,-1,37,39,41,43,45,47,49,51,53,55,57,59,-1,61,63,-1,65,67,69,71,73,-1,75,77,79,-1,81,83,85,-1,87,89,91,93,95,97,-1,99,101,103,-1,105,-1,-1,-1,-1,-1,-1,-1,-1,-1,-1,-1,-1,-1,-1,-1,-1,-1,-1,-1,-1,-1,-1,-1,-1,-1,-1,-1,-1,-1,-1,-1,-1,-1,-1,-1,-1,-1,-1,-1,-1,-1,-1,-1,-1,-1,-1],"loss_changes":[2.3315945E6,2.9011288E5,3.7655538E5,3.6262625E4,3.3160008E4,5.455464E4,6.2810375E4,8.8508125E3,5.0429375E3,6.1021562E3,8.978609E3,1.3477949E4,7.841797E3,8.497656E3,1.62345E4,1.7970781E3,2.609875E3,3.653375E3,0E0,2.302414E3,2.19332E3,6.896873E3,2.612475E3,4.600373E3,1.1139492E3,6.795422E3,3.9471953E3,5.5179062E3,3.1260156E3,7.93025E3,6.0008438E3,0E0,5.119922E2,1.7930625E3,0E0,8.690625E2,1.6895781E3,9.424922E2,9.058867E2,1.2343003E3,0E0,4.9393723E4,4.1162666E3,3.18158E3,0E0,1.9785535E3,2.626787E3,1.5916562E3,0E0,7.499076E2,4.2454375E3,6.4691455E2,1.4613594E3,3.1481504E3,1.9896562E3,0E0,1.6694336E2,3.357875E3,1.0380508E3,0E0,1.0014375E3,0E0,0E0,0E0,0E0,0E0,0E0,0E0,0E0,0E0,0E0,0E0,0E0,0E0,0E0,0E0,0E0,0E0,0E0,0E0,0E0,0E0,0E0,0E0,0E0,0E0,0E0,0E0,0E0,0E0,0E0,0E0,0E0,0E0,0E0,0E0,0E0,0E0,0E0,0E0,0E0,0E0,0E0,0E0,0E0,0E0,0E0],"parents":[2147483647,0,0,1,1,2,2,3,3,4,4,5,5,6,6,7,7,8,8,9,9,10,10,11,11,12,12,13,13,14,14,15,15,16,16,17,17,19,19,20,20,21,21,22,22,23,23,24,24,25,25,26,26,27,27,28,28,29,29,30,30,32,32,33,33,35,35,36,36,37,37,38,38,39,39,41,41,42,42,43,43,45,45,46,46,47,47,49,49,50,50,51,51,52,52,53,53,54,54,56,56,57,57,58,58,60,60],"right_children":[2,4,6,8,10,12,14,16,18,20,22,24,26,28,30,32,34,36,-1,38,40,42,44,46,48,50,52,54,56,58,60,-1,62,64,-1,66,68,70,72,74,-1,76,78,80,-1,82,84,86,-1,88,90,92,94,96,98,-1,100,102,104,-1,106,-1,-1,-1,-1,-1,-1,-1,-1,-1,-1,-1,-1,-1,-1,-1,-1,-1,-1,-1,-1,-1,-1,-1,-1,-1,-1,-1,-1,-1,-1,-1,-1,-1,-1,-1,-1,-1,-1,-1,-1,-1,-1,-1,-1,-1,-1],"split_conditions":[1.98E2,1.63E2,2.43E2,1.46E2,1.79E2,2.2E2,2.66E2,1.32E2,1.71E2,4E0,3E0,8E0,5E0,6E0,2.94E2,1.24E2,1.68E2,1.53E2,2.9851815E-1,1.71E2,2.05E1,-1.6428572E0,3.77E1,2.06E2,2.6E1,1.87E2,2.07E2,-8E0,9.3E0,-5.760691E-1,2.52E2,-2.4240546E0,9.8E0,1E1,-4.1844082E-1,-1.3E1,6.9827974E-2,1.91E2,9.039462E-1,1.9366667E1,7.107447E-1,1.29E1,1.89E2,8E0,1.1301707E0,2.38E1,-9E0,5E0,1.6591997E0,1.71E2,-5.587876E-2,3.62E-1,2.7E0,1.56E1,1.5633333E1,2.522351E0,2.35E2,8E0,2.11E2,1.0939639E0,-2.3651127E-2,-1.9544611E0,-1.0169218E0,-1.6841205E0,-9.267975E-1,-7.721552E-1,-1.3913991E0,-8.9374346E-1,-1.1877122E0,-8.843498E-1,-3.4168622E-1,-6.809599E-1,-3.606207E-1,-1.65293E-1,-7.7410275E-1,-1.10366065E-2,-5.0634246E0,-4.0417033E-1,-1.0982092E-1,4.0376335E-1,-2.2041821E-1,2.2392623E-1,-1.7958944E-1,-2.847632E-1,4.8021927E-1,1.1791518E0,4.2534995E-1,-3.426976E-1,3.0209437E-1,8.8679504E-1,1.231113E0,1.0776821E0,4.0094993E-1,2.0829184E0,1.4621572E0,-1.2193532E-1,1.1713705E0,1.7174023E0,1.2458842E0,8.010346E-1,1.602856E0,2.3377144E0,2.9587982E0,7.696368E-1,1.7063122E0,2.5953681E0,3.3352878E0],"split_indices":[8,8,8,9,8,8,8,11,9,22,22,22,22,22,8,8,12,8,0,8,13,18,14,8,22,12,11,22,0,26,9,0,2,24,0,24,26,12,25,16,0,14,11,13,0,1,22,0,0,11,25,5,13,18,17,0,11,22,11,0,25,0,0,0,0,0,0,0,0,0,0,0,0,0,0,0,0,0,0,0,0,0,0,0,0,0,0,0,0,0,0,0,0,0,0,0,0,0,0,0,0,0,0,0,0,0,0],"split_type":[0,0,0,0,0,0,0,0,0,0,0,0,0,0,0,0,0,0,0,0,0,0,0,0,0,0,0,0,0,0,0,0,0,0,0,0,0,0,0,0,0,0,0,0,0,0,0,0,0,0,0,0,0,0,0,0,0,0,0,0,0,0,0,0,0,0,0,0,0,0,0,0,0,0,0,0,0,0,0,0,0,0,0,0,0,0,0,0,0,0,0,0,0,0,0,0,0,0,0,0,0,0,0,0,0,0,0],"sum_hessian":[4.461E3,2.53E3,1.931E3,1.334E3,1.196E3,1.145E3,7.86E2,6.99E2,6.35E2,5.63E2,6.33E2,6.17E2,5.28E2,3.66E2,4.2E2,1.42E2,5.57E2,6.3E2,5E0,5.1E2,5.3E1,5.39E2,9.4E1,5.64E2,5.3E1,4.2E2,1.08E2,3.16E2,5E1,3E2,1.2E2,5.6E1,8.6E1,5.52E2,5E0,3.06E2,3.24E2,2.79E2,2.31E2,4.8E1,5E0,3E1,5.09E2,8.7E1,7E0,2.35E2,3.29E2,4.2E1,1.1E1,2.3E1,3.97E2,1.7E1,9.1E1,5.3E1,2.63E2,3.9E1,1.1E1,2.63E2,3.7E1,5E0,1.15E2,8.1E1,5E0,5.4E2,1.2E1,1E1,2.96E2,8.5E1,2.39E2,2.69E2,1E1,2.02E2,2.9E1,3.8E1,1E1,2.5E1,5E0,1.89E2,3.2E2,5.6E1,3.1E1,2E2,3.5E1,1.1E1,3.18E2,3.1E1,1.1E1,5E0,1.8E1,2.18E2,1.79E2,7E0,1E1,2E1,7.1E1,5E0,4.8E1,2.23E2,4E1,5E0,6E0,2.19E2,4.4E1,6E0,3.1E1,3E1,8.5E1],"tree_param":{"num_deleted":"0","num_feature":"28","num_nodes":"107","size_leaf_vector":"1"}},{"base_weights":[2.4470605E-1,-1.8991543E1,2.3956215E1,-2.8591497E1,-8.360485E0,1.2397298E1,3.860343E1,-3.3182423E1,-2.311904E1,-1.3877461E1,-3.6963131E0,7.7448173E0,2.0055897E1,3.0801584E1,4.8431736E1,-3.949854E1,-3.120256E1,-2.392614E1,-1.4038859E1,-1.5072483E1,-5.1194677E0,-4.81756E0,9.561479E0,5.2022915E0,1.6708286E1,1.4919432E1,2.4595238E1,2.728852E1,3.5212494E1,4.2706932E1,5.477401E1,-4.028635E1,-6.0108787E-1,-3.1546724E1,-1.6011314E1,-2.558247E1,-2.1400568E1,-1.7555513E1,-4.421856E0,-1.5381209E1,3.8093877E-1,-2.8652126E-1,-1.1272312E1,-1.7429693E1,-4.27312E0,1.7847991E0,1.7262766E1,2.9425116E0,9.096498E0,2.213491E1,8.935911E0,1.2451064E1,1.9167604E1,3.726332E1,2.0425995E1,1.2505168E1,2.79611E1,2.4487953E1,3.899373E1,3.4478615E1,4.6180977E1,3.17289E1,5.8094097E1,-2.3297312E0,-1.8525902E0,-1.5884379E0,-1.0921725E0,-3.8232675E-1,-1.1634723E0,-5.230792E-1,-1.2893183E0,-1.1012564E0,-5.2705204E-1,-1.051461E0,-6.112953E-1,1.2563457E-1,-4.0751997E-1,-8.9854425E-1,-6.8289995E-1,-5.2898085E-1,2.7425367E-1,-1.7289679E-1,-7.039896E-1,-2.8046956E-2,-3.3962898E0,-3.1891915E-1,2.4687776E-2,-1.7580292E-1,7.081868E-1,1.004059E0,2.4871324E-1,1.1894538E-1,1.4981717E0,5.406155E-1,2.2447732E-1,1.7299012E0,8.5385716E-1,2.5701693E-1,1.0116166E0,-1.989776E-1,6.6394967E-1,8.4851724E-1,1.4365685E0,1.5537212E0,2.931112E0,3.7934196E-1,1.085501E0,2.545242E-1,9.5891774E-1,1.7654008E0,1.3274546E0,2.2725728E0,1.0153197E0,2.1162221E0,1.5694176E0,1.8291727E0,5.748663E-1,8.265093E-1,2.3563955E0,1.0519664E0,1.821029E0,2.3761451E0,3.14379E0],"categories":[],"categories_nodes":[],"categories_segments":[],"categories_sizes":[],"default_left":[0,0,0,0,0,0,0,0,0,0,0,0,0,0,0,0,0,0,0,0,0,0,0,0,0,0,0,0,0,0,0,0,0,0,0,0,0,0,0,0,0,0,0,0,0,0,0,0,0,0,0,0,0,0,0,0,0,0,0,0,0,0,0,0,0,0,0,0,0,0,0,0,0,0,0,0,0,0,0,0,0,0,0,0,0,0,0,0,0,0,0,0,0,0,0,0,0,0,0,0,0,0,0,0,0,0,0,0,0,0,0,0,0,0,0,0,0,0,0,0,0,0,0],"id":11,"left_children":[1,3,5,7,9,11,13,15,17,19,21,23,25,27,29,31,33,35,37,39,41,43,45,47,49,51,53,55,57,59,61,63,-1,65,67,69,71,73,75,77,-1,79,81,83,85,87,89,91,93,95,97,99,101,103,105,107,109,111,113,115,117,119,121,-1,-1,-1,-1,-1,-1,-1,-1,-1,-1,-1,-1,-1,-1,-1,-1,-1,-1,-1,-1,-1,-1,-1,-1,-1,-1,-1,-1,-1,-1,-1,-1,-1,-1,-1,-1,-1,-1,-1,-1,-1,-1,-1,-1,-1,-1,-1,-1,-1,-1,-1,-1,-1,-1,-1,-1,-1,-1,-1,-1],"loss_changes":[2.0397702E6,2.5173762E5,3.3863612E5,3.1812625E4,3.0130727E4,3.9784766E4,6.620775E4,7.5515E3,4.0208438E3,5.5410547E3,9.514759E3,1.5840996E4,9.491859E3,6.7032812E3,1.17749375E4,3.0604844E3,2.3134375E3,1.7276562E3,1.6449766E3,3.4245078E3,1.9582147E3,3.9608828E3,2.9618066E3,4.7768564E3,6.2944688E3,1.8658789E3,1.1011125E4,2.4303125E3,7.798E3,4.3740625E3,1.1996375E4,1.5095156E3,0E0,4.360625E2,6.689551E2,7.2553125E2,1.2702656E3,4.2457227E2,4.088796E2,1.8309375E3,0E0,2.3160269E3,5.8578125E2,2.0398404E4,5.6738115E3,1.7569585E3,7.634575E2,5.2099824E3,1.5308594E3,5.0771953E3,2.6804272E3,1.8222129E3,1.0208633E3,5.3075312E3,2.6349453E3,5.926599E2,1.82625E3,4.24241E3,2.6664844E3,2.7671328E3,3.2577188E3,4.8179102E2,4.937E3,0E0,0E0,0E0,0E0,0E0,0E0,0E0,0E0,0E0,0E0,0E0,0E0,0E0,0E0,0E0,0E0,0E0,0E0,0E0,0E0,0E0,0E0,0E0,0E0,0E0,0E0,0E0,0E0,0E0,0E0,0E0,0E0,0E0,0E0,0E0,0E0,0E0,0E0,0E0,0E0,0E0,0E0,0E0,0E0,0E0,0E0,0E0,0E0,0E0,0E0,0E0,0E0,0E0,0E0,0E0,0E0,0E0,0E0,0E0,0E0],"parents":[2147483647,0,0,1,1,2,2,3,3,4,4,5,5,6,6,7,7,8,8,9,9,10,10,11,11,12,12,13,13,14,14,15,15,16,16,17,17,18,18,19,19,20,20,21,21,22,22,23,23,24,24,25,25,26,26,27,27,28,28,29,29,30,30,31,31,33,33,34,34,35,35,36,36,37,37,38,38,39,39,41,41,42,42,43,43,44,44,45,45,46,46,47,47,48,48,49,49,50,50,51,51,52,52,53,53,54,54,55,55,56,56,57,57,58,58,59,59,60,60,61,61,62,62],"right_children":[2,4,6,8,10,12,14,16,18,20,22,24,26,28,30,32,34,36,38,40,42,44,46,48,50,52,54,56,58,60,62,64,-1,66,68,70,72,74,76,78,-1,80,82,84,86,88,90,92,94,96,98,100,102,104,106,108,110,112,114,116,118,120,122,-1,-1,-1,-1,-1,-1,-1,-1,-1,-1,-1,-1,-1,-1,-1,-1,-1,-1,-1,-1,-1,-1,-1,-1,-1,-1,-1,-1,-1,-1,-1,-1,-1,-1,-1,-1,-1,-1,-1,-1,-1,-1,-1,-1,-1,-1,-1,-1,-1,-1,-1,-1,-1,-1,-1,-1,-1,-1,-1,-1],"split_conditions":[1.97E2,1.63E2,2.39E2,1.47E2,1.78E2,2.21E2,2.67E2,1.33E2,9E0,4E0,1.3E1,6.300721E-1,-9.019E-2,3.149416E-1,2.84E2,1E1,1.3E1,1.55E2,2.86E0,1.88E2,9E-1,-1.4E-1,2.86E0,2.11E2,7.3E0,3.81E-1,1E-1,2.36E2,2.17E2,-3E0,2.43E2,1.22E2,-6.0108787E-1,8E0,3E0,-9.785481E-1,3.7E0,-2.9240596E-1,9.039462E-1,1.68E2,3.8093877E-1,4E0,6.6E0,2E0,9.66127E-2,4.17E-1,1.4E0,1.25E1,3.8E0,8.211001E-1,1.2E1,1.98E2,2.38E2,1.9685715E1,1.91E2,3.42E1,-9.358349E-1,7E-1,2.04E1,2.1E1,4.7E0,-2.4E1,2.7950298E-2,-2.3297312E0,-1.8525902E0,-1.5884379E0,-1.0921725E0,-3.8232675E-1,-1.1634723E0,-5.230792E-1,-1.2893183E0,-1.1012564E0,-5.2705204E-1,-1.051461E0,-6.112953E-1,1.2563457E-1,-4.0751997E-1,-8.9854425E-1,-6.8289995E-1,-5.2898085E-1,2.7425367E-1,-1.7289679E-1,-7.039896E-1,-2.8046956E-2,-3.3962898E0,-3.1891915E-1,2.4687776E-2,-1.7580292E-1,7.081868E-1,1.004059E0,2.4871324E-1,1.1894538E-1,1.4981717E0,5.406155E-1,2.2447732E-1,1.7299012E0,8.5385716E-1,2.5701693E-1,1.0116166E0,-1.989776E-1,6.6394967E-1,8.4851724E-1,1.4365685E0,1.5537212E0,2.931112E0,3.7934196E-1,1.085501E0,2.545242E-1,9.5891774E-1,1.7654008E0,1.3274546E0,2.2725728E0,1.0153197E0,2.1162221E0,1.5694176E0,1.8291727E0,5.748663E-1,8.265093E-1,2.3563955E0,1.0519664E0,1.821029E0,2.3761451E0,3.14379E0],"split_indices":[9,10,9,9,9,9,9,10,23,23,23,25,25,25,10,23,24,9,6,10,0,20,6,9,13,5,0,10,12,23,12,9,0,23,13,25,7,25,25,9,0,24,13,23,25,5,0,7,6,25,23,12,10,18,12,14,25,13,18,24,2,23,25,0,0,0,0,0,0,0,0,0,0,0,0,0,0,0,0,0,0,0,0,0,0,0,0,0,0,0,0,0,0,0,0,0,0,0,0,0,0,0,0,0,0,0,0,0,0,0,0,0,0,0,0,0,0,0,0,0,0,0,0],"split_type":[0,0,0,0,0,0,0,0,0,0,0,0,0,0,0,0,0,0,0,0,0,0,0,0,0,0,0,0,0,0,0,0,0,0,0,0,0,0,0,0,0,0,0,0,0,0,0,0,0,0,0,0,0,0,0,0,0,0,0,0,0,0,0,0,0,0,0,0,0,0,0,0,0,0,0,0,0,0,0,0,0,0,0,0,0,0,0,0,0,0,0,0,0,0,0,0,0,0,0,0,0,0,0,0,0,0,0,0,0,0,0,0,0,0,0,0,0,0,0,0,0,0,0],"sum_hessian":[4.47E3,2.468E3,2.002E3,1.296E3,1.172E3,1.12E3,8.82E2,7.02E2,5.94E2,5.36E2,6.36E2,6.98E2,4.22E2,4.94E2,3.88E2,1.63E2,5.39E2,5.44E2,5E1,4.71E2,6.5E1,5.87E2,4.9E1,5.45E2,1.53E2,2E2,2.22E2,2.79E2,2.15E2,2.08E2,1.8E2,1.58E2,5E0,5.26E2,1.3E1,3.23E2,2.21E2,3.6E1,1.4E1,4.65E2,6E0,3.7E1,2.8E1,2.3E1,5.64E2,2.5E1,2.4E1,3.46E2,1.99E2,8.9E1,6.4E1,1.29E2,7.1E1,5.3E1,1.69E2,1.3E1,2.66E2,5.8E1,1.57E2,6.5E1,1.43E2,2.4E1,1.56E2,4.9E1,1.09E2,5.12E2,1.4E1,7E0,6E0,5E0,3.18E2,2.08E2,1.3E1,2E1,1.6E1,5E0,9E0,1.82E2,2.83E2,1.3E1,2.4E1,8E0,2E1,1.8E1,5E0,3.91E2,1.73E2,1.8E1,7E0,1.9E1,5E0,3.4E2,6E0,1.44E2,5.5E1,2.4E1,6.5E1,4.9E1,1.5E1,6E0,1.23E2,6E1,1.1E1,4.3E1,1E1,1.6E1,1.53E2,7E0,6E0,3.9E1,2.27E2,8E0,5E1,1.06E2,5.1E1,5.9E1,6E0,5E0,1.38E2,9E0,1.5E1,5.2E1,1.04E2],"tree_param":{"num_deleted":"0","num_feature":"28","num_nodes":"123","size_leaf_vector":"1"}},{"base_weights":[1.2669854E-1,-1.8124802E1,2.299824E1,-2.7580103E1,-8.601809E0,1.1457692E1,3.6745422E1,-3.3291676E1,-2.3514904E1,-1.3284437E1,-3.4974425E0,5.957335E0,1.7280542E1,2.8681568E1,4.642265E1,-4.2273193E1,-3.2069763E1,-2.5474255E1,-2.015666E1,-1.3727252E1,4.0055017E0,-4.271078E0,5.8768573E0,5.4480343E0,2.4092054E1,1.3747332E1,1.9970076E1,2.905703E-2,2.902218E1,4.248636E1,5.53251E1,-1.0431129E0,-2.2150779E0,-3.226816E1,-9.2546713E-1,-2.6122002E1,-2.1273743E1,-1.4236573E1,-2.1840364E1,-1.5224709E1,-1.0200166E1,-6.459579E-1,1.5021733E0,-5.4764156E0,3.1606784E-1,1.7832166E0,1.4207627E0,1.3511499E0,5.0768027E0,1.4384707E0,6.132223E-1,1.2117496E1,1.9551674E1,1.1583371E0,2.0689205E1,2.9688946E1,1.41018E1,4.3785706E1,2.5494555E1,1.2787652E0,5.7171387E1,-1.6989619E0,-1.5062962E0,-1.3283508E0,-1.0547738E0,-1.1067661E0,-5.3561485E-1,-5.9014326E-1,-1.2440271E0,-1.1029891E0,-5.2885634E-1,-7.752144E-1,-1.9414274E-1,-6.129588E-1,-2.615026E-1,-3.6121723E-1,-1.1662318E-1,1.8363342E0,-8.2701005E-2,5.805327E-1,-1.4198184E-1,1.7356639E-1,4.0112567E-1,5.741208E-1,1.2281024E0,1.1180906E0,5.0209606E-1,3.3133817E-1,-1.8400382E-1,9.3697864E-1,1.4651698E0,1.4062117E0,1.7678212E0,2.3884097E-1,9.8740435E-1,1.1825972E0,2.2237012E0,8.554682E-1,1.4827898E0,2.5548997E0,3.2153509E0],"categories":[],"categories_nodes":[],"categories_segments":[],"categories_sizes":[],"default_left":[0,0,0,0,0,0,0,0,0,0,0,0,0,0,0,0,0,0,0,0,0,0,0,0,0,0,0,0,0,0,0,0,0,0,0,0,0,0,0,0,0,0,0,0,0,0,0,0,0,0,0,0,0,0,0,0,0,0,0,0,0,0,0,0,0,0,0,0,0,0,0,0,0,0,0,0,0,0,0,0,0,0,0,0,0,0,0,0,0,0,0,0,0,0,0,0,0,0,0,0,0],"id":12,"left_children":[1,3,5,7,9,11,13,15,17,19,21,23,25,27,29,31,33,35,37,39,41,43,45,47,49,51,53,-1,55,57,59,-1,-1,61,-1,63,65,67,69,71,73,-1,-1,75,77,79,-1,-1,81,-1,-1,83,85,87,89,91,93,95,97,-1,99,-1,-1,-1,-1,-1,-1,-1,-1,-1,-1,-1,-1,-1,-1,-1,-1,-1,-1,-1,-1,-1,-1,-1,-1,-1,-1,-1,-1,-1,-1,-1,-1,-1,-1,-1,-1,-1,-1,-1,-1],"loss_changes":[1.8763924E6,2.2486619E5,3.1608075E5,2.8327625E4,2.9757469E4,3.467689E4,6.9673625E4,4.33275E3,4.3248125E3,5.032508E3,4.361809E3,5.037963E3,4.73E3,4.75625E3,1.20771875E4,1.6315781E3,6.379375E2,6.93875E2,2.436539E3,3.1907422E3,7.8814717E3,3.0598164E3,4.1904585E3,4.2326846E3,4.7288574E2,1.945207E3,3.9916875E3,0E0,4.4815312E3,5.2794375E3,5.2855312E3,0E0,0E0,6.3040625E2,0E0,3.18375E2,3.6926562E2,1.3605459E3,2.898047E2,1.3425781E3,1.8989727E3,0E0,0E0,2.3891807E3,8.38518E3,1.8510792E3,0E0,0E0,2.5153477E3,0E0,0E0,1.1606621E3,1.081666E3,3.4218378E2,4.2492812E3,3.1760938E3,1.1141992E3,2.655375E3,2.9046582E2,0E0,1.6863125E3,0E0,0E0,0E0,0E0,0E0,0E0,0E0,0E0,0E0,0E0,0E0,0E0,0E0,0E0,0E0,0E0,0E0,0E0,0E0,0E0,0E0,0E0,0E0,0E0,0E0,0E0,0E0,0E0,0E0,0E0,0E0,0E0,0E0,0E0,0E0,0E0,0E0,0E0,0E0,0E0],"parents":[2147483647,0,0,1,1,2,2,3,3,4,4,5,5,6,6,7,7,8,8,9,9,10,10,11,11,12,12,13,13,14,14,15,15,16,16,17,17,18,18,19,19,20,20,21,21,22,22,23,23,24,24,25,25,26,26,28,28,29,29,30,30,33,33,35,35,36,36,37,37,38,38,39,39,40,40,43,43,44,44,45,45,48,48,51,51,52,52,53,53,54,54,55,55,56,56,57,57,58,58,60,60],"right_children":[2,4,6,8,10,12,14,16,18,20,22,24,26,28,30,32,34,36,38,40,42,44,46,48,50,52,54,-1,56,58,60,-1,-1,62,-1,64,66,68,70,72,74,-1,-1,76,78,80,-1,-1,82,-1,-1,84,86,88,90,92,94,96,98,-1,100,-1,-1,-1,-1,-1,-1,-1,-1,-1,-1,-1,-1,-1,-1,-1,-1,-1,-1,-1,-1,-1,-1,-1,-1,-1,-1,-1,-1,-1,-1,-1,-1,-1,-1,-1,-1,-1,-1,-1,-1],"split_conditions":[1.97E2,1.61E2,2.38E2,1.42E2,1.79E2,2.15E2,2.66E2,1.24E2,1.53E2,2.03E2,4E-2,6E-2,2.24E2,-5.2E1,2.94E2,4.7937766E-1,5.44E1,4E0,3.5472557E-2,1.73E2,3.27E-1,4.1E1,3.8E0,2.06E-1,1.93E2,7E0,1.76E2,2.905703E-2,7E-2,-4.9253273E-1,2.54E2,-1.0431129E0,-2.2150779E0,1.37E2,-9.2546713E-1,4.04E-1,3.9E0,2.37E1,1.74E2,1.3E1,1E0,-6.459579E-1,1.5021733E0,1.92E2,-8.080047E-1,5.6952197E-2,1.4207627E0,1.3511499E0,2.08E2,1.4384707E0,6.132223E-1,3.97E1,1.72E1,1.06E1,1E1,9E0,2.03E2,2.37E2,1.31E1,1.2787652E0,7E0,-1.6989619E0,-1.5062962E0,-1.3283508E0,-1.0547738E0,-1.1067661E0,-5.3561485E-1,-5.9014326E-1,-1.2440271E0,-1.1029891E0,-5.2885634E-1,-7.752144E-1,-1.9414274E-1,-6.129588E-1,-2.615026E-1,-3.6121723E-1,-1.1662318E-1,1.8363342E0,-8.2701005E-2,5.805327E-1,-1.4198184E-1,1.7356639E-1,4.0112567E-1,5.741208E-1,1.2281024E0,1.1180906E0,5.0209606E-1,3.3133817E-1,-1.8400382E-1,9.3697864E-1,1.4651698E0,1.4062117E0,1.7678212E0,2.3884097E-1,9.8740435E-1,1.1825972E0,2.2237012E0,8.554682E-1,1.4827898E0,2.5548997E0,3.2153509E0],"split_indices":[8,9,8,8,8,8,8,10,8,12,19,19,8,24,8,26,15,23,26,8,5,15,2,5,12,24,12,0,3,26,10,0,0,10,0,5,7,18,12,23,23,0,0,10,26,26,0,0,8,0,0,14,13,13,23,23,12,10,1,0,23,0,0,0,0,0,0,0,0,0,0,0,0,0,0,0,0,0,0,0,0,0,0,0,0,0,0,0,0,0,0,0,0,0,0,0,0,0,0,0,0],"split_type":[0,0,0,0,0,0,0,0,0,0,0,0,0,0,0,0,0,0,0,0,0,0,0,0,0,0,0,0,0,0,0,0,0,0,0,0,0,0,0,0,0,0,0,0,0,0,0,0,0,0,0,0,0,0,0,0,0,0,0,0,0,0,0,0,0,0,0,0,0,0,0,0,0,0,0,0,0,0,0,0,0,0,0,0,0,0,0,0,0,0,0,0,0,0,0,0,0,0,0,0,0],"sum_hessian":[4.493E3,2.499E3,1.994E3,1.253E3,1.246E3,1.085E3,9.09E2,5.18E2,7.35E2,6.49E2,5.97E2,5.59E2,5.26E2,4.98E2,4.11E2,5.8E1,4.6E2,4.6E2,2.75E2,6.33E2,1.6E1,5.52E2,4.5E1,5.45E2,1.4E1,2.3E2,2.96E2,6E0,4.92E2,2.89E2,1.22E2,6E0,5.2E1,4.52E2,8E0,3.94E2,6.6E1,6.3E1,2.12E2,4.42E2,1.91E2,1E1,6E0,4.37E2,1.15E2,3.9E1,6E0,8E0,5.37E2,9E0,5E0,1.82E2,4.8E1,1.1E1,2.85E2,4.7E2,2.2E1,2.67E2,2.2E1,8E0,1.14E2,2.43E2,2.09E2,3.58E2,3.6E1,6E1,6E0,5.3E1,1E1,2.07E2,5E0,4.31E2,1.1E1,1.34E2,5.7E1,2.8E2,1.57E2,5E0,1.1E2,1.2E1,2.7E1,3.49E2,1.88E2,1.75E2,7E0,3.6E1,1.2E1,5E0,6E0,2.35E2,5E1,3.73E2,9.7E1,9E0,1.3E1,1E1,2.57E2,9E0,1.3E1,6.6E1,4.8E1],"tree_param":{"num_deleted":"0","num_feature":"28","num_nodes":"101","size_leaf_vector":"1"}},{"base_weights":[-7.143552E-2,-1.7253687E1,2.1724474E1,-2.6132849E1,-7.919697E0,1.1908638E1,3.6588516E1,-3.1398327E1,-2.2347975E1,-1.1654788E1,-2.971426E0,6.893276E0,1.89101E1,2.8546198E1,4.380403E1,-2.036494E0,-3.0270515E1,-2.4350897E1,-1.9352022E1,-1.2452904E1,-5.521985E-1,-4.448903E0,6.3375587E0,5.073463E0,1.7138948E1,1.6507706E1,2.7062946E1,2.1583504E1,3.1199392E1,4.090063E1,5.7252846E1,-3.0524078E1,-2.50411E-1,-2.4711197E1,-1.5399919E1,-1.5763894E1,-2.121963E1,-1.3761264E1,-7.1838365E0,-6.3431807E0,1.2617873E0,-1.342911E1,-3.7878392E0,1.1071888E-1,1.1192392E1,2.999418E0,8.494763E0,1.4205636E1,2.819098E1,1.5851093E1,3.7561516E1,2.8365265E1,4.497908E-1,2.3366434E1,3.890086E0,2.7079594E1,3.590208E1,2.87443E1,4.3471012E1,4.6967793E1,3.247299E0,-1.5862787E0,-1.3438227E0,-1.3212539E0,-1.1625499E0,-1.0166682E0,-1.6593786E-1,-1.1682057E0,-7.24514E-1,-1.0719379E0,-6.6477734E-1,-8.609937E-1,-6.14681E-1,-5.08704E-1,1.6593964E-1,1.5344691E-1,-4.5889774E-1,-3.9079327E-2,-3.2990098E0,-2.9612872E-1,2.5371043E-2,6.47402E-1,-1.6089363E-1,7.30123E-1,-4.14532E-2,-1.5425514E-1,2.197757E-1,3.327086E-1,8.1549215E-1,9.8472357E-1,5.2590704E-1,1.874853E0,9.78604E-1,-8.305606E-2,8.141497E-1,1.1656951E0,2.2766104E0,1.5229529E0,7.9261965E-1,1.231726E0,6.161468E-1,-3.441852E-1,7.0160973E-1,6.599789E-1,1.3837174E0,1.5926754E0,2.2584198E0,1.6033515E0,7.983551E-1,1.7117376E0,2.298562E0,1.739714E0,2.7925062E0],"categories":[],"categories_nodes":[],"categories_segments":[],"categories_sizes":[],"default_left":[0,0,0,0,0,0,0,0,0,0,0,0,0,0,0,0,0,0,0,0,0,0,0,0,0,0,0,0,0,0,0,0,0,0,0,0,0,0,0,0,0,0,0,0,0,0,0,0,0,0,0,0,0,0,0,0,0,0,0,0,0,0,0,0,0,0,0,0,0,0,0,0,0,0,0,0,0,0,0,0,0,0,0,0,0,0,0,0,0,0,0,0,0,0,0,0,0,0,0,0,0,0,0,0,0,0,0,0,0,0,0,0,0],"id":13,"left_children":[1,3,5,7,9,11,13,15,17,19,21,23,25,27,29,-1,31,33,35,37,39,41,43,45,47,49,51,53,55,57,59,61,-1,63,65,67,69,71,73,75,-1,77,79,81,83,85,87,89,91,93,95,97,-1,99,101,103,105,107,109,111,-1,-1,-1,-1,-1,-1,-1,-1,-1,-1,-1,-1,-1,-1,-1,-1,-1,-1,-1,-1,-1,-1,-1,-1,-1,-1,-1,-1,-1,-1,-1,-1,-1,-1,-1,-1,-1,-1,-1,-1,-1,-1,-1,-1,-1,-1,-1,-1,-1,-1,-1,-1,-1],"loss_changes":[1.6863858E6,2.0847656E5,2.891768E5,2.5001562E4,2.2678578E4,4.1899547E4,4.4527625E4,4.4115E3,4.0488438E3,6.194625E3,7.3175254E3,1.2943828E4,9.322484E3,6.2673125E3,1.38140625E4,0E0,2.9375E3,1.0602812E3,1.7190703E3,4.4007266E3,7.326386E3,2.6663242E3,2.20444E3,4.195451E3,2.999293E3,4.7630547E3,2.3763594E3,3.2818125E3,4.2525E3,9.492E3,2.5562344E3,1.2363438E3,0E0,4.5425E2,1.122188E3,7.127539E2,5.703125E1,2.4350312E3,4.179966E3,1.096027E3,0E0,2.0545627E4,3.927983E3,1.4527347E3,1.6942368E3,3.1736729E3,3.1112725E3,1.5102324E3,9.447676E2,2.8875234E3,1.8077832E2,2.2372578E3,0E0,1.0511328E3,1.2992667E3,8.523906E2,3.1679062E3,2.1578516E3,4.9303125E3,1.7240625E3,0E0,0E0,0E0,0E0,0E0,0E0,0E0,0E0,0E0,0E0,0E0,0E0,0E0,0E0,0E0,0E0,0E0,0E0,0E0,0E0,0E0,0E0,0E0,0E0,0E0,0E0,0E0,0E0,0E0,0E0,0E0,0E0,0E0,0E0,0E0,0E0,0E0,0E0,0E0,0E0,0E0,0E0,0E0,0E0,0E0,0E0,0E0,0E0,0E0,0E0,0E0,0E0,0E0],"parents":[2147483647,0,0,1,1,2,2,3,3,4,4,5,5,6,6,7,7,8,8,9,9,10,10,11,11,12,12,13,13,14,14,16,16,17,17,18,18,19,19,20,20,21,21,22,22,23,23,24,24,25,25,26,26,27,27,28,28,29,29,30,30,31,31,33,33,34,34,35,35,36,36,37,37,38,38,39,39,41,41,42,42,43,43,44,44,45,45,46,46,47,47,48,48,49,49,50,50,51,51,53,53,54,54,55,55,56,56,57,57,58,58,59,59],"right_children":[2,4,6,8,10,12,14,16,18,20,22,24,26,28,30,-1,32,34,36,38,40,42,44,46,48,50,52,54,56,58,60,62,-1,64,66,68,70,72,74,76,-1,78,80,82,84,86,88,90,92,94,96,98,-1,100,102,104,106,108,110,112,-1,-1,-1,-1,-1,-1,-1,-1,-1,-1,-1,-1,-1,-1,-1,-1,-1,-1,-1,-1,-1,-1,-1,-1,-1,-1,-1,-1,-1,-1,-1,-1,-1,-1,-1,-1,-1,-1,-1,-1,-1,-1,-1,-1,-1,-1,-1,-1,-1,-1,-1,-1,-1],"split_conditions":[1.97E2,1.62E2,2.43E2,1.42E2,1.82E2,2.21E2,2.66E2,1.23E2,1.53E2,1.96E2,3E0,4E0,4E0,-4E0,7E0,-2.036494E0,1.5E1,6E0,2.2701082E-1,8.638671E-1,2.45E1,-1.9E0,5.230943E-1,2.1E2,2E-2,9E-2,7E-2,8.4024805E-1,3.6948368E-1,2.54E2,2.8E2,7.971016E-1,-2.50411E-1,1.47E2,2.37E0,-6.474428E-1,1.69E2,1.71E2,1.44E1,-8.1366783E-1,1.2617873E0,1.96E1,-4.300593E-3,1.85E2,2.9E0,-6.208444E-1,2.6556304E-1,-5.654755E-1,1.1257143E1,2.07E2,1.78E1,2.2042856E1,4.497908E-1,6.9E0,3.2E0,2.41E2,2.53E2,4.78E1,2.73E2,3.6E1,3.247299E0,-1.5862787E0,-1.3438227E0,-1.3212539E0,-1.1625499E0,-1.0166682E0,-1.6593786E-1,-1.1682057E0,-7.24514E-1,-1.0719379E0,-6.6477734E-1,-8.609937E-1,-6.14681E-1,-5.08704E-1,1.6593964E-1,1.5344691E-1,-4.5889774E-1,-3.9079327E-2,-3.2990098E0,-2.9612872E-1,2.5371043E-2,6.47402E-1,-1.6089363E-1,7.30123E-1,-4.14532E-2,-1.5425514E-1,2.197757E-1,3.327086E-1,8.1549215E-1,9.8472357E-1,5.2590704E-1,1.874853E0,9.78604E-1,-8.305606E-2,8.141497E-1,1.1656951E0,2.2766104E0,1.5229529E0,7.9261965E-1,1.231726E0,6.161468E-1,-3.441852E-1,7.0160973E-1,6.599789E-1,1.3837174E0,1.5926754E0,2.2584198E0,1.6033515E0,7.983551E-1,1.7117376E0,2.298562E0,1.739714E0,2.7925062E0],"split_indices":[9,10,9,9,9,9,9,11,9,12,22,22,22,22,22,0,22,22,26,25,14,1,25,9,19,19,3,25,25,11,11,25,0,9,6,26,12,12,1,25,0,15,25,10,0,26,25,26,18,10,15,18,0,0,0,10,12,14,9,24,0,0,0,0,0,0,0,0,0,0,0,0,0,0,0,0,0,0,0,0,0,0,0,0,0,0,0,0,0,0,0,0,0,0,0,0,0,0,0,0,0,0,0,0,0,0,0,0,0,0,0,0,0],"split_type":[0,0,0,0,0,0,0,0,0,0,0,0,0,0,0,0,0,0,0,0,0,0,0,0,0,0,0,0,0,0,0,0,0,0,0,0,0,0,0,0,0,0,0,0,0,0,0,0,0,0,0,0,0,0,0,0,0,0,0,0,0,0,0,0,0,0,0,0,0,0,0,0,0,0,0,0,0,0,0,0,0,0,0,0,0,0,0,0,0,0,0,0,0,0,0,0,0,0,0,0,0,0,0,0,0,0,0,0,0,0,0,0,0],"sum_hessian":[4.501E3,2.517E3,1.984E3,1.289E3,1.228E3,1.196E3,7.88E2,5.36E2,7.53E2,6.99E2,5.29E2,6.98E2,4.98E2,3.75E2,4.13E2,5.4E1,4.82E2,4.47E2,3.06E2,6.52E2,4.7E1,4.57E2,7.2E1,5.94E2,1.04E2,3.87E2,1.11E2,1.06E2,2.69E2,3.43E2,7E1,4.77E2,5E0,4.28E2,1.9E1,1.08E2,1.98E2,5.21E2,1.31E2,3.9E1,8E0,3E1,4.27E2,3.2E1,4E1,3.71E2,2.23E2,8.4E1,2E1,3.77E2,1E1,1.03E2,8E0,9.6E1,1E1,1.47E2,1.22E2,6.2E1,2.81E2,3.3E1,3.7E1,3.53E2,1.24E2,1.89E2,2.39E2,1.3E1,6E0,1.3E1,9.5E1,1.91E2,7E0,1.52E2,3.69E2,1.02E2,2.9E1,9E0,3E1,2.5E1,5E0,2.85E2,1.42E2,6E0,2.6E1,3.1E1,9E0,6.9E1,3.02E2,1.82E2,4.1E1,3.2E1,5.2E1,8E0,1.2E1,9E0,3.68E2,5E0,5E0,8.7E1,1.6E1,8.5E1,1.1E1,5E0,5E0,7E0,1.4E2,8.8E1,3.4E1,4.8E1,1.4E1,6.3E1,2.18E2,1.6E1,1.7E1],"tree_param":{"num_deleted":"0","num_feature":"28","num_nodes":"113","size_leaf_vector":"1"}},{"base_weights":[1.2607227E-1,-1.6568222E1,2.1165215E1,-2.4601858E1,-7.481489E0,1.2693698E1,3.7750435E1,-2.9724295E1,-2.0656485E1,-1.1515306E1,-2.8493254E0,7.3838234E0,2.0083261E1,3.0717358E1,4.471294E1,-3.8618156E1,-2.8563381E1,-2.2069338E1,-1.7274986E1,-1.23166065E1,-3.371124E0,-1.984683E1,-1.9371741E0,5.3252964E0,1.3364675E1,1.7950184E1,2.8229319E1,3.2125008E1,1.8719248E1,4.1817528E1,5.7381466E1,-1.9877084E0,-1.1837152E0,-2.8872871E1,-1.3150373E1,-2.303158E1,-1.927044E1,-2.597963E-1,-1.7577593E1,-1.43635235E1,-1.0197646E1,-5.698799E0,4.1807982E-1,1.1689827E0,-4.8558154E0,-4.547538E0,2.9655142E0,2.9790273E0,9.16422E0,9.306164E0,2.1461863E1,9.088517E0,1.9485334E1,3.541667E1,2.555984E1,2.995927E1,3.9413723E1,1.9823515E1,5.4913557E-1,2.751324E1,4.3967316E1,2.2137907E0,6.2824898E1,-1.563952E0,-1.3709964E0,-3.3362383E-1,-8.404973E-1,-1.223059E0,-1.0548204E0,-9.25188E-2,-9.9459857E-1,-9.5135635E-1,-6.969356E-1,-7.334762E-1,1.2743816E-1,-1.4758222E-1,-5.39496E-1,-6.3329333E-1,-7.993058E-2,-4.4792842E-2,1.7560337E-1,-5.6738037E-1,-1.8688177E-1,-4.767067E-4,5.9141827E-1,-1.1526098E-1,2.239265E-1,4.1808197E-1,9.730854E-1,2.9143244E-1,1.0524005E0,1.5126408E0,6.7685634E-1,5.481802E-1,-5.892735E-1,8.212491E-1,1.1500593E0,1.088375E0,1.9891484E0,9.419417E-1,1.5243038E0,5.0061804E-1,1.5261191E0,1.8124455E0,2.890751E0,1.0657809E0,6.3351274E-1,1.4831321E0,5.3655463E-1,2.2424583E0,1.173321E0,3.6729665E0,2.5883217E0],"categories":[],"categories_nodes":[],"categories_segments":[],"categories_sizes":[],"default_left":[0,0,0,0,0,0,0,0,0,0,0,0,0,0,0,0,0,0,0,0,0,0,0,0,0,0,0,0,0,0,0,0,0,0,0,0,0,0,0,0,0,0,0,0,0,0,0,0,0,0,0,0,0,0,0,0,0,0,0,0,0,0,0,0,0,0,0,0,0,0,0,0,0,0,0,0,0,0,0,0,0,0,0,0,0,0,0,0,0,0,0,0,0,0,0,0,0,0,0,0,0,0,0,0,0,0,0,0,0,0,0,0,0],"id":14,"left_children":[1,3,5,7,9,11,13,15,17,19,21,23,25,27,29,31,33,35,37,39,41,43,45,47,49,51,53,55,57,59,61,-1,-1,63,65,67,69,-1,71,73,75,77,-1,79,-1,81,83,85,87,89,91,93,95,97,99,101,103,105,-1,107,109,-1,111,-1,-1,-1,-1,-1,-1,-1,-1,-1,-1,-1,-1,-1,-1,-1,-1,-1,-1,-1,-1,-1,-1,-1,-1,-1,-1,-1,-1,-1,-1,-1,-1,-1,-1,-1,-1,-1,-1,-1,-1,-1,-1,-1,-1,-1,-1,-1,-1,-1,-1],"loss_changes":[1.5861711E6,1.8362544E5,2.8023875E5,2.63815E4,2.2070477E4,5.179961E4,3.167225E4,4.868375E3,3.2361875E3,4.0812969E3,8.517748E3,9.431625E3,9.0976875E3,5.119E3,9.9519375E3,1.39E2,2.0775312E3,9.8203125E2,7.3977344E2,2.345039E3,1.6313623E3,4.559179E4,6.7324893E3,5.1596016E3,6.2711133E3,5.8194062E3,1.2567266E3,3.5794688E3,1.038457E2,7.3319688E3,1.4880469E3,0E0,0E0,9.019375E2,1.6996387E2,5.583594E2,1.4984688E3,0E0,9.0246875E2,1.5394023E3,1.1941816E3,1.3780734E3,0E0,1.146841E2,0E0,1.8451138E3,4.826531E3,2.8551648E3,1.6361641E3,5.3053467E3,4.114375E3,2.751546E3,3.6531719E3,7.965625E2,2.2681484E3,2.3524219E3,1.7384844E3,6.807617E1,0E0,1.0844414E3,3.279625E3,0E0,8.8875E2,0E0,0E0,0E0,0E0,0E0,0E0,0E0,0E0,0E0,0E0,0E0,0E0,0E0,0E0,0E0,0E0,0E0,0E0,0E0,0E0,0E0,0E0,0E0,0E0,0E0,0E0,0E0,0E0,0E0,0E0,0E0,0E0,0E0,0E0,0E0,0E0,0E0,0E0,0E0,0E0,0E0,0E0,0E0,0E0,0E0,0E0,0E0,0E0,0E0,0E0],"parents":[2147483647,0,0,1,1,2,2,3,3,4,4,5,5,6,6,7,7,8,8,9,9,10,10,11,11,12,12,13,13,14,14,15,15,16,16,17,17,18,18,19,19,20,20,21,21,22,22,23,23,24,24,25,25,26,26,27,27,28,28,29,29,30,30,33,33,34,34,35,35,36,36,38,38,39,39,40,40,41,41,43,43,45,45,46,46,47,47,48,48,49,49,50,50,51,51,52,52,53,53,54,54,55,55,56,56,57,57,59,59,60,60,62,62],"right_children":[2,4,6,8,10,12,14,16,18,20,22,24,26,28,30,32,34,36,38,40,42,44,46,48,50,52,54,56,58,60,62,-1,-1,64,66,68,70,-1,72,74,76,78,-1,80,-1,82,84,86,88,90,92,94,96,98,100,102,104,106,-1,108,110,-1,112,-1,-1,-1,-1,-1,-1,-1,-1,-1,-1,-1,-1,-1,-1,-1,-1,-1,-1,-1,-1,-1,-1,-1,-1,-1,-1,-1,-1,-1,-1,-1,-1,-1,-1,-1,-1,-1,-1,-1,-1,-1,-1,-1,-1,-1,-1,-1,-1,-1,-1],"split_conditions":[1.97E2,1.63E2,2.49E2,1.43E2,1.81E2,2.24E2,2.72E2,1.25E2,1.56E2,4E0,-1.6428572E0,4.5753136E-1,5E0,7.3E1,3.07E2,1.0766666E1,7E0,8.9645624E-1,-9.9262893E-1,1.71E2,2.4E1,-2.0333333E0,3.439806E-2,2.12E2,1.58E1,-7E0,3E0,5E0,2.64E2,-1.2E1,-4.300593E-3,-1.9877084E0,-1.1837152E0,1.35E2,1.1E0,1.52E2,-3.684844E-1,-2.597963E-1,4.5753136E-1,1.93E2,-1.5E1,1.68E2,4.1807982E-1,1.5E1,-4.8558154E0,-4E0,3.1E0,-2E0,4.78E1,4E-2,1.2E1,2.66E2,2.37E2,2.14E2,2.35E2,-2E1,2.85E2,2.46E2,5.4913557E-1,-4.5848712E-1,-4.9253273E-1,2.2137907E0,1.8175979E-1,-1.563952E0,-1.3709964E0,-3.3362383E-1,-8.404973E-1,-1.223059E0,-1.0548204E0,-9.25188E-2,-9.9459857E-1,-9.5135635E-1,-6.969356E-1,-7.334762E-1,1.2743816E-1,-1.4758222E-1,-5.39496E-1,-6.3329333E-1,-7.993058E-2,-4.4792842E-2,1.7560337E-1,-5.6738037E-1,-1.8688177E-1,-4.767067E-4,5.9141827E-1,-1.1526098E-1,2.239265E-1,4.1808197E-1,9.730854E-1,2.9143244E-1,1.0524005E0,1.5126408E0,6.7685634E-1,5.481802E-1,-5.892735E-1,8.212491E-1,1.1500593E0,1.088375E0,1.9891484E0,9.419417E-1,1.5243038E0,5.0061804E-1,1.5261191E0,1.8124455E0,2.890751E0,1.0657809E0,6.3351274E-1,1.4831321E0,5.3655463E-1,2.2424583E0,1.173321E0,3.6729665E0,2.5883217E0],"split_indices":[8,9,8,8,8,8,8,11,8,22,18,25,22,15,8,16,22,25,25,8,22,16,25,8,16,22,13,22,8,22,25,0,0,10,13,11,26,0,25,12,24,8,0,15,0,22,2,22,14,19,24,10,8,11,9,22,11,12,0,26,26,0,25,0,0,0,0,0,0,0,0,0,0,0,0,0,0,0,0,0,0,0,0,0,0,0,0,0,0,0,0,0,0,0,0,0,0,0,0,0,0,0,0,0,0,0,0,0,0,0,0,0,0],"split_type":[0,0,0,0,0,0,0,0,0,0,0,0,0,0,0,0,0,0,0,0,0,0,0,0,0,0,0,0,0,0,0,0,0,0,0,0,0,0,0,0,0,0,0,0,0,0,0,0,0,0,0,0,0,0,0,0,0,0,0,0,0,0,0,0,0,0,0,0,0,0,0,0,0,0,0,0,0,0,0,0,0,0,0,0,0,0,0,0,0,0,0,0,0,0,0,0,0,0,0,0,0,0,0,0,0,0,0,0,0,0,0,0,0],"sum_hessian":[4.514E3,2.517E3,1.997E3,1.335E3,1.182E3,1.323E3,6.74E2,5.78E2,7.57E2,6.31E2,5.51E2,7.71E2,5.52E2,3.38E2,3.36E2,6.3E1,5.15E2,5.3E2,2.27E2,5.74E2,5.7E1,2.7E1,5.24E2,5.75E2,1.96E2,4.4E2,1.12E2,3.01E2,3.7E1,2.77E2,5.9E1,5.7E1,6E0,5.04E2,1.1E1,3.89E2,1.41E2,6E0,2.21E2,2.89E2,2.85E2,4.8E1,9E0,2.2E1,5E0,3.42E2,1.82E2,3.58E2,2.17E2,1.32E2,6.4E1,6.6E1,3.74E2,2.7E1,8.5E1,2.36E2,6.5E1,3.1E1,6E0,3.8E1,2.39E2,2E1,3.9E1,1.82E2,3.22E2,5E0,6E0,2.17E2,1.72E2,5E0,1.36E2,1.55E2,6.6E1,2.84E2,5E0,2.2E1,2.63E2,1.7E1,3.1E1,1.2E1,1E1,3.5E1,3.07E2,1.37E2,4.5E1,7.9E1,2.79E2,2.03E2,1.4E1,1.03E2,2.9E1,2.9E1,3.5E1,6.1E1,5E0,2.03E2,1.71E2,8E0,1.9E1,3.8E1,4.7E1,7E0,2.29E2,5.8E1,7E0,2.4E1,7E0,3.3E1,5E0,2.28E2,1.1E1,1.7E1,2.2E1],"tree_param":{"num_deleted":"0","num_feature":"28","num_nodes":"113","size_leaf_vector":"1"}},{"base_weights":[-1.1847572E-2,-1.5560099E1,2.007391E1,-2.3493164E1,-6.968829E0,8.900187E0,3.0990496E1,-2.8600441E1,-2.0099337E1,-1.0646457E1,-2.518886E0,4.3391075E0,1.2217551E1,2.4185745E1,4.0183895E1,-1.8667204E0,-2.743054E1,-2.2177921E1,-1.77877E1,-1.1187989E1,4.9750104E0,-1.6732655E1,-1.6697564E0,2.9736395E0,1.3478701E1,9.325185E0,1.6828405E1,1.6366123E1,2.6402964E1,3.785401E1,5.786671E1,-2.7675861E1,-6.7454153E-1,-2.2615093E1,-1.6249336E1,-1.8297209E1,-7.671223E0,-1.3730765E1,-9.181514E0,-2.9054832E-1,1.1121595E1,1.378099E0,-3.9518914E0,-4.183486E0,2.3005056E0,1.9381597E0,9.311431E0,1.7195396E1,6.481383E0,7.4498005E0,1.3517808E1,5.128656E-1,1.7961761E1,3.0673915E-1,1.8162376E1,2.2558239E1,3.110849E1,3.9202557E1,2.1665173E1,4.5693027E1,6.6747826E1,-1.3916095E0,-6.829085E-1,-6.5571946E-1,-1.1430253E0,-9.5188105E-1,-4.5932326E-1,-7.797212E-1,-9.560424E-1,1.9526724E-2,-5.195589E-1,-7.009707E-1,9.334875E-2,-4.982245E-1,-1.5603255E-1,9.117686E-3,8.28149E-1,-6.175069E-2,1.7633086E-1,-4.8818493E-1,-1.5933296E-1,3.1814624E-2,7.3410416E-1,-2.3442829E-1,1.6333272E-1,8.001055E-1,1.9556057E-1,1.0727518E0,5.528057E-1,7.980649E-1,1.1253293E-1,4.2208806E-1,-3.7904877E-2,4.5147553E-1,8.608001E-1,-2.4408977E-1,4.717578E-1,5.2374452E-2,9.374321E-1,-6.956832E-1,4.8820186E-1,1.1032964E0,7.379287E-1,1.0251231E0,1.3469852E0,1.6346684E0,5.5650026E-1,1.8305187E0,2.3055196E0,1.2058333E0,5.795025E-1,1.3507173E0,2.46876E0,3.5621896E0,2.031E0],"categories":[],"categories_nodes":[],"categories_segments":[],"categories_sizes":[],"default_left":[0,0,0,0,0,0,0,0,0,0,0,0,0,0,0,0,0,0,0,0,0,0,0,0,0,0,0,0,0,0,0,0,0,0,0,0,0,0,0,0,0,0,0,0,0,0,0,0,0,0,0,0,0,0,0,0,0,0,0,0,0,0,0,0,0,0,0,0,0,0,0,0,0,0,0,0,0,0,0,0,0,0,0,0,0,0,0,0,0,0,0,0,0,0,0,0,0,0,0,0,0,0,0,0,0,0,0,0,0,0,0,0,0,0,0],"id":15,"left_children":[1,3,5,7,9,11,13,15,17,19,21,23,25,27,29,-1,31,33,35,37,39,41,43,45,47,49,51,53,55,57,59,61,-1,63,65,67,69,71,73,-1,75,77,-1,79,81,83,85,87,89,91,93,95,97,99,101,103,105,107,109,111,113,-1,-1,-1,-1,-1,-1,-1,-1,-1,-1,-1,-1,-1,-1,-1,-1,-1,-1,-1,-1,-1,-1,-1,-1,-1,-1,-1,-1,-1,-1,-1,-1,-1,-1,-1,-1,-1,-1,-1,-1,-1,-1,-1,-1,-1,-1,-1,-1,-1,-1,-1,-1,-1,-1],"loss_changes":[1.402844E6,1.7240194E5,2.3879888E5,2.223075E4,1.9888352E4,1.4622172E4,6.10175E4,4.3134062E3,3.416625E3,5.690336E3,6.6324917E3,5.075001E3,7.3221094E3,9.480844E3,1.51034375E4,0E0,1.2126562E3,7.0165625E2,1.820875E3,3.157336E3,1.5899874E3,3.509689E4,5.219458E3,2.3302588E3,1.2645488E3,2.625582E3,3.9645781E3,3.7138008E3,7.3255E3,7.3095625E3,2.0202969E3,6.1496875E2,0E0,5.8959375E2,4.524746E2,5.041953E2,4.436106E2,1.2970273E3,1.6902188E3,0E0,8.881747E2,1.449426E2,0E0,1.7475938E3,4.1720596E3,2.735476E3,1.741978E3,6.4867773E2,7.6439343E2,1.9775088E3,1.601375E3,7.6850684E2,2.6535898E3,2.0182509E3,1.2119414E3,1.6767422E3,5.8694375E3,4.463375E3,4.8258594E2,2.4041797E2,3.1632812E1,0E0,0E0,0E0,0E0,0E0,0E0,0E0,0E0,0E0,0E0,0E0,0E0,0E0,0E0,0E0,0E0,0E0,0E0,0E0,0E0,0E0,0E0,0E0,0E0,0E0,0E0,0E0,0E0,0E0,0E0,0E0,0E0,0E0,0E0,0E0,0E0,0E0,0E0,0E0,0E0,0E0,0E0,0E0,0E0,0E0,0E0,0E0,0E0,0E0,0E0,0E0,0E0,0E0,0E0],"parents":[2147483647,0,0,1,1,2,2,3,3,4,4,5,5,6,6,7,7,8,8,9,9,10,10,11,11,12,12,13,13,14,14,16,16,17,17,18,18,19,19,20,20,21,21,22,22,23,23,24,24,25,25,26,26,27,27,28,28,29,29,30,30,31,31,33,33,34,34,35,35,36,36,37,37,38,38,40,40,41,41,43,43,44,44,45,45,46,46,47,47,48,48,49,49,50,50,51,51,52,52,53,53,54,54,55,55,56,56,57,57,58,58,59,59,60,60],"right_children":[2,4,6,8,10,12,14,16,18,20,22,24,26,28,30,-1,32,34,36,38,40,42,44,46,48,50,52,54,56,58,60,62,-1,64,66,68,70,72,74,-1,76,78,-1,80,82,84,86,88,90,92,94,96,98,100,102,104,106,108,110,112,114,-1,-1,-1,-1,-1,-1,-1,-1,-1,-1,-1,-1,-1,-1,-1,-1,-1,-1,-1,-1,-1,-1,-1,-1,-1,-1,-1,-1,-1,-1,-1,-1,-1,-1,-1,-1,-1,-1,-1,-1,-1,-1,-1,-1,-1,-1,-1,-1,-1,-1,-1,-1,-1,-1],"split_conditions":[1.98E2,1.63E2,2.34E2,1.42E2,1.82E2,2.11E2,2.66E2,1.24E2,1.52E2,1E1,-1.6428572E0,4E0,-5.587876E-2,-5E0,3.13E2,-1.8667204E0,5.44E1,9.888537E-1,7E0,1.7E2,1.68E2,8.271893E-1,3.439806E-2,8.073707E-1,1.04E1,3.89E-1,-9E0,-2.9E1,3.474028E-1,-4.9253273E-1,-1.4E1,1.47E2,-6.7454153E-1,-1.3E1,5E-1,8.697723E-2,1.0257143E1,1.17E-1,2E0,-2.9054832E-1,5.5E0,1.34E1,-3.9518914E0,-3E0,7E0,-3E0,9.206588E-1,2.06E2,1.11E0,3E0,2.2E2,2.3E2,4.3E0,1.9685715E1,2.0542856E1,2.53E2,7E-2,4E0,7E-2,4.29E1,4E1,-1.3916095E0,-6.829085E-1,-6.5571946E-1,-1.1430253E0,-9.5188105E-1,-4.5932326E-1,-7.797212E-1,-9.560424E-1,1.9526724E-2,-5.195589E-1,-7.009707E-1,9.334875E-2,-4.982245E-1,-1.5603255E-1,9.117686E-3,8.28149E-1,-6.175069E-2,1.7633086E-1,-4.8818493E-1,-1.5933296E-1,3.1814624E-2,7.3410416E-1,-2.3442829E-1,1.6333272E-1,8.001055E-1,1.9556057E-1,1.0727518E0,5.528057E-1,7.980649E-1,1.1253293E-1,4.2208806E-1,-3.7904877E-2,4.5147553E-1,8.608001E-1,-2.4408977E-1,4.717578E-1,5.2374452E-2,9.374321E-1,-6.956832E-1,4.8820186E-1,1.1032964E0,7.379287E-1,1.0251231E0,1.3469852E0,1.6346684E0,5.5650026E-1,1.8305187E0,2.3055196E0,1.2058333E0,5.795025E-1,1.3507173E0,2.46876E0,3.5621896E0,2.031E0],"split_indices":[8,9,8,8,8,8,8,10,8,22,18,22,25,22,8,0,15,25,22,8,10,25,25,25,13,5,22,23,25,26,22,10,0,24,17,26,18,21,22,0,2,15,0,22,22,22,25,8,6,24,9,10,18,18,18,8,3,22,3,15,24,0,0,0,0,0,0,0,0,0,0,0,0,0,0,0,0,0,0,0,0,0,0,0,0,0,0,0,0,0,0,0,0,0,0,0,0,0,0,0,0,0,0,0,0,0,0,0,0,0,0,0,0,0,0],"split_type":[0,0,0,0,0,0,0,0,0,0,0,0,0,0,0,0,0,0,0,0,0,0,0,0,0,0,0,0,0,0,0,0,0,0,0,0,0,0,0,0,0,0,0,0,0,0,0,0,0,0,0,0,0,0,0,0,0,0,0,0,0,0,0,0,0,0,0,0,0,0,0,0,0,0,0,0,0,0,0,0,0,0,0,0,0,0,0,0,0,0,0,0,0,0,0,0,0,0,0,0,0,0,0,0,0,0,0,0,0,0,0,0,0,0,0],"sum_hessian":[4.49E3,2.531E3,1.959E3,1.315E3,1.216E3,9.69E2,9.9E2,5.22E2,7.93E2,6.65E2,5.51E2,4.09E2,5.6E2,5.71E2,4.19E2,5.8E1,4.64E2,4.13E2,3.8E2,6.43E2,2.2E1,3E1,5.21E2,3.57E2,5.2E1,3.46E2,2.14E2,1.28E2,4.43E2,3.73E2,4.6E1,4.55E2,9E0,3.82E2,3.1E1,3.61E2,1.9E1,2.81E2,3.62E2,8E0,1.4E1,2.4E1,6E0,3.19E2,2.02E2,3.08E2,4.9E1,3.3E1,1.9E1,2.41E2,1.05E2,1.4E1,2E2,1.3E1,1.15E2,2.47E2,1.96E2,3.43E2,3E1,2.2E1,2.4E1,4.49E2,6E0,1.1E1,3.71E2,2.1E1,1E1,8.9E1,2.72E2,5E0,1.4E1,2.76E2,5E0,3.2E2,4.2E1,5E0,9E0,1.1E1,1.3E1,4.7E1,2.72E2,1.79E2,2.3E1,5.1E1,2.57E2,2.1E1,2.8E1,1.8E1,1.5E1,5E0,1.4E1,2.15E2,2.6E1,4.9E1,5.6E1,9E0,5E0,9E0,1.91E2,5E0,8E0,5.1E1,6.4E1,1.72E2,7.5E1,1.81E2,1.5E1,2.54E2,8.9E1,2.3E1,7E0,5E0,1.7E1,1.9E1,5E0],"tree_param":{"num_deleted":"0","num_feature":"28","num_nodes":"115","size_leaf_vector":"1"}},{"base_weights":[2.4359568E-3,-1.4680538E1,1.8729782E1,-2.2704834E1,-6.7709694E0,1.0212202E1,3.1148575E1,-2.6983301E1,-1.9078646E1,-1.1109189E1,-2.9181683E0,6.176312E0,1.6321856E1,2.3772364E1,3.781814E1,-1.810248E0,-2.5989407E1,-2.0980087E1,-1.6973806E1,-1.1963238E1,-3.6786332E0,-4.357285E0,3.023185E0,5.1873164E0,1.7168722E1,1.30310955E1,1.9088318E1,1.5098754E1,2.5331678E1,3.5489693E1,5.327002E1,-2.7036158E1,-2.2990768E1,-2.129301E1,-1.3967704E1,-1.7457144E1,-9.071795E0,-1.3749646E1,-1.00061E1,-9.036848E0,8.632771E-1,-6.386032E0,-2.0062075E0,1.2775044E0,1.7638384E1,3.179486E0,8.044478E0,1.8785286E1,1.346496E-1,-8.2010955E-1,1.377882E1,2.5912415E1,1.6712093E1,-3.1615043E-1,1.7994595E1,2.2241808E1,2.9386162E1,3.6717903E1,2.0950195E1,1.245736E0,5.5702557E1,-1.4233094E0,-1.2472144E0,-4.011956E-1,-1.1797893E0,-1.0999312E0,-9.492424E-1,-3.7564006E-1,-8.691649E-1,-5.772781E-1,-9.014935E-1,-5.975153E-1,-7.966509E-2,-8.3292514E-1,-5.851807E-1,-5.1995224E-1,2.8055882E-1,2.0583222E-2,-6.6571313E-1,4.5266867E-1,-2.1916485E-1,-8.953218E-1,-2.6884523E-1,-1.3572683E-2,-3.916083E-1,-4.0888106E-3,8.0559206E-1,1.6201885E-1,1.4009671E0,1.0088556E-1,4.6482322E-1,1.0794966E0,3.6624047E-1,1.1356924E0,6.4199895E-1,-3.6046758E-1,3.377012E-1,5.376011E-1,8.5512275E-1,1.0664821E0,1.8526144E0,2.188365E-1,8.992187E-1,4.54605E-1,9.904489E-1,1.4516567E0,1.0330982E0,1.2843047E0,1.8710402E0,1.6847504E0,2.110588E0,1.2414589E0,5.155706E-1,2.9397984E0,1.7876892E0],"categories":[],"categories_nodes":[],"categories_segments":[],"categories_sizes":[],"default_left":[0,0,0,0,0,0,0,0,0,0,0,0,0,0,0,0,0,0,0,0,0,0,0,0,0,0,0,0,0,0,0,0,0,0,0,0,0,0,0,0,0,0,0,0,0,0,0,0,0,0,0,0,0,0,0,0,0,0,0,0,0,0,0,0,0,0,0,0,0,0,0,0,0,0,0,0,0,0,0,0,0,0,0,0,0,0,0,0,0,0,0,0,0,0,0,0,0,0,0,0,0,0,0,0,0,0,0,0,0,0,0,0,0,0,0],"id":16,"left_children":[1,3,5,7,9,11,13,15,17,19,21,23,25,27,29,-1,31,33,35,37,39,41,43,45,47,49,51,53,55,57,59,61,63,65,67,69,71,73,75,77,79,81,83,85,87,89,91,93,-1,95,97,99,101,-1,103,105,107,109,111,-1,113,-1,-1,-1,-1,-1,-1,-1,-1,-1,-1,-1,-1,-1,-1,-1,-1,-1,-1,-1,-1,-1,-1,-1,-1,-1,-1,-1,-1,-1,-1,-1,-1,-1,-1,-1,-1,-1,-1,-1,-1,-1,-1,-1,-1,-1,-1,-1,-1,-1,-1,-1,-1,-1,-1],"loss_changes":[1.2357298E6,1.5972106E5,2.0858944E5,1.8873688E4,2.1193336E4,2.8820648E4,3.859925E4,4.28625E3,2.3615938E3,3.7430234E3,5.7762104E3,7.6056855E3,3.9903984E3,4.8070312E3,1.321175E4,0E0,1.00246875E3,4.7365625E2,1.0917344E3,1.7305391E3,1.5418201E3,2.5763184E3,3.343353E3,3.7078887E3,1.3045195E3,2.2496797E3,3.6327969E3,3.8990215E3,3.40025E3,5.7965938E3,