{"learner":{"attributes":{"best_iteration":"92","best_score":"20.272710606166108"},"feature_names":["precipitation_sum","temperature_2m_max","temperature_2m_min","snowfall_sum","snow_depth_mean","soil_moisture_0_to_7cm_mean","et0_fao_evapotranspiration","rain_sum","level_lag_1","level_lag_2","level_lag_3","level_lag_7","level_lag_14","precip_3d","precip_7d","precip_14d","tmax_3d","tmin_3d","tmax_7d","snow_melt_3d","snow_melt_7d","soil_moisture_change_7d","level_change_1d","level_change_3d","level_change_7d","sin_doy","cos_doy","month"],"feature_types":[],"gradient_booster":{"model":{"cats":{"enc":[],"feature_segments":[],"sorted_idx":[]},"gbtree_model_param":{"num_parallel_tree":"1","num_trees":"143"},"iteration_indptr":[0,1,2,3,4,5,6,7,8,9,10,11,12,13,14,15,16,17,18,19,20,21,22,23,24,25,26,27,28,29,30,31,32,33,34,35,36,37,38,39,40,41,42,43,44,45,46,47,48,49,50,51,52,53,54,55,56,57,58,59,60,61,62,63,64,65,66,67,68,69,70,71,72,73,74,75,76,77,78,79,80,81,82,83,84,85,86,87,88,89,90,91,92,93,94,95,96,97,98,99,100,101,102,103,104,105,106,107,108,109,110,111,112,113,114,115,116,117,118,119,120,121,122,123,124,125,126,127,128,129,130,131,132,133,134,135,136,137,138,139,140,141,142,143],"tree_info":[0,0,0,0,0,0,0,0,0,0,0,0,0,0,0,0,0,0,0,0,0,0,0,0,0,0,0,0,0,0,0,0,0,0,0,0,0,0,0,0,0,0,0,0,0,0,0,0,0,0,0,0,0,0,0,0,0,0,0,0,0,0,0,0,0,0,0,0,0,0,0,0,0,0,0,0,0,0,0,0,0,0,0,0,0,0,0,0,0,0,0,0,0,0,0,0,0,0,0,0,0,0,0,0,0,0,0,0,0,0,0,0,0,0,0,0,0,0,0,0,0,0,0,0,0,0,0,0,0,0,0,0,0,0,0,0,0,0,0,0,0,0,0],"trees":[{"base_weights":[-3.1848317E-1,-1.1686635E1,3.1470251E1,-2.498926E1,-4.041571E0,2.190647E1,6.0203377E1,-2.9227135E1,-1.8625729E1,-5.9757476E0,8.607405E0,1.0681326E1,2.6582172E1,7.2133575E1,4.1655643E1,-3.160525E1,-2.2246737E1,-2.0007744E1,5.735037E0,-1.1976314E1,-2.3247962E0,3.0254E0,1.6233828E1,7.6387515E0,4.6765297E1,4.9725647E1,2.3075476E1,5.3189022E1,8.849679E1,3.9288323E0,3.431697E1,-3.5308857E1,-2.6572992E1,-2.4604174E1,-2.310827E0,-2.2416763E1,-1.3327187E1,8.952555E-2,4.9864966E-1,-1.7488365E1,-7.4662127E0,-1.0784891E1,9.617984E-1,-9.124897E-1,1.2105461E1,1.8529064E1,9.883212E-2,1.267653E1,-2.9516256E0,8.096594E-1,3.476326E0,2.2401659E1,5.71003E1,9.756788E0,2.5656837E1,2.7670916E1,6.114463E1,4.651187E0,3.053832E0,1.6666424E1,4.095803E1,-1.7911673E0,-7.88674E-1,-1.1393718E0,-1.5027674E0,-8.7999517E-1,-1.3773706E0,4.2007825E-1,-7.220073E-1,-1.2512295E0,-8.255035E-1,-7.662409E-1,1.9039235E-1,-1.3413901E0,-7.985489E-1,8.621734E-2,-4.5127162E-1,-6.7781436E-1,9.235402E-2,-6.2479503E-2,8.038616E-1,-4.3139362E-1,2.3698068E-1,1.720073E-1,9.400851E-1,8.148395E-1,1.701326E0,-1.6090592E-2,7.7275676E-1,-4.8651242E-1,2.8321168E-1,5.346594E-1,1.5179927E0,1.0716423E0,3.2774951E0,9.744976E-1,2.3001504E-1,6.300887E-1,1.3831141E0,6.915068E-1,1.8772211E0,3.4150875E0,1.9655374E0,1.0961254E0,1.6799271E-1,1.3082807E0,2.5374787E0],"categories":[],"categories_nodes":[],"categories_segments":[],"categories_sizes":[],"default_left":[0,0,0,0,0,0,0,0,0,0,0,0,0,0,0,0,0,0,0,0,0,0,0,0,0,0,0,0,0,0,0,0,0,0,0,0,0,0,0,0,0,0,0,0,0,0,0,0,0,0,0,0,0,0,0,0,0,0,0,0,0,0,0,0,0,0,0,0,0,0,0,0,0,0,0,0,0,0,0,0,0,0,0,0,0,0,0,0,0,0,0,0,0,0,0,0,0,0,0,0,0,0,0,0,0,0,0],"id":0,"left_children":[1,3,5,7,9,11,13,15,17,19,21,23,25,27,29,31,33,35,37,39,41,43,45,47,49,51,53,55,57,-1,59,61,63,65,67,69,71,-1,-1,73,75,77,79,81,83,85,-1,87,89,-1,-1,91,93,95,97,99,101,-1,-1,103,105,-1,-1,-1,-1,-1,-1,-1,-1,-1,-1,-1,-1,-1,-1,-1,-1,-1,-1,-1,-1,-1,-1,-1,-1,-1,-1,-1,-1,-1,-1,-1,-1,-1,-1,-1,-1,-1,-1,-1,-1,-1,-1,-1,-1,-1,-1],"loss_changes":[8.82131E5,1.8275166E5,1.7536762E5,1.714175E4,2.8015068E4,2.5115281E4,3.2388375E4,5.7987812E3,9.037906E3,2.1703238E4,6.419712E3,1.5446826E4,2.6519875E4,2.5038219E4,1.4904016E4,4.4604062E3,4.781207E3,3.737164E3,2.3171783E2,9.189395E3,1.7194783E4,3.194474E3,2.0556348E3,7.1875537E3,6.5200195E3,7.579133E3,9.991484E3,7.8407344E3,5.0946875E2,0E0,5.8758438E3,1.0781094E3,9.8403125E2,1.4072578E3,1.6811317E3,2.4015547E3,2.4213398E3,0E0,0E0,1.9480742E3,2.996955E3,6.082627E3,1.4929611E4,2.7885945E3,1.499772E3,1.3431484E3,0E0,3.2931533E3,2.625282E3,0E0,0E0,6.962119E2,8.833164E3,2.4173784E3,6.1665E3,1.2521592E3,2.7736094E3,0E0,0E0,1.1128032E3,4.458039E3,0E0,0E0,0E0,0E0,0E0,0E0,0E0,0E0,0E0,0E0,0E0,0E0,0E0,0E0,0E0,0E0,0E0,0E0,0E0,0E0,0E0,0E0,0E0,0E0,0E0,0E0,0E0,0E0,0E0,0E0,0E0,0E0,0E0,0E0,0E0,0E0,0E0,0E0,0E0,0E0,0E0,0E0,0E0,0E0,0E0,0E0],"parents":[2147483647,0,0,1,1,2,2,3,3,4,4,5,5,6,6,7,7,8,8,9,9,10,10,11,11,12,12,13,13,14,14,15,15,16,16,17,17,18,18,19,19,20,20,21,21,22,22,23,23,24,24,25,25,26,26,27,27,28,28,30,30,31,31,32,32,33,33,34,34,35,35,36,36,39,39,40,40,41,41,42,42,43,43,44,44,45,45,47,47,48,48,51,51,52,52,53,53,54,54,55,55,56,56,59,59,60,60],"right_children":[2,4,6,8,10,12,14,16,18,20,22,24,26,28,30,32,34,36,38,40,42,44,46,48,50,52,54,56,58,-1,60,62,64,66,68,70,72,-1,-1,74,76,78,80,82,84,86,-1,88,90,-1,-1,92,94,96,98,100,102,-1,-1,104,106,-1,-1,-1,-1,-1,-1,-1,-1,-1,-1,-1,-1,-1,-1,-1,-1,-1,-1,-1,-1,-1,-1,-1,-1,-1,-1,-1,-1,-1,-1,-1,-1,-1,-1,-1,-1,-1,-1,-1,-1,-1,-1,-1,-1,-1,-1],"split_conditions":[3.78E2,3.44E2,4.2E2,3.38E2,3.75E2,1.9864795E-1,-8.488827E-1,1.1E1,1.5E1,-2E0,-6E0,4.97E1,-8.27793E-1,1.34E1,-9.947883E-1,3.3E2,1.72E1,2.45E1,3.44E2,3.6E2,3.46E2,6E-1,4.58E0,2.4372971E-1,1.13E1,-4.4E-2,3.59E-1,-3.8E1,-9.68519E-1,3.9288323E0,-5.839515E-1,7.501537E-1,2.07E1,9.733334E0,4.49E1,6.874572E-1,3.66E2,8.952555E-2,4.9864966E-1,3.46E2,6.2E-1,5.65E1,2.2E1,-1.9E1,5.8045495E-1,4E1,9.883212E-2,3.8E2,1.2E1,8.096594E-1,3.476326E0,2.85E1,1.1433333E1,-3.7E-2,4.3E0,2.48E1,5.09E0,4.651187E0,3.053832E0,-8.517119E-1,-4.6215046E-2,-1.7911673E0,-7.88674E-1,-1.1393718E0,-1.5027674E0,-8.7999517E-1,-1.3773706E0,4.2007825E-1,-7.220073E-1,-1.2512295E0,-8.255035E-1,-7.662409E-1,1.9039235E-1,-1.3413901E0,-7.985489E-1,8.621734E-2,-4.5127162E-1,-6.7781436E-1,9.235402E-2,-6.2479503E-2,8.038616E-1,-4.3139362E-1,2.3698068E-1,1.720073E-1,9.400851E-1,8.148395E-1,1.701326E0,-1.6090592E-2,7.7275676E-1,-4.8651242E-1,2.8321168E-1,5.346594E-1,1.5179927E0,1.0716423E0,3.2774951E0,9.744976E-1,2.3001504E-1,6.300887E-1,1.3831141E0,6.915068E-1,1.8772211E0,3.4150875E0,1.9655374E0,1.0961254E0,1.6799271E-1,1.3082807E0,2.5374787E0],"split_indices":[9,9,9,10,10,25,26,23,23,23,23,14,26,14,25,9,13,15,10,10,10,7,6,26,17,21,5,23,26,0,25,26,16,16,14,26,10,0,0,10,6,15,23,23,25,24,0,9,27,0,0,15,17,21,18,1,6,0,0,25,26,0,0,0,0,0,0,0,0,0,0,0,0,0,0,0,0,0,0,0,0,0,0,0,0,0,0,0,0,0,0,0,0,0,0,0,0,0,0,0,0,0,0,0,0,0,0],"split_type":[0,0,0,0,0,0,0,0,0,0,0,0,0,0,0,0,0,0,0,0,0,0,0,0,0,0,0,0,0,0,0,0,0,0,0,0,0,0,0,0,0,0,0,0,0,0,0,0,0,0,0,0,0,0,0,0,0,0,0,0,0,0,0,0,0,0,0,0,0,0,0,0,0,0,0,0,0,0,0,0,0,0,0,0,0,0,0,0,0,0,0,0,0,0,0,0,0,0,0,0,0,0,0,0,0,0,0],"sum_hessian":[2.439E3,1.797E3,6.42E2,6.55E2,1.142E3,4.83E2,1.59E2,3.91E2,2.64E2,9.91E2,1.51E2,1.43E2,3.4E2,9.5E1,6.4E1,2.89E2,1.02E2,2.5E2,1.4E1,3.74E2,6.17E2,8.8E1,6.3E1,1.33E2,1E1,4.3E1,2.97E2,4.6E1,4.9E1,9E0,5.5E1,1.63E2,1.26E2,9.1E1,1.1E1,1.82E2,6.8E1,8E0,6E0,1.67E2,2.07E2,1.72E2,4.45E2,6.2E1,2.6E1,5.4E1,9E0,9E1,4.3E1,5E0,5E0,1E1,3.3E1,4.9E1,2.48E2,1.2E1,3.4E1,4E1,9E0,1.6E1,3.9E1,1.58E2,5E0,6.4E1,6.2E1,2.9E1,6.2E1,6E0,5E0,1.24E2,5.8E1,6.1E1,7E0,2.1E1,1.46E2,3E1,1.77E2,1.41E2,3.1E1,3.89E2,5.6E1,2.6E1,3.6E1,1.2E1,1.4E1,4.9E1,5E0,1.6E1,7.4E1,2.4E1,1.9E1,5E0,5E0,7E0,2.6E1,1.6E1,3.3E1,3.4E1,2.14E2,6E0,6E0,2.4E1,1E1,1.1E1,5E0,1.7E1,2.2E1],"tree_param":{"num_deleted":"0","num_feature":"28","num_nodes":"107","size_leaf_vector":"1"}},{"base_weights":[5.530708E-2,-1.0934934E1,3.0790213E1,-2.4009083E1,-3.3120794E0,2.1620491E1,6.3022846E1,-3.0141048E1,-2.0298254E1,-1.0146313E1,2.1473756E0,1.815616E1,3.9015247E1,3.0224854E1,6.727479E1,-3.2967793E1,-2.3382965E1,-2.1842512E1,-6.500167E0,-1.7054447E1,-6.298157E0,-4.938256E0,5.414181E0,1.3703704E1,2.408192E1,3.0479359E1,5.5270603E1,3.671263E1,5.5569285E-1,5.4494926E1,7.6045746E1,-3.3907356E1,-1.6209848E1,-2.4716925E1,-1.841978E-1,-2.2507542E1,-1.0265112E1,-1.0404823E1,4.6978694E-1,-2.2436573E1,-1.4220429E1,-7.9192805E0,5.749005E0,-6.225836E0,1.1462321E0,4.54716E0,2.914975E1,2.0658162E0,1.738038E1,2.738947E1,1.2717259E1,2.2665506E1,3.9949265E1,6.733482E1,1.1824701E0,1.1812961E0,2.22702E0,3.6876297E1,6.458629E1,7.984767E1,1.8056046E0,-1.725528E0,-6.278069E-1,-1.2356627E0,-2.4940674E-1,-4.9855614E-1,-1.2961568E0,-2.2003923E-1,-1.1458966E0,-6.526376E-1,-3.4230083E-1,-3.0379587E-1,-1.0304749E0,-3.871046E-1,-1.1814927E0,-8.5286134E-1,-4.271794E-1,-5.8764106E-1,-2.691797E-1,5.7814527E-2,1.5399776E0,-3.7796572E-1,2.4620967E-1,-1.4940916E-1,3.45139E-1,1.0070213E0,1.9645169E0,-5.01152E-1,2.8511488E-1,1.0973964E0,4.4746533E-1,7.3844177E-1,1.5176045E0,1.8907227E-1,1.1176292E0,6.2444866E-1,1.7019043E0,9.341364E-1,2.2997313E0,2.2178257E0,3.8517067E0,2.60975E0,1.2193699E0,2.11184E0,3.5022328E0,2.1923707E0,4.1076837E0],"categories":[],"categories_nodes":[],"categories_segments":[],"categories_sizes":[],"default_left":[0,0,0,0,0,0,0,0,0,0,0,0,0,0,0,0,0,0,0,0,0,0,0,0,0,0,0,0,0,0,0,0,0,0,0,0,0,0,0,0,0,0,0,0,0,0,0,0,0,0,0,0,0,0,0,0,0,0,0,0,0,0,0,0,0,0,0,0,0,0,0,0,0,0,0,0,0,0,0,0,0,0,0,0,0,0,0,0,0,0,0,0,0,0,0,0,0,0,0,0,0,0,0,0,0,0,0],"id":1,"left_children":[1,3,5,7,9,11,13,15,17,19,21,23,25,27,29,31,33,35,37,39,41,43,45,47,49,51,53,55,-1,57,59,61,63,65,-1,67,69,71,-1,73,75,77,79,81,-1,83,85,87,89,91,93,95,97,99,-1,-1,-1,101,103,105,-1,-1,-1,-1,-1,-1,-1,-1,-1,-1,-1,-1,-1,-1,-1,-1,-1,-1,-1,-1,-1,-1,-1,-1,-1,-1,-1,-1,-1,-1,-1,-1,-1,-1,-1,-1,-1,-1,-1,-1,-1,-1,-1,-1,-1,-1,-1],"loss_changes":[8.1946494E5,1.7801439E5,1.874945E5,1.4355719E4,4.218423E4,2.935625E4,1.7620125E4,3.9229062E3,8.6553125E3,1.3235207E4,1.4586484E4,1.0694797E4,9.684641E3,1.8189824E3,9.7421875E3,2.1377656E3,1.9032109E3,2.6221406E3,2.7667886E3,2.4075664E3,6.3734453E3,7.2803237E3,8.733732E3,1.0274238E4,6.3385312E3,3.2320742E3,8.69857E3,2.7258984E2,0E0,7.209125E3,7.8844688E3,1.6355E3,9.23407E2,1.00077344E3,0E0,2.4971875E3,1.1833716E2,1.4182375E3,0E0,8.659961E2,1.7841973E3,2.715121E3,4.4481416E3,2.877336E3,0E0,7.4229375E3,5.7313086E2,2.6504155E3,6.8476953E3,4.6696797E3,3.5290386E3,3.3894492E3,2.2197578E3,8.054844E2,0E0,0E0,0E0,2.9283457E3,1.0560312E3,1.6982188E3,0E0,0E0,0E0,0E0,0E0,0E0,0E0,0E0,0E0,0E0,0E0,0E0,0E0,0E0,0E0,0E0,0E0,0E0,0E0,0E0,0E0,0E0,0E0,0E0,0E0,0E0,0E0,0E0,0E0,0E0,0E0,0E0,0E0,0E0,0E0,0E0,0E0,0E0,0E0,0E0,0E0,0E0,0E0,0E0,0E0,0E0,0E0],"parents":[2147483647,0,0,1,1,2,2,3,3,4,4,5,5,6,6,7,7,8,8,9,9,10,10,11,11,12,12,13,13,14,14,15,15,16,16,17,17,18,18,19,19,20,20,21,21,22,22,23,23,24,24,25,25,26,26,27,27,29,29,30,30,31,31,32,32,33,33,35,35,36,36,37,37,39,39,40,40,41,41,42,42,43,43,45,45,46,46,47,47,48,48,49,49,50,50,51,51,52,52,53,53,57,57,58,58,59,59],"right_children":[2,4,6,8,10,12,14,16,18,20,22,24,26,28,30,32,34,36,38,40,42,44,46,48,50,52,54,56,-1,58,60,62,64,66,-1,68,70,72,-1,74,76,78,80,82,-1,84,86,88,90,92,94,96,98,100,-1,-1,-1,102,104,106,-1,-1,-1,-1,-1,-1,-1,-1,-1,-1,-1,-1,-1,-1,-1,-1,-1,-1,-1,-1,-1,-1,-1,-1,-1,-1,-1,-1,-1,-1,-1,-1,-1,-1,-1,-1,-1,-1,-1,-1,-1,-1,-1,-1,-1,-1,-1],"split_conditions":[3.78E2,3.44E2,4.22E2,3.31E2,3.58E2,7E0,3.8E0,8E0,1.8E1,-1E0,-4E0,3.87E2,1.14E1,4E0,4.4E2,3.38E2,1.82E1,9.159778E-1,3.68E2,-1E1,2.89E1,1.5E1,2.7E1,-3E0,1.46E1,1.7E1,2.3633333E1,1E-1,5.5569285E-1,-3E0,5.04E0,4.24E-1,1.01E1,6.2E0,-1.841978E-1,-9.9716926E-1,2E-2,1.3E0,4.6978694E-1,4.7E0,3.54E2,3.49E2,3.79E2,3.8E2,1.1462321E0,7.9E0,2.26E0,3.75E2,1E-2,3.61E-1,2.5733334E1,1.15E1,-3.2003924E-1,6E0,1.1824701E0,1.1812961E0,2.22702E0,2.11E1,3.79E2,6E0,1.8056046E0,-1.725528E0,-6.278069E-1,-1.2356627E0,-2.4940674E-1,-4.9855614E-1,-1.2961568E0,-2.2003923E-1,-1.1458966E0,-6.526376E-1,-3.4230083E-1,-3.0379587E-1,-1.0304749E0,-3.871046E-1,-1.1814927E0,-8.5286134E-1,-4.271794E-1,-5.8764106E-1,-2.691797E-1,5.7814527E-2,1.5399776E0,-3.7796572E-1,2.4620967E-1,-1.4940916E-1,3.45139E-1,1.0070213E0,1.9645169E0,-5.01152E-1,2.8511488E-1,1.0973964E0,4.4746533E-1,7.3844177E-1,1.5176045E0,1.8907227E-1,1.1176292E0,6.2444866E-1,1.7019043E0,9.341364E-1,2.2997313E0,2.2178257E0,3.8517067E0,2.60975E0,1.2193699E0,2.11184E0,3.5022328E0,2.1923707E0,4.1076837E0],"split_indices":[8,8,8,10,8,22,2,23,22,22,22,10,2,27,8,8,13,26,10,22,14,13,22,23,2,22,16,13,0,22,6,5,14,1,0,26,4,0,0,15,10,8,12,10,0,15,6,10,4,5,16,1,26,27,0,0,0,1,12,27,0,0,0,0,0,0,0,0,0,0,0,0,0,0,0,0,0,0,0,0,0,0,0,0,0,0,0,0,0,0,0,0,0,0,0,0,0,0,0,0,0,0,0,0,0,0,0],"split_type":[0,0,0,0,0,0,0,0,0,0,0,0,0,0,0,0,0,0,0,0,0,0,0,0,0,0,0,0,0,0,0,0,0,0,0,0,0,0,0,0,0,0,0,0,0,0,0,0,0,0,0,0,0,0,0,0,0,0,0,0,0,0,0,0,0,0,0,0,0,0,0,0,0,0,0,0,0,0,0,0,0,0,0,0,0,0,0,0,0,0,0,0,0,0,0,0,0,0,0,0,0,0,0,0,0,0,0],"sum_hessian":[2.424E3,1.786E3,6.38E2,6.57E2,1.129E3,4.98E2,1.4E2,2.45E2,4.12E2,5.01E2,6.28E2,4.17E2,8.1E1,1.7E1,1.23E2,1.7E2,7.5E1,3.7E2,4.2E1,1.78E2,3.23E2,1.98E2,4.3E2,2.4E2,1.77E2,5.5E1,2.6E1,1.2E1,5E0,5.3E1,7E1,1.6E2,1E1,7E1,5E0,3.49E2,2.1E1,3.4E1,8E0,5.9E1,1.19E2,2.85E2,3.8E1,1.9E2,8E0,4.16E2,1.4E1,5.8E1,1.82E2,1.36E2,4.1E1,3.2E1,2.3E1,1.8E1,8E0,6E0,6E0,2.1E1,3.2E1,6.3E1,7E0,1.55E2,5E0,5E0,5E0,6E0,6.4E1,8E0,3.41E2,1E1,1.1E1,2.5E1,9E0,5E0,5.4E1,7.8E1,4.1E1,1.12E2,1.73E2,3.3E1,5E0,1.7E2,2E1,9.9E1,3.17E2,9E0,5E0,1.3E1,4.5E1,1.17E2,6.5E1,2.7E1,1.09E2,2.2E1,1.9E1,1.8E1,1.4E1,6E0,1.7E1,7E0,1.1E1,8E0,1.3E1,8E0,2.4E1,5E0,5.8E1],"tree_param":{"num_deleted":"0","num_feature":"28","num_nodes":"107","size_leaf_vector":"1"}},{"base_weights":[2.0176607E-1,-1.1113583E1,2.6813068E1,-2.2405788E1,-4.4145308E0,1.9728226E1,6.254694E1,-2.3859625E1,-6.0712376E0,-9.62966E0,2.7100104E-1,1.010664E1,2.4756214E1,4.790975E1,7.4795715E1,-2.9094706E1,-2.0131134E1,-1.36281395E1,1.733258E-1,-1.559428E1,-5.889704E0,-1.7342317E0,9.573571E0,8.672097E0,2.8589985E0,2.1832043E1,5.0233047E1,1.0777382E0,5.1770676E1,4.3326545E0,5.4585102E1,-2.9807928E1,-4.8855472E-1,-1.9067083E1,-2.9840166E1,-1.9563837E1,-1.67589E-1,-6.6929764E-1,5.7169704E0,-1.7664957E1,-1.0899212E1,-7.0955453E0,6.590814E0,2.1128864E0,-4.8414936E0,1.7949964E0,1.8663746E1,7.149958E0,3.471963E1,1.9253298E1,3.4274273E1,8.597434E-1,5.7952126E1,3.92702E1,6.3151577E1,3.7397358E0,4.144223E1,-1.5919255E0,-1.0721627E0,-9.7380894E-1,7.337128E-2,-1.7993988E0,-1.1867203E0,-1.1727271E0,-5.8761907E-1,1.1249456E-2,6.806862E-1,-1.1861343E0,-8.056294E-1,-9.223132E-1,-2.8222963E-1,-3.877402E-1,5.8997715E-1,-1.8934882E-1,9.432093E-1,4.7228668E-2,1.1470674E0,-2.7016714E-1,9.773204E-1,2.5504568E-1,-3.677089E-1,7.042162E-1,1.6865618E0,1.7032467E-1,8.156155E-1,1.0275943E0,2.154205E0,5.0313485E-1,1.1068156E0,1.1765273E0,2.2854435E0,2.1597826E0,3.6916091E0,2.2838216E0,1.1041639E0,1.8803663E0,3.3944576E0,2.460507E0,1.278429E0],"categories":[],"categories_nodes":[],"categories_segments":[],"categories_sizes":[],"default_left":[0,0,0,0,0,0,0,0,0,0,0,0,0,0,0,0,0,0,0,0,0,0,0,0,0,0,0,0,0,0,0,0,0,0,0,0,0,0,0,0,0,0,0,0,0,0,0,0,0,0,0,0,0,0,0,0,0,0,0,0,0,0,0,0,0,0,0,0,0,0,0,0,0,0,0,0,0,0,0,0,0,0,0,0,0,0,0,0,0,0,0,0,0,0,0,0,0,0,0],"id":2,"left_children":[1,3,5,7,9,11,13,15,17,19,21,23,25,27,29,31,33,35,37,39,41,43,45,47,-1,49,51,-1,53,-1,55,57,-1,59,61,63,-1,-1,65,67,69,71,73,75,77,79,81,83,85,87,89,-1,91,93,95,-1,97,-1,-1,-1,-1,-1,-1,-1,-1,-1,-1,-1,-1,-1,-1,-1,-1,-1,-1,-1,-1,-1,-1,-1,-1,-1,-1,-1,-1,-1,-1,-1,-1,-1,-1,-1,-1,-1,-1,-1,-1,-1,-1],"loss_changes":[7.286995E5,1.2834711E5,1.8154578E5,1.486075E4,2.6076383E4,2.8966156E4,1.77395E4,1.0730344E4,2.5047542E3,1.1171254E4,1.0519486E4,1.3611039E4,2.8397578E4,4.676758E3,1.0353531E4,2.9987031E3,2.9593125E3,1.3960713E3,2.330795E3,1.6906719E3,4.7422676E3,5.557159E3,7.0353125E3,7.835754E3,0E0,1.0789203E4,9.196977E3,0E0,4.4808594E3,0E0,3.7946328E3,3.2185469E3,0E0,2.6429688E3,3.4106055E2,1.7671387E2,0E0,0E0,9.496672E2,8.644883E2,2.3521968E3,3.6412734E3,3.6393193E3,5.0374473E3,3.6256968E3,1.7008403E3,2.6941562E3,6.596455E3,4.1173828E2,7.6700234E3,6.2885312E3,0E0,4.297742E3,1.8472227E3,3.4075E2,0E0,9.5377734E2,0E0,0E0,0E0,0E0,0E0,0E0,0E0,0E0,0E0,0E0,0E0,0E0,0E0,0E0,0E0,0E0,0E0,0E0,0E0,0E0,0E0,0E0,0E0,0E0,0E0,0E0,0E0,0E0,0E0,0E0,0E0,0E0,0E0,0E0,0E0,0E0,0E0,0E0,0E0,0E0,0E0,0E0],"parents":[2147483647,0,0,1,1,2,2,3,3,4,4,5,5,6,6,7,7,8,8,9,9,10,10,11,11,12,12,13,13,14,14,15,15,16,16,17,17,18,18,19,19,20,20,21,21,22,22,23,23,25,25,26,26,28,28,30,30,31,31,33,33,34,34,35,35,38,38,39,39,40,40,41,41,42,42,43,43,44,44,45,45,46,46,47,47,48,48,49,49,50,50,52,52,53,53,54,54,56,56],"right_children":[2,4,6,8,10,12,14,16,18,20,22,24,26,28,30,32,34,36,38,40,42,44,46,48,-1,50,52,-1,54,-1,56,58,-1,60,62,64,-1,-1,66,68,70,72,74,76,78,80,82,84,86,88,90,-1,92,94,96,-1,98,-1,-1,-1,-1,-1,-1,-1,-1,-1,-1,-1,-1,-1,-1,-1,-1,-1,-1,-1,-1,-1,-1,-1,-1,-1,-1,-1,-1,-1,-1,-1,-1,-1,-1,-1,-1,-1,-1,-1,-1,-1,-1],"split_conditions":[3.75E2,3.44E2,4.31E2,2.2E1,3.58E2,2.3224293E-1,1.35E1,3.31E2,3.52E2,-1E0,7E0,6.85E1,6E0,3.86E2,-9.3315595E-1,4.21E-1,2.7433332E1,3.31E2,3.52E-1,3.53E2,3.43E1,9.171429E0,2.8E0,3.05E1,2.8589985E0,4.02E2,-4E0,1.0777382E0,-3E0,4.3326545E0,-9.947883E-1,4.6801534E-1,-4.8855472E-1,3.69E2,3.35E2,3.37E2,-1.67589E-1,-6.6929764E-1,3.3E1,3.35E2,-9E0,3E1,-5.900445E-1,3.87E2,1.34E1,1E1,2.5E1,4.1E2,1.4E0,-4E0,1.14E1,8.597434E-1,1.4166667E1,4.47E2,1.08E1,3.7397358E0,7E-3,-1.5919255E0,-1.0721627E0,-9.7380894E-1,7.337128E-2,-1.7993988E0,-1.1867203E0,-1.1727271E0,-5.8761907E-1,1.1249456E-2,6.806862E-1,-1.1861343E0,-8.056294E-1,-9.223132E-1,-2.8222963E-1,-3.877402E-1,5.8997715E-1,-1.8934882E-1,9.432093E-1,4.7228668E-2,1.1470674E0,-2.7016714E-1,9.773204E-1,2.5504568E-1,-3.677089E-1,7.042162E-1,1.6865618E0,1.7032467E-1,8.156155E-1,1.0275943E0,2.154205E0,5.0313485E-1,1.1068156E0,1.1765273E0,2.2854435E0,2.1597826E0,3.6916091E0,2.2838216E0,1.1041639E0,1.8803663E0,3.3944576E0,2.460507E0,1.278429E0],"split_indices":[8,8,8,22,8,25,14,9,12,22,22,14,27,12,26,5,16,8,5,9,14,18,13,13,0,8,22,0,22,0,25,26,0,9,8,9,0,0,22,11,22,22,26,12,7,27,22,12,6,22,16,0,17,8,2,0,21,0,0,0,0,0,0,0,0,0,0,0,0,0,0,0,0,0,0,0,0,0,0,0,0,0,0,0,0,0,0,0,0,0,0,0,0,0,0,0,0,0,0],"split_type":[0,0,0,0,0,0,0,0,0,0,0,0,0,0,0,0,0,0,0,0,0,0,0,0,0,0,0,0,0,0,0,0,0,0,0,0,0,0,0,0,0,0,0,0,0,0,0,0,0,0,0,0,0,0,0,0,0,0,0,0,0,0,0,0,0,0,0,0,0,0,0,0,0,0,0,0,0,0,0,0,0,0,0,0,0,0,0,0,0,0,0,0,0,0,0,0,0,0,0],"sum_hessian":[2.418E3,1.697E3,7.21E2,6.31E2,1.066E3,6.03E2,1.18E2,5.79E2,5.2E1,5.04E2,5.62E2,2.08E2,3.95E2,5.6E1,6.2E1,2.38E2,3.41E2,2.3E1,2.9E1,1.93E2,3.11E2,4.63E2,9.9E1,2.03E2,5E0,3.56E2,3.9E1,8E0,4.8E1,3.7E1,2.5E1,2.29E2,9E0,3.1E2,3.1E1,1.4E1,9E0,8E0,2.1E1,1.32E2,6.1E1,2.84E2,2.7E1,2.07E2,2.56E2,5.4E1,4.5E1,1.93E2,1E1,2.97E2,5.9E1,8E0,3.1E1,2.5E1,2.3E1,8E0,1.7E1,1.82E2,4.7E1,3.04E2,6E0,1.3E1,1.8E1,8E0,6E0,1.3E1,8E0,2.4E1,1.08E2,2.4E1,3.7E1,2.75E2,9E0,1.5E1,1.2E1,1.97E2,1E1,2.51E2,5E0,4E1,1.4E1,3.6E1,9E0,1.38E2,5.5E1,5E0,5E0,7.2E1,2.25E2,3.2E1,2.7E1,1.8E1,1.3E1,1.7E1,8E0,5E0,1.8E1,1E1,7E0],"tree_param":{"num_deleted":"0","num_feature":"28","num_nodes":"99","size_leaf_vector":"1"}},{"base_weights":[2.1006761E-1,-1.0011033E1,2.8478363E1,-2.0958376E1,-3.1117032E0,1.9927492E1,5.6291492E1,-2.7218168E1,-1.7293444E1,-7.524143E0,3.5137403E0,1.8129713E1,4.6596077E1,2.5075163E1,6.079639E1,-2.965928E1,-2.1372137E1,-1.8746334E1,-1.7597439E0,-1.2554971E1,-4.332022E0,2.0177689E0,1.7415293E1,9.70152E0,2.1848383E1,1.0184368E0,5.3392853E1,1.4648843E1,3.3212833E1,4.9712914E1,7.0059906E1,-3.025148E1,-1.7909412E1,-2.2663404E1,-2.4193142E-1,-2.0344606E1,-1.3315713E1,-5.1223907E0,4.247086E-1,-1.6299742E1,-7.5269685E0,-4.7708955E0,7.8462225E-1,-4.2689786E0,5.142328E0,2.1197252E1,-8.839649E-2,7.2486687E0,2.3111422E0,1.947421E1,4.462107E1,1.7576407E0,3.0993345E0,1.1375558E0,2.0442155E-1,9.05934E-1,2.1377425E0,3.3712265E1,6.0475216E1,4.012475E0,5.544884E1,-1.543773E0,-1.0214485E0,-1.1462721E0,-4.9459082E-1,-1.1953539E0,-3.7538895E-1,-1.1753534E0,-8.940315E-1,-7.3355234E-1,-2.2095339E-1,-6.057482E-1,1.8636662E-1,-1.1210723E0,-7.49132E-1,-4.2589378E-1,5.691023E-1,-2.5406042E-1,8.244111E-1,-9.157437E-2,-6.713821E-1,3.8917795E-2,5.359644E-1,5.0863934E-1,1.3490914E0,-9.083406E-2,4.8390675E-1,6.4944315E-1,1.1399713E0,4.3469143E-1,2.5727384E0,1.0229648E0,2.0539174E0,2.6136825E0,3.8691037E0,3.3989003E0,1.267031E0],"categories":[],"categories_nodes":[],"categories_segments":[],"categories_sizes":[],"default_left":[0,0,0,0,0,0,0,0,0,0,0,0,0,0,0,0,0,0,0,0,0,0,0,0,0,0,0,0,0,0,0,0,0,0,0,0,0,0,0,0,0,0,0,0,0,0,0,0,0,0,0,0,0,0,0,0,0,0,0,0,0,0,0,0,0,0,0,0,0,0,0,0,0,0,0,0,0,0,0,0,0,0,0,0,0,0,0,0,0,0,0,0,0,0,0,0,0],"id":3,"left_children":[1,3,5,7,9,11,13,15,17,19,21,23,25,27,29,31,33,35,37,39,41,43,45,47,49,-1,51,53,55,57,59,61,63,65,-1,67,69,71,-1,73,75,77,-1,79,81,83,-1,85,-1,87,89,-1,-1,-1,-1,-1,-1,91,93,-1,95,-1,-1,-1,-1,-1,-1,-1,-1,-1,-1,-1,-1,-1,-1,-1,-1,-1,-1,-1,-1,-1,-1,-1,-1,-1,-1,-1,-1,-1,-1,-1,-1,-1,-1,-1,-1],"loss_changes":[7.104845E5,1.3633836E5,1.5417138E5,1.5538156E4,3.244776E4,2.3168812E4,1.9982781E4,3.0143281E3,9.962922E3,1.0639223E4,9.196485E3,1.45468125E4,4.4311797E3,1.2904502E3,1.01605E4,6.9196875E2,1.5741797E3,3.2409688E3,1.387905E3,4.7327383E3,3.66815E3,7.9186523E3,3.1590742E3,1.2738478E4,1.6750219E4,0E0,1.5733281E3,8.4549634E2,8.035654E2,8.972875E3,5.9583438E3,3.9379688E2,2.123252E2,1.1933125E3,0E0,1.9989219E3,1.0787617E3,1.9024653E3,0E0,8.455742E2,2.1952183E3,2.7280254E3,0E0,2.9653198E3,6.5373486E3,2.0175918E3,0E0,3.0576748E3,0E0,6.1051406E3,6.912117E3,0E0,0E0,0E0,0E0,0E0,0E0,1.8868418E3,1.0725156E3,0E0,1.0339453E4,0E0,0E0,0E0,0E0,0E0,0E0,0E0,0E0,0E0,0E0,0E0,0E0,0E0,0E0,0E0,0E0,0E0,0E0,0E0,0E0,0E0,0E0,0E0,0E0,0E0,0E0,0E0,0E0,0E0,0E0,0E0,0E0,0E0,0E0,0E0,0E0],"parents":[2147483647,0,0,1,1,2,2,3,3,4,4,5,5,6,6,7,7,8,8,9,9,10,10,11,11,12,12,13,13,14,14,15,15,16,16,17,17,18,18,19,19,20,20,21,21,22,22,23,23,24,24,26,26,27,27,28,28,29,29,30,30,31,31,32,32,33,33,35,35,36,36,37,37,39,39,40,40,41,41,43,43,44,44,45,45,47,47,49,49,50,50,57,57,58,58,60,60],"right_children":[2,4,6,8,10,12,14,16,18,20,22,24,26,28,30,32,34,36,38,40,42,44,46,48,50,-1,52,54,56,58,60,62,64,66,-1,68,70,72,-1,74,76,78,-1,80,82,84,-1,86,-1,88,90,-1,-1,-1,-1,-1,-1,92,94,-1,96,-1,-1,-1,-1,-1,-1,-1,-1,-1,-1,-1,-1,-1,-1,-1,-1,-1,-1,-1,-1,-1,-1,-1,-1,-1,-1,-1,-1,-1,-1,-1,-1,-1,-1,-1,-1],"split_conditions":[3.78E2,3.45E2,4.22E2,3.31E2,3.63E2,1.9E1,3.8E0,1E1,2.2E1,-1E0,1.55E1,1.20126165E-1,3.72E-1,1E-2,3.82E-1,3.39E2,1.72E1,6.90574E-1,3.9E1,3.54E2,1.1E-1,-4E0,2.31E1,6.43E1,1.33E1,1.0184368E0,1.16E1,1.08E1,9.857142E0,-3E0,-8.811917E-1,5.986907E-1,9E0,8.431507E-1,-2.4193142E-1,3.36E2,7.1E0,1.5214286E1,4.247086E-1,-1.8E1,3.86E2,7.48E1,7.8462225E-1,3.56E1,3.634816E-1,3E0,-8.839649E-2,1E-1,2.3111422E0,7E-1,3E-1,1.7576407E0,3.0993345E0,1.1375558E0,2.0442155E-1,9.05934E-1,2.1377425E0,2.42E1,5.5E1,4.012475E0,1.08E1,-1.543773E0,-1.0214485E0,-1.1462721E0,-4.9459082E-1,-1.1953539E0,-3.7538895E-1,-1.1753534E0,-8.940315E-1,-7.3355234E-1,-2.2095339E-1,-6.057482E-1,1.8636662E-1,-1.1210723E0,-7.49132E-1,-4.2589378E-1,5.691023E-1,-2.5406042E-1,8.244111E-1,-9.157437E-2,-6.713821E-1,3.8917795E-2,5.359644E-1,5.0863934E-1,1.3490914E0,-9.083406E-2,4.8390675E-1,6.4944315E-1,1.1399713E0,4.3469143E-1,2.5727384E0,1.0229648E0,2.0539174E0,2.6136825E0,3.8691037E0,3.3989003E0,1.267031E0],"split_indices":[8,8,8,10,8,22,2,23,22,22,13,25,5,20,5,8,13,26,22,10,20,22,18,14,2,0,1,1,18,22,26,26,14,26,0,8,13,18,0,22,10,15,0,15,25,23,0,13,0,2,13,0,0,0,0,0,0,1,24,0,2,0,0,0,0,0,0,0,0,0,0,0,0,0,0,0,0,0,0,0,0,0,0,0,0,0,0,0,0,0,0,0,0,0,0,0,0],"split_type":[0,0,0,0,0,0,0,0,0,0,0,0,0,0,0,0,0,0,0,0,0,0,0,0,0,0,0,0,0,0,0,0,0,0,0,0,0,0,0,0,0,0,0,0,0,0,0,0,0,0,0,0,0,0,0,0,0,0,0,0,0,0,0,0,0,0,0,0,0,0,0,0,0,0,0,0,0,0,0,0,0,0,0,0,0,0,0,0,0,0,0,0,0,0,0,0,0],"sum_hessian":[2.457E3,1.805E3,6.52E2,6.97E2,1.108E3,5E2,1.52E2,2.55E2,4.42E2,6.65E2,4.43E2,4.7E2,3E1,2E1,1.32E2,1.77E2,7.8E1,4.04E2,3.8E1,2.57E2,4.08E2,4.01E2,4.2E1,1.45E2,3.25E2,7E0,2.3E1,1E1,1E1,6.3E1,6.9E1,1.67E2,1E1,7.2E1,6E0,3.1E2,9.4E1,2.9E1,9E0,1.46E2,1.11E2,4E2,8E0,1.33E2,2.68E2,3.5E1,7E0,1.37E2,8E0,2.96E2,2.9E1,9E0,1.4E1,5E0,5E0,5E0,5E0,2.7E1,3.6E1,3.8E1,3.1E1,1.55E2,1.2E1,5E0,5E0,6.6E1,6E0,1.32E2,1.78E2,8.1E1,1.3E1,1.6E1,1.3E1,2.3E1,1.23E2,1.06E2,5E0,3.95E2,5E0,1.06E2,2.7E1,1.51E2,1.17E2,1.3E1,2.2E1,2.9E1,1.08E2,1.02E2,1.94E2,5E0,2.4E1,1.1E1,1.6E1,2.7E1,9E0,2.1E1,1E1],"tree_param":{"num_deleted":"0","num_feature":"28","num_nodes":"97","size_leaf_vector":"1"}},{"base_weights":[-4.7908798E-2,-9.562509E0,2.7121645E1,-1.7600567E1,-2.1466649E-1,1.9060402E1,5.2280212E1,-2.1597116E1,-1.1144132E1,-4.874701E0,3.5919452E0,1.679435E1,4.3791218E1,6.249467E1,3.6532433E1,-2.2439358E1,-5.863988E0,-1.2374334E1,-1.327111E0,-1.2536992E1,-2.6500587E0,2.3127806E0,1.9698648E1,8.983981E0,2.0238949E1,4.9237663E1,9.77464E-1,4.860536E1,7.368926E1,3.2332897E1,3.5511258E0,-2.6304968E1,-1.91563E1,-1.4102027E1,5.095138E-1,-1.7120165E1,-1.003022E1,-8.596253E0,9.240935E0,-1.4468721E1,-5.956071E0,-3.266113E0,1.3775452E0,-3.239703E0,5.570812E0,2.3781E1,-1.6495775E-1,6.9552946E0,3.1764702E1,1.9039629E1,2.8978217E0,3.2917713E1,2.9333086E0,5.905534E1,2.8528597E1,2.3883483E0,3.843498E0,2.8494651E0,2.6006788E1,-1.0986514E0,-1.3954878E0,-9.990115E-1,-4.8425126E-1,-1.0515075E0,-6.714203E-2,5.8014923E-1,-2.7476975E-1,-9.486796E-1,-5.3924054E-1,-6.023165E-1,-1.3452934E-1,-7.888387E-1,-9.72222E-3,1.4345612E-1,1.0744853E0,-7.990729E-1,-3.22367E-1,8.426863E-2,-6.5325725E-1,-4.6127748E-1,-9.31499E-2,3.7620708E-1,-2.3721111E-1,-6.519559E-2,4.2725936E-1,1.2947011E-1,1.4041928E0,1.6517138E-1,8.2807934E-1,2.1866415E0,7.2428954E-1,5.1137465E-1,1.0577053E0,1.0695387E0,2.068727E0,1.8495573E0,3.1693444E0,1.9736338E0,7.201783E-1,1.4536214E0,5.720055E-1],"categories":[],"categories_nodes":[],"categories_segments":[],"categories_sizes":[],"default_left":[0,0,0,0,0,0,0,0,0,0,0,0,0,0,0,0,0,0,0,0,0,0,0,0,0,0,0,0,0,0,0,0,0,0,0,0,0,0,0,0,0,0,0,0,0,0,0,0,0,0,0,0,0,0,0,0,0,0,0,0,0,0,0,0,0,0,0,0,0,0,0,0,0,0,0,0,0,0,0,0,0,0,0,0,0,0,0,0,0,0,0,0,0,0,0,0,0,0,0,0,0],"id":4,"left_children":[1,3,5,7,9,11,13,15,17,19,21,23,25,27,29,31,33,35,37,39,41,43,45,47,49,51,-1,53,55,57,-1,59,61,63,65,67,69,71,73,75,77,79,-1,81,83,85,-1,87,89,91,-1,93,-1,95,97,-1,-1,-1,99,-1,-1,-1,-1,-1,-1,-1,-1,-1,-1,-1,-1,-1,-1,-1,-1,-1,-1,-1,-1,-1,-1,-1,-1,-1,-1,-1,-1,-1,-1,-1,-1,-1,-1,-1,-1,-1,-1,-1,-1,-1,-1],"loss_changes":[6.348934E5,1.3667138E5,1.28185875E5,2.4991844E4,1.4953827E4,2.63825E4,2.2478688E4,7.856E3,4.523133E3,6.4256367E3,9.512089E3,1.1787344E4,4.3118594E3,1.0710719E4,6.818367E3,6.7508125E3,1.6887094E3,3.5412422E3,3.3826604E3,9.9234863E2,5.5761577E3,7.8151436E3,3.2725996E3,6.1528584E3,1.2821336E4,2.9836172E3,0E0,7.5377656E3,3.5578125E2,7.556379E3,0E0,1.1892344E3,2.2460781E3,1.2070835E3,1.3300641E3,1.0722871E3,3.3103516E3,1.5638982E3,1.3407512E3,6.834453E2,1.1639529E3,2.4066191E3,0E0,2.6265234E3,5.5737246E3,2.5685605E3,0E0,4.4336587E3,1.6354316E3,5.370414E3,0E0,4.734297E2,0E0,3.2122656E2,2.0540176E3,0E0,0E0,0E0,1.8068555E3,0E0,0E0,0E0,0E0,0E0,0E0,0E0,0E0,0E0,0E0,0E0,0E0,0E0,0E0,0E0,0E0,0E0,0E0,0E0,0E0,0E0,0E0,0E0,0E0,0E0,0E0,0E0,0E0,0E0,0E0,0E0,0E0,0E0,0E0,0E0,0E0,0E0,0E0,0E0,0E0,0E0,0E0],"parents":[2147483647,0,0,1,1,2,2,3,3,4,4,5,5,6,6,7,7,8,8,9,9,10,10,11,11,12,12,13,13,14,14,15,15,16,16,17,17,18,18,19,19,20,20,21,21,22,22,23,23,24,24,25,25,27,27,28,28,29,29,31,31,32,32,33,33,34,34,35,35,36,36,37,37,38,38,39,39,40,40,41,41,43,43,44,44,45,45,47,47,48,48,49,49,51,51,53,53,54,54,58,58],"right_children":[2,4,6,8,10,12,14,16,18,20,22,24,26,28,30,32,34,36,38,40,42,44,46,48,50,52,-1,54,56,58,-1,60,62,64,66,68,70,72,74,76,78,80,-1,82,84,86,-1,88,90,92,-1,94,-1,96,98,-1,-1,-1,100,-1,-1,-1,-1,-1,-1,-1,-1,-1,-1,-1,-1,-1,-1,-1,-1,-1,-1,-1,-1,-1,-1,-1,-1,-1,-1,-1,-1,-1,-1,-1,-1,-1,-1,-1,-1,-1,-1,-1,-1,-1,-1],"split_conditions":[3.79E2,3.52E2,4.22E2,3.44E2,3.63E2,1.5E1,-8.644082E-1,2.1E1,1.8E1,-6E0,1.87E1,1.8175979E-1,5.672477E-1,1.35E1,9.983769E-1,3.32E2,1.77E1,3.43E2,3.58E2,3.37E1,7E-2,-3E0,2.2428572E1,1.29E1,1.58E1,3.82E-1,9.77464E-1,4.56E2,-1.5845178E-1,-9.906923E-1,3.5511258E0,1.3E1,8.9406115E-1,4.527447E-1,9E-1,3.56E2,4.05E1,8E0,3.44E2,-7E0,-4.1203365E-1,3.43E2,1.3775452E0,-2E-2,-2.7797914E-1,-9.906923E-1,-1.6495775E-1,2.61E1,3.74E2,3.78E2,2.8978217E0,3.95E2,2.9333086E0,-8E0,4E0,2.3883483E0,3.843498E0,2.8494651E0,4.21E2,-1.0986514E0,-1.3954878E0,-9.990115E-1,-4.8425126E-1,-1.0515075E0,-6.714203E-2,5.8014923E-1,-2.7476975E-1,-9.486796E-1,-5.3924054E-1,-6.023165E-1,-1.3452934E-1,-7.888387E-1,-9.72222E-3,1.4345612E-1,1.0744853E0,-7.990729E-1,-3.22367E-1,8.426863E-2,-6.5325725E-1,-4.6127748E-1,-9.31499E-2,3.7620708E-1,-2.3721111E-1,-6.519559E-2,4.2725936E-1,1.2947011E-1,1.4041928E0,1.6517138E-1,8.2807934E-1,2.1866415E0,7.2428954E-1,5.1137465E-1,1.0577053E0,1.0695387E0,2.068727E0,1.8495573E0,3.1693444E0,1.9736338E0,7.201783E-1,1.4536214E0,5.720055E-1],"split_indices":[8,8,8,9,8,22,26,22,22,22,13,25,26,14,25,8,15,8,12,15,20,22,18,0,2,5,0,11,25,25,0,1,26,26,0,9,15,27,8,22,26,12,0,20,25,25,0,1,11,9,0,8,0,22,14,0,0,0,11,0,0,0,0,0,0,0,0,0,0,0,0,0,0,0,0,0,0,0,0,0,0,0,0,0,0,0,0,0,0,0,0,0,0,0,0,0,0,0,0,0,0],"split_type":[0,0,0,0,0,0,0,0,0,0,0,0,0,0,0,0,0,0,0,0,0,0,0,0,0,0,0,0,0,0,0,0,0,0,0,0,0,0,0,0,0,0,0,0,0,0,0,0,0,0,0,0,0,0,0,0,0,0,0,0,0,0,0,0,0,0,0,0,0,0,0,0,0,0,0,0,0,0,0,0,0,0,0,0,0,0,0,0,0,0,0,0,0,0,0,0,0,0,0,0,0],"sum_hessian":[2.454E3,1.818E3,6.36E2,9.77E2,8.41E2,4.83E2,1.53E2,6.02E2,3.75E2,3.78E2,4.63E2,4.44E2,3.9E1,9.1E1,6.2E1,5.71E2,3.1E1,3.33E2,4.2E1,8.4E1,2.94E2,4.3E2,3.3E1,1.37E2,3.07E2,3.1E1,8E0,4.3E1,4.8E1,5.7E1,5E0,2.59E2,3.12E2,1.3E1,1.8E1,1.08E2,2.25E2,2.5E1,1.7E1,6.4E1,2E1,2.89E2,5E0,1.59E2,2.71E2,2.8E1,5E0,1.27E2,1E1,2.99E2,8E0,1.3E1,1.8E1,2.7E1,1.6E1,7E0,4.1E1,1E1,4.7E1,7.4E1,1.85E2,2.86E2,2.6E1,8E0,5E0,6E0,1.2E1,8.2E1,2.6E1,1.76E2,4.9E1,1.3E1,1.2E1,1.2E1,5E0,5.3E1,1.1E1,1E1,1E1,5.4E1,2.35E2,1.9E1,1.4E2,8.2E1,1.89E2,5E0,2.3E1,9.3E1,3.4E1,5E0,5E0,5.9E1,2.4E2,7E0,6E0,6E0,2.1E1,8E0,8E0,3.8E1,9E0],"tree_param":{"num_deleted":"0","num_feature":"28","num_nodes":"101","size_leaf_vector":"1"}},{"base_weights":[7.357767E-2,-9.293235E0,2.5540077E1,-1.9940414E1,-2.977261E0,1.7454708E1,4.93548E1,-2.4091412E1,-1.5680032E1,-8.457397E0,1.3595986E0,9.504468E0,2.2123047E1,2.8856E1,5.3965137E1,-1.4328086E1,-2.5536724E1,-1.7177849E1,-2.3479416E0,-1.331305E1,-5.1158905E0,-4.601928E0,4.0123253E0,3.29212E0,1.492954E1,2.0143715E1,4.1546833E1,3.5102146E1,2.4682641E-1,4.2502808E1,6.169615E1,-2.0061295E1,-1.0272022E1,-2.6424109E1,-1.5779101E1,-1.281559E1,-1.8058027E1,-6.7100196E0,5.5424995E0,-1.9823275E1,-1.1012758E1,-6.670346E0,7.1929593E0,-1.2737006E0,-3.9216435E0,6.548892E-2,9.156811E0,-9.580496E0,6.5106406E0,5.008897E0,1.7071054E1,1.8061241E1,3.7972504E1,8.3117676E-1,4.7583935E1,5.9569687E-1,4.0051056E1,2.2766281E1,4.7154377E1,6.3608864E1,1.3903341E0,-4.3904552E-1,-1.1858379E0,-2.7020928E-1,-8.354721E-1,-5.8545464E-1,-1.341573E0,-1.278932E0,-2.4226709E-1,-7.589523E-1,-2.8260002E-1,-9.318291E-1,-4.812234E-1,-1.4983504E-1,-6.071108E-1,-1.8882707E-1,5.925734E-1,-5.589345E-1,-1.1676008E0,-6.805599E-1,-2.9975212E-1,-3.6090106E-1,9.124299E-1,1.6912943E0,-1.8719648E-1,-5.773551E-1,-1.03771344E-1,-4.155369E-2,1.5661018E0,2.0794109E-1,6.211398E-1,-9.427554E-1,-1.6817985E-1,5.0591886E-1,-9.900764E-2,-5.2909285E-2,7.787533E-1,1.1671902E0,6.017258E-1,3.8223776E-1,1.0728843E0,2.3596964E0,1.4854875E0,1.2159303E0,2.6495147E0,1.1585788E0,2.193571E0,5.953812E-1,1.6716721E0,1.2233404E0,2.6387033E0,3.2890606E0,1.6702394E0],"categories":[],"categories_nodes":[],"categories_segments":[],"categories_sizes":[],"default_left":[0,0,0,0,0,0,0,0,0,0,0,0,0,0,0,0,0,0,0,0,0,0,0,0,0,0,0,0,0,0,0,0,0,0,0,0,0,0,0,0,0,0,0,0,0,0,0,0,0,0,0,0,0,0,0,0,0,0,0,0,0,0,0,0,0,0,0,0,0,0,0,0,0,0,0,0,0,0,0,0,0,0,0,0,0,0,0,0,0,0,0,0,0,0,0,0,0,0,0,0,0,0,0,0,0,0,0,0,0,0,0,0,0],"id":5,"left_children":[1,3,5,7,9,11,13,15,17,19,21,23,25,27,29,31,33,35,37,39,41,43,45,47,49,51,53,55,-1,57,59,61,63,65,67,69,71,73,75,77,79,81,83,-1,85,87,89,91,93,95,97,99,101,-1,103,-1,105,107,109,111,-1,-1,-1,-1,-1,-1,-1,-1,-1,-1,-1,-1,-1,-1,-1,-1,-1,-1,-1,-1,-1,-1,-1,-1,-1,-1,-1,-1,-1,-1,-1,-1,-1,-1,-1,-1,-1,-1,-1,-1,-1,-1,-1,-1,-1,-1,-1,-1,-1,-1,-1,-1,-1],"loss_changes":[5.899097E5,1.21521484E5,1.2717819E5,1.1520156E4,2.701105E4,1.8269547E4,1.43115625E4,4.4137656E3,6.6473438E3,8.0750938E3,1.0060486E4,6.2176816E3,1.1190578E4,4.7530625E3,9.419E3,8.605928E2,2.1245156E3,9.211953E2,1.2419624E3,2.8335938E3,5.7688584E3,2.6801572E3,8.932434E3,3.707977E3,2.0155586E3,9.927172E3,3.4155703E3,2.5013066E3,0E0,4.2442188E3,3.3429688E3,5.307261E2,8.162407E2,1.2884062E3,2.7659565E3,8.263906E2,1.0278594E3,4.2604358E2,8.09881E2,1.3217383E3,1.9112891E3,3.7608496E3,1.0033216E4,0E0,2.6636174E3,7.034944E3,3.0644395E3,9.72225E2,2.19576E3,1.2359437E3,2.2745586E3,8.960844E3,7.998242E2,0E0,1.470793E3,0E0,3.3092578E2,1.1031562E3,4.565922E3,2.6480938E3,0E0,0E0,0E0,0E0,0E0,0E0,0E0,0E0,0E0,0E0,0E0,0E0,0E0,0E0,0E0,0E0,0E0,0E0,0E0,0E0,0E0,0E0,0E0,0E0,0E0,0E0,0E0,0E0,0E0,0E0,0E0,0E0,0E0,0E0,0E0,0E0,0E0,0E0,0E0,0E0,0E0,0E0,0E0,0E0,0E0,0E0,0E0,0E0,0E0,0E0,0E0,0E0,0E0],"parents":[2147483647,0,0,1,1,2,2,3,3,4,4,5,5,6,6,7,7,8,8,9,9,10,10,11,11,12,12,13,13,14,14,15,15,16,16,17,17,18,18,19,19,20,20,21,21,22,22,23,23,24,24,25,25,26,26,27,27,29,29,30,30,31,31,32,32,33,33,34,34,35,35,36,36,37,37,38,38,39,39,40,40,41,41,42,42,44,44,45,45,46,46,47,47,48,48,49,49,50,50,51,51,52,52,54,54,56,56,57,57,58,58,59,59],"right_children":[2,4,6,8,10,12,14,16,18,20,22,24,26,28,30,32,34,36,38,40,42,44,46,48,50,52,54,56,-1,58,60,62,64,66,68,70,72,74,76,78,80,82,84,-1,86,88,90,92,94,96,98,100,102,-1,104,-1,106,108,110,112,-1,-1,-1,-1,-1,-1,-1,-1,-1,-1,-1,-1,-1,-1,-1,-1,-1,-1,-1,-1,-1,-1,-1,-1,-1,-1,-1,-1,-1,-1,-1,-1,-1,-1,-1,-1,-1,-1,-1,-1,-1,-1,-1,-1,-1,-1,-1,-1,-1,-1,-1,-1,-1],"split_conditions":[3.78E2,3.44E2,4.2E2,3.35E2,3.58E2,-3E0,4.4E0,8.5E-1,2.1E1,0E0,-4E0,3.87E2,1.9E1,4.21E2,4.4E2,3.31E2,1.5E1,9.1E-1,3.82E-1,3.4E2,3.8E2,3.33E2,3.634816E-1,-2.2E1,8.3E0,4.13E-1,3.69E-1,4.03E2,2.4682641E-1,-2.3E1,1.7566668E1,3.21E2,3.7666667E0,-3.1666667E0,1.77E1,3.5E2,1.4E1,1.3E1,3.54E2,1.03E1,3.53E2,7.48E1,3.5E2,-1.2737006E0,3.51E-1,2.7E1,3.77E-1,3.6E2,9E0,-9E0,2.48E1,2.8210765E-1,4.01229E-1,8.3117676E-1,3.84E2,5.9569687E-1,3.77E2,2E0,4.02E2,4.75E2,1.3903341E0,-4.3904552E-1,-1.1858379E0,-2.7020928E-1,-8.354721E-1,-5.8545464E-1,-1.341573E0,-1.278932E0,-2.4226709E-1,-7.589523E-1,-2.8260002E-1,-9.318291E-1,-4.812234E-1,-1.4983504E-1,-6.071108E-1,-1.8882707E-1,5.925734E-1,-5.589345E-1,-1.1676008E0,-6.805599E-1,-2.9975212E-1,-3.6090106E-1,9.124299E-1,1.6912943E0,-1.8719648E-1,-5.773551E-1,-1.03771344E-1,-4.155369E-2,1.5661018E0,2.0794109E-1,6.211398E-1,-9.427554E-1,-1.6817985E-1,5.0591886E-1,-9.900764E-2,-5.2909285E-2,7.787533E-1,1.1671902E0,6.017258E-1,3.8223776E-1,1.0728843E0,2.3596964E0,1.4854875E0,1.2159303E0,2.6495147E0,1.1585788E0,2.193571E0,5.953812E-1,1.6716721E0,1.2233404E0,2.6387033E0,3.2890606E0,1.6702394E0],"split_indices":[8,8,8,9,8,22,17,6,22,22,22,8,22,11,8,11,23,6,5,11,12,10,25,22,15,5,5,9,0,24,17,11,17,17,15,9,24,23,12,15,9,15,10,0,5,22,5,10,27,22,15,25,25,0,8,0,12,13,9,11,0,0,0,0,0,0,0,0,0,0,0,0,0,0,0,0,0,0,0,0,0,0,0,0,0,0,0,0,0,0,0,0,0,0,0,0,0,0,0,0,0,0,0,0,0,0,0,0,0,0,0,0,0],"split_type":[0,0,0,0,0,0,0,0,0,0,0,0,0,0,0,0,0,0,0,0,0,0,0,0,0,0,0,0,0,0,0,0,0,0,0,0,0,0,0,0,0,0,0,0,0,0,0,0,0,0,0,0,0,0,0,0,0,0,0,0,0,0,0,0,0,0,0,0,0,0,0,0,0,0,0,0,0,0,0,0,0,0,0,0,0,0,0,0,0,0,0,0,0,0,0,0,0,0,0,0,0,0,0,0,0,0,0,0,0,0,0,0,0],"sum_hessian":[2.471E3,1.807E3,6.64E2,6.72E2,1.135E3,4.97E2,1.67E2,3.38E2,3.34E2,5.01E2,6.34E2,1.85E2,3.12E2,3.2E1,1.35E2,4.5E1,2.93E2,3E2,3.4E1,2.03E2,2.98E2,1.95E2,4.39E2,8.7E1,9.8E1,2.85E2,2.7E1,2.5E1,7E0,5.7E1,7.8E1,1.7E1,2.8E1,2.67E2,2.6E1,5.3E1,2.47E2,2.2E1,1.2E1,5.1E1,1.52E2,2.65E2,3.3E1,5E0,1.9E2,2.49E2,1.9E2,1.7E1,7E1,1.8E1,8E1,2.57E2,2.8E1,6E0,2.1E1,5E0,2E1,1.2E1,4.5E1,7.3E1,5E0,5E0,1.2E1,1.7E1,1.1E1,8E0,2.59E2,1.3E1,1.3E1,3.9E1,1.4E1,2.3E2,1.7E1,1.4E1,8E0,5E0,7E0,1.6E1,3.5E1,9.9E1,5.3E1,2.6E2,5E0,9E0,2.4E1,3.6E1,1.54E2,2.43E2,6E0,7.6E1,1.14E2,6E0,1.1E1,4.9E1,2.1E1,1.2E1,6E0,3.4E1,4.6E1,6.4E1,1.93E2,1.1E1,1.7E1,5E0,1.6E1,5E0,1.5E1,7E0,5E0,1E1,3.5E1,6.7E1,6E0],"tree_param":{"num_deleted":"0","num_feature":"28","num_nodes":"113","size_leaf_vector":"1"}},{"base_weights":[-7.50195E-2,-8.590533E0,2.345706E1,-1.8074894E1,-2.9056756E0,1.4834091E1,4.339847E1,-2.3041376E1,-1.482052E1,-7.095252E0,1.7520486E0,6.9664764E0,1.847955E1,1.7918213E1,5.0022163E1,-4.595589E-2,-2.3637642E1,-1.5667949E1,-3.9513788E0,-1.2571182E1,-5.0771646E0,-4.4683284E-1,9.508672E0,3.5145907E0,2.8532627E1,1.634109E1,3.4873096E1,2.4361483E1,-2.1174927E-1,2.749966E1,5.277987E1,-2.5040394E1,-1.3981823E1,-1.4700059E1,-2.3989483E1,-7.9207554E0,2.9851968E0,-1.622067E1,-6.751001E0,-6.235215E0,2.555943E0,-3.2007422E0,3.8635583E0,-9.973054E0,1.1605606E1,-1.1062993E0,1.3972145E1,1.6100033E-1,3.914375E1,7.7492557E0,1.8198986E1,1.1366885E1,4.8241905E1,4.135224E-1,3.0563704E1,-3.5306224E-1,2.8376055E-1,1.5433882E1,2.1074185E0,8.417989E-1,5.429687E1,-8.140053E-1,-1.3054003E0,-1.2332519E0,-2.8401956E-1,8.556349E-2,-7.498812E-1,-5.825924E-1,-1.2967771E0,-1.04044996E-1,-6.7712605E-1,-1.6309413E-1,3.963833E-1,-1.1979715E0,-7.07643E-1,-9.1451037E-1,-2.2436202E-1,-3.3430594E-1,7.721171E-1,-4.290493E-2,1.6151993E0,8.727576E-1,-1.8844888E-1,-4.8600742E-1,2.6028934E-1,-1.0313928E0,2.8503463E-2,-1.1281265E-1,7.1250695E-1,-4.9871334E-1,8.887738E-2,-9.149074E-2,8.1763613E-1,2.7504582E0,1.2103195E0,8.2866997E-1,2.4006715E-2,7.5654215E-1,1.1620407E0,-2.9232642E-1,1.079531E0,1.0464212E0,2.751916E0,1.1711476E0,2.1252449E0,1.0211813E0,4.468916E-1,2.817682E0,1.6537884E0],"categories":[],"categories_nodes":[],"categories_segments":[],"categories_sizes":[],"default_left":[0,0,0,0,0,0,0,0,0,0,0,0,0,0,0,0,0,0,0,0,0,0,0,0,0,0,0,0,0,0,0,0,0,0,0,0,0,0,0,0,0,0,0,0,0,0,0,0,0,0,0,0,0,0,0,0,0,0,0,0,0,0,0,0,0,0,0,0,0,0,0,0,0,0,0,0,0,0,0,0,0,0,0,0,0,0,0,0,0,0,0,0,0,0,0,0,0,0,0,0,0,0,0,0,0,0,0,0,0],"id":6,"left_children":[1,3,5,7,9,11,13,15,17,19,21,23,25,27,29,-1,31,33,35,37,39,41,43,45,47,49,51,53,55,57,59,61,63,65,67,69,71,73,75,77,79,81,83,85,87,89,91,-1,93,95,97,99,101,-1,103,-1,-1,105,-1,-1,107,-1,-1,-1,-1,-1,-1,-1,-1,-1,-1,-1,-1,-1,-1,-1,-1,-1,-1,-1,-1,-1,-1,-1,-1,-1,-1,-1,-1,-1,-1,-1,-1,-1,-1,-1,-1,-1,-1,-1,-1,-1,-1,-1,-1,-1,-1,-1,-1],"loss_changes":[4.909496E5,9.6942484E4,1.1129256E5,1.0548469E4,2.1985607E4,1.2947281E4,3.21765E4,3.471375E3,3.7125625E3,6.4875977E3,9.113002E3,1.0765322E4,1.0327734E4,4.9138535E3,8.1676562E3,0E0,3.1405156E3,2.7041328E3,8.7768884E2,3.2654668E3,3.861497E3,4.962268E3,4.9364316E3,6.153791E3,5.241626E3,4.2780547E3,1.0444434E4,2.8371465E3,5.2408514E2,2.7019434E3,6.5489375E3,1.6657031E3,2.9608682E3,1.7020078E3,6.0641797E2,6.268629E2,3.9683762E2,1.2093164E3,1.5613359E3,3.7971309E3,5.9214062E3,3.0574575E3,3.022037E3,1.3617836E3,3.9557715E3,2.294623E3,1.4984683E3,0E0,1.9783281E3,3.2616692E3,3.1559766E3,2.5915989E3,2.9244805E3,0E0,8.737383E2,0E0,0E0,2.0348438E2,0E0,0E0,3.844875E3,0E0,0E0,0E0,0E0,0E0,0E0,0E0,0E0,0E0,0E0,0E0,0E0,0E0,0E0,0E0,0E0,0E0,0E0,0E0,0E0,0E0,0E0,0E0,0E0,0E0,0E0,0E0,0E0,0E0,0E0,0E0,0E0,0E0,0E0,0E0,0E0,0E0,0E0,0E0,0E0,0E0,0E0,0E0,0E0,0E0,0E0,0E0,0E0],"parents":[2147483647,0,0,1,1,2,2,3,3,4,4,5,5,6,6,7,7,8,8,9,9,10,10,11,11,12,12,13,13,14,14,16,16,17,17,18,18,19,19,20,20,21,21,22,22,23,23,24,24,25,25,26,26,27,27,28,28,29,29,30,30,31,31,32,32,33,33,34,34,35,35,36,36,37,37,38,38,39,39,40,40,41,41,42,42,43,43,44,44,45,45,46,46,48,48,49,49,50,50,51,51,52,52,54,54,57,57,60,60],"right_children":[2,4,6,8,10,12,14,16,18,20,22,24,26,28,30,-1,32,34,36,38,40,42,44,46,48,50,52,54,56,58,60,62,64,66,68,70,72,74,76,78,80,82,84,86,88,90,92,-1,94,96,98,100,102,-1,104,-1,-1,106,-1,-1,108,-1,-1,-1,-1,-1,-1,-1,-1,-1,-1,-1,-1,-1,-1,-1,-1,-1,-1,-1,-1,-1,-1,-1,-1,-1,-1,-1,-1,-1,-1,-1,-1,-1,-1,-1,-1,-1,-1,-1,-1,-1,-1,-1,-1,-1,-1,-1,-1],"split_conditions":[3.78E2,3.45E2,4.08E2,3.31E2,3.61E2,1.8175979E-1,1.12E1,3.14E2,2.1E1,-4E0,6E0,1.64E1,1.2466666E1,4.11E2,-3.6E1,-4.595589E-2,1.4E1,2.7266666E1,3.31E2,3.54E2,3.8E2,3.3122122E-1,-4E-2,4.13E2,1.8E0,3.61E-1,3.82E2,-1E-2,4.24E2,3.86E-1,3.76E2,8.2E-1,1.95E1,-1.5E1,3.29E2,2.7E1,-8E-3,-7.82597E-1,-9.358349E-1,7.87E1,9.3E0,3.1E-1,-1.3E1,3.75E0,7.9E0,1E-1,-1.4E1,1.6100033E-1,0E0,-1E-2,3.88E2,-1.9E1,3.71E-1,4.135224E-1,-2E0,-3.5306224E-1,2.8376055E-1,7E-1,2.1074185E0,8.417989E-1,5.09E0,-8.140053E-1,-1.3054003E0,-1.2332519E0,-2.8401956E-1,8.556349E-2,-7.498812E-1,-5.825924E-1,-1.2967771E0,-1.04044996E-1,-6.7712605E-1,-1.6309413E-1,3.963833E-1,-1.1979715E0,-7.07643E-1,-9.1451037E-1,-2.2436202E-1,-3.3430594E-1,7.721171E-1,-4.290493E-2,1.6151993E0,8.727576E-1,-1.8844888E-1,-4.8600742E-1,2.6028934E-1,-1.0313928E0,2.8503463E-2,-1.1281265E-1,7.1250695E-1,-4.9871334E-1,8.887738E-2,-9.149074E-2,8.1763613E-1,2.7504582E0,1.2103195E0,8.2866997E-1,2.4006715E-2,7.5654215E-1,1.1620407E0,-2.9232642E-1,1.079531E0,1.0464212E0,2.751916E0,1.1711476E0,2.1252449E0,1.0211813E0,4.468916E-1,2.817682E0,1.6537884E0],"split_indices":[8,8,8,9,8,25,16,9,22,22,22,13,17,10,22,0,23,16,8,10,12,25,21,12,0,5,9,20,10,5,10,6,15,22,12,22,21,25,25,15,13,6,22,6,15,13,22,0,23,21,10,22,5,0,22,0,0,13,0,0,6,0,0,0,0,0,0,0,0,0,0,0,0,0,0,0,0,0,0,0,0,0,0,0,0,0,0,0,0,0,0,0,0,0,0,0,0,0,0,0,0,0,0,0,0,0,0,0,0],"split_type":[0,0,0,0,0,0,0,0,0,0,0,0,0,0,0,0,0,0,0,0,0,0,0,0,0,0,0,0,0,0,0,0,0,0,0,0,0,0,0,0,0,0,0,0,0,0,0,0,0,0,0,0,0,0,0,0,0,0,0,0,0,0,0,0,0,0,0,0,0,0,0,0,0,0,0,0,0,0,0,0,0,0,0,0,0,0,0,0,0,0,0,0,0,0,0,0,0,0,0,0,0,0,0,0,0,0,0,0,0],"sum_hessian":[2.448E3,1.798E3,6.5E2,6.73E2,1.125E3,4.55E2,1.95E2,2.64E2,4.09E2,5.92E2,5.33E2,1.45E2,3.1E2,4.1E1,1.54E2,7E0,2.57E2,3.79E2,3E1,1.58E2,4.34E2,4.16E2,1.17E2,1.26E2,1.9E1,2.76E2,3.4E1,3E1,1.1E1,1.8E1,1.36E2,2.23E2,3.4E1,3.42E2,3.7E1,1.9E1,1.1E1,9.6E1,6.2E1,3.77E2,5.7E1,2.54E2,1.62E2,1.1E1,1.06E2,8.8E1,3.8E1,6E0,1.3E1,5E1,2.26E2,1.3E1,2.1E1,9E0,2.1E1,5E0,6E0,1.1E1,7E0,6E0,1.3E2,2.6E1,1.97E2,1.4E1,2E1,6E0,3.36E2,6E0,3.1E1,1E1,9E0,5E0,6E0,1.8E1,7.8E1,9E0,5.3E1,3.7E2,7E0,5.2E1,5E0,6E0,2.48E2,1.4E1,1.48E2,5E0,6E0,1.7E1,8.9E1,2.1E1,6.7E1,5E0,3.3E1,5E0,8E0,2.2E1,2.8E1,1.43E2,8.3E1,5E0,8E0,5E0,1.6E1,1.5E1,6E0,5E0,6E0,1.17E2,1.3E1],"tree_param":{"num_deleted":"0","num_feature":"28","num_nodes":"109","size_leaf_vector":"1"}},{"base_weights":[-6.0732737E-3,-8.1389265E0,2.231271E1,-1.7547852E1,-2.7164629E0,1.6013977E1,4.4840225E1,-2.1966051E1,-1.4015755E1,-5.8213916E0,2.3270404E0,8.476183E0,1.9265564E1,1.0423268E1,4.820097E1,-1.26799E1,-2.335248E1,-1.4606161E1,4.315221E-1,-9.358843E0,-2.9366188E0,1.2758436E0,1.7632885E1,6.5860023E0,2.8899263E1,1.679683E1,4.1636227E1,8.827734E-1,-1.0727876E-1,3.926489E1,5.7970318E1,-1.4286836E1,-5.880615E-2,-2.4771303E1,-1.8502207E1,-1.528669E1,2.0584395E0,-1.2064791E1,-4.6061897E0,-5.5380964E0,3.2244444E0,-2.145193E0,4.879158E0,9.979201E0,2.8545013E1,8.344314E0,-8.105652E0,6.919049E-1,2.2073805E0,7.6194215E0,1.8974146E1,1.6016673E-1,4.79316E1,1.8282671E1,4.4556866E1,6.1112984E1,9.742079E-1,-4.9160346E-1,-1.0998733E0,-9.0753E-1,-1.2990688E0,-1.2688063E0,-6.985688E-1,-1.0188147E0,-6.722234E-1,-3.7474447E-1,5.6834817E-1,-9.862162E-1,-5.22592E-1,-5.1190454E-1,-2.6925907E-2,-3.5230777E-1,1.5146653E-1,2.2095619E-2,7.6076454E-1,-2.4985719E-1,2.4740402E-1,9.9321383E-1,1.6890018E-1,-3.241407E-2,7.67765E-1,6.450262E-1,1.9707669E0,-1.18073165E-1,5.043431E-1,-2.0559922E-2,-7.0167136E-1,4.6689102E-1,-3.8464686E-1,8.263423E-1,1.6070498E0,1.3522727E0,2.7146337E0,1.6931356E0,4.0566573E-1,1.1089628E0,2.4183958E0,1.2923788E0,3.2060287E0],"categories":[],"categories_nodes":[],"categories_segments":[],"categories_sizes":[],"default_left":[0,0,0,0,0,0,0,0,0,0,0,0,0,0,0,0,0,0,0,0,0,0,0,0,0,0,0,0,0,0,0,0,0,0,0,0,0,0,0,0,0,0,0,0,0,0,0,0,0,0,0,0,0,0,0,0,0,0,0,0,0,0,0,0,0,0,0,0,0,0,0,0,0,0,0,0,0,0,0,0,0,0,0,0,0,0,0,0,0,0,0,0,0,0,0,0,0,0,0],"id":7,"left_children":[1,3,5,7,9,11,13,15,17,19,21,23,25,27,29,31,33,35,-1,37,39,41,43,45,47,49,51,-1,-1,53,55,57,-1,59,61,63,65,67,69,71,73,75,77,79,81,83,85,-1,-1,87,89,-1,91,93,95,97,-1,-1,-1,-1,-1,-1,-1,-1,-1,-1,-1,-1,-1,-1,-1,-1,-1,-1,-1,-1,-1,-1,-1,-1,-1,-1,-1,-1,-1,-1,-1,-1,-1,-1,-1,-1,-1,-1,-1,-1,-1,-1,-1],"loss_changes":[4.4652647E5,9.193857E4,9.250072E4,9.972578E3,1.7944271E4,1.2456453E4,1.6032094E4,3.4467656E3,5.0603438E3,7.206451E3,7.006704E3,5.866842E3,1.912139E4,1.3120372E3,9.063031E3,7.21084E2,1.2715469E3,4.115461E3,0E0,4.032377E3,6.3010127E3,5.064839E3,2.049794E3,3.813373E3,2.368836E3,6.346961E3,8.309574E3,0E0,0E0,7.06275E3,6.058172E3,9.827534E2,0E0,1.0622188E3,1.5413418E3,2.9668203E3,1.4194922E3,2.2864277E3,2.6737297E3,3.5877178E3,3.8954053E3,4.2931904E3,4.4295703E3,1.0398445E3,1.356957E3,2.4497861E3,7.225609E2,0E0,0E0,1.7560144E3,7.906422E3,0E0,2.50925E3,2.2560874E3,3.6959766E3,4.1671406E3,0E0,0E0,0E0,0E0,0E0,0E0,0E0,0E0,0E0,0E0,0E0,0E0,0E0,0E0,0E0,0E0,0E0,0E0,0E0,0E0,0E0,0E0,0E0,0E0,0E0,0E0,0E0,0E0,0E0,0E0,0E0,0E0,0E0,0E0,0E0,0E0,0E0,0E0,0E0,0E0,0E0,0E0,0E0],"parents":[2147483647,0,0,1,1,2,2,3,3,4,4,5,5,6,6,7,7,8,8,9,9,10,10,11,11,12,12,13,13,14,14,15,15,16,16,17,17,19,19,20,20,21,21,22,22,23,23,24,24,25,25,26,26,29,29,30,30,31,31,33,33,34,34,35,35,36,36,37,37,38,38,39,39,40,40,41,41,42,42,43,43,44,44,45,45,46,46,49,49,50,50,52,52,53,53,54,54,55,55],"right_children":[2,4,6,8,10,12,14,16,18,20,22,24,26,28,30,32,34,36,-1,38,40,42,44,46,48,50,52,-1,-1,54,56,58,-1,60,62,64,66,68,70,72,74,76,78,80,82,84,86,-1,-1,88,90,-1,92,94,96,98,-1,-1,-1,-1,-1,-1,-1,-1,-1,-1,-1,-1,-1,-1,-1,-1,-1,-1,-1,-1,-1,-1,-1,-1,-1,-1,-1,-1,-1,-1,-1,-1,-1,-1,-1,-1,-1,-1,-1,-1,-1,-1,-1],"split_conditions":[3.78E2,3.44E2,4.22E2,3.33E2,3.63E2,1.9864795E-1,1.1566667E1,9.2E-1,3.3E1,-1E0,3.86E2,4.1E1,1.33E1,9E0,1.35E1,2.35E1,3.41E2,3.69E2,4.315221E-1,6.620696E-1,3.55E2,2E0,3.74E2,1E-2,1.94E1,3.78E2,3.66E2,8.827734E-1,-1.0727876E-1,-2.7E1,3.634816E-1,1.24E1,-5.880615E-2,-5.1850516E-1,-2.3E1,-1E1,8E0,3.48E2,9E-1,3.64E2,1.4E1,3E-2,4.1E-1,3.7E2,3E0,3.8E2,3E0,6.919049E-1,2.2073805E0,2.012857E1,1.2E1,1.6016673E-1,2.1985714E1,-9.9399275E-1,-4.0844392E-2,3.77E2,9.742079E-1,-4.9160346E-1,-1.0998733E0,-9.0753E-1,-1.2990688E0,-1.2688063E0,-6.985688E-1,-1.0188147E0,-6.722234E-1,-3.7474447E-1,5.6834817E-1,-9.862162E-1,-5.22592E-1,-5.1190454E-1,-2.6925907E-2,-3.5230777E-1,1.5146653E-1,2.2095619E-2,7.6076454E-1,-2.4985719E-1,2.4740402E-1,9.9321383E-1,1.6890018E-1,-3.241407E-2,7.67765E-1,6.450262E-1,1.9707669E0,-1.18073165E-1,5.043431E-1,-2.0559922E-2,-7.0167136E-1,4.6689102E-1,-3.8464686E-1,8.263423E-1,1.6070498E0,1.3522727E0,2.7146337E0,1.6931356E0,4.0566573E-1,1.1089628E0,2.4183958E0,1.2923788E0,3.2060287E0],"split_indices":[9,9,9,10,9,25,16,6,24,23,10,24,2,22,14,13,11,10,0,26,10,23,9,19,14,10,11,0,0,23,25,16,0,26,24,23,27,10,14,11,23,4,6,11,24,9,14,0,0,18,23,0,18,26,25,11,0,0,0,0,0,0,0,0,0,0,0,0,0,0,0,0,0,0,0,0,0,0,0,0,0,0,0,0,0,0,0,0,0,0,0,0,0,0,0,0,0,0,0],"split_type":[0,0,0,0,0,0,0,0,0,0,0,0,0,0,0,0,0,0,0,0,0,0,0,0,0,0,0,0,0,0,0,0,0,0,0,0,0,0,0,0,0,0,0,0,0,0,0,0,0,0,0,0,0,0,0,0,0,0,0,0,0,0,0,0,0,0,0,0,0,0,0,0,0,0,0,0,0,0,0,0,0,0,0,0,0,0,0,0,0,0,0,0,0,0,0,0,0,0,0],"sum_hessian":[2.458E3,1.802E3,6.56E2,6.58E2,1.144E3,5.14E2,1.42E2,2.9E2,3.68E2,7.08E2,4.36E2,1.56E2,3.58E2,1.3E1,1.29E2,3.9E1,2.51E2,3.59E2,9E0,3.17E2,3.91E2,4.09E2,2.7E1,1.44E2,1.2E1,3.24E2,3.4E1,8E0,5E0,7E1,5.9E1,3.4E1,5E0,1.91E2,6E1,3.45E2,1.4E1,2.01E2,1.16E2,2.75E2,1.16E2,2.1E2,1.99E2,1.7E1,1E1,1.29E2,1.5E1,7E0,5E0,6.3E1,2.61E2,5E0,2.9E1,1.5E1,5.5E1,5.4E1,5E0,2.3E1,1.1E1,3.2E1,1.59E2,2.2E1,3.8E1,8.9E1,2.56E2,7E0,7E0,3.3E1,1.68E2,4.8E1,6.8E1,2.34E2,4.1E1,9.5E1,2.1E1,1.5E2,6E1,1.7E1,1.82E2,6E0,1.1E1,5E0,5E0,1.8E1,1.11E2,7E0,8E0,5.7E1,6E0,2.22E2,3.9E1,8E0,2.1E1,5E0,1E1,9E0,4.6E1,5E0,4.9E1],"tree_param":{"num_deleted":"0","num_feature":"28","num_nodes":"99","size_leaf_vector":"1"}},{"base_weights":[1.8698028E-1,-8.536196E0,2.0367344E1,-1.6955376E1,-3.3971133E0,1.2880143E1,4.1256878E1,-2.1152786E1,-1.3344844E1,-6.1828685E0,1.3272411E0,5.332333E0,1.63851E1,1.7665058E1,4.688972E1,-1.1786052E1,-2.2522617E1,-1.4697424E1,-3.0736048E0,-1.1182209E1,-4.530435E0,5.20732E-1,2.0342222E1,-1.7065579E0,1.1204743E1,1.3870236E1,2.6289751E1,-1.8649118E-2,2.0959036E1,3.4892452E1,5.1290504E1,-1.3449063E1,-1.00528E-1,-2.6422789E1,-1.9759777E1,-1.9410116E1,-1.3459584E1,-8.140335E0,5.662352E0,-1.8684212E1,-9.30649E0,-8.060869E0,-2.0542388E0,-1.0972184E0,9.681736E0,4.470891E-1,1.3139155E0,-9.315302E0,1.9195131E0,1.2117441E0,1.3523734E1,5.6887083E0,1.7438982E1,2.2704966E1,2.3475945E0,3.1127943E1,9.551361E0,2.8471363E0,2.1965889E1,3.9913242E1,5.6153244E1,-4.6493393E-1,-1.013744E0,-1.3518313E0,-7.832335E-1,-1.0502636E0,-4.5538273E-1,-1.0427693E0,-4.285348E-1,-6.9247556E-1,9.6463494E-2,-5.483478E-1,1.7819981E-1,-9.820517E-2,5.2223176E-1,-5.56046E-1,-1.0577947E0,-5.286526E-1,3.723096E-1,-1.508956E-1,-5.451283E-1,3.969532E-1,-1.5621595E-1,-1.0880857E-1,4.9563622E-1,1.0118476E0,3.050473E-1,-1.1728834E0,-2.4131392E-1,2.1517701E-1,-2.681267E-1,-4.8245618E-1,4.9984202E-1,1.5045948E0,5.717802E-1,5.5962186E-2,7.786717E-1,7.839179E-1,1.7014731E0,6.771027E-1,1.4045366E0,7.9727405E-1,1.8058423E0,1.4178637E0,-3.196045E-2,3.2672954E-1,1.4674906E0,1.3916541E0,2.5556343E0,3.0950315E0,1.9074074E0],"categories":[],"categories_nodes":[],"categories_segments":[],"categories_sizes":[],"default_left":[0,0,0,0,0,0,0,0,0,0,0,0,0,0,0,0,0,0,0,0,0,0,0,0,0,0,0,0,0,0,0,0,0,0,0,0,0,0,0,0,0,0,0,0,0,0,0,0,0,0,0,0,0,0,0,0,0,0,0,0,0,0,0,0,0,0,0,0,0,0,0,0,0,0,0,0,0,0,0,0,0,0,0,0,0,0,0,0,0,0,0,0,0,0,0,0,0,0,0,0,0,0,0,0,0,0,0,0,0,0,0],"id":8,"left_children":[1,3,5,7,9,11,13,15,17,19,21,23,25,27,29,31,33,35,37,39,41,43,45,47,49,51,53,-1,55,57,59,61,-1,63,65,67,69,71,73,75,77,79,81,83,85,-1,-1,87,89,91,93,95,97,99,-1,101,103,-1,105,107,109,-1,-1,-1,-1,-1,-1,-1,-1,-1,-1,-1,-1,-1,-1,-1,-1,-1,-1,-1,-1,-1,-1,-1,-1,-1,-1,-1,-1,-1,-1,-1,-1,-1,-1,-1,-1,-1,-1,-1,-1,-1,-1,-1,-1,-1,-1,-1,-1,-1,-1],"loss_changes":[4.2988103E5,7.371036E4,1.14733E5,9.504328E3,1.3959239E4,1.4301844E4,2.4945719E4,3.541875E3,4.8154844E3,5.457908E3,6.029609E3,7.2124062E3,8.872516E3,2.3271338E3,6.438125E3,6.216841E2,2.2533672E3,1.5380312E3,1.9053761E3,2.1451387E3,4.3796787E3,5.629038E3,8.442871E2,2.225808E3,2.1836387E3,8.599426E3,4.408129E3,0E0,3.5267373E3,1.1567848E4,3.9455E3,7.717251E2,0E0,2.59E2,1.8620938E3,7.8959766E2,1.516043E3,9.330863E2,6.049123E2,3.5970996E2,2.9222969E3,2.932129E3,3.2003318E3,3.8577827E3,2.0282749E3,0E0,0E0,1.5345791E3,9.7780493E2,1.909357E3,2.3156543E3,4.1363467E3,5.5078867E3,2.8231367E3,0E0,7.065371E2,3.2788289E3,0E0,3.2229258E3,3.575254E3,5.49325E3,0E0,0E0,0E0,0E0,0E0,0E0,0E0,0E0,0E0,0E0,0E0,0E0,0E0,0E0,0E0,0E0,0E0,0E0,0E0,0E0,0E0,0E0,0E0,0E0,0E0,0E0,0E0,0E0,0E0,0E0,0E0,0E0,0E0,0E0,0E0,0E0,0E0,0E0,0E0,0E0,0E0,0E0,0E0,0E0,0E0,0E0,0E0,0E0,0E0,0E0],"parents":[2147483647,0,0,1,1,2,2,3,3,4,4,5,5,6,6,7,7,8,8,9,9,10,10,11,11,12,12,13,13,14,14,15,15,16,16,17,17,18,18,19,19,20,20,21,21,22,22,23,23,24,24,25,25,26,26,28,28,29,29,30,30,31,31,33,33,34,34,35,35,36,36,37,37,38,38,39,39,40,40,41,41,42,42,43,43,44,44,47,47,48,48,49,49,50,50,51,51,52,52,53,53,55,55,56,56,58,58,59,59,60,60],"right_children":[2,4,6,8,10,12,14,16,18,20,22,24,26,28,30,32,34,36,38,40,42,44,46,48,50,52,54,-1,56,58,60,62,-1,64,66,68,70,72,74,76,78,80,82,84,86,-1,-1,88,90,92,94,96,98,100,-1,102,104,-1,106,108,110,-1,-1,-1,-1,-1,-1,-1,-1,-1,-1,-1,-1,-1,-1,-1,-1,-1,-1,-1,-1,-1,-1,-1,-1,-1,-1,-1,-1,-1,-1,-1,-1,-1,-1,-1,-1,-1,-1,-1,-1,-1,-1,-1,-1,-1,-1,-1,-1,-1,-1],"split_conditions":[3.75E2,3.44E2,4.1E2,3.33E2,3.63E2,-4E0,4.4E0,8.2E-1,1.8E1,3.44E2,2.5E1,3.85E2,4.05E-1,-5.2E0,-1.5845178E-1,1.13E1,0E0,3.31E2,3.78E-1,3E0,-3E0,2.8E-1,2.2E1,-1.7E1,-3.2E1,1.4782713E-1,8.37E1,-1.8649118E-2,4.13E2,-9.906923E-1,1.3333333E1,3.96E-1,-1.00528E-1,3.61E2,3.36E2,3.52E2,3.68E2,2.3224293E-1,3.54E2,3.4E2,3.78E2,1.27E0,-8.6169285E-1,3.87E2,-6.9E0,4.470891E-1,1.3139155E0,3.52E2,1.5E0,6.875541E-2,-3.5E1,4.08E2,2.1385714E1,3.82E2,2.3475945E0,-4E0,-2E-2,2.8471363E0,3.28E0,3.83E2,2.64E1,-4.6493393E-1,-1.013744E0,-1.3518313E0,-7.832335E-1,-1.0502636E0,-4.5538273E-1,-1.0427693E0,-4.285348E-1,-6.9247556E-1,9.6463494E-2,-5.483478E-1,1.7819981E-1,-9.820517E-2,5.2223176E-1,-5.56046E-1,-1.0577947E0,-5.286526E-1,3.723096E-1,-1.508956E-1,-5.451283E-1,3.969532E-1,-1.5621595E-1,-1.0880857E-1,4.9563622E-1,1.0118476E0,3.050473E-1,-1.1728834E0,-2.4131392E-1,2.1517701E-1,-2.681267E-1,-4.8245618E-1,4.9984202E-1,1.5045948E0,5.717802E-1,5.5962186E-2,7.786717E-1,7.839179E-1,1.7014731E0,6.771027E-1,1.4045366E0,7.9727405E-1,1.8058423E0,1.4178637E0,-3.196045E-2,3.2672954E-1,1.4674906E0,1.3916541E0,2.5556343E0,3.0950315E0,1.9074074E0],"split_indices":[8,8,8,9,9,22,2,6,22,10,22,8,5,2,25,0,22,8,5,23,23,3,23,22,23,25,15,0,10,25,17,5,0,12,8,10,10,25,12,9,12,6,25,10,2,0,0,10,0,25,24,12,18,10,0,24,21,0,6,12,1,0,0,0,0,0,0,0,0,0,0,0,0,0,0,0,0,0,0,0,0,0,0,0,0,0,0,0,0,0,0,0,0,0,0,0,0,0,0,0,0,0,0,0,0,0,0,0,0,0,0],"split_type":[0,0,0,0,0,0,0,0,0,0,0,0,0,0,0,0,0,0,0,0,0,0,0,0,0,0,0,0,0,0,0,0,0,0,0,0,0,0,0,0,0,0,0,0,0,0,0,0,0,0,0,0,0,0,0,0,0,0,0,0,0,0,0,0,0,0,0,0,0,0,0,0,0,0,0,0,0,0,0,0,0,0,0,0,0,0,0,0,0,0,0,0,0,0,0,0,0,0,0,0,0,0,0,0,0,0,0,0,0,0,0],"sum_hessian":[2.44E3,1.704E3,7.36E2,6.45E2,1.059E3,5.43E2,1.93E2,2.96E2,3.49E2,6.66E2,3.93E2,1.73E2,3.7E2,3.8E1,1.55E2,3.9E1,2.57E2,3.08E2,4.1E1,1.64E2,5.02E2,3.78E2,1.5E1,7.9E1,9.4E1,2.97E2,7.3E1,6E0,3.2E1,4.4E1,1.11E2,3.3E1,6E0,1.03E2,1.54E2,6.1E1,2.47E2,2.6E1,1.5E1,3.1E1,1.33E2,2.06E2,2.96E2,3.22E2,5.6E1,6E0,9E0,2.5E1,5.4E1,1.8E1,7.6E1,9.1E1,2.06E2,6.4E1,9E0,1.6E1,1.6E1,1.5E1,2.9E1,3.6E1,7.5E1,2.2E1,1.1E1,9.6E1,7E0,1.37E2,1.7E1,5.3E1,8E0,2.41E2,6E0,2.1E1,5E0,6E0,9E0,9E0,2.2E1,1.24E2,9E0,7.5E1,1.31E2,2.8E1,2.68E2,2.94E2,2.8E1,1.3E1,4.3E1,5E0,2E1,4.1E1,1.3E1,8E0,1E1,7E0,6.9E1,6.3E1,2.8E1,1.88E2,1.8E1,2.5E1,3.9E1,5E0,1.1E1,5E0,1.1E1,1E1,1.9E1,1.9E1,1.7E1,5.5E1,2E1],"tree_param":{"num_deleted":"0","num_feature":"28","num_nodes":"111","size_leaf_vector":"1"}},{"base_weights":[7.8898475E-2,-8.003231E0,1.9535067E1,-1.5601009E1,-2.9301708E0,1.2779155E1,3.8296867E1,-1.6632196E1,-4.358869E0,-5.5937753E0,1.9511226E0,5.2511153E0,1.6337828E1,4.8592514E1,2.6787302E1,-2.0677877E1,-1.3717373E1,-1.0651702E1,2.0759258E0,-6.867867E0,4.2400904E0,1.3110349E0,1.3521124E0,-6.535897E-1,1.1164686E1,1.7587576E1,1.0662245E0,2.8295582E1,5.3759266E1,2.848316E0,2.3190935E1,-2.155899E1,-1.28821125E1,-1.544275E1,-9.835152E0,-1.6651703E1,-4.3547196E0,-4.0870902E-1,5.55527E0,-1.0180841E1,-4.171863E0,-6.525936E-1,1.2364277E1,1.3888433E0,7.776868E-1,-1.0735165E1,3.1957974E0,9.182352E0,1.343651E0,1.6181847E1,3.4029953E1,-4.237045E0,4.2493352E-1,4.4944176E-1,3.6699474E1,1.0212915E0,5.578901E1,3.2708275E1,1.827411E1,-1.2231826E0,-9.234605E-1,-1.6758855E-1,-1.142332E0,-8.6226195E-1,-5.8049107E-1,-3.541005E-1,-7.3481077E-1,-9.970547E-1,-4.1887188E-1,-5.543473E-1,2.9352814E-1,7.7249065E-2,5.8053607E-1,-5.4348946E-1,5.267994E-1,-5.981974E-1,-1.5527774E-1,1.040299E0,-1.783102E-1,1.8534377E-1,1.0684073E0,-4.310471E-1,1.02648854E-1,-9.24054E-2,-7.5284684E-1,5.217664E-1,2.5356025E-2,-1.9878308E-1,5.837113E-1,6.280652E-1,1.0718068E0,9.924372E-1,2.513262E0,1.7157444E-1,-6.652791E-1,6.79434E-1,2.3443E0,1.4643738E0,2.8876486E0,9.5365554E-1,2.1999996E0,4.313302E-1,1.1078068E0],"categories":[],"categories_nodes":[],"categories_segments":[],"categories_sizes":[],"default_left":[0,0,0,0,0,0,0,0,0,0,0,0,0,0,0,0,0,0,0,0,0,0,0,0,0,0,0,0,0,0,0,0,0,0,0,0,0,0,0,0,0,0,0,0,0,0,0,0,0,0,0,0,0,0,0,0,0,0,0,0,0,0,0,0,0,0,0,0,0,0,0,0,0,0,0,0,0,0,0,0,0,0,0,0,0,0,0,0,0,0,0,0,0,0,0,0,0,0,0,0,0,0,0],"id":9,"left_children":[1,3,5,7,9,11,13,15,17,19,21,23,25,27,29,31,33,35,37,39,41,43,-1,45,47,49,51,53,55,-1,57,59,61,63,65,67,69,-1,71,73,75,77,79,-1,81,83,85,87,-1,89,91,93,-1,-1,95,-1,97,99,101,-1,-1,-1,-1,-1,-1,-1,-1,-1,-1,-1,-1,-1,-1,-1,-1,-1,-1,-1,-1,-1,-1,-1,-1,-1,-1,-1,-1,-1,-1,-1,-1,-1,-1,-1,-1,-1,-1,-1,-1,-1,-1,-1,-1],"loss_changes":[3.8148212E5,6.601683E4,8.975366E4,7.8780312E3,1.3390168E4,1.3976711E4,2.09685E4,7.1185625E3,2.412062E3,8.373857E3,5.8077417E3,5.9443896E3,6.773867E3,8.7478125E3,8.547555E3,1.511625E3,2.3105625E3,1.0588433E3,1.1150573E3,5.2258477E3,3.069919E3,5.0006606E3,0E0,3.3725393E3,2.3964658E3,7.048664E3,1.1400907E3,3.235086E3,4.0625312E3,0E0,3.2811836E3,1.635E3,2.6747988E3,1.544832E3,1.4461943E3,2.3837207E2,1.1670306E3,0E0,5.392807E2,3.88258E3,2.6783057E3,3.1360483E3,2.178837E3,0E0,4.2121353E3,8.922705E2,1.2198937E3,2.5718677E3,0E0,5.529461E3,4.7511855E3,1.2288656E3,0E0,0E0,2.8881152E3,0E0,2.0473125E3,3.3115117E3,1.9405449E3,0E0,0E0,0E0,0E0,0E0,0E0,0E0,0E0,0E0,0E0,0E0,0E0,0E0,0E0,0E0,0E0,0E0,0E0,0E0,0E0,0E0,0E0,0E0,0E0,0E0,0E0,0E0,0E0,0E0,0E0,0E0,0E0,0E0,0E0,0E0,0E0,0E0,0E0,0E0,0E0,0E0,0E0,0E0,0E0],"parents":[2147483647,0,0,1,1,2,2,3,3,4,4,5,5,6,6,7,7,8,8,9,9,10,10,11,11,12,12,13,13,14,14,15,15,16,16,17,17,18,18,19,19,20,20,21,21,23,23,24,24,25,25,26,26,27,27,28,28,30,30,31,31,32,32,33,33,34,34,35,35,36,36,38,38,39,39,40,40,41,41,42,42,44,44,45,45,46,46,47,47,49,49,50,50,51,51,54,54,56,56,57,57,58,58],"right_children":[2,4,6,8,10,12,14,16,18,20,22,24,26,28,30,32,34,36,38,40,42,44,-1,46,48,50,52,54,56,-1,58,60,62,64,66,68,70,-1,72,74,76,78,80,-1,82,84,86,88,-1,90,92,94,-1,-1,96,-1,98,100,102,-1,-1,-1,-1,-1,-1,-1,-1,-1,-1,-1,-1,-1,-1,-1,-1,-1,-1,-1,-1,-1,-1,-1,-1,-1,-1,-1,-1,-1,-1,-1,-1,-1,-1,-1,-1,-1,-1,-1,-1,-1,-1,-1,-1],"split_conditions":[3.75E2,3.45E2,4.1E2,1.9E1,3.63E2,-4E0,-8.556315E-1,3.31E2,3.51E2,3.81E2,2.6E1,3.86E2,1E1,-1.4E1,-9.947883E-1,3.48E1,2.32E1,1.87E1,3.52E-1,3.52E2,3.8E-1,3.1E-1,1.3521124E0,-2.2E1,4.1E-1,4.1E1,1.0514286E1,-4.1E-2,-1.8E1,2.848316E0,6E0,3.3E2,5.5E-2,6.90574E-1,2.31E1,1E-3,1.5514286E1,-4.0870902E-1,3.3E1,7.87E1,-9E0,3.48E2,3.59E2,1.3888433E0,-3.2E-2,-2.3E1,3.5E2,-3.2E1,1.343651E0,3.87E2,3.8E-1,1.42E1,4.2493352E-1,4.4944176E-1,4.47E2,1.0212915E0,1.26E1,3.77E2,2.7E0,-1.2231826E0,-9.234605E-1,-1.6758855E-1,-1.142332E0,-8.6226195E-1,-5.8049107E-1,-3.541005E-1,-7.3481077E-1,-9.970547E-1,-4.1887188E-1,-5.543473E-1,2.9352814E-1,7.7249065E-2,5.8053607E-1,-5.4348946E-1,5.267994E-1,-5.981974E-1,-1.5527774E-1,1.040299E0,-1.783102E-1,1.8534377E-1,1.0684073E0,-4.310471E-1,1.02648854E-1,-9.24054E-2,-7.5284684E-1,5.217664E-1,2.5356025E-2,-1.9878308E-1,5.837113E-1,6.280652E-1,1.0718068E0,9.924372E-1,2.513262E0,1.7157444E-1,-6.652791E-1,6.79434E-1,2.3443E0,1.4643738E0,2.8876486E0,9.5365554E-1,2.1999996E0,4.313302E-1,1.1078068E0],"split_indices":[8,8,8,22,8,22,26,8,12,12,22,8,27,24,25,14,15,15,5,9,5,6,0,22,5,24,18,21,23,0,14,10,21,26,18,21,18,0,22,15,22,8,8,0,21,23,12,23,0,10,5,15,0,0,10,0,2,12,2,0,0,0,0,0,0,0,0,0,0,0,0,0,0,0,0,0,0,0,0,0,0,0,0,0,0,0,0,0,0,0,0,0,0,0,0,0,0,0,0,0,0,0,0],"split_type":[0,0,0,0,0,0,0,0,0,0,0,0,0,0,0,0,0,0,0,0,0,0,0,0,0,0,0,0,0,0,0,0,0,0,0,0,0,0,0,0,0,0,0,0,0,0,0,0,0,0,0,0,0,0,0,0,0,0,0,0,0,0,0,0,0,0,0,0,0,0,0,0,0,0,0,0,0,0,0,0,0,0,0,0,0,0,0,0,0,0,0,0,0,0,0,0,0,0,0,0,0,0,0],"sum_hessian":[2.424E3,1.713E3,7.11E2,6.85E2,1.028E3,5.24E2,1.87E2,6.27E2,5.8E1,6.65E2,3.63E2,1.69E2,3.55E2,9.7E1,9E1,2.6E2,3.67E2,2.9E1,2.9E1,5.89E2,7.6E1,3.55E2,8E0,8.5E1,8.4E1,3.28E2,2.7E1,2.1E1,7.6E1,8E0,8.2E1,2.32E2,2.8E1,2.52E2,1.15E2,1.4E1,1.5E1,7E0,2.2E1,2.63E2,3.26E2,4.8E1,2.8E1,6E0,3.49E2,2.3E1,6.2E1,7.6E1,8E0,3.04E2,2.4E1,1.6E1,1.1E1,7E0,1.4E1,5E0,7.1E1,2.6E1,5.6E1,1.16E2,1.16E2,1.5E1,1.3E1,1.69E2,8.3E1,7.5E1,4E1,9E0,5E0,9E0,6E0,1.4E1,8E0,2.55E2,8E0,3.8E1,2.88E2,5E0,4.3E1,1.5E1,1.3E1,4.1E1,3.08E2,8E0,1.5E1,1.6E1,4.6E1,1.2E1,6.4E1,1.82E2,1.22E2,1.4E1,1E1,9E0,7E0,5E0,9E0,6E0,6.5E1,1.3E1,1.3E1,1.7E1,3.9E1],"tree_param":{"num_deleted":"0","num_feature":"28","num_nodes":"103","size_leaf_vector":"1"}},{"base_weights":[-6.156989E-2,-7.9950056E0,1.7385616E1,-1.5060395E1,-3.4263875E0,1.0816241E1,3.3880836E1,-1.8711847E1,-1.1396081E1,-6.18698E0,2.920981E-1,9.360288E0,2.4590769E1,1.7702446E1,4.0068504E1,-1.9448149E1,-5.863418E0,-1.2826225E1,-1.1046814E0,-1.2505248E1,-4.624465E0,-1.3991012E-1,1.155526E0,3.2137814E0,1.2918537E1,2.1494782E-1,2.6700771E1,-3.873767E-2,2.0917244E1,3.5109005E1,5.2878616E1,-1.9958717E1,-3.9320905E0,-8.319807E0,4.143631E-2,-1.1944198E1,-2.0873737E1,-6.3654003E0,4.2038794E0,-1.736388E1,-8.573913E0,-6.0807824E0,2.1501627E0,-3.3487616E0,2.8077674E0,4.701024E0,-1.24109745E1,3.4391937E1,1.1709747E1,4.2445493E-1,2.97493E1,2.6252022E1,4.5548472E0,2.4277843E1,4.3189945E1,3.6807686E1,2.8436108E0,-1.0163502E0,6.0640257E-2,-5.5856407E-1,1.9728908E-1,-2.2222029E-1,-5.773004E-1,-7.726022E-1,-5.065737E-1,-1.3910458E0,-7.5723785E-1,1.8377428E-1,-5.3167266E-1,-8.002185E-2,4.3494102E-1,-9.582142E-1,-1.7761083E-1,-6.0057E-1,5.3174693E-2,-2.7570665E-1,-7.5618976E-1,-4.930268E-2,7.675473E-1,-4.3115196E-1,-6.1493933E-2,9.792129E-1,9.176322E-2,1.2062418E-1,8.1948584E-1,-8.534153E-1,-1.985182E-1,1.1715509E0,2.4369152E0,1.1340169E-1,6.860226E-1,1.1156758E0,2.071326E0,4.532592E-1,1.5931238E0,4.0205812E-1,-7.085501E-2,7.1149224E-1,1.6339333E0,2.3084729E0,6.159136E-1,6.508746E-1,2.72233E0],"categories":[],"categories_nodes":[],"categories_segments":[],"categories_sizes":[],"default_left":[0,0,0,0,0,0,0,0,0,0,0,0,0,0,0,0,0,0,0,0,0,0,0,0,0,0,0,0,0,0,0,0,0,0,0,0,0,0,0,0,0,0,0,0,0,0,0,0,0,0,0,0,0,0,0,0,0,0,0,0,0,0,0,0,0,0,0,0,0,0,0,0,0,0,0,0,0,0,0,0,0,0,0,0,0,0,0,0,0,0,0,0,0,0,0,0,0,0,0,0,0,0,0],"id":10,"left_children":[1,3,5,7,9,11,13,15,17,19,21,23,25,27,29,31,33,35,37,39,41,43,-1,45,47,-1,49,-1,51,53,55,57,59,61,-1,63,65,67,69,71,73,75,77,79,81,83,85,87,89,-1,91,93,95,97,99,101,-1,-1,-1,-1,-1,-1,-1,-1,-1,-1,-1,-1,-1,-1,-1,-1,-1,-1,-1,-1,-1,-1,-1,-1,-1,-1,-1,-1,-1,-1,-1,-1,-1,-1,-1,-1,-1,-1,-1,-1,-1,-1,-1,-1,-1,-1,-1],"loss_changes":[3.334441E5,5.340068E4,8.122661E4,8.480797E3,1.0339475E4,1.0596164E4,2.0707734E4,2.948586E3,4.7972773E3,5.646701E3,4.2443613E3,1.06735625E4,2.0657207E3,3.6416484E3,7.9185625E3,2.3432656E3,3.199757E2,1.7845625E3,1.1719762E3,2.0260332E3,4.601162E3,4.0104695E3,0E0,4.263616E3,7.6392812E3,0E0,2.297496E3,0E0,4.416412E3,8.922656E3,5.2871875E2,2.3345156E3,6.7212555E2,1.2212537E2,0E0,1.5005273E3,6.4896875E2,9.397346E2,5.6252295E2,1.1729824E3,2.1672188E3,1.8771172E3,3.452816E3,2.2570513E3,3.5675725E3,4.399088E3,5.5909985E2,1.3667832E3,5.567707E3,0E0,2.4555938E3,3.4676816E3,3.035388E2,3.8352812E3,5.3123047E3,3.900461E3,0E0,0E0,0E0,0E0,0E0,0E0,0E0,0E0,0E0,0E0,0E0,0E0,0E0,0E0,0E0,0E0,0E0,0E0,0E0,0E0,0E0,0E0,0E0,0E0,0E0,0E0,0E0,0E0,0E0,0E0,0E0,0E0,0E0,0E0,0E0,0E0,0E0,0E0,0E0,0E0,0E0,0E0,0E0,0E0,0E0,0E0,0E0],"parents":[2147483647,0,0,1,1,2,2,3,3,4,4,5,5,6,6,7,7,8,8,9,9,10,10,11,11,12,12,13,13,14,14,15,15,16,16,17,17,18,18,19,19,20,20,21,21,23,23,24,24,26,26,28,28,29,29,30,30,31,31,32,32,33,33,35,35,36,36,37,37,38,38,39,39,40,40,41,41,42,42,43,43,44,44,45,45,46,46,47,47,48,48,50,50,51,51,52,52,53,53,54,54,55,55],"right_children":[2,4,6,8,10,12,14,16,18,20,22,24,26,28,30,32,34,36,38,40,42,44,-1,46,48,-1,50,-1,52,54,56,58,60,62,-1,64,66,68,70,72,74,76,78,80,82,84,86,88,90,-1,92,94,96,98,100,102,-1,-1,-1,-1,-1,-1,-1,-1,-1,-1,-1,-1,-1,-1,-1,-1,-1,-1,-1,-1,-1,-1,-1,-1,-1,-1,-1,-1,-1,-1,-1,-1,-1,-1,-1,-1,-1,-1,-1,-1,-1,-1,-1,-1,-1,-1,-1],"split_conditions":[3.73E2,3.44E2,4.02E2,3.35E2,3.6E2,4.12E-1,4.3E0,8.2415664E-1,1.8E1,3.4E2,2.6E1,2.3224293E-1,-6E0,-5.766667E0,4.01E-1,4.21E-1,-4.0844392E-2,2.7433332E1,3.58E2,-4.3830672E-1,9E0,3.63E2,1.155526E0,1E-2,-8.911529E-1,2.1494782E-1,1.0066667E1,-3.873767E-2,4E0,-3E0,-5.4129845E-1,3.3E1,1.7557142E1,3.3E2,4.143631E-2,1.0071428E1,3.35E2,2.5E1,5.6E0,5.8E0,3.55E2,2.7E-1,3.8E2,-5.2675474E-1,-2.9E0,3E1,6E-2,3E0,3.59E-1,4.2445493E-1,4.21E-1,-1E0,3.94E2,4.36E2,4.51E2,-1.1478762E-1,2.8436108E0,-1.0163502E0,6.0640257E-2,-5.5856407E-1,1.9728908E-1,-2.2222029E-1,-5.773004E-1,-7.726022E-1,-5.065737E-1,-1.3910458E0,-7.5723785E-1,1.8377428E-1,-5.3167266E-1,-8.002185E-2,4.3494102E-1,-9.582142E-1,-1.7761083E-1,-6.0057E-1,5.3174693E-2,-2.7570665E-1,-7.5618976E-1,-4.930268E-2,7.675473E-1,-4.3115196E-1,-6.1493933E-2,9.792129E-1,9.176322E-2,1.2062418E-1,8.1948584E-1,-8.534153E-1,-1.985182E-1,1.1715509E0,2.4369152E0,1.1340169E-1,6.860226E-1,1.1156758E0,2.071326E0,4.532592E-1,1.5931238E0,4.0205812E-1,-7.085501E-2,7.1149224E-1,1.6339333E0,2.3084729E0,6.159136E-1,6.508746E-1,2.72233E0],"split_indices":[8,8,8,9,8,5,17,26,22,11,22,25,22,17,5,5,25,16,12,25,22,11,0,19,26,0,16,0,27,22,25,24,18,9,0,18,8,22,14,7,12,4,12,25,1,24,4,22,5,0,5,24,11,8,12,26,0,0,0,0,0,0,0,0,0,0,0,0,0,0,0,0,0,0,0,0,0,0,0,0,0,0,0,0,0,0,0,0,0,0,0,0,0,0,0,0,0,0,0,0,0,0,0],"split_type":[0,0,0,0,0,0,0,0,0,0,0,0,0,0,0,0,0,0,0,0,0,0,0,0,0,0,0,0,0,0,0,0,0,0,0,0,0,0,0,0,0,0,0,0,0,0,0,0,0,0,0,0,0,0,0,0,0,0,0,0,0,0,0,0,0,0,0,0,0,0,0,0,0,0,0,0,0,0,0,0,0,0,0,0,0,0,0,0,0,0,0,0,0,0,0,0,0,0,0,0,0,0,0],"sum_hessian":[2.407E3,1.655E3,7.52E2,6.49E2,1.006E3,5.39E2,2.13E2,3.23E2,3.26E2,5.77E2,4.29E2,4.89E2,5E1,6E1,1.53E2,3.05E2,1.8E1,2.86E2,4E1,1.13E2,4.64E2,4.22E2,7E0,1.8E2,3.09E2,5E0,4.5E1,9E0,5.1E1,1.13E2,4E1,2.95E2,1E1,1.3E1,5E0,2.6E2,2.6E1,2E1,2E1,4.9E1,6.4E1,3.82E2,8.2E1,2.02E2,2.2E2,1.65E2,1.5E1,1.5E1,2.94E2,7E0,3.8E1,3.8E1,1.3E1,5E1,6.3E1,1E1,3E1,2.9E2,5E0,5E0,5E0,7E0,6E0,8.6E1,1.74E2,1E1,1.6E1,6E0,1.4E1,9E0,1.1E1,4.3E1,6E0,4.7E1,1.7E1,3.61E2,2.1E1,6.7E1,1.5E1,5.7E1,1.45E2,1.1E1,2.09E2,1.39E2,2.6E1,9E0,6E0,1E1,5E0,5.2E1,2.42E2,2.5E1,1.3E1,1E1,2.8E1,8E0,5E0,2.4E1,2.6E1,5.7E1,6E0,5E0,5E0],"tree_param":{"num_deleted":"0","num_feature":"28","num_nodes":"103","size_leaf_vector":"1"}},{"base_weights":[1.4094181E-1,-7.221512E0,1.7951603E1,-1.4418711E1,-3.15171E0,1.1330678E1,3.3377846E1,-1.790847E1,-1.083679E1,-8.124145E0,-1.1101855E0,1.0277087E1,3.8908447E1,1.4424129E1,3.836828E1,-1.0258727E1,-1.8865265E1,-1.1556981E1,5.1570067E0,-1.2145099E1,-4.9685764E0,-5.8462896E0,1.4751405E0,3.8153977E0,1.3690379E1,1.0856738E0,2.8837736E0,2.3162495E1,6.807596E0,2.47724E1,4.3443768E1,1.1716814E-1,-1.277666E1,-1.9994156E1,-1.3714969E1,-1.2139853E1,4.1839585E-1,5.1096165E-1,-1.639583E-1,-1.6951591E1,-1.0120299E1,-1.2759185E1,-3.7531135E0,-7.9858336E0,6.6092887E0,2.6014334E-1,1.0853736E1,2.5928514E0,1.3964859E0,1.2537718E1,2.8172019E0,5.093102E-1,3.203753E1,2.4421425E0,7.3854965E-1,1.7407106E1,2.0704515E0,4.5207348E1,2.1689117E1,-4.2420444E-1,-8.687959E-1,-1.1311469E0,-8.83486E-1,-8.532562E-1,-1.5781537E-1,-7.1492916E-1,-4.148759E-1,-9.7239447E-1,-2.2614579E-1,-6.050372E-1,-9.9738E-2,-7.785813E-1,-3.1652448E-1,-2.3864758E-1,3.1404373E-1,-3.6287653E-1,-9.1128314E-1,1.3331944E-1,1.4574237E0,-1.02677E-1,1.7271912E-1,2.7526733E-1,1.1711534E0,-8.292204E-2,4.6169424E-1,1.4746194E-1,7.422608E-1,1.8861659E0,1.0023929E0,6.0567576E-1,-2.4022524E-1,1.0748215E0,4.530453E-2,1.4894648E0,2.3838873E0,1.8852507E0,1.02085166E-1],"categories":[],"categories_nodes":[],"categories_segments":[],"categories_sizes":[],"default_left":[0,0,0,0,0,0,0,0,0,0,0,0,0,0,0,0,0,0,0,0,0,0,0,0,0,0,0,0,0,0,0,0,0,0,0,0,0,0,0,0,0,0,0,0,0,0,0,0,0,0,0,0,0,0,0,0,0,0,0,0,0,0,0,0,0,0,0,0,0,0,0,0,0,0,0,0,0,0,0,0,0,0,0,0,0,0,0,0,0,0,0,0,0,0,0,0,0],"id":11,"left_children":[1,3,5,7,9,11,13,15,17,19,21,23,25,27,29,31,33,35,37,39,41,43,45,47,49,-1,-1,51,53,55,57,-1,59,61,63,65,-1,-1,-1,67,69,71,73,75,77,79,81,83,-1,85,-1,-1,87,89,-1,91,-1,93,95,-1,-1,-1,-1,-1,-1,-1,-1,-1,-1,-1,-1,-1,-1,-1,-1,-1,-1,-1,-1,-1,-1,-1,-1,-1,-1,-1,-1,-1,-1,-1,-1,-1,-1,-1,-1,-1,-1],"loss_changes":[3.1877697E5,5.0333617E4,7.223605E4,7.565586E3,1.1156539E4,1.4093992E4,1.958836E4,2.0944688E3,3.6194805E3,3.9982324E3,9.571916E3,1.0576832E4,4.548299E3,2.9009004E3,1.05099375E4,1.2050386E3,1.3329297E3,3.5396094E3,6.320858E2,1.1882441E3,1.6643867E3,7.4081133E3,5.7619185E3,4.8773174E3,1.4773723E4,0E0,0E0,2.0879033E3,8.6606555E2,5.15492E3,3.6551094E3,0E0,4.620171E2,9.710781E2,1.8188936E3,2.2679297E3,0E0,0E0,0E0,1.150668E3,1.5997627E3,3.331621E2,1.6466484E3,1.6251973E3,3.5627573E3,3.325549E3,3.767245E3,4.5615796E3,0E0,6.7690625E3,0E0,0E0,5.5998047E1,1.3204609E3,0E0,2.3400127E3,0E0,2.7998125E3,3.3804233E3,0E0,0E0,0E0,0E0,0E0,0E0,0E0,0E0,0E0,0E0,0E0,0E0,0E0,0E0,0E0,0E0,0E0,0E0,0E0,0E0,0E0,0E0,0E0,0E0,0E0,0E0,0E0,0E0,0E0,0E0,0E0,0E0,0E0,0E0,0E0,0E0,0E0,0E0],"parents":[2147483647,0,0,1,1,2,2,3,3,4,4,5,5,6,6,7,7,8,8,9,9,10,10,11,11,12,12,13,13,14,14,15,15,16,16,17,17,18,18,19,19,20,20,21,21,22,22,23,23,24,24,27,27,28,28,29,29,30,30,32,32,33,33,34,34,35,35,39,39,40,40,41,41,42,42,43,43,44,44,45,45,46,46,47,47,49,49,52,52,53,53,55,55,57,57,58,58],"right_children":[2,4,6,8,10,12,14,16,18,20,22,24,26,28,30,32,34,36,38,40,42,44,46,48,50,-1,-1,52,54,56,58,-1,60,62,64,66,-1,-1,-1,68,70,72,74,76,78,80,82,84,-1,86,-1,-1,88,90,-1,92,-1,94,96,-1,-1,-1,-1,-1,-1,-1,-1,-1,-1,-1,-1,-1,-1,-1,-1,-1,-1,-1,-1,-1,-1,-1,-1,-1,-1,-1,-1,-1,-1,-1,-1,-1,-1,-1,-1,-1,-1],"split_conditions":[3.75E2,3.44E2,4.02E2,3.34E2,-4E0,4.4E1,1.14E1,8.2E-1,2.2E1,3.6E2,3.5E2,2.2177216E-1,5.75E1,6E0,-1.6E1,-1.4E1,1.4E1,3.69E2,3.89E-1,-5.995515E-1,3.42E2,5.65E1,2.1E1,8.69E1,1.4066667E1,1.0856738E0,2.8837736E0,1.3333334E-1,3.95E-1,3.86E-1,2.71E1,1.1716814E-1,3.9E0,3.26E2,3.45E1,2.18E1,4.1839585E-1,5.1096165E-1,-1.639583E-1,4.21E1,-6E0,1.64E1,4.05E-1,1.77E1,3.71E2,3E0,1.6E0,3.87E2,1.3964859E0,3.61E-1,2.8172019E0,5.093102E-1,1.7E0,-5E0,7.3854965E-1,3.78E-1,2.0704515E0,-5.2675474E-1,9E-1,-4.2420444E-1,-8.687959E-1,-1.1311469E0,-8.83486E-1,-8.532562E-1,-1.5781537E-1,-7.1492916E-1,-4.148759E-1,-9.7239447E-1,-2.2614579E-1,-6.050372E-1,-9.9738E-2,-7.785813E-1,-3.1652448E-1,-2.3864758E-1,3.1404373E-1,-3.6287653E-1,-9.1128314E-1,1.3331944E-1,1.4574237E0,-1.02677E-1,1.7271912E-1,2.7526733E-1,1.1711534E0,-8.292204E-2,4.6169424E-1,1.4746194E-1,7.422608E-1,1.8861659E0,1.0023929E0,6.0567576E-1,-2.4022524E-1,1.0748215E0,4.530453E-2,1.4894648E0,2.3838873E0,1.8852507E0,1.02085166E-1],"split_indices":[10,9,9,10,23,24,16,6,23,10,10,25,15,14,23,24,23,10,5,25,12,15,23,15,17,0,0,17,5,5,16,0,2,10,15,15,0,0,0,15,23,16,5,2,12,13,7,12,0,5,0,0,2,24,0,5,0,25,13,0,0,0,0,0,0,0,0,0,0,0,0,0,0,0,0,0,0,0,0,0,0,0,0,0,0,0,0,0,0,0,0,0,0,0,0,0,0],"split_type":[0,0,0,0,0,0,0,0,0,0,0,0,0,0,0,0,0,0,0,0,0,0,0,0,0,0,0,0,0,0,0,0,0,0,0,0,0,0,0,0,0,0,0,0,0,0,0,0,0,0,0,0,0,0,0,0,0,0,0,0,0,0,0,0,0,0,0,0,0,0,0,0,0,0,0,0,0,0,0,0,0,0,0,0,0,0,0,0,0,0,0,0,0,0,0,0,0],"sum_hessian":[2.429E3,1.719E3,7.1E2,6.2E2,1.099E3,4.98E2,2.12E2,3.12E2,3.08E2,3.19E2,7.8E2,4.81E2,1.7E1,4.5E1,1.67E2,3.6E1,2.76E2,2.95E2,1.3E1,1.39E2,1.8E2,2.75E2,5.05E2,1.67E2,3.14E2,1E1,7E0,2E1,2.5E1,4.7E1,1.2E2,6E0,3E1,2.24E2,5.2E1,2.87E2,8E0,8E0,5E0,3.9E1,1E2,2.3E1,1.57E2,2.35E2,4E1,4.48E2,5.7E1,1.6E2,7E0,3.07E2,7E0,9E0,1.1E1,1.7E1,8E0,3.4E1,1.3E1,1.1E2,1E1,1.7E1,1.3E1,1.01E2,1.23E2,3.9E1,1.3E1,1.82E2,1.05E2,3.2E1,7E0,8E1,2E1,1.5E1,8E0,1.43E2,1.4E1,2.21E2,1.4E1,3.5E1,5E0,2.6E2,1.88E2,4.1E1,1.6E1,9.8E1,6.2E1,6E1,2.47E2,6E0,5E0,7E0,1E1,2.7E1,7E0,1.7E1,9.3E1,5E0,5E0],"tree_param":{"num_deleted":"0","num_feature":"28","num_nodes":"97","size_leaf_vector":"1"}},{"base_weights":[-2.1167556E-2,-6.506132E0,1.7673965E1,-1.1749279E1,-5.3557646E-1,1.0890946E1,3.0795294E1,-1.765155E1,-9.426163E0,-4.062748E0,2.2078714E0,1.0295839E1,2.2853694E0,3.9771168E1,2.1704874E1,-1.9653128E1,-1.2952214E1,-1.01075735E1,-3.594953E-1,4.643986E0,-5.0533333E0,-4.1024027E0,3.6447449E0,3.8866348E0,1.26942005E1,2.1586023E1,4.4022713E1,7.197405E-2,2.3234241E1,-2.025416E1,-1.29127035E1,-1.7189554E1,-8.989802E0,-1.1021115E1,-4.7688985E0,-3.081392E0,6.98145E-1,8.335838E-1,1.8646796E0,-9.666865E0,-3.681582E0,-8.134479E0,3.9607596E0,2.068786E0,9.017929E0,-4.5920243E0,6.5765734E0,4.5092373E0,1.4319717E1,1.1139472E1,1.7021296E0,5.7052773E-1,4.582688E1,1.5565258E1,2.8947935E1,-1.0601447E0,-7.357902E-1,-1.0036486E0,-3.2611308E-1,-1.1509124E0,-4.9186704E-1,-5.643229E-1,1.5152687E-1,-6.1857307E-1,-2.8506446E-1,-4.3152615E-1,-1.132339E-1,1.8478523E-1,-4.1611844E-1,3.413688E-1,-2.9529914E-1,-4.0571404E-1,-1.1787825E0,-2.23012E-1,1.8438129E-1,-1.824397E-1,-9.4981205E-1,-7.445916E-2,1.104737E0,7.05566E-2,1.0461934E0,5.5248755E-1,-3.0077714E-1,1.0474799E-1,-7.866952E-1,4.0542075E-1,-2.0238829E-1,-1.17119096E-1,5.131881E-1,3.9119405E-1,8.3418286E-1,1.684508E-1,1.0460956E0,2.5774744E0,1.8169765E0,1.186984E0,4.8347116E-1,2.4022024E0,1.0036136E0],"categories":[],"categories_nodes":[],"categories_segments":[],"categories_sizes":[],"default_left":[0,0,0,0,0,0,0,0,0,0,0,0,0,0,0,0,0,0,0,0,0,0,0,0,0,0,0,0,0,0,0,0,0,0,0,0,0,0,0,0,0,0,0,0,0,0,0,0,0,0,0,0,0,0,0,0,0,0,0,0,0,0,0,0,0,0,0,0,0,0,0,0,0,0,0,0,0,0,0,0,0,0,0,0,0,0,0,0,0,0,0,0,0,0,0,0,0,0,0],"id":12,"left_children":[1,3,5,7,9,11,13,15,17,19,21,23,-1,25,27,29,31,33,35,37,39,41,43,45,47,49,51,-1,53,55,57,59,61,63,65,67,-1,-1,69,71,73,75,77,79,81,83,85,87,89,91,-1,-1,93,95,97,-1,-1,-1,-1,-1,-1,-1,-1,-1,-1,-1,-1,-1,-1,-1,-1,-1,-1,-1,-1,-1,-1,-1,-1,-1,-1,-1,-1,-1,-1,-1,-1,-1,-1,-1,-1,-1,-1,-1,-1,-1,-1,-1,-1],"loss_changes":[2.8068325E5,5.6027547E4,5.8045906E4,1.2898125E4,8.118156E3,8.516074E3,1.7326188E4,2.2630156E3,4.2335156E3,3.1887964E3,4.2945615E3,6.528047E3,0E0,7.625125E3,3.4663242E3,4.8867188E2,1.2364297E3,3.0574453E3,1.9521569E3,1.2373472E3,2.0515195E3,2.8936292E3,3.2403843E3,2.721633E3,4.071336E3,2.609212E3,4.7079375E3,0E0,4.145879E3,5.723906E2,6.900503E2,1.4415723E3,1.2773259E3,3.835539E3,8.980491E2,1.5230012E3,0E0,0E0,1.2744446E3,1.4251245E3,1.4854768E3,2.8030461E3,2.9998384E3,3.6758735E3,2.724418E3,2.1949873E3,1.4979595E3,2.1145078E3,3.844164E3,9.9128076E2,0E0,0E0,2.6784844E3,2.0322754E3,9.028785E3,0E0,0E0,0E0,0E0,0E0,0E0,0E0,0E0,0E0,0E0,0E0,0E0,0E0,0E0,0E0,0E0,0E0,0E0,0E0,0E0,0E0,0E0,0E0,0E0,0E0,0E0,0E0,0E0,0E0,0E0,0E0,0E0,0E0,0E0,0E0,0E0,0E0,0E0,0E0,0E0,0E0,0E0,0E0,0E0],"parents":[2147483647,0,0,1,1,2,2,3,3,4,4,5,5,6,6,7,7,8,8,9,9,10,10,11,11,13,13,14,14,15,15,16,16,17,17,18,18,19,19,20,20,21,21,22,22,23,23,24,24,25,25,26,26,28,28,29,29,30,30,31,31,32,32,33,33,34,34,35,35,38,38,39,39,40,40,41,41,42,42,43,43,44,44,45,45,46,46,47,47,48,48,49,49,52,52,53,53,54,54],"right_children":[2,4,6,8,10,12,14,16,18,20,22,24,-1,26,28,30,32,34,36,38,40,42,44,46,48,50,52,-1,54,56,58,60,62,64,66,68,-1,-1,70,72,74,76,78,80,82,84,86,88,90,92,-1,-1,94,96,98,-1,-1,-1,-1,-1,-1,-1,-1,-1,-1,-1,-1,-1,-1,-1,-1,-1,-1,-1,-1,-1,-1,-1,-1,-1,-1,-1,-1,-1,-1,-1,-1,-1,-1,-1,-1,-1,-1,-1,-1,-1,-1,-1,-1],"split_conditions":[3.78E2,3.52E2,4.02E2,3.31E2,3.7E-1,6.85E1,-8.488827E-1,1E1,1.5E1,-1.2E0,3.46E2,3.78E2,2.2853694E0,-1.4E1,-5.766667E0,3.37E2,1.67E1,8.862235E-1,1.25E1,-1.3E1,3.52E2,8E0,3.75E2,3.59E-1,3.58E2,2E-1,-1.8E1,7.197405E-2,-6.7682765E-2,3.43E1,3.32E2,4.6421048E-1,4.08E-1,1.86E1,3.44E2,-6E-1,6.98145E-1,8.335838E-1,-4E-2,3.69E2,3.81E2,7E-3,2.79E0,7.5E-2,2.2071428E1,3.51E-1,9.456701E-1,-7E0,3.61E-1,3.38E-1,1.7021296E0,5.7052773E-1,4.51E0,1.13E1,1.2546124E-1,-1.0601447E0,-7.357902E-1,-1.0036486E0,-3.2611308E-1,-1.1509124E0,-4.9186704E-1,-5.643229E-1,1.5152687E-1,-6.1857307E-1,-2.8506446E-1,-4.3152615E-1,-1.132339E-1,1.8478523E-1,-4.1611844E-1,3.413688E-1,-2.9529914E-1,-4.0571404E-1,-1.1787825E0,-2.23012E-1,1.8438129E-1,-1.824397E-1,-9.4981205E-1,-7.445916E-2,1.104737E0,7.05566E-2,1.0461934E0,5.5248755E-1,-3.0077714E-1,1.0474799E-1,-7.866952E-1,4.0542075E-1,-2.0238829E-1,-1.17119096E-1,5.131881E-1,3.9119405E-1,8.3418286E-1,1.684508E-1,1.0460956E0,2.5774744E0,1.8169765E0,1.186984E0,4.8347116E-1,2.4022024E0,1.0036136E0],"split_indices":[8,8,8,10,5,14,26,23,23,1,12,10,0,24,17,8,15,26,2,2,10,23,10,5,12,7,23,0,26,14,9,26,5,14,8,2,0,0,20,9,10,21,6,21,18,5,26,23,5,5,0,0,6,14,26,0,0,0,0,0,0,0,0,0,0,0,0,0,0,0,0,0,0,0,0,0,0,0,0,0,0,0,0,0,0,0,0,0,0,0,0,0,0,0,0,0,0,0,0],"split_type":[0,0,0,0,0,0,0,0,0,0,0,0,0,0,0,0,0,0,0,0,0,0,0,0,0,0,0,0,0,0,0,0,0,0,0,0,0,0,0,0,0,0,0,0,0,0,0,0,0,0,0,0,0,0,0,0,0,0,0,0,0,0,0,0,0,0,0,0,0,0,0,0,0,0,0,0,0,0,0,0,0,0,0,0,0,0,0,0,0,0,0,0,0,0,0,0,0,0,0],"sum_hessian":[2.444E3,1.789E3,6.55E2,9.52E2,8.37E2,4.33E2,2.22E2,2.67E2,6.85E2,3.66E2,4.71E2,4.27E2,6E0,1.1E2,1.12E2,1.85E2,8.2E1,6.37E2,4.8E1,3.7E1,3.29E2,8.7E1,3.84E2,1.17E2,3.1E2,2.2E1,8.8E1,8E0,1.04E2,1.68E2,1.7E1,3.8E1,4.4E1,5.43E2,9.4E1,4.1E1,7E0,6E0,3.1E1,7.4E1,2.55E2,5.8E1,2.9E1,2.98E2,8.6E1,2.8E1,8.9E1,5.2E1,2.58E2,1.3E1,9E0,5E0,8.3E1,4.6E1,5.8E1,1.41E2,2.7E1,7E0,1E1,2E1,1.8E1,3.7E1,7E0,4.32E2,1.11E2,3.6E1,5.8E1,1.8E1,2.3E1,1.9E1,1.2E1,6.8E1,6E0,2.31E2,2.4E1,4.2E1,1.6E1,2.3E1,6E0,2.89E2,9E0,7.6E1,1E1,1.8E1,1E1,7.8E1,1.1E1,2.4E1,2.8E1,7E1,1.88E2,8E0,5E0,4.9E1,3.4E1,1.8E1,2.8E1,1.7E1,4.1E1],"tree_param":{"num_deleted":"0","num_feature":"28","num_nodes":"99","size_leaf_vector":"1"}},{"base_weights":[-2.3206295E-2,-6.0704174E0,1.716898E1,-1.3018912E1,-2.1408093E0,1.0473188E1,2.9216122E1,-1.6873652E1,-1.0772754E1,-6.619976E0,-1.2348717E-2,9.632919E0,3.36056E1,1.1787423E1,3.3947124E1,-1.1628635E-1,-1.7432371E1,-9.6887865E0,-1.9947895E1,-7.881667E0,4.7076087E0,-4.6216254E0,1.902499E0,2.4898658E0,1.2597857E1,4.3188864E-1,2.3252876E0,1.4298611E1,-6.1502784E-2,2.1868574E1,3.849368E1,-1.791103E1,-9.4912566E-2,-1.078954E1,-3.1064227E0,-2.10388E1,-4.8487607E-1,-8.823248E0,4.1805253E0,-1.1237564E0,1.8006092E0,4.45299E-1,-5.0845685E0,1.4862972E0,1.5107014E0,3.7897417E-1,1.0323224E1,3.9881725E1,1.1017498E1,2.2753044E1,8.216919E0,1.5280249E1,3.0548075E1,4.9403225E1,3.1552298E1,-9.2050886E-1,-3.7959167E-1,-6.013495E-1,-1.5775098E-1,-4.3431464E-1,2.8268346E-1,-7.396182E-1,-1.203102E0,-9.2897034E-1,-4.098854E-1,-1.4075005E-1,9.7051966E-1,-2.1460333E-1,6.916159E-1,-3.7226668E-1,-1.5063168E-1,4.989326E-2,7.175216E-1,-5.5716753E-2,8.29192E-1,2.9409453E-1,8.777137E-1,1.2938361E0,2.608824E0,4.7856044E-2,6.472006E-1,1.5286951E0,5.0601715E-1,2.547317E-1,8.879382E-1,9.785743E-1,3.912673E-1,1.7798141E0,9.925441E-1,1.8143952E0,2.7710848E0,1.2797369E0,2.2315445E0],"categories":[],"categories_nodes":[],"categories_segments":[],"categories_sizes":[],"default_left":[0,0,0,0,0,0,0,0,0,0,0,0,0,0,0,0,0,0,0,0,0,0,0,0,0,0,0,0,0,0,0,0,0,0,0,0,0,0,0,0,0,0,0,0,0,0,0,0,0,0,0,0,0,0,0,0,0,0,0,0,0,0,0,0,0,0,0,0,0,0,0,0,0,0,0,0,0,0,0,0,0,0,0,0,0,0,0,0,0,0,0,0,0],"id":13,"left_children":[1,3,5,7,9,11,13,15,17,19,21,23,25,27,29,-1,31,33,35,37,39,41,43,45,47,-1,-1,49,-1,51,53,55,-1,57,59,61,-1,63,65,67,-1,-1,69,71,-1,73,75,77,79,81,83,85,87,89,91,-1,-1,-1,-1,-1,-1,-1,-1,-1,-1,-1,-1,-1,-1,-1,-1,-1,-1,-1,-1,-1,-1,-1,-1,-1,-1,-1,-1,-1,-1,-1,-1,-1,-1,-1,-1,-1,-1],"loss_changes":[2.545049E5,4.941972E4,5.107375E4,5.4780156E3,1.1039313E4,7.660742E3,1.8312625E4,1.900125E3,3.9411172E3,5.3683057E3,6.9463506E3,8.396246E3,4.1020205E3,1.6533608E3,8.927172E3,0E0,1.6741953E3,2.6749336E3,2.7373633E2,3.8534785E3,6.980797E3,1.4915405E3,6.5034414E3,1.9461917E3,1.1671758E4,0E0,0E0,1.9694688E3,0E0,2.4449883E3,8.1262188E3,1.0062656E3,0E0,2.9836836E3,2.7378223E3,3.5779102E2,0E0,1.7491055E3,2.7198235E3,1.622136E3,0E0,0E0,1.072187E3,3.4336533E3,0E0,2.294721E3,6.9729175E2,1.2248574E3,5.1610684E3,1.3660879E3,6.818417E2,8.3581934E2,4.218711E2,1.7685391E3,5.1618984E3,0E0,0E0,0E0,0E0,0E0,0E0,0E0,0E0,0E0,0E0,0E0,0E0,0E0,0E0,0E0,0E0,0E0,0E0,0E0,0E0,0E0,0E0,0E0,0E0,0E0,0E0,0E0,0E0,0E0,0E0,0E0,0E0,0E0,0E0,0E0,0E0,0E0,0E0],"parents":[2147483647,0,0,1,1,2,2,3,3,4,4,5,5,6,6,7,7,8,8,9,9,10,10,11,11,12,12,13,13,14,14,16,16,17,17,18,18,19,19,20,20,21,21,22,22,23,23,24,24,27,27,29,29,30,30,31,31,33,33,34,34,35,35,37,37,38,38,39,39,42,42,43,43,45,45,46,46,47,47,48,48,49,49,50,50,51,51,52,52,53,53,54,54],"right_children":[2,4,6,8,10,12,14,16,18,20,22,24,26,28,30,-1,32,34,36,38,40,42,44,46,48,-1,-1,50,-1,52,54,56,-1,58,60,62,-1,64,66,68,-1,-1,70,72,-1,74,76,78,80,82,84,86,88,90,92,-1,-1,-1,-1,-1,-1,-1,-1,-1,-1,-1,-1,-1,-1,-1,-1,-1,-1,-1,-1,-1,-1,-1,-1,-1,-1,-1,-1,-1,-1,-1,-1,-1,-1,-1,-1,-1,-1],"split_conditions":[3.78E2,3.44E2,4.02E2,3.32E2,3.52E2,4.9E1,1.14E1,-7.195389E-1,2.6533333E1,3.79E2,3.6E-1,1.9864795E-1,3.8E2,1.2E-1,-1.1E1,-1.1628635E-1,3.9E1,3.37E0,3.06E1,2.5E1,3.6E0,-3.6857142E0,5.3E1,2.68E1,-8.9882547E-1,4.3188864E-1,2.3252876E0,6E0,-6.1502784E-2,4E-1,-9.6522665E-1,1.42E1,-9.4912566E-2,8.862235E-1,3.52E2,2.49E-1,-4.8487607E-1,-9.5785236E-1,5.71E1,1.02E1,1.8006092E0,4.45299E-1,-2E0,2.31E0,1.5107014E0,8.69E1,4.29E2,3.93E2,3.59E-1,2E0,4.07E-1,2.61E1,2.81E1,1.47E1,-8.483488E-2,-9.2050886E-1,-3.7959167E-1,-6.013495E-1,-1.5775098E-1,-4.3431464E-1,2.8268346E-1,-7.396182E-1,-1.203102E0,-9.2897034E-1,-4.098854E-1,-1.4075005E-1,9.7051966E-1,-2.1460333E-1,6.916159E-1,-3.7226668E-1,-1.5063168E-1,4.989326E-2,7.175216E-1,-5.5716753E-2,8.29192E-1,2.9409453E-1,8.777137E-1,1.2938361E0,2.608824E0,4.7856044E-2,6.472006E-1,1.5286951E0,5.0601715E-1,2.547317E-1,8.879382E-1,9.785743E-1,3.912673E-1,1.7798141E0,9.925441E-1,1.8143952E0,2.7710848E0,1.2797369E0,2.2315445E0],"split_indices":[9,10,9,11,9,24,16,26,16,12,5,25,10,4,24,0,24,6,15,24,0,18,24,16,26,0,0,14,0,0,26,0,0,26,12,5,0,25,15,14,0,0,24,3,0,15,11,11,5,22,5,1,15,14,26,0,0,0,0,0,0,0,0,0,0,0,0,0,0,0,0,0,0,0,0,0,0,0,0,0,0,0,0,0,0,0,0,0,0,0,0,0,0],"split_type":[0,0,0,0,0,0,0,0,0,0,0,0,0,0,0,0,0,0,0,0,0,0,0,0,0,0,0,0,0,0,0,0,0,0,0,0,0,0,0,0,0,0,0,0,0,0,0,0,0,0,0,0,0,0,0,0,0,0,0,0,0,0,0,0,0,0,0,0,0,0,0,0,0,0,0,0,0,0,0,0,0,0,0,0,0,0,0,0,0,0,0,0,0],"sum_hessian":[2.446E3,1.81E3,6.36E2,6.53E2,1.157E3,4.1E2,2.26E2,2.38E2,4.15E2,3.72E2,7.85E2,3.97E2,1.3E1,4.9E1,1.77E2,9E0,2.29E2,3.73E2,4.2E1,3.35E2,3.7E1,2.3E2,5.55E2,1.17E2,2.8E2,5E0,8E0,4.1E1,8E0,5E1,1.27E2,2.22E2,7E0,3.19E2,5.4E1,3.7E1,5E0,3.11E2,2.4E1,3.2E1,5E0,7E0,2.23E2,5.48E2,7E0,9.3E1,2.4E1,1.4E1,2.66E2,1.6E1,2.5E1,3E1,2E1,4.7E1,8E1,2.11E2,1.1E1,2.74E2,4.5E1,3.3E1,2.1E1,1.4E1,2.3E1,1.7E1,2.94E2,1.7E1,7E0,2.7E1,5E0,1.03E2,1.2E2,5.29E2,1.9E1,8.6E1,7E0,1.6E1,8E0,8E0,6E0,4.3E1,2.23E2,9E0,7E0,2E1,5E0,1.8E1,1.2E1,1.2E1,8E0,1.7E1,3E1,5.7E1,2.3E1],"tree_param":{"num_deleted":"0","num_feature":"28","num_nodes":"93","size_leaf_vector":"1"}},{"base_weights":[-1.8666573E-1,-6.463335E0,1.4150508E1,-1.1405986E1,-1.6896465E0,1.0425917E1,3.2221344E1,-1.471052E1,-8.665507E0,-8.945413E0,-4.4534454E-1,7.8884726E0,1.8911196E1,2.4486744E1,3.9220703E1,-1.6954119E1,-9.977227E0,-9.856533E0,-3.5887997E0,-1.7227781E1,-6.8473096E0,-1.2411894E0,1.013685E1,2.3265362E0,1.1140248E1,3.164359E1,1.5069324E1,3.7619415E1,1.8813377E1,3.2077965E-1,4.30676E1,-7.039091E0,-1.7457243E1,-1.0998347E1,3.0956504E-1,-1.1927183E1,-5.0648227E0,-1.5514842E1,-1.7067317E0,-2.0522543E1,-1.6786402E-1,-9.392115E-1,-5.503517E0,1.8406159E0,-3.2222536E0,2.9454428E1,3.6027162E0,1.496114E-1,1.7751566E1,6.472519E0,1.5133517E1,2.3325198E0,1.7374388E1,3.361041E1,1.2899806E1,1.063348E0,2.3041537E0,1.4743789E1,1.9683131E0,4.577077E1,1.0219469E0,-5.4551363E-1,-2.1235656E-3,-7.7152526E-1,-1.0968269E0,-6.5984106E-1,-2.9427585E-1,-6.181127E-1,7.602915E-2,-5.5699474E-1,-1.4299586E-1,-9.27303E-1,-4.6879736E-1,5.209119E-1,-2.1467721E-1,-7.184206E-1,-1.2121216E0,-3.5644525E-1,3.699882E-1,-1.7580707E-1,2.239999E-1,-1.9418499E-1,3.7032002E-1,5.8990103E-1,2.4035285E0,4.348878E-1,-1.8981612E-1,-1.2190373E-1,3.12995E-1,3.939645E-1,1.8883272E0,-2.0807937E-1,4.290692E-1,6.7626166E-1,2.2194915E0,1.0255294E0,3.833446E-1,6.575705E-1,2.4225502E0,-2.3648016E-2,8.208659E-1,1.0047269E0,1.0386343E-1,1.0619181E0,2.398673E0],"categories":[],"categories_nodes":[],"categories_segments":[],"categories_sizes":[],"default_left":[0,0,0,0,0,0,0,0,0,0,0,0,0,0,0,0,0,0,0,0,0,0,0,0,0,0,0,0,0,0,0,0,0,0,0,0,0,0,0,0,0,0,0,0,0,0,0,0,0,0,0,0,0,0,0,0,0,0,0,0,0,0,0,0,0,0,0,0,0,0,0,0,0,0,0,0,0,0,0,0,0,0,0,0,0,0,0,0,0,0,0,0,0,0,0,0,0,0,0,0,0,0,0,0,0],"id":14,"left_children":[1,3,5,7,9,11,13,15,17,19,21,23,25,27,29,31,33,35,37,39,41,43,45,47,49,51,53,55,57,-1,59,61,63,65,-1,67,69,71,73,75,-1,-1,77,79,81,83,85,87,89,91,93,-1,95,97,99,-1,-1,101,-1,103,-1,-1,-1,-1,-1,-1,-1,-1,-1,-1,-1,-1,-1,-1,-1,-1,-1,-1,-1,-1,-1,-1,-1,-1,-1,-1,-1,-1,-1,-1,-1,-1,-1,-1,-1,-1,-1,-1,-1,-1,-1,-1,-1,-1,-1],"loss_changes":[2.2047545E5,4.0184742E4,4.987042E4,7.4500703E3,7.8316973E3,1.3197305E4,5.908672E3,3.8423594E3,2.744668E3,2.086541E3,6.2606562E3,8.636012E3,6.464582E3,3.9805156E3,7.9216094E3,1.1467344E3,2.1158145E3,3.6288594E3,1.9694589E3,1.0712119E3,1.5463887E3,4.2248E3,6.454208E3,5.9726396E3,5.5290156E3,6.0353984E3,4.0267773E3,1.5044473E3,3.261704E3,0E0,2.6056875E3,3.7763385E2,1.8547266E3,1.2355498E3,0E0,1.5352188E3,1.4937664E3,4.662085E1,2.4905908E3,1.0566699E2,0E0,0E0,2.0241724E3,3.8473901E3,2.9881606E3,3.6998994E3,1.5414451E3,2.498051E3,4.044917E3,3.198204E3,7.016324E3,0E0,3.8793408E2,2.696502E3,4.760287E3,0E0,0E0,2.6670557E3,0E0,1.7301016E3,0E0,0E0,0E0,0E0,0E0,0E0,0E0,0E0,0E0,0E0,0E0,0E0,0E0,0E0,0E0,0E0,0E0,0E0,0E0,0E0,0E0,0E0,0E0,0E0,0E0,0E0,0E0,0E0,0E0,0E0,0E0,0E0,0E0,0E0,0E0,0E0,0E0,0E0,0E0,0E0,0E0,0E0,0E0,0E0,0E0],"parents":[2147483647,0,0,1,1,2,2,3,3,4,4,5,5,6,6,7,7,8,8,9,9,10,10,11,11,12,12,13,13,14,14,15,15,16,16,17,17,18,18,19,19,20,20,21,21,22,22,23,23,24,24,25,25,26,26,27,27,28,28,30,30,31,31,32,32,33,33,35,35,36,36,37,37,38,38,39,39,42,42,43,43,44,44,45,45,46,46,47,47,48,48,49,49,50,50,52,52,53,53,54,54,57,57,59,59],"right_children":[2,4,6,8,10,12,14,16,18,20,22,24,26,28,30,32,34,36,38,40,42,44,46,48,50,52,54,56,58,-1,60,62,64,66,-1,68,70,72,74,76,-1,-1,78,80,82,84,86,88,90,92,94,-1,96,98,100,-1,-1,102,-1,104,-1,-1,-1,-1,-1,-1,-1,-1,-1,-1,-1,-1,-1,-1,-1,-1,-1,-1,-1,-1,-1,-1,-1,-1,-1,-1,-1,-1,-1,-1,-1,-1,-1,-1,-1,-1,-1,-1,-1,-1,-1,-1,-1,-1,-1],"split_conditions":[3.74E2,3.49E2,4.29E2,3.35E2,3.42E2,5E0,1.35E1,7E0,1.96E1,3.37E2,1.59E1,2.4893981E-1,-8.556315E-1,3E0,3.75E2,-7.9775035E-1,1.14E1,6.780306E-1,3.37E2,3.8E1,-9.358349E-1,8.242857E0,-8.247651E-1,1.64E1,3.86E2,2.4066668E1,3.51E2,-8E0,2E0,3.2077965E-1,3.634816E-1,9E-1,1.3133333E1,2.3E1,3.0956504E-1,3.69E2,3.37E2,3.46E2,-8.517119E-1,3.54E2,-1.6786402E-1,-9.392115E-1,3.69E2,2.9E0,3.82E2,-9.0938824E-1,2.27E1,3.93E2,-1E0,-1.2E1,1.43E1,2.3325198E0,4.37E2,1E-1,4.7275922E-1,1.063348E0,2.3041537E0,4.48E2,1.9683131E0,4.35E2,1.0219469E0,-5.4551363E-1,-2.1235656E-3,-7.7152526E-1,-1.0968269E0,-6.5984106E-1,-2.9427585E-1,-6.181127E-1,7.602915E-2,-5.5699474E-1,-1.4299586E-1,-9.27303E-1,-4.6879736E-1,5.209119E-1,-2.1467721E-1,-7.184206E-1,-1.2121216E0,-3.5644525E-1,3.699882E-1,-1.7580707E-1,2.239999E-1,-1.9418499E-1,3.7032002E-1,5.8990103E-1,2.4035285E0,4.348878E-1,-1.8981612E-1,-1.2190373E-1,3.12995E-1,3.939645E-1,1.8883272E0,-2.0807937E-1,4.290692E-1,6.7626166E-1,2.2194915E0,1.0255294E0,3.833446E-1,6.575705E-1,2.4225502E0,-2.3648016E-2,8.208659E-1,1.0047269E0,1.0386343E-1,1.0619181E0,2.398673E0],"split_indices":[8,8,8,8,11,22,14,22,14,10,13,25,26,14,11,26,0,26,8,24,25,18,25,13,8,16,11,22,0,0,25,0,17,22,0,10,12,11,25,8,0,0,8,14,10,25,13,12,22,22,2,0,11,0,25,0,0,8,0,8,0,0,0,0,0,0,0,0,0,0,0,0,0,0,0,0,0,0,0,0,0,0,0,0,0,0,0,0,0,0,0,0,0,0,0,0,0,0,0,0,0,0,0,0,0],"split_type":[0,0,0,0,0,0,0,0,0,0,0,0,0,0,0,0,0,0,0,0,0,0,0,0,0,0,0,0,0,0,0,0,0,0,0,0,0,0,0,0,0,0,0,0,0,0,0,0,0,0,0,0,0,0,0,0,0,0,0,0,0,0,0,0,0,0,0,0,0,0,0,0,0,0,0,0,0,0,0,0,0,0,0,0,0,0,0,0,0,0,0,0,0,0,0,0,0,0,0,0,0,0,0,0,0],"sum_hessian":[2.448E3,1.703E3,7.45E2,8.36E2,8.67E2,6.19E2,1.26E2,3.77E2,4.59E2,1.26E2,7.41E2,4.78E2,1.41E2,6.2E1,6.4E1,2.54E2,1.23E2,3.71E2,8.8E1,2.4E1,1.02E2,6.9E2,5.1E1,1.77E2,3.01E2,3.1E1,1.1E2,1.7E1,4.5E1,7E0,5.7E1,1.3E1,2.41E2,1.16E2,7E0,2.58E2,1.13E2,1.1E1,7.7E1,1.9E1,5E0,9E0,9.3E1,2.7E2,4.2E2,1.2E1,3.9E1,1.56E2,2.1E1,1.4E2,1.61E2,1.4E1,1.7E1,1E1,1E2,7E0,1E1,3.9E1,6E0,5E1,7E0,8E0,5E0,1.69E2,7.2E1,8E1,3.6E1,2.5E2,8E0,2.9E1,8.4E1,6E0,5E0,1.3E1,6.4E1,9E0,1E1,8.3E1,1E1,8.9E1,1.81E2,3.96E2,2.4E1,7E0,5E0,2.3E1,1.6E1,1.1E2,4.6E1,1.5E1,6E0,2.3E1,1.17E2,1.54E2,7E0,1.2E1,5E0,5E0,5E0,2.1E1,7.9E1,2.7E1,1.2E1,5E0,4.5E1],"tree_param":{"num_deleted":"0","num_feature":"28","num_nodes":"105","size_leaf_vector":"1"}},{"base_weights":[1.1474083E-1,-5.488521E0,1.5652598E1,-1.0661559E1,-1.0381123E0,9.710354E0,2.9838129E1,-1.4329565E1,-8.58165E0,-5.0236635E0,9.0437454E-1,8.705277E0,3.1432024E1,1.2395015E1,3.5092857E1,-7.19132E0,-1.5395613E1,-1.2252036E1,-7.0696297E0,-1.93182E1,-4.3038545E0,-2.672579E0,3.2210822E0,7.821714E0,3.0328392E1,3.6834747E1,6.3349384E-1,8.993138E0,1.3708643E0,2.1215103E1,3.8037727E1,-9.1427517E-1,-4.366473E0,-1.8133804E1,-1.289879E1,-1.6863642E1,-1.0150224E1,-7.9495735E0,3.1468194E0,-4.5238858E-1,-1.1769317E0,-8.933736E0,-2.4444773E0,-3.5298128E0,7.6999927E0,5.6120753E-1,5.772877E0,1.7954865E0,1.0432784E1,8.7241966E-1,1.9913731E0,9.351652E-1,2.201007E0,9.6188575E-1,5.275175E0,1.2769853E1,1.7564783E0,4.608314E1,3.3894794E1,3.733442E-1,-3.3338174E-1,-2.2919953E-1,-9.3364114E-1,-2.2776099E-1,-7.336065E-1,-5.769488E-1,-1.0358341E0,-6.736747E-1,-3.6563376E-1,-4.520946E-1,-7.359652E-2,5.770016E-1,-5.5478853E-1,-4.9479365E-1,2.4660612E-2,-1.773241E-1,5.0263566E-1,2.3448995E-1,-2.2996219E-1,1.2909454E-1,7.5209546E-1,-6.907795E-1,7.872265E-2,-1.520619E-2,4.162747E-1,1.610481E-2,9.71698E-1,1.4150555E0,4.724241E-1,-3.1577066E-1,4.2200658E-1,2.3657589E-1,1.058225E0,1.5000194E0,2.4371874E0,2.1409614E0,1.3246623E0],"categories":[],"categories_nodes":[],"categories_segments":[],"categories_sizes":[],"default_left":[0,0,0,0,0,0,0,0,0,0,0,0,0,0,0,0,0,0,0,0,0,0,0,0,0,0,0,0,0,0,0,0,0,0,0,0,0,0,0,0,0,0,0,0,0,0,0,0,0,0,0,0,0,0,0,0,0,0,0,0,0,0,0,0,0,0,0,0,0,0,0,0,0,0,0,0,0,0,0,0,0,0,0,0,0,0,0,0,0,0,0,0,0,0,0,0,0],"id":15,"left_children":[1,3,5,7,9,11,13,15,17,19,21,23,25,27,29,31,33,35,37,39,41,43,45,47,49,51,-1,53,-1,55,57,-1,59,61,63,65,67,69,71,-1,-1,73,75,77,79,81,83,85,87,-1,-1,-1,-1,-1,89,91,-1,93,95,-1,-1,-1,-1,-1,-1,-1,-1,-1,-1,-1,-1,-1,-1,-1,-1,-1,-1,-1,-1,-1,-1,-1,-1,-1,-1,-1,-1,-1,-1,-1,-1,-1,-1,-1,-1,-1,-1],"loss_changes":[2.1417406E5,4.161178E4,5.466592E4,6.2526797E3,7.5378047E3,9.786883E3,1.7158766E4,2.1775469E3,2.8860898E3,3.1967925E3,5.4364883E3,8.203555E3,1.5556914E3,2.1005713E3,5.1947188E3,1.2028059E3,1.5473867E3,1.328502E3,3.4596387E3,4.339546E2,2.6026753E3,2.3208257E3,2.6975337E3,6.683115E3,1.3792646E3,1.1246289E3,0E0,1.3815359E3,0E0,2.8369219E3,2.4298281E3,0E0,9.755422E2,8.031211E2,2.0026797E3,7.219844E2,9.272578E2,2.4762676E3,3.8338633E3,0E0,0E0,7.949121E2,3.0510605E3,2.122443E3,7.109346E2,2.8757036E3,3.1523213E3,3.3702512E3,4.95241E3,0E0,0E0,0E0,0E0,0E0,1.1540264E3,1.1793708E3,0E0,1.558125E2,4.3411797E3,0E0,0E0,0E0,0E0,0E0,0E0,0E0,0E0,0E0,0E0,0E0,0E0,0E0,0E0,0E0,0E0,0E0,0E0,0E0,0E0,0E0,0E0,0E0,0E0,0E0,0E0,0E0,0E0,0E0,0E0,0E0,0E0,0E0,0E0,0E0,0E0,0E0,0E0],"parents":[2147483647,0,0,1,1,2,2,3,3,4,4,5,5,6,6,7,7,8,8,9,9,10,10,11,11,12,12,13,13,14,14,15,15,16,16,17,17,18,18,19,19,20,20,21,21,22,22,23,23,24,24,25,25,27,27,29,29,30,30,32,32,33,33,34,34,35,35,36,36,37,37,38,38,41,41,42,42,43,43,44,44,45,45,46,46,47,47,48,48,54,54,55,55,57,57,58,58],"right_children":[2,4,6,8,10,12,14,16,18,20,22,24,26,28,30,32,34,36,38,40,42,44,46,48,50,52,-1,54,-1,56,58,-1,60,62,64,66,68,70,72,-1,-1,74,76,78,80,82,84,86,88,-1,-1,-1,-1,-1,90,92,-1,94,96,-1,-1,-1,-1,-1,-1,-1,-1,-1,-1,-1,-1,-1,-1,-1,-1,-1,-1,-1,-1,-1,-1,-1,-1,-1,-1,-1,-1,-1,-1,-1,-1,-1,-1,-1,-1,-1,-1],"split_conditions":[3.78E2,3.49E2,4.08E2,3.33E2,-3E0,4.18E-1,4.4E0,8.1E-1,-1E0,3.32E2,3.67E-1,2E1,4.4E-2,4.03E-1,-2.3E1,3.24E2,1E0,-7.82597E-1,3.43E1,-9.768277E-2,3.57E2,3.81E2,3.63E2,2.8210765E-1,3.77E-1,-1E0,6.3349384E-1,8.2E-1,1.3708643E0,2.9E0,-9.7742647E-1,-9.1427517E-1,3.22E2,-1.4E1,-2.3E-2,1E1,2.7E0,1.8E1,3.3E-2,-4.5238858E-1,-1.1769317E0,-4E0,1.43E1,5.1E-1,3.71E0,3.37E2,-4.5370308E-1,4.2E1,-8.911529E-1,8.7241966E-1,1.9913731E0,9.351652E-1,2.201007E0,9.6188575E-1,7.0672655E-1,4.35E2,1.7564783E0,1.34E1,3.55E0,3.733442E-1,-3.3338174E-1,-2.2919953E-1,-9.3364114E-1,-2.2776099E-1,-7.336065E-1,-5.769488E-1,-1.0358341E0,-6.736747E-1,-3.6563376E-1,-4.520946E-1,-7.359652E-2,5.770016E-1,-5.5478853E-1,-4.9479365E-1,2.4660612E-2,-1.773241E-1,5.0263566E-1,2.3448995E-1,-2.2996219E-1,1.2909454E-1,7.5209546E-1,-6.907795E-1,7.872265E-2,-1.520619E-2,4.162747E-1,1.610481E-2,9.71698E-1,1.4150555E0,4.724241E-1,-3.1577066E-1,4.2200658E-1,2.3657589E-1,1.058225E0,1.5000194E0,2.4371874E0,2.1409614E0,1.3246623E0],"split_indices":[8,8,8,9,22,5,2,6,22,10,5,22,21,5,24,10,22,25,14,26,8,9,8,25,5,22,0,6,0,13,26,0,9,22,21,2,2,22,21,0,0,22,13,6,6,10,25,24,26,0,0,0,0,0,25,8,0,2,6,0,0,0,0,0,0,0,0,0,0,0,0,0,0,0,0,0,0,0,0,0,0,0,0,0,0,0,0,0,0,0,0,0,0,0,0,0,0],"split_type":[0,0,0,0,0,0,0,0,0,0,0,0,0,0,0,0,0,0,0,0,0,0,0,0,0,0,0,0,0,0,0,0,0,0,0,0,0,0,0,0,0,0,0,0,0,0,0,0,0,0,0,0,0,0,0,0,0,0,0,0,0,0,0,0,0,0,0,0,0,0,0,0,0,0,0,0,0,0,0,0,0,0,0,0,0,0,0,0,0,0,0,0,0,0,0,0,0],"sum_hessian":[2.458E3,1.807E3,6.51E2,8.35E2,9.72E2,4.6E2,1.91E2,3E2,5.35E2,3.18E2,6.54E2,4.41E2,1.9E1,4.5E1,1.46E2,4E1,2.6E2,1.54E2,3.81E2,1.4E1,3.04E2,2.57E2,3.97E2,4.25E2,1.6E1,1.4E1,5E0,3.8E1,7E0,2.7E1,1.19E2,7E0,3.3E1,1.21E2,1.39E2,4.6E1,1.08E2,3.51E2,3E1,5E0,9E0,8.6E1,2.18E2,2.38E2,1.9E1,1.95E2,2.02E2,1.29E2,2.96E2,8E0,8E0,5E0,9E0,9E0,2.9E1,1.8E1,9E0,3.7E1,8.2E1,5E0,2.8E1,5E0,1.16E2,2.5E1,1.14E2,2.1E1,2.5E1,4.8E1,6E1,3E2,5.1E1,1.9E1,1.1E1,7.8E1,8E0,2.01E2,1.7E1,2.7E1,2.11E2,1.2E1,7E0,1.2E1,1.83E2,6E1,1.42E2,1.2E2,9E0,1.4E1,2.82E2,6E0,2.3E1,1E1,8E0,7E0,3E1,3.5E1,4.7E1],"tree_param":{"num_deleted":"0","num_feature":"28","num_nodes":"97","size_leaf_vector":"1"}},{"base_weights":[5.001404E-2,-5.9687185E0,1.3355493E1,-1.1165747E1,-2.1783106E0,9.540655E0,2.8938526E1,-1.1462164E1,8.406689E0,-4.5238256E0,1.3059373E0,4.85629E0,1.3467267E1,2.26857E1,3.5676712E1,-1.4895879E1,-9.90463E0,-1.9761963E-2,7.9120845E-1,-4.8652334E0,1.0113201E0,-2.6580933E-1,1.0800222E1,5.306906E-1,9.742693E0,1.2167478E1,3.3960285E1,2.446976E1,-1.5410034E-1,4.299536E1,2.015861E1,-1.5494517E1,-5.9203673E-2,-5.51541E0,-1.0828495E1,-1.3603504E1,-4.1400695E0,1.617069E1,-8.7783474E-1,1.3767289E0,7.784075E0,-6.817586E0,3.3163264E0,1.6347164E1,7.7684536E0,4.5183544E0,1.4943949E1,1.9997643E1,2.5323355E0,1.9764338E1,3.6181187E1,3.708742E1,2.587427E0,2.866076E1,-2.0789376E-2,-8.30077E-1,-4.388929E-1,-3.283793E-1,2.0441253E-1,-6.8614835E-1,-4.7293535E-1,-8.95709E-2,-8.8024014E-1,-4.069828E-1,-1.4148878E-1,3.4209666E-1,1.2171229E0,-2.0620604E-1,9.7068004E-2,1.0903391E0,1.5115435E-1,-5.3884137E-1,1.8201576E-1,1.18082605E-1,9.567758E-1,1.7005576E0,4.5881495E-1,-4.68377E-2,4.4703338E-1,2.0667987E-2,8.404447E-1,6.3203305E-1,1.5115259E0,2.2952835E-1,1.5166309E0,1.501822E0,7.187929E-1,7.362186E-1,2.1172583E0,2.1705675E0,1.2492092E0,1.7491804E0,7.3080885E-1],"categories":[],"categories_nodes":[],"categories_segments":[],"categories_sizes":[],"default_left":[0,0,0,0,0,0,0,0,0,0,0,0,0,0,0,0,0,0,0,0,0,0,0,0,0,0,0,0,0,0,0,0,0,0,0,0,0,0,0,0,0,0,0,0,0,0,0,0,0,0,0,0,0,0,0,0,0,0,0,0,0,0,0,0,0,0,0,0,0,0,0,0,0,0,0,0,0,0,0,0,0,0,0,0,0,0,0,0,0,0,0,0,0],"id":16,"left_children":[1,3,5,7,9,11,13,15,17,19,21,23,25,27,29,31,33,-1,-1,35,-1,37,39,41,43,45,47,49,-1,51,53,55,-1,57,59,61,63,65,67,-1,69,71,73,75,77,79,81,83,-1,85,87,89,-1,91,-1,-1,-1,-1,-1,-1,-1,-1,-1,-1,-1,-1,-1,-1,-1,-1,-1,-1,-1,-1,-1,-1,-1,-1,-1,-1,-1,-1,-1,-1,-1,-1,-1,-1,-1,-1,-1,-1,-1],"loss_changes":[1.9283811E5,3.2635043E4,4.430511E4,4.1519844E3,7.8516914E3,1.1042555E4,5.378328E3,3.5348438E3,7.259666E2,4.947119E3,5.778974E3,5.8486455E3,8.31898E3,3.7092773E3,6.9633906E3,1.728375E3,1.8728984E3,0E0,0E0,3.5348027E3,0E0,3.3624978E3,2.558167E3,3.0517632E3,1.5656426E3,6.5141797E3,3.4068672E3,3.3572422E3,0E0,4.506953E2,4.2129795E3,1.3685781E3,0E0,8.8600073E2,1.4260547E3,1.9988608E3,2.7272031E3,7.451216E2,2.9551404E3,0E0,3.1361658E3,1.737564E3,1.5836936E3,3.356901E3,1.0500205E3,4.229348E3,7.6061094E3,1.7680444E3,0E0,2.6080645E3,2.0159727E3,1.2813086E3,0E0,9.9334375E2,0E0,0E0,0E0,0E0,0E0,0E0,0E0,0E0,0E0,0E0,0E0,0E0,0E0,0E0,0E0,0E0,0E0,0E0,0E0,0E0,0E0,0E0,0E0,0E0,0E0,0E0,0E0,0E0,0E0,0E0,0E0,0E0,0E0,0E0,0E0,0E0,0E0,0E0,0E0],"parents":[2147483647,0,0,1,1,2,2,3,3,4,4,5,5,6,6,7,7,8,8,9,9,10,10,11,11,12,12,13,13,14,14,15,15,16,16,19,19,21,21,22,22,23,23,24,24,25,25,26,26,27,27,29,29,30,30,31,31,33,33,34,34,35,35,36,36,37,37,38,38,40,40,41,41,42,42,43,43,44,44,45,45,46,46,47,47,49,49,50,50,51,51,53,53],"right_children":[2,4,6,8,10,12,14,16,18,20,22,24,26,28,30,32,34,-1,-1,36,-1,38,40,42,44,46,48,50,-1,52,54,56,-1,58,60,62,64,66,68,-1,70,72,74,76,78,80,82,84,-1,86,88,90,-1,92,-1,-1,-1,-1,-1,-1,-1,-1,-1,-1,-1,-1,-1,-1,-1,-1,-1,-1,-1,-1,-1,-1,-1,-1,-1,-1,-1,-1,-1,-1,-1,-1,-1,-1,-1,-1,-1,-1,-1],"split_conditions":[3.73E2,3.45E2,4.22E2,3.7E1,3.62E2,-1E0,1.34E1,3.3E2,3.25E2,3E1,3.1E0,3.86E2,8.09E1,5.2E1,-8.556315E-1,4.21E-1,8.5E-1,-1.9761963E-2,7.9120845E-1,3.35E2,1.0113201E0,-2.9E0,-8.6169285E-1,3.58E-1,8.4E0,1.4782713E-1,5.8E0,4E-1,-1.5410034E-1,1.2E-2,2.2E1,3.37E2,-5.9203673E-2,7.3E0,3.35E2,3E0,3.5E-1,-3E-3,3.69E-1,1.3767289E0,-1.5E0,3.88E2,4.18E-1,-9E-3,1.4E0,1.7E0,2.122857E1,4E0,2.5323355E0,2.1E0,3.91E2,2.277143E1,2.587427E0,-8.425721E-1,-2.0789376E-2,-8.30077E-1,-4.388929E-1,-3.283793E-1,2.0441253E-1,-6.8614835E-1,-4.7293535E-1,-8.95709E-2,-8.8024014E-1,-4.069828E-1,-1.4148878E-1,3.4209666E-1,1.2171229E0,-2.0620604E-1,9.7068004E-2,1.0903391E0,1.5115435E-1,-5.3884137E-1,1.8201576E-1,1.18082605E-1,9.567758E-1,1.7005576E0,4.5881495E-1,-4.68377E-2,4.4703338E-1,2.0667987E-2,8.404447E-1,6.3203305E-1,1.5115259E0,2.2952835E-1,1.5166309E0,1.501822E0,7.187929E-1,7.362186E-1,2.1172583E0,2.1705675E0,1.2492092E0,1.7491804E0,7.3080885E-1],"split_indices":[8,8,8,22,11,22,14,10,8,22,0,8,15,23,26,5,6,0,0,10,0,1,25,5,18,25,0,0,0,21,1,8,0,0,9,14,5,21,5,0,17,12,5,21,6,0,18,22,0,14,11,18,0,25,0,0,0,0,0,0,0,0,0,0,0,0,0,0,0,0,0,0,0,0,0,0,0,0,0,0,0,0,0,0,0,0,0,0,0,0,0,0,0],"split_type":[0,0,0,0,0,0,0,0,0,0,0,0,0,0,0,0,0,0,0,0,0,0,0,0,0,0,0,0,0,0,0,0,0,0,0,0,0,0,0,0,0,0,0,0,0,0,0,0,0,0,0,0,0,0,0,0,0,0,0,0,0,0,0,0,0,0,0,0,0,0,0,0,0,0,0,0,0,0,0,0,0,0,0,0,0,0,0,0,0,0,0,0,0],"sum_hessian":[2.406E3,1.657E3,7.49E2,6.98E2,9.59E2,6.03E2,1.46E2,6.88E2,1E1,5.73E2,3.86E2,2.76E2,3.27E2,7.8E1,6.8E1,2.12E2,4.76E2,5E0,5E0,5.66E2,7E0,3.32E2,5.4E1,1.47E2,1.29E2,3.09E2,1.8E1,7.3E1,5E0,4.5E1,2.3E1,2.03E2,9E0,8.4E1,3.92E2,4.2E1,5.24E2,1.1E1,3.21E2,7E0,4.7E1,4E1,1.07E2,2.8E1,1.01E2,8.3E1,2.26E2,1.1E1,7E0,5.4E1,1.9E1,3E1,1.5E1,1.6E1,7E0,1.73E2,3E1,7.6E1,8E0,1.23E2,2.69E2,1.1E1,3.1E1,1.28E2,3.96E2,6E0,5E0,1.49E2,1.72E2,1.1E1,3.6E1,2.9E1,1.1E1,1.02E2,5E0,7E0,2.1E1,1.2E1,8.9E1,6.3E1,2E1,1.98E2,2.8E1,5E0,6E0,1.7E1,3.7E1,5E0,1.4E1,1.8E1,1.2E1,1E1,6E0],"tree_param":{"num_deleted":"0","num_feature":"28","num_nodes":"93","size_leaf_vector":"1"}},{"base_weights":[-2.0836622E-1,-5.174816E0,1.3292903E1,-1.05900135E1,-2.2237742E0,8.942973E0,2.2174952E1,-1.2639132E1,-7.3979135E0,-6.430937E0,5.2942693E-1,7.2618093E0,2.809004E1,7.507366E0,2.6395779E1,-1.6071638E1,-1.0837935E1,-1.2413308E1,-5.291592E0,-8.79379E0,-1.6463306E0,-1.0632672E0,4.2487535E0,3.69723E0,1.1025254E1,3.0868853E1,4.7488204E-1,-6.4384747E0,1.2207057E1,1.4072077E1,3.118427E1,2.1724751E-2,-1.6746965E1,-1.16441965E1,-9.384158E-1,-1.5139162E1,2.4692261E0,-5.9804244E0,5.512854E0,-1.1789489E1,-5.894706E0,-7.7978253E0,1.7590473E0,-4.1042123E0,1.4878764E0,1.9067247E1,2.9140499E0,-7.1506677E0,5.55582E0,1.1644719E1,-5.2576274E-1,1.7318696E0,9.92902E-1,-7.112717E-2,-6.0183185E-1,7.6841555E0,1.1820239E0,4.2077565E0,2.0386364E1,2.343691E1,3.9930458E1,-8.8336676E-1,-3.7962472E-1,-7.5662816E-1,-4.956998E-1,6.312019E-1,-5.520194E-1,-8.3732444E-1,-1.19240224E-1,-3.0708143E-1,6.060176E-1,1.1669957E-1,-3.3537695E-1,6.9033974E-1,-1.8416142E-1,-7.956986E-1,-4.3976817E-1,-6.517058E-1,-2.4341519E-1,-5.4528546E-1,-1.8762258E-1,-4.2646298E-1,1.9358782E-1,-2.526185E-1,3.4583506E-1,-8.5397296E-2,2.3608029E-1,1.7114022E0,2.5109425E-1,1.0709611E-1,1.0196371E0,4.274617E-1,-5.632307E-1,3.919725E-1,-9.6076244E-4,7.706764E-1,4.1713992E-1,3.2269318E-2,5.4895395E-1,9.782446E-1,-1.1044741E-1,2.1130787E-1,1.3721075E0,-1.8252747E-1,1.2878355E0,2.2254453E0,1.4958328E0],"categories":[],"categories_nodes":[],"categories_segments":[],"categories_sizes":[],"default_left":[0,0,0,0,0,0,0,0,0,0,0,0,0,0,0,0,0,0,0,0,0,0,0,0,0,0,0,0,0,0,0,0,0,0,0,0,0,0,0,0,0,0,0,0,0,0,0,0,0,0,0,0,0,0,0,0,0,0,0,0,0,0,0,0,0,0,0,0,0,0,0,0,0,0,0,0,0,0,0,0,0,0,0,0,0,0,0,0,0,0,0,0,0,0,0,0,0,0,0,0,0,0,0,0,0,0,0],"id":17,"left_children":[1,3,5,7,9,11,13,15,17,19,21,23,25,27,29,31,33,35,37,39,41,43,45,47,49,51,-1,53,55,57,59,-1,61,63,65,67,69,71,73,75,77,79,81,83,85,87,89,91,93,95,-1,-1,-1,-1,-1,97,-1,99,101,103,105,-1,-1,-1,-1,-1,-1,-1,-1,-1,-1,-1,-1,-1,-1,-1,-1,-1,-1,-1,-1,-1,-1,-1,-1,-1,-1,-1,-1,-1,-1,-1,-1,-1,-1,-1,-1,-1,-1,-1,-1,-1,-1,-1,-1,-1,-1],"loss_changes":[1.6206894E5,2.8212664E4,2.4912156E4,3.9795312E3,1.3266719E4,1.3891418E4,1.2985141E4,2.1601484E3,2.531295E3,5.105789E3,4.109995E3,5.377467E3,1.5110508E3,3.2906873E3,9.293609E3,1.4357305E3,1.9911953E3,2.9595176E3,1.3354448E3,2.5602246E3,3.1774934E3,3.7767014E3,4.0561255E3,4.253383E3,2.7379023E3,5.515586E2,0E0,3.4657147E2,1.7285635E3,2.901496E3,7.0534844E3,0E0,8.9966797E2,1.2477246E3,2.8793665E3,1.2086758E3,1.0722899E3,1.01360547E3,8.908552E2,1.6852441E3,1.0779087E3,6.365288E2,2.162705E3,2.3545605E3,2.7469883E3,3.4441465E3,2.5452563E3,2.0988203E3,2.2798394E3,2.2458965E3,0E0,0E0,0E0,0E0,0E0,6.411334E2,0E0,2.0157976E3,3.1875244E3,4.180672E3,1.1367734E3,0E0,0E0,0E0,0E0,0E0,0E0,0E0,0E0,0E0,0E0,0E0,0E0,0E0,0E0,0E0,0E0,0E0,0E0,0E0,0E0,0E0,0E0,0E0,0E0,0E0,0E0,0E0,0E0,0E0,0E0,0E0,0E0,0E0,0E0,0E0,0E0,0E0,0E0,0E0,0E0,0E0,0E0,0E0,0E0,0E0,0E0],"parents":[2147483647,0,0,1,1,2,2,3,3,4,4,5,5,6,6,7,7,8,8,9,9,10,10,11,11,12,12,13,13,14,14,15,15,16,16,17,17,18,18,19,19,20,20,21,21,22,22,23,23,24,24,25,25,27,27,28,28,29,29,30,30,32,32,33,33,34,34,35,35,36,36,37,37,38,38,39,39,40,40,41,41,42,42,43,43,44,44,45,45,46,46,47,47,48,48,49,49,55,55,57,57,58,58,59,59,60,60],"right_children":[2,4,6,8,10,12,14,16,18,20,22,24,26,28,30,32,34,36,38,40,42,44,46,48,50,52,-1,54,56,58,60,-1,62,64,66,68,70,72,74,76,78,80,82,84,86,88,90,92,94,96,-1,-1,-1,-1,-1,98,-1,100,102,104,106,-1,-1,-1,