{"learner":{"attributes":{"best_iteration":"94","best_score":"22.217502720987024"},"feature_names":["precipitation_sum","temperature_2m_max","temperature_2m_min","snowfall_sum","snow_depth_mean","soil_moisture_0_to_7cm_mean","et0_fao_evapotranspiration","rain_sum","level_lag_1","level_lag_2","level_lag_3","level_lag_7","level_lag_14","precip_3d","precip_7d","precip_14d","tmax_3d","tmin_3d","tmax_7d","snow_melt_3d","snow_melt_7d","soil_moisture_change_7d","level_change_1d","level_change_3d","level_change_7d","sin_doy","cos_doy","month"],"feature_types":[],"gradient_booster":{"model":{"cats":{"enc":[],"feature_segments":[],"sorted_idx":[]},"gbtree_model_param":{"num_parallel_tree":"1","num_trees":"145"},"iteration_indptr":[0,1,2,3,4,5,6,7,8,9,10,11,12,13,14,15,16,17,18,19,20,21,22,23,24,25,26,27,28,29,30,31,32,33,34,35,36,37,38,39,40,41,42,43,44,45,46,47,48,49,50,51,52,53,54,55,56,57,58,59,60,61,62,63,64,65,66,67,68,69,70,71,72,73,74,75,76,77,78,79,80,81,82,83,84,85,86,87,88,89,90,91,92,93,94,95,96,97,98,99,100,101,102,103,104,105,106,107,108,109,110,111,112,113,114,115,116,117,118,119,120,121,122,123,124,125,126,127,128,129,130,131,132,133,134,135,136,137,138,139,140,141,142,143,144,145],"tree_info":[0,0,0,0,0,0,0,0,0,0,0,0,0,0,0,0,0,0,0,0,0,0,0,0,0,0,0,0,0,0,0,0,0,0,0,0,0,0,0,0,0,0,0,0,0,0,0,0,0,0,0,0,0,0,0,0,0,0,0,0,0,0,0,0,0,0,0,0,0,0,0,0,0,0,0,0,0,0,0,0,0,0,0,0,0,0,0,0,0,0,0,0,0,0,0,0,0,0,0,0,0,0,0,0,0,0,0,0,0,0,0,0,0,0,0,0,0,0,0,0,0,0,0,0,0,0,0,0,0,0,0,0,0,0,0,0,0,0,0,0,0,0,0,0,0],"trees":[{"base_weights":[-5.8867383E-1,-3.524699E1,5.362007E1,-6.54765E1,-1.5556992E1,3.5087505E1,1.07547646E2,-8.786782E1,-5.248902E1,-2.9277626E1,-3.8806708E0,2.4281061E1,5.347264E1,8.819116E1,1.5812048E2,-9.5176834E1,-5.369172E1,-5.567563E1,1.362255E1,-3.593448E1,-4.8386106E0,-2.0496555E1,3.3208833E0,1.8961136E1,4.5000538E1,4.232706E1,7.742115E1,7.087564E1,1.0899193E2,1.2831616E2,8.83511E0,-5.382858E0,-8.755353E1,-6.345187E1,-6.506055E-1,-6.0896954E1,-3.902185E1,-4.1702676E0,2.495995E0,-3.8258667E1,3.6278834E0,-1.6767168E1,5.4825735E0,-4.152064E1,-1.649536E1,-1.7593666E0,3.1688803E1,1.0705315E1,2.9880865E1,2.9261124E1,5.9110603E1,-9.785652E0,4.6085865E1,8.228461E1,1.0432821E-1,9.30309E-1,7.4012985E1,9.218243E1,1.26506546E2,4.257761E0,7.4977946E0,-4.52077E0,-2.4369256E0,-3.4057024E0,-1.5940051E0,-3.7141569E0,-2.700791E0,-2.4478872E0,-6.010539E-1,-6.614554E-1,4.293282E-1,-2.0595844E0,-9.8610604E-1,1.0120745E0,-6.6692555E-1,-1.1970705E0,1.5776102E-1,-6.6263074E-1,7.070411E-1,-2.5848238E0,-1.4854364E0,-1.1222107E0,-1.57086E-1,-1.3526303E0,7.348654E-2,9.321597E-1,2.764461E0,-1.8997389E0,6.8239284E-1,3.3886686E-1,1.6738541E0,8.067816E-1,2.8582513E0,2.5930047E0,4.0370746E0,-1.1489553E0,4.7099486E-1,1.2302191E0,2.53662E0,3.4842114E0,4.8911567E0,3.2104015E0,4.207329E0,4.8627415E0,2.5731661E0,6.652607E0,3.5793283E0],"categories":[],"categories_nodes":[],"categories_segments":[],"categories_sizes":[],"default_left":[0,0,0,0,0,0,0,0,0,0,0,0,0,0,0,0,0,0,0,0,0,0,0,0,0,0,0,0,0,0,0,0,0,0,0,0,0,0,0,0,0,0,0,0,0,0,0,0,0,0,0,0,0,0,0,0,0,0,0,0,0,0,0,0,0,0,0,0,0,0,0,0,0,0,0,0,0,0,0,0,0,0,0,0,0,0,0,0,0,0,0,0,0,0,0,0,0,0,0,0,0,0,0,0,0,0,0],"id":0,"left_children":[1,3,5,7,9,11,13,15,17,19,21,23,25,27,29,31,33,35,37,39,41,43,45,47,49,51,53,55,57,59,-1,-1,61,63,-1,65,67,69,-1,71,73,75,77,79,81,83,85,87,89,91,93,95,97,99,-1,-1,101,103,105,-1,-1,-1,-1,-1,-1,-1,-1,-1,-1,-1,-1,-1,-1,-1,-1,-1,-1,-1,-1,-1,-1,-1,-1,-1,-1,-1,-1,-1,-1,-1,-1,-1,-1,-1,-1,-1,-1,-1,-1,-1,-1,-1,-1,-1,-1,-1,-1],"loss_changes":[4.5861205E6,8.852545E5,9.476565E5,1.6607775E5,1.445496E5,1.3975519E5,2.239065E5,4.8330625E4,7.955394E4,6.733709E4,5.858361E4,4.8631844E4,6.664406E4,5.63685E4,1.3847375E4,7.204375E3,1.5048266E4,2.86565E4,1.1837731E4,3.0118125E4,1.117357E4,1.1759281E4,4.9346457E4,3.204039E4,1.8471188E4,3.5909188E4,2.9863594E4,1.5012375E4,1.15749375E4,1.4292719E4,0E0,0E0,8.2429375E3,2.5286875E3,0E0,2.0844938E4,2.3013734E4,1.6163641E3,0E0,1.5926875E4,5.626268E3,6.0805967E3,8.1359736E3,1.2205312E3,9.936223E3,2.3809547E4,1.4971691E4,3.0036346E4,1.2564219E4,1.5551641E4,3.1707188E3,3.511855E3,1.5612875E4,8.2424375E3,0E0,0E0,3.9220625E3,4.068E3,3.39625E3,0E0,0E0,0E0,0E0,0E0,0E0,0E0,0E0,0E0,0E0,0E0,0E0,0E0,0E0,0E0,0E0,0E0,0E0,0E0,0E0,0E0,0E0,0E0,0E0,0E0,0E0,0E0,0E0,0E0,0E0,0E0,0E0,0E0,0E0,0E0,0E0,0E0,0E0,0E0,0E0,0E0,0E0,0E0,0E0,0E0,0E0,0E0,0E0],"parents":[2147483647,0,0,1,1,2,2,3,3,4,4,5,5,6,6,7,7,8,8,9,9,10,10,11,11,12,12,13,13,14,14,15,15,16,16,17,17,18,18,19,19,20,20,21,21,22,22,23,23,24,24,25,25,26,26,27,27,28,28,29,29,32,32,33,33,35,35,36,36,37,37,39,39,40,40,41,41,42,42,43,43,44,44,45,45,46,46,47,47,48,48,49,49,50,50,51,51,52,52,53,53,56,56,57,57,58,58],"right_children":[2,4,6,8,10,12,14,16,18,20,22,24,26,28,30,32,34,36,38,40,42,44,46,48,50,52,54,56,58,60,-1,-1,62,64,-1,66,68,70,-1,72,74,76,78,80,82,84,86,88,90,92,94,96,98,100,-1,-1,102,104,106,-1,-1,-1,-1,-1,-1,-1,-1,-1,-1,-1,-1,-1,-1,-1,-1,-1,-1,-1,-1,-1,-1,-1,-1,-1,-1,-1,-1,-1,-1,-1,-1,-1,-1,-1,-1,-1,-1,-1,-1,-1,-1,-1,-1,-1,-1,-1,-1],"split_conditions":[2.83E2,2.21E2,3.48E2,1.92E2,2.51E2,3.17E2,4.12E2,-1.5314166E-1,5.2E1,1.7E1,-8E0,1.4E1,1E1,1E0,-1.4E1,1.67E2,1.76E1,2.22E2,4.6E1,3.9E1,2.33E2,-4.6E1,3E1,3.05E2,2.86E2,-3.6E1,1.1E1,3.31E2,6E0,4.5E2,8.83511E0,-5.382858E0,3.1E1,2.05E2,-6.506055E-1,-4E0,3E0,1E-1,2.495995E0,9.142438E-1,1.6E0,5.2E1,7E0,-6.3090664E-1,2.71E2,2.51E2,5E0,-3.8E1,-4.5E1,5E1,4.6E1,1.24E1,-2.8E1,3.21E2,1.0432821E-1,9.30309E-1,3E-1,3.49E1,3.21E1,4.257761E0,7.4977946E0,-4.52077E0,-2.4369256E0,-3.4057024E0,-1.5940051E0,-3.7141569E0,-2.700791E0,-2.4478872E0,-6.010539E-1,-6.614554E-1,4.293282E-1,-2.0595844E0,-9.8610604E-1,1.0120745E0,-6.6692555E-1,-1.1970705E0,1.5776102E-1,-6.6263074E-1,7.070411E-1,-2.5848238E0,-1.4854364E0,-1.1222107E0,-1.57086E-1,-1.3526303E0,7.348654E-2,9.321597E-1,2.764461E0,-1.8997389E0,6.8239284E-1,3.3886686E-1,1.6738541E0,8.067816E-1,2.8582513E0,2.5930047E0,4.0370746E0,-1.1489553E0,4.7099486E-1,1.2302191E0,2.53662E0,3.4842114E0,4.8911567E0,3.2104015E0,4.207329E0,4.8627415E0,2.5731661E0,6.652607E0,3.5793283E0],"split_indices":[9,9,9,9,9,9,9,26,23,22,22,23,23,23,23,9,15,10,22,23,10,23,23,10,10,22,27,10,27,10,0,0,23,10,0,23,23,0,0,26,6,23,23,26,10,10,13,23,23,23,23,15,23,10,0,0,13,15,1,0,0,0,0,0,0,0,0,0,0,0,0,0,0,0,0,0,0,0,0,0,0,0,0,0,0,0,0,0,0,0,0,0,0,0,0,0,0,0,0,0,0,0,0,0,0,0,0],"split_type":[0,0,0,0,0,0,0,0,0,0,0,0,0,0,0,0,0,0,0,0,0,0,0,0,0,0,0,0,0,0,0,0,0,0,0,0,0,0,0,0,0,0,0,0,0,0,0,0,0,0,0,0,0,0,0,0,0,0,0,0,0,0,0,0,0,0,0,0,0,0,0,0,0,0,0,0,0,0,0,0,0,0,0,0,0,0,0,0,0,0,0,0,0,0,0,0,0,0,0,0,0,0,0,0,0,0,0],"sum_hessian":[2.439E3,1.488E3,9.51E2,5.86E2,9.02E2,7.09E2,2.42E2,2.13E2,3.73E2,4.14E2,4.88E2,4.48E2,2.61E2,1.77E2,6.5E1,1.74E2,3.9E1,3.56E2,1.7E1,3.25E2,8.9E1,1.47E2,3.41E2,3.58E2,9E1,1.8E2,8.1E1,9.9E1,7.8E1,2.8E1,3.7E1,6.1E1,1.13E2,3.1E1,8E0,2.69E2,8.7E1,1.2E1,5E0,3.07E2,1.8E1,4.1E1,4.8E1,2.2E1,1.25E2,2.9E2,5.1E1,2.05E2,1.53E2,4.4E1,4.6E1,1.2E1,1.68E2,7.6E1,5E0,6E0,9.3E1,4.3E1,3.5E1,1.1E1,1.7E1,1.04E2,9E0,2.6E1,5E0,8.8E1,1.81E2,6.3E1,2.4E1,7E0,5E0,2.64E2,4.3E1,9E0,9E0,3E1,1.1E1,1.5E1,3.3E1,1E1,1.2E1,8.6E1,3.9E1,3.2E1,2.58E2,3.4E1,1.7E1,1.1E1,1.94E2,2.1E1,1.32E2,3.1E1,1.3E1,3.7E1,9E0,7E0,5E0,3.1E1,1.37E2,4.5E1,3.1E1,5.1E1,4.2E1,3.7E1,6E0,3E1,5E0],"tree_param":{"num_deleted":"0","num_feature":"28","num_nodes":"107","size_leaf_vector":"1"}},{"base_weights":[-5.7752603E-1,-3.655523E1,5.063996E1,-6.580072E1,-1.6168467E1,3.659284E1,1.20571754E2,-8.730141E1,-5.279105E1,-2.7525242E1,-2.7100263E0,2.666489E1,5.8568638E1,9.710273E1,1.5682343E2,-1.0092608E2,-7.7377754E1,-5.831548E1,-1.7415848E1,-3.4415924E1,-4.4473743E0,-2.13839E1,5.1947727E0,1.6906834E1,4.3385098E1,5.0123066E1,4.2023277E0,6.741206E1,1.0564393E2,1.6171857E2,4.1266937E0,-5.1930695E0,-3.1641595E0,-8.050866E1,-2.7339666E0,-6.69307E1,-5.103265E1,-2.9354357E1,2.5515614E0,-4.647853E1,-3.1245241E1,1.0921915E1,-1.0378949E1,8.163783E0,-2.4588594E1,2.8435457E0,2.8307156E1,-6.5888443E0,2.2002872E1,3.2030453E1,5.4021698E1,3.293063E1,5.5289825E1,1.9335908E0,3.7047775E0,3.1212115E0,5.515377E0,4.4994426E0,8.334595E0,-4.106667E0,-2.7775576E0,-3.7582319E0,-2.9900327E0,-2.9921482E0,-2.2465196E0,-1.893574E0,-8.5850936E-1,1.4820422E0,-8.984848E-1,-2.4608727E0,-1.5232542E0,-1.8342015E0,-1.1537305E0,2.7683514E-1,1.390547E0,2.9415756E-1,-8.4962875E-1,-2.9659626E-1,1.1632407E0,-2.0987492E0,-1.0230169E0,-1.0985836E-1,4.5428306E-1,1.0136472E0,2.5176666E0,-1.0772388E0,1.899627E-2,6.056985E-1,1.4478421E0,1.2622954E0,2.8980849E0,2.3340793E0,3.2665176E0,5.173422E-1,2.143971E0,2.3736422E0,3.1137571E0],"categories":[],"categories_nodes":[],"categories_segments":[],"categories_sizes":[],"default_left":[0,0,0,0,0,0,0,0,0,0,0,0,0,0,0,0,0,0,0,0,0,0,0,0,0,0,0,0,0,0,0,0,0,0,0,0,0,0,0,0,0,0,0,0,0,0,0,0,0,0,0,0,0,0,0,0,0,0,0,0,0,0,0,0,0,0,0,0,0,0,0,0,0,0,0,0,0,0,0,0,0,0,0,0,0,0,0,0,0,0,0,0,0,0,0,0,0],"id":1,"left_children":[1,3,5,7,9,11,13,15,17,19,21,23,25,27,29,31,33,35,37,39,41,43,45,47,49,51,-1,53,55,57,-1,-1,-1,59,-1,61,63,65,67,69,71,73,75,77,79,81,83,85,87,89,91,93,95,-1,-1,-1,-1,-1,-1,-1,-1,-1,-1,-1,-1,-1,-1,-1,-1,-1,-1,-1,-1,-1,-1,-1,-1,-1,-1,-1,-1,-1,-1,-1,-1,-1,-1,-1,-1,-1,-1,-1,-1,-1,-1,-1,-1],"loss_changes":[4.470367E6,8.485425E5,9.788955E5,1.5901175E5,1.2846461E5,1.8060562E5,1.2682875E5,2.1782875E4,7.0698875E4,7.235719E4,5.7091406E4,9.340191E4,5.1504375E4,1.923475E4,9.902375E3,3.2445625E3,4.894E3,1.6462125E4,1.2235016E4,1.19645625E4,9.776697E3,1.1091879E4,1.4697539E4,4.3969484E4,2.3865344E4,1.56698125E4,0E0,2.1175234E3,9.0200625E3,6.021375E3,0E0,0E0,0E0,5.5625E0,0E0,3.8281875E3,6.763E3,2.6650059E3,1.1651928E4,1.6066562E3,1.1634719E4,2.571214E3,8.382542E3,2.6940547E3,6.599582E3,7.8239004E3,3.4002188E3,6.8891143E3,2.0344016E4,1.7001219E4,5.9037812E3,1.0335715E4,5.22325E3,0E0,0E0,0E0,0E0,0E0,0E0,0E0,0E0,0E0,0E0,0E0,0E0,0E0,0E0,0E0,0E0,0E0,0E0,0E0,0E0,0E0,0E0,0E0,0E0,0E0,0E0,0E0,0E0,0E0,0E0,0E0,0E0,0E0,0E0,0E0,0E0,0E0,0E0,0E0,0E0,0E0,0E0,0E0,0E0],"parents":[2147483647,0,0,1,1,2,2,3,3,4,4,5,5,6,6,7,7,8,8,9,9,10,10,11,11,12,12,13,13,14,14,15,15,16,16,17,17,18,18,19,19,20,20,21,21,22,22,23,23,24,24,25,25,27,27,28,28,29,29,33,33,35,35,36,36,37,37,38,38,39,39,40,40,41,41,42,42,43,43,44,44,45,45,46,46,47,47,48,48,49,49,50,50,51,51,52,52],"right_children":[2,4,6,8,10,12,14,16,18,20,22,24,26,28,30,32,34,36,38,40,42,44,46,48,50,52,-1,54,56,58,-1,-1,-1,60,-1,62,64,66,68,70,72,74,76,78,80,82,84,86,88,90,92,94,96,-1,-1,-1,-1,-1,-1,-1,-1,-1,-1,-1,-1,-1,-1,-1,-1,-1,-1,-1,-1,-1,-1,-1,-1,-1,-1,-1,-1,-1,-1,-1,-1,-1,-1,-1,-1,-1,-1,-1,-1,-1,-1,-1,-1],"split_conditions":[2.82E2,2.21E2,3.62E2,1.92E2,2.57E2,3.25E2,4.12E2,1.71E2,2.1E1,1.5E1,-8E0,3E0,7E0,-1.8E1,1.2546124E-1,2.6E1,2E1,-1E0,4.1E1,-1.7E1,3.3E0,5.5E-1,3E1,-2.3E1,3.02E2,-2.1E1,4.2023277E0,1.08E0,1.1085714E1,1.41E-1,4.1266937E0,-5.1930695E0,-3.1641595E0,2.65E-1,-2.7339666E0,2.05E2,2.07E2,2.1E2,4.1E1,2.52E2,2.4E2,7.2E0,-5.900445E-1,8E-1,-3.2E1,2.77E2,1.7414286E1,2.95E2,2.95E2,1.9E0,2E1,9.5E-1,3.38E2,1.9335908E0,3.7047775E0,3.1212115E0,5.515377E0,4.4994426E0,8.334595E0,-4.106667E0,-2.7775576E0,-3.7582319E0,-2.9900327E0,-2.9921482E0,-2.2465196E0,-1.893574E0,-8.5850936E-1,1.4820422E0,-8.984848E-1,-2.4608727E0,-1.5232542E0,-1.8342015E0,-1.1537305E0,2.7683514E-1,1.390547E0,2.9415756E-1,-8.4962875E-1,-2.9659626E-1,1.1632407E0,-2.0987492E0,-1.0230169E0,-1.0985836E-1,4.5428306E-1,1.0136472E0,2.5176666E0,-1.0772388E0,1.899627E-2,6.056985E-1,1.4478421E0,1.2622954E0,2.8980849E0,2.3340793E0,3.2665176E0,5.173422E-1,2.143971E0,2.3736422E0,3.1137571E0],"split_indices":[8,8,8,8,8,8,8,8,22,22,22,22,22,22,26,22,22,22,22,22,2,6,22,22,8,22,0,6,18,5,0,0,0,5,0,8,8,8,23,8,8,1,26,14,22,10,18,8,8,0,22,6,8,0,0,0,0,0,0,0,0,0,0,0,0,0,0,0,0,0,0,0,0,0,0,0,0,0,0,0,0,0,0,0,0,0,0,0,0,0,0,0,0,0,0,0,0],"split_type":[0,0,0,0,0,0,0,0,0,0,0,0,0,0,0,0,0,0,0,0,0,0,0,0,0,0,0,0,0,0,0,0,0,0,0,0,0,0,0,0,0,0,0,0,0,0,0,0,0,0,0,0,0,0,0,0,0,0,0,0,0,0,0,0,0,0,0,0,0,0,0,0,0,0,0,0,0,0,0,0,0,0,0,0,0,0,0,0,0,0,0,0,0,0,0,0,0],"sum_hessian":[2.424E3,1.424E3,1E3,5.84E2,8.4E2,8.34E2,1.66E2,2.18E2,3.66E2,4.55E2,3.85E2,5.76E2,2.58E2,1.03E2,6.3E1,8.8E1,1.3E2,3.16E2,5E1,3.5E2,1.05E2,1.14E2,2.71E2,3.65E2,2.11E2,1.96E2,6.2E1,2.5E1,7.8E1,5.8E1,5E0,8E1,8E0,1.12E2,1.8E1,1.41E2,1.75E2,3.1E1,1.9E1,7E1,2.8E2,2.9E1,7.6E1,1.1E1,1.03E2,2.47E2,2.4E1,6.5E1,3E2,1.04E2,1.07E2,4.7E1,1.49E2,6E0,1.9E1,9E0,6.9E1,5E0,5.3E1,1.03E2,9E0,6.1E1,8E1,6.8E1,1.07E2,1.7E1,1.4E1,8E0,1.1E1,5.8E1,1.2E1,1.66E2,1.14E2,2.3E1,6E0,2.2E1,5.4E1,6E0,5E0,1.8E1,8.5E1,1.37E2,1.1E2,1.9E1,5E0,2E1,4.5E1,1.25E2,1.75E2,8.4E1,2E1,6.8E1,3.9E1,1.5E1,3.2E1,7.4E1,7.5E1],"tree_param":{"num_deleted":"0","num_feature":"28","num_nodes":"97","size_leaf_vector":"1"}},{"base_weights":[-2.5531407E-2,-3.3202763E1,5.00844E1,-6.2373085E1,-1.4419912E1,3.4145615E1,1.0966652E2,-8.324414E1,-5.024181E1,-2.591601E1,-1.162853E0,2.2594528E1,4.9774815E1,8.7401566E1,1.4896106E2,-9.6769005E1,-7.38553E1,-5.3901997E1,-7.8136783E0,-3.3292824E1,-6.28992E0,-1.7648293E1,8.2079E0,-5.4415627E0,2.7823725E1,4.286079E1,6.9571396E1,6.8519005E1,9.920101E1,1.1167542E2,8.156562E0,-4.9548626E0,-3.1416538E0,-3.9766374E0,-5.5983665E1,-6.0950893E1,-4.4060104E1,-1.6854227E1,1.5570445E0,-3.921733E1,-2.738056E1,-2.705998E1,-3.1639986E0,-3.3246876E1,-9.980853E0,5.5002103E0,3.082985E1,-1.6763918E0,-1.2751431E0,2.4370369E1,5.5022194E1,1.2060358E1,4.5580826E1,2.8681715E0,3.7754695E0,1.9341398E0,3.6068769E0,3.7664807E0,5.180864E0,3.720337E0,6.515598E0,-1.7169195E0,-3.06596E0,-3.3849697E0,-2.6013424E0,-2.3413875E0,-8.657177E-1,-1.1240244E0,2.3461716E-1,-1.5329927E0,-2.1687121E0,-1.9231539E0,-1.1809576E0,-2.509867E0,-6.613985E-1,-5.6707305E-1,2.9806298E-1,-1.7955151E0,-4.0786418E-1,-7.446313E-1,1.1502447E-1,-3.1921023E-1,4.0465912E-1,9.610497E-1,2.234912E0,-5.524854E-1,2.5932083E-1,8.0421793E-1,1.5217141E0,1.1456178E0,2.9421332E0,-9.507319E-2,1.5449253E0,1.854125E0,2.6247275E0],"categories":[],"categories_nodes":[],"categories_segments":[],"categories_sizes":[],"default_left":[0,0,0,0,0,0,0,0,0,0,0,0,0,0,0,0,0,0,0,0,0,0,0,0,0,0,0,0,0,0,0,0,0,0,0,0,0,0,0,0,0,0,0,0,0,0,0,0,0,0,0,0,0,0,0,0,0,0,0,0,0,0,0,0,0,0,0,0,0,0,0,0,0,0,0,0,0,0,0,0,0,0,0,0,0,0,0,0,0,0,0,0,0,0,0],"id":2,"left_children":[1,3,5,7,9,11,13,15,17,19,21,23,25,27,29,31,33,35,37,39,41,43,45,47,49,51,53,55,57,59,-1,-1,-1,-1,61,63,65,67,-1,69,71,73,75,77,79,81,83,-1,85,87,89,91,93,-1,-1,-1,-1,-1,-1,-1,-1,-1,-1,-1,-1,-1,-1,-1,-1,-1,-1,-1,-1,-1,-1,-1,-1,-1,-1,-1,-1,-1,-1,-1,-1,-1,-1,-1,-1,-1,-1,-1,-1,-1,-1],"loss_changes":[4.02327E6,7.9683775E5,9.1171925E5,1.40124E5,1.3514989E5,1.3643519E5,1.6456E5,1.92485E4,5.5944688E4,6.855619E4,6.394645E4,6.4660406E4,4.1217188E4,2.2596125E4,1.9795625E4,2.360625E2,8.42E3,2.0475125E4,1.1088548E4,1.1003969E4,8.41661E3,1.7604023E4,1.5997641E4,8.1451123E3,3.3497688E4,1.9718906E4,1.5995E3,3.0284531E3,5.050625E2,6.2582812E3,0E0,0E0,0E0,0E0,1.8114531E3,8.02875E3,9.7680625E3,3.1379302E3,0E0,4.710078E3,6.422047E3,4.7702637E3,8.649614E3,2.9770469E3,6.1884834E3,7.355223E3,3.6423594E3,0E0,3.973748E3,1.6137125E4,3.6732656E3,5.584964E3,1.1088031E4,0E0,0E0,0E0,0E0,0E0,0E0,0E0,0E0,0E0,0E0,0E0,0E0,0E0,0E0,0E0,0E0,0E0,0E0,0E0,0E0,0E0,0E0,0E0,0E0,0E0,0E0,0E0,0E0,0E0,0E0,0E0,0E0,0E0,0E0,0E0,0E0,0E0,0E0,0E0,0E0,0E0,0E0],"parents":[2147483647,0,0,1,1,2,2,3,3,4,4,5,5,6,6,7,7,8,8,9,9,10,10,11,11,12,12,13,13,14,14,15,15,16,16,17,17,18,18,19,19,20,20,21,21,22,22,23,23,24,24,25,25,26,26,27,27,28,28,29,29,34,34,35,35,36,36,37,37,39,39,40,40,41,41,42,42,43,43,44,44,45,45,46,46,48,48,49,49,50,50,51,51,52,52],"right_children":[2,4,6,8,10,12,14,16,18,20,22,24,26,28,30,32,34,36,38,40,42,44,46,48,50,52,54,56,58,60,-1,-1,-1,-1,62,64,66,68,-1,70,72,74,76,78,80,82,84,-1,86,88,90,92,94,-1,-1,-1,-1,-1,-1,-1,-1,-1,-1,-1,-1,-1,-1,-1,-1,-1,-1,-1,-1,-1,-1,-1,-1,-1,-1,-1,-1,-1,-1,-1,-1,-1,-1,-1,-1,-1,-1,-1,-1,-1,-1],"split_conditions":[2.83E2,2.21E2,3.57E2,1.92E2,2.57E2,3.15E2,4.12E2,1.71E2,3.1E1,1.2E1,-5E0,-1.5E1,8E0,-1E1,-2.4E1,4E1,1.1E1,2E0,6.5E1,2.37E2,2.13E2,-2.3E1,3E1,2.21E2,2.5E1,-3.4E1,3.26E2,1.8666667E0,1.1085714E1,4.5E2,8.156562E0,-4.9548626E0,-3.1416538E0,-3.9766374E0,8.4E0,2.1E2,4.7E0,2.33E2,1.5570445E0,1.41E1,-1.6E1,1.49E0,2.58E-1,9.524422E-1,9.016342E-1,2.62E2,9.866667E0,-1.6763918E0,2.76E2,2.95E2,2.22E2,3.35E2,3.31E2,2.8681715E0,3.7754695E0,1.9341398E0,3.6068769E0,3.7664807E0,5.180864E0,3.720337E0,6.515598E0,-1.7169195E0,-3.06596E0,-3.3849697E0,-2.6013424E0,-2.3413875E0,-8.657177E-1,-1.1240244E0,2.3461716E-1,-1.5329927E0,-2.1687121E0,-1.9231539E0,-1.1809576E0,-2.509867E0,-6.613985E-1,-5.6707305E-1,2.9806298E-1,-1.7955151E0,-4.0786418E-1,-7.446313E-1,1.1502447E-1,-3.1921023E-1,4.0465912E-1,9.610497E-1,2.234912E0,-5.524854E-1,2.5932083E-1,8.0421793E-1,1.5217141E0,1.1456178E0,2.9421332E0,-9.507319E-2,1.5449253E0,1.854125E0,2.6247275E0],"split_indices":[8,8,8,8,8,8,8,8,22,22,22,22,22,22,23,22,22,22,22,8,9,22,22,12,22,22,8,17,18,9,0,0,0,0,2,8,7,9,0,16,22,6,5,26,26,8,16,0,11,8,12,8,8,0,0,0,0,0,0,0,0,0,0,0,0,0,0,0,0,0,0,0,0,0,0,0,0,0,0,0,0,0,0,0,0,0,0,0,0,0,0,0,0,0,0],"split_type":[0,0,0,0,0,0,0,0,0,0,0,0,0,0,0,0,0,0,0,0,0,0,0,0,0,0,0,0,0,0,0,0,0,0,0,0,0,0,0,0,0,0,0,0,0,0,0,0,0,0,0,0,0,0,0,0,0,0,0,0,0,0,0,0,0,0,0,0,0,0,0,0,0,0,0,0,0,0,0,0,0,0,0,0,0,0,0,0,0,0,0,0,0,0,0],"sum_hessian":[2.418E3,1.455E3,9.63E2,5.69E2,8.86E2,7.61E2,2.02E2,2.07E2,3.62E2,4.74E2,4.12E2,4.39E2,3.22E2,1.31E2,7.1E1,8.1E1,1.26E2,3.33E2,2.9E1,3.44E2,1.3E2,1.49E2,2.63E2,6.9E1,3.7E2,2.41E2,8.1E1,5.3E1,7.8E1,2.2E1,4.9E1,7.4E1,7E0,9.3E1,3.3E1,1.91E2,1.42E2,2.4E1,5E0,1.69E2,1.75E2,1.6E1,1.14E2,4.8E1,1.01E2,2.36E2,2.7E1,8E0,6.1E1,3.3E2,4E1,2E1,2.21E2,3E1,5.1E1,7E0,4.6E1,1.5E1,6.3E1,9E0,1.3E1,8E0,2.5E1,1.05E2,8.6E1,1.28E2,1.4E1,1.9E1,5E0,5.8E1,1.11E2,4.2E1,1.33E2,5E0,1.1E1,6E1,5.4E1,4.3E1,5E0,7.2E1,2.9E1,4.2E1,1.94E2,1.6E1,1.1E1,2.4E1,3.7E1,1.41E2,1.89E2,5E0,3.5E1,1.2E1,8E0,1.02E2,1.19E2],"tree_param":{"num_deleted":"0","num_feature":"28","num_nodes":"95","size_leaf_vector":"1"}},{"base_weights":[5.544052E-1,-3.2618137E1,4.6346844E1,-5.7997303E1,-1.5048501E1,2.8939148E1,9.328722E1,-8.486319E1,-4.963327E1,-2.6558495E1,-4.2165375E0,1.6479193E1,3.983911E1,7.724311E1,1.3833981E2,-8.6904564E1,-1.7261345E0,-5.599669E1,-2.8106827E1,-3.440692E1,-1.1065098E1,-2.0081648E1,3.0422506E0,-7.901451E0,2.1990414E1,3.3313736E1,6.4516E1,5.8334503E1,8.983496E1,1.2021229E2,7.985397E0,-2.0671036E0,-8.838369E1,-6.2868423E1,-4.6796604E1,-3.367854E1,7.1905847E0,-2.4496772E0,-3.1668571E1,-2.5387226E1,-4.813114E0,-3.8258984E1,-1.5881514E1,-2.4435145E-1,1.8365555E1,-1.0329594E1,9.042453E-1,1.9402708E1,5.1069855E1,1.1024286E1,3.841467E1,5.804027E1,4.233528E0,3.2516365E1,6.376984E1,8.5230774E1,7.6971407E0,2.7914085E0,6.360605E0,-5.1737266E0,-4.1294456E0,-3.1960847E0,-1.2792507E0,-1.0103539E0,-2.4269183E0,-1.8689378E0,4.454266E-1,-6.9159627E-1,2.052317E0,-1.7799721E0,-1.2312918E0,-1.5070194E0,-2.2994626E-1,-1.1284102E0,9.5525235E-2,-1.230218E0,-2.1615746E0,3.681763E-1,-9.230752E-1,-3.265031E-1,2.80197E-1,3.9378828E-1,1.4897544E0,-1.6966759E-1,-8.6902994E-1,6.017787E-1,1.2165238E0,1.0443594E0,2.914399E0,-5.3202593E-1,8.5577995E-1,1.6119394E0,2.4229653E0,2.3413892E0,3.2077599E0,5.134011E-1,2.0461254E0,2.740934E0,3.799569E0,3.8028257E0,4.9623976E0],"categories":[],"categories_nodes":[],"categories_segments":[],"categories_sizes":[],"default_left":[0,0,0,0,0,0,0,0,0,0,0,0,0,0,0,0,0,0,0,0,0,0,0,0,0,0,0,0,0,0,0,0,0,0,0,0,0,0,0,0,0,0,0,0,0,0,0,0,0,0,0,0,0,0,0,0,0,0,0,0,0,0,0,0,0,0,0,0,0,0,0,0,0,0,0,0,0,0,0,0,0,0,0,0,0,0,0,0,0,0,0,0,0,0,0,0,0,0,0,0,0],"id":3,"left_children":[1,3,5,7,9,11,13,15,17,19,21,23,25,27,29,31,-1,33,35,37,39,41,43,45,47,49,51,53,55,57,-1,-1,59,61,63,65,67,-1,69,71,73,75,77,79,81,83,-1,85,87,89,91,93,-1,95,97,99,-1,-1,-1,-1,-1,-1,-1,-1,-1,-1,-1,-1,-1,-1,-1,-1,-1,-1,-1,-1,-1,-1,-1,-1,-1,-1,-1,-1,-1,-1,-1,-1,-1,-1,-1,-1,-1,-1,-1,-1,-1,-1,-1,-1,-1],"loss_changes":[3.735342E6,6.349774E5,8.41377E5,1.26778875E5,1.0511134E5,1.0187669E5,1.9096175E5,1.10663125E4,5.9648625E4,4.9348594E4,5.02732E4,4.7741133E4,6.2573375E4,4.4268375E4,8.6625E3,5.1615E3,0E0,1.8794875E4,2.0698203E4,9.265031E3,1.2321086E4,9.846543E3,1.5114778E4,4.35054E3,2.0749047E4,3.5954594E4,5.9042188E3,9.98525E3,2.3160688E4,1.225875E4,0E0,0E0,2.4540625E3,5.973875E3,6.0055E3,1.4518172E4,1.1246465E4,0E0,5.512328E3,4.0079395E3,1.1744271E4,6.2697266E2,6.913881E3,9.153331E3,6.115924E3,2.9223008E3,0E0,9.39657E3,3.7854375E3,8.232758E3,1.4558625E4,1.5098438E3,0E0,2.7540742E3,3.4789375E3,7.4798125E3,0E0,0E0,0E0,0E0,0E0,0E0,0E0,0E0,0E0,0E0,0E0,0E0,0E0,0E0,0E0,0E0,0E0,0E0,0E0,0E0,0E0,0E0,0E0,0E0,0E0,0E0,0E0,0E0,0E0,0E0,0E0,0E0,0E0,0E0,0E0,0E0,0E0,0E0,0E0,0E0,0E0,0E0,0E0,0E0,0E0],"parents":[2147483647,0,0,1,1,2,2,3,3,4,4,5,5,6,6,7,7,8,8,9,9,10,10,11,11,12,12,13,13,14,14,15,15,17,17,18,18,19,19,20,20,21,21,22,22,23,23,24,24,25,25,26,26,27,27,28,28,29,29,32,32,33,33,34,34,35,35,36,36,38,38,39,39,40,40,41,41,42,42,43,43,44,44,45,45,47,47,48,48,49,49,50,50,51,51,53,53,54,54,55,55],"right_children":[2,4,6,8,10,12,14,16,18,20,22,24,26,28,30,32,-1,34,36,38,40,42,44,46,48,50,52,54,56,58,-1,-1,60,62,64,66,68,-1,70,72,74,76,78,80,82,84,-1,86,88,90,92,94,-1,96,98,100,-1,-1,-1,-1,-1,-1,-1,-1,-1,-1,-1,-1,-1,-1,-1,-1,-1,-1,-1,-1,-1,-1,-1,-1,-1,-1,-1,-1,-1,-1,-1,-1,-1,-1,-1,-1,-1,-1,-1,-1,-1,-1,-1,-1,-1],"split_conditions":[2.82E2,2.21E2,3.45E2,1.81E2,2.52E2,3.04E2,4.12E2,4.5E1,1.5E1,9E0,-9E0,-1.5E1,1.1E1,-1E1,-2E0,-9.850557E-1,-1.7261345E0,2.08E2,2.41E2,-2.1E1,2.23E-1,-3.2E1,2.1E1,3.24E2,2.8E1,-2.1E1,8.1E0,3.25E2,3.2E1,4.17E2,7.985397E0,-2.0671036E0,1.52E2,1.41E1,1.17E1,1.73E1,3.8E1,-2.4496772E0,2.4E2,1.6E0,2.27E2,2.7E0,5.5E-1,2.69E2,2.64E2,1.3E1,9.042453E-1,2.89E2,7.357143E0,-3.9E1,3.27E2,3.16E2,4.233528E0,-1.7752916E-1,-1.3E1,3.7E2,7.6971407E0,2.7914085E0,6.360605E0,-5.1737266E0,-4.1294456E0,-3.1960847E0,-1.2792507E0,-1.0103539E0,-2.4269183E0,-1.8689378E0,4.454266E-1,-6.9159627E-1,2.052317E0,-1.7799721E0,-1.2312918E0,-1.5070194E0,-2.2994626E-1,-1.1284102E0,9.5525235E-2,-1.230218E0,-2.1615746E0,3.681763E-1,-9.230752E-1,-3.265031E-1,2.80197E-1,3.9378828E-1,1.4897544E0,-1.6966759E-1,-8.6902994E-1,6.017787E-1,1.2165238E0,1.0443594E0,2.914399E0,-5.3202593E-1,8.5577995E-1,1.6119394E0,2.4229653E0,2.3413892E0,3.2077599E0,5.134011E-1,2.0461254E0,2.740934E0,3.799569E0,3.8028257E0,4.9623976E0],"split_indices":[8,8,8,8,8,8,8,22,22,22,22,22,22,22,22,25,0,8,10,22,5,22,22,10,22,22,13,10,22,8,0,0,8,13,1,13,22,0,8,0,8,17,6,8,8,1,0,8,18,22,8,8,0,25,23,8,0,0,0,0,0,0,0,0,0,0,0,0,0,0,0,0,0,0,0,0,0,0,0,0,0,0,0,0,0,0,0,0,0,0,0,0,0,0,0,0,0,0,0,0,0],"split_type":[0,0,0,0,0,0,0,0,0,0,0,0,0,0,0,0,0,0,0,0,0,0,0,0,0,0,0,0,0,0,0,0,0,0,0,0,0,0,0,0,0,0,0,0,0,0,0,0,0,0,0,0,0,0,0,0,0,0,0,0,0,0,0,0,0,0,0,0,0,0,0,0,0,0,0,0,0,0,0,0,0,0,0,0,0,0,0,0,0,0,0,0,0,0,0,0,0,0,0,0,0],"sum_hessian":[2.457E3,1.425E3,1.032E3,5.82E2,8.43E2,7.54E2,2.78E2,1.36E2,4.46E2,4.08E2,4.35E2,3.53E2,4.01E2,2.07E2,7.1E1,1.3E2,6E0,3.43E2,1.03E2,2.7E2,1.38E2,1.36E2,2.99E2,6.5E1,2.88E2,3.19E2,8.2E1,8.5E1,1.22E2,4.2E1,2.9E1,5E0,1.25E2,1.93E2,1.5E2,8.9E1,1.4E1,4E1,2.3E2,4.1E1,9.7E1,2.4E1,1.12E2,2.47E2,5.2E1,6E1,5E0,2.66E2,2.2E1,6E1,2.59E2,6.5E1,1.7E1,1.6E1,6.9E1,1.16E2,6E0,5E0,3.7E1,3E1,9.5E1,1.87E2,6E0,1E1,1.4E2,8.2E1,7E0,9E0,5E0,1.45E2,8.5E1,3.3E1,8E0,2.6E1,7.1E1,8E0,1.6E1,1.1E1,1.01E2,1.19E2,1.28E2,2.8E1,2.4E1,3.1E1,2.9E1,1.08E2,1.58E2,5E0,1.7E1,1.3E1,4.7E1,1.63E2,9.6E1,2.6E1,3.9E1,5E0,1.1E1,4.3E1,2.6E1,7.4E1,4.2E1],"tree_param":{"num_deleted":"0","num_feature":"28","num_nodes":"101","size_leaf_vector":"1"}},{"base_weights":[1.2791486E-1,-3.2819584E1,4.1828968E1,-5.6571304E1,-1.5092232E1,2.8049597E1,9.643808E1,-7.348396E1,-4.6054287E1,-2.533962E1,-4.1056714E0,1.7735373E1,4.7092598E1,7.951098E1,1.3339899E2,-4.5542316E0,-6.786998E1,-5.1146774E1,-2.574795E1,-3.5120163E1,-1.5434375E1,-1.4039795E1,7.667867E0,-3.5089662E0,2.4235052E1,3.9810627E1,6.7327194E1,5.3888947E1,8.912344E1,1.1287084E2,7.679696E0,-7.181637E1,-4.2791725E1,-5.7319218E1,-4.475168E1,-3.2558746E1,-2.3660536E0,-2.45243E0,-3.2531174E1,-2.4972126E1,-9.205939E0,-1.9162424E1,3.3260448E0,4.867523E0,3.720704E1,-1.2555503E1,4.328454E0,1.7007732E1,3.3436802E1,4.5761685E0,4.2293285E1,2.7357574E0,7.247998E1,1.0957717E0,5.7423615E1,3.2123737E0,9.432853E1,6.038049E0,2.5980823E0,-3.643428E0,-2.0098999E0,-2.4012196E0,-1.2501341E0,-2.93692E0,-1.6209205E0,-2.717775E0,-1.9697049E0,-2.425955E0,-1.2080555E0,-1.2285348E0,4.028277E-1,-1.7900937E0,-1.0659575E0,-1.3672018E0,-1.6055267E-1,-1.6195676E-1,-8.759101E-1,-1.1268139E0,-4.5173246E-2,-1.850447E-1,1.3653824E0,9.530648E-2,7.0399654E-1,9.4226265E-1,2.545272E0,-1.0467494E0,-1.1474421E-1,-4.1808864E-1,5.4249275E-1,6.873707E-1,1.5962895E0,1.326623E0,2.2021627E0,-4.1533494E-1,1.1170406E0,1.648385E0,2.4222374E0,2.9136949E0,3.9660416E0,2.3383415E0,3.4906788E0,4.4776006E0,6.839615E0],"categories":[],"categories_nodes":[],"categories_segments":[],"categories_sizes":[],"default_left":[0,0,0,0,0,0,0,0,0,0,0,0,0,0,0,0,0,0,0,0,0,0,0,0,0,0,0,0,0,0,0,0,0,0,0,0,0,0,0,0,0,0,0,0,0,0,0,0,0,0,0,0,0,0,0,0,0,0,0,0,0,0,0,0,0,0,0,0,0,0,0,0,0,0,0,0,0,0,0,0,0,0,0,0,0,0,0,0,0,0,0,0,0,0,0,0,0,0,0,0,0,0,0],"id":4,"left_children":[1,3,5,7,9,11,13,15,17,19,21,23,25,27,29,-1,31,33,35,37,39,41,43,45,47,49,51,53,55,57,-1,59,61,63,65,67,69,-1,71,73,75,77,79,81,83,85,87,89,91,93,95,-1,97,-1,99,-1,101,-1,-1,-1,-1,-1,-1,-1,-1,-1,-1,-1,-1,-1,-1,-1,-1,-1,-1,-1,-1,-1,-1,-1,-1,-1,-1,-1,-1,-1,-1,-1,-1,-1,-1,-1,-1,-1,-1,-1,-1,-1,-1,-1,-1,-1,-1],"loss_changes":[3.3744098E6,5.768265E5,8.1297E5,1.0083625E5,8.849628E4,1.6944912E5,1.25761875E5,1.583675E4,3.63165E4,3.8882484E4,4.4669973E4,7.7965016E4,4.2102625E4,3.2619125E4,1.0413E4,0E0,1.4036875E4,8.8719375E3,1.1863172E4,5.7525938E3,1.1885367E4,1.8479781E4,1.4290659E4,9.485069E3,2.8155984E4,1.9571188E4,1.1555E3,3.7063047E3,8.0373125E3,1.1489281E4,0E0,1.98325E3,1.2121445E3,3.1754062E3,5.4129688E3,6.5941562E3,4.3653516E3,0E0,5.6484844E3,4.0383633E3,6.1408857E3,9.833781E3,8.192252E3,4.3638945E3,2.8066055E3,5.2803125E3,6.049552E3,1.1424117E4,1.26649375E4,3.8487349E3,1.04989375E4,0E0,5.145625E2,0E0,1.8728281E3,0E0,5.5763125E3,0E0,0E0,0E0,0E0,0E0,0E0,0E0,0E0,0E0,0E0,0E0,0E0,0E0,0E0,0E0,0E0,0E0,0E0,0E0,0E0,0E0,0E0,0E0,0E0,0E0,0E0,0E0,0E0,0E0,0E0,0E0,0E0,0E0,0E0,0E0,0E0,0E0,0E0,0E0,0E0,0E0,0E0,0E0,0E0,0E0,0E0],"parents":[2147483647,0,0,1,1,2,2,3,3,4,4,5,5,6,6,7,7,8,8,9,9,10,10,11,11,12,12,13,13,14,14,16,16,17,17,18,18,19,19,20,20,21,21,22,22,23,23,24,24,25,25,26,26,27,27,28,28,29,29,31,31,32,32,33,33,34,34,35,35,36,36,38,38,39,39,40,40,41,41,42,42,43,43,44,44,45,45,46,46,47,47,48,48,49,49,50,50,52,52,54,54,56,56],"right_children":[2,4,6,8,10,12,14,16,18,20,22,24,26,28,30,-1,32,34,36,38,40,42,44,46,48,50,52,54,56,58,-1,60,62,64,66,68,70,-1,72,74,76,78,80,82,84,86,88,90,92,94,96,-1,98,-1,100,-1,102,-1,-1,-1,-1,-1,-1,-1,-1,-1,-1,-1,-1,-1,-1,-1,-1,-1,-1,-1,-1,-1,-1,-1,-1,-1,-1,-1,-1,-1,-1,-1,-1,-1,-1,-1,-1,-1,-1,-1,-1,-1,-1,-1,-1,-1,-1],"split_conditions":[2.78E2,2.21E2,3.57E2,1.92E2,1E0,3.17E2,4.12E2,1.62E2,1.4E1,2.5E2,2.54E2,-1.1E1,8E0,-1.6E1,-2E0,-4.5542316E0,2E1,2.08E2,4.1E1,-2.1E1,-1.5E1,2.9E1,4.5E1,2.93E2,2.97E2,-3.6E1,3.26E2,2.76E2,1.1085714E1,3.3730108E-1,7.679696E0,1.06E1,4E-1,5.4E0,-5E0,2.05E2,1.87E-1,-2.45243E0,3E-1,9.524422E-1,6E0,9.3545544E-1,1.7E0,2.73E2,2.44E2,-2.1E1,2.76E2,1.5E1,6E0,3.35E2,3.31E2,2.7357574E0,1.7E1,1.0957717E0,2E-1,3.2123737E0,3.2E1,6.038049E0,2.5980823E0,-3.643428E0,-2.0098999E0,-2.4012196E0,-1.2501341E0,-2.93692E0,-1.6209205E0,-2.717775E0,-1.9697049E0,-2.425955E0,-1.2080555E0,-1.2285348E0,4.028277E-1,-1.7900937E0,-1.0659575E0,-1.3672018E0,-1.6055267E-1,-1.6195676E-1,-8.759101E-1,-1.1268139E0,-4.5173246E-2,-1.850447E-1,1.3653824E0,9.530648E-2,7.0399654E-1,9.4226265E-1,2.545272E0,-1.0467494E0,-1.1474421E-1,-4.1808864E-1,5.4249275E-1,6.873707E-1,1.5962895E0,1.326623E0,2.2021627E0,-4.1533494E-1,1.1170406E0,1.648385E0,2.4222374E0,2.9136949E0,3.9660416E0,2.3383415E0,3.4906788E0,4.4776006E0,6.839615E0],"split_indices":[8,8,8,8,22,8,8,8,22,8,8,22,22,22,22,0,22,8,22,22,22,22,22,8,8,22,8,11,18,25,0,13,0,0,22,8,5,0,7,26,27,26,0,8,9,22,11,22,22,8,8,0,22,0,13,0,22,0,0,0,0,0,0,0,0,0,0,0,0,0,0,0,0,0,0,0,0,0,0,0,0,0,0,0,0,0,0,0,0,0,0,0,0,0,0,0,0,0,0,0,0,0,0],"split_type":[0,0,0,0,0,0,0,0,0,0,0,0,0,0,0,0,0,0,0,0,0,0,0,0,0,0,0,0,0,0,0,0,0,0,0,0,0,0,0,0,0,0,0,0,0,0,0,0,0,0,0,0,0,0,0,0,0,0,0,0,0,0,0,0,0,0,0,0,0,0,0,0,0,0,0,0,0,0,0,0,0,0,0,0,0,0,0,0,0,0,0,0,0,0,0,0,0,0,0,0,0,0,0],"sum_hessian":[2.454E3,1.371E3,1.083E3,5.85E2,7.86E2,8.66E2,2.17E2,2.22E2,3.63E2,4.06E2,3.8E2,5.63E2,3.03E2,1.51E2,6.6E1,5E1,1.72E2,2.89E2,7.4E1,2.03E2,2.03E2,2.06E2,1.74E2,1.32E2,4.31E2,2.25E2,7.8E1,4.3E1,1.08E2,3.6E1,3E1,1.47E2,2.5E1,1.43E2,1.46E2,5.7E1,1.7E1,2.9E1,1.74E2,7.9E1,1.24E2,1.59E2,4.7E1,1.6E2,1.4E1,6.1E1,7.1E1,2.43E2,1.88E2,1.5E1,2.1E2,2.6E1,5.2E1,5E0,3.8E1,2.1E1,8.7E1,3.1E1,5E0,1.41E2,6E0,1.8E1,7E0,1.34E2,9E0,4.9E1,9.7E1,1.8E1,3.9E1,5E0,1.2E1,1.33E2,4.1E1,7.1E1,8E0,7.3E1,5.1E1,1.34E2,2.5E1,3.7E1,1E1,1.22E2,3.8E1,7E0,7E0,3.3E1,2.8E1,2.4E1,4.7E1,2.01E2,4.2E1,1.16E2,7.2E1,9E0,6E0,8.6E1,1.24E2,2E1,3.2E1,2.3E1,1.5E1,8.1E1,6E0],"tree_param":{"num_deleted":"0","num_feature":"28","num_nodes":"103","size_leaf_vector":"1"}},{"base_weights":[-1.6592377E-1,-3.1747002E1,3.964246E1,-5.400593E1,-1.5950027E1,2.663008E1,9.3652794E1,-7.755423E1,-4.6194782E1,-2.5567663E1,-5.103839E0,1.6465677E1,4.228297E1,7.589843E1,1.2934663E2,-7.908405E1,-1.4968008E0,-4.837034E1,6.5247164E0,-3.4049305E1,-1.5542777E1,-2.2167858E1,3.2682854E-1,-1.457477E0,2.1907309E1,1.551452E1,4.7055466E1,4.9335533E1,8.3974266E1,3.7716908E0,6.618918E0,-2.2581184E0,-8.030149E1,-5.5721638E1,-4.0188583E1,-7.7146797E0,1.8152977E0,-3.5420033E1,-1.7812155E1,-7.783747E0,-2.2479942E1,-2.5989502E1,-8.822195E0,-5.0526705E0,9.439991E0,7.697846E0,-9.898647E0,1.463019E1,3.0168953E1,-1.2268481E1,2.290944E1,4.1668182E1,6.0706367E1,9.8092145E-1,5.3492535E1,7.736574E1,5.0587754E0,-4.4744167E0,-3.7279763E0,-2.855586E0,-1.3661317E0,-2.7411883E0,-1.7666914E0,5.9810364E-1,-1.0760205E0,-2.3040316E0,-1.6451094E0,-3.9462295E-1,-1.5846322E0,-1.3008858E0,-2.2872439E-1,-1.4953052E0,-5.623669E-1,-1.5336548E-1,-1.4028335E0,-9.037054E-1,3.2694012E-1,-7.359213E-1,1.4697553E-1,3.2890883E-1,2.0088966E0,-5.9734266E-2,6.750483E-1,-9.799728E-1,8.414465E-2,5.9726423E-1,1.9184437E0,1.2399927E0,2.0512567E0,-9.5819104E-1,-2.2956328E-1,1.9255285E-1,1.4668643E0,2.1895792E0,1.1929805E0,2.741072E0,3.850961E0,2.1557443E0,3.1503596E0,3.4705136E0,4.652101E0],"categories":[],"categories_nodes":[],"categories_segments":[],"categories_sizes":[],"default_left":[0,0,0,0,0,0,0,0,0,0,0,0,0,0,0,0,0,0,0,0,0,0,0,0,0,0,0,0,0,0,0,0,0,0,0,0,0,0,0,0,0,0,0,0,0,0,0,0,0,0,0,0,0,0,0,0,0,0,0,0,0,0,0,0,0,0,0,0,0,0,0,0,0,0,0,0,0,0,0,0,0,0,0,0,0,0,0,0,0,0,0,0,0,0,0,0,0,0,0,0,0],"id":5,"left_children":[1,3,5,7,9,11,13,15,17,19,21,23,25,27,29,31,-1,33,35,37,39,41,43,45,47,49,51,53,55,-1,-1,-1,57,59,61,63,-1,65,67,69,71,73,75,77,79,81,83,85,87,89,91,93,95,-1,97,99,-1,-1,-1,-1,-1,-1,-1,-1,-1,-1,-1,-1,-1,-1,-1,-1,-1,-1,-1,-1,-1,-1,-1,-1,-1,-1,-1,-1,-1,-1,-1,-1,-1,-1,-1,-1,-1,-1,-1,-1,-1,-1,-1,-1,-1],"loss_changes":[3.1090355E6,4.8402062E5,7.663605E5,1.01618375E5,8.415272E4,1.3978525E5,1.2451125E5,7.8930625E3,4.9867812E4,3.5857594E4,3.5316324E4,5.240822E4,4.3593688E4,2.6734312E4,1.2715E3,1.977375E3,0E0,2.2711875E4,7.916152E3,4.5050938E3,1.0479477E4,4.459453E3,1.4265168E4,9.813904E3,2.4323984E4,1.1376591E4,1.9081438E4,3.3904766E3,4.5451875E3,0E0,0E0,0E0,1.69E2,6.9580625E3,1.2263906E4,3.7898596E3,0E0,4.166375E3,2.499713E3,5.4370894E3,8.334699E3,3.2750938E3,3.2459458E3,1.4181277E4,9.231385E3,3.1652297E3,7.449895E3,1.3622332E4,1.0167266E4,5.4488245E2,5.1513887E3,7.0407188E3,3.5405312E3,0E0,3.3378125E2,3.8767812E3,0E0,0E0,0E0,0E0,0E0,0E0,0E0,0E0,0E0,0E0,0E0,0E0,0E0,0E0,0E0,0E0,0E0,0E0,0E0,0E0,0E0,0E0,0E0,0E0,0E0,0E0,0E0,0E0,0E0,0E0,0E0,0E0,0E0,0E0,0E0,0E0,0E0,0E0,0E0,0E0,0E0,0E0,0E0,0E0,0E0],"parents":[2147483647,0,0,1,1,2,2,3,3,4,4,5,5,6,6,7,7,8,8,9,9,10,10,11,11,12,12,13,13,14,14,15,15,17,17,18,18,19,19,20,20,21,21,22,22,23,23,24,24,25,25,26,26,27,27,28,28,32,32,33,33,34,34,35,35,37,37,38,38,39,39,40,40,41,41,42,42,43,43,44,44,45,45,46,46,47,47,48,48,49,49,50,50,51,51,52,52,54,54,55,55],"right_children":[2,4,6,8,10,12,14,16,18,20,22,24,26,28,30,32,-1,34,36,38,40,42,44,46,48,50,52,54,56,-1,-1,-1,58,60,62,64,-1,66,68,70,72,74,76,78,80,82,84,86,88,90,92,94,96,-1,98,100,-1,-1,-1,-1,-1,-1,-1,-1,-1,-1,-1,-1,-1,-1,-1,-1,-1,-1,-1,-1,-1,-1,-1,-1,-1,-1,-1,-1,-1,-1,-1,-1,-1,-1,-1,-1,-1,-1,-1,-1,-1,-1,-1,-1,-1],"split_conditions":[2.78E2,2.2E2,3.57E2,1.81E2,1E0,3.15E2,4.12E2,3.6E1,4.1E1,2.51E2,2.34E2,-1.1E1,-2.2E1,-1.8E1,-5.3E1,-9.850557E-1,-1.4968008E0,2.05E2,2.33E2,2.62E2,1.29E1,2.9E1,2.64E2,1.16E1,2.95E2,2.86E2,9E0,-5E1,1.5E1,3.7716908E0,6.618918E0,-2.2581184E0,1.62E2,1.23E1,-6E0,2.01E2,1.8152977E0,-2.1E1,-3.869579E-2,-2.3E1,5E-1,-9.3507487E-1,1E-1,1.5E1,3.7E1,2.8E2,-2.1E1,2.8E1,1E1,2.57E-1,3.25E2,2.89E1,1.5366667E1,9.8092145E-1,2E-1,3.88E2,5.0587754E0,-4.4744167E0,-3.7279763E0,-2.855586E0,-1.3661317E0,-2.7411883E0,-1.7666914E0,5.9810364E-1,-1.0760205E0,-2.3040316E0,-1.6451094E0,-3.9462295E-1,-1.5846322E0,-1.3008858E0,-2.2872439E-1,-1.4953052E0,-5.623669E-1,-1.5336548E-1,-1.4028335E0,-9.037054E-1,3.2694012E-1,-7.359213E-1,1.4697553E-1,3.2890883E-1,2.0088966E0,-5.9734266E-2,6.750483E-1,-9.799728E-1,8.414465E-2,5.9726423E-1,1.9184437E0,1.2399927E0,2.0512567E0,-9.5819104E-1,-2.2956328E-1,1.9255285E-1,1.4668643E0,2.1895792E0,1.1929805E0,2.741072E0,3.850961E0,2.1557443E0,3.1503596E0,3.4705136E0,4.652101E0],"split_indices":[8,8,8,8,22,8,8,23,22,9,8,22,22,22,22,25,0,8,10,10,1,22,8,1,8,11,22,22,22,0,0,0,8,13,22,9,0,23,25,22,13,25,0,22,22,10,22,22,22,5,8,1,17,0,13,8,0,0,0,0,0,0,0,0,0,0,0,0,0,0,0,0,0,0,0,0,0,0,0,0,0,0,0,0,0,0,0,0,0,0,0,0,0,0,0,0,0,0,0,0,0],"split_type":[0,0,0,0,0,0,0,0,0,0,0,0,0,0,0,0,0,0,0,0,0,0,0,0,0,0,0,0,0,0,0,0,0,0,0,0,0,0,0,0,0,0,0,0,0,0,0,0,0,0,0,0,0,0,0,0,0,0,0,0,0,0,0,0,0,0,0,0,0,0,0,0,0,0,0,0,0,0,0,0,0,0,0,0,0,0,0,0,0,0,0,0,0,0,0,0,0,0,0,0,0],"sum_hessian":[2.471E3,1.378E3,1.093E3,5.71E2,8.07E2,8.82E2,2.11E2,1.4E2,4.31E2,4.27E2,3.8E2,5.36E2,3.46E2,1.43E2,6.8E1,1.35E2,5E0,4.14E2,1.7E1,2.3E2,1.97E2,9.1E1,2.89E2,1.25E2,4.11E2,5.3E1,2.93E2,3.5E1,1.08E2,5E0,6.3E1,6E0,1.29E2,2.15E2,1.99E2,1.2E1,5E0,2.11E2,1.9E1,9.4E1,1.03E2,7E1,2.1E1,1.82E2,1.07E2,6E1,6.5E1,2.2E2,1.91E2,1.1E1,4.2E1,2.13E2,8E1,5E0,3E1,8.2E1,2.6E1,4.4E1,8.5E1,2.04E2,1.1E1,4.7E1,1.52E2,5E0,7E0,3.7E1,1.74E2,1.2E1,7E0,1.3E1,8.1E1,6.1E1,4.2E1,6E0,6.4E1,1.3E1,8E0,8.2E1,1E2,9.9E1,8E0,2.4E1,3.6E1,3.5E1,3E1,1.99E2,2.1E1,1.3E2,6.1E1,5E0,6E0,1.1E1,3.1E1,1.89E2,2.4E1,6.2E1,1.8E1,1.7E1,1.3E1,5.8E1,2.4E1],"tree_param":{"num_deleted":"0","num_feature":"28","num_nodes":"101","size_leaf_vector":"1"}},{"base_weights":[-3.26489E-1,-2.857752E1,3.921411E1,-5.4839134E1,-1.4165126E1,2.668296E1,9.116538E1,-7.3997826E1,-4.730822E1,-2.4261818E1,-4.317882E0,1.716878E1,4.080146E1,7.590973E1,1.2756956E2,-7.549409E1,-1.727795E0,-5.3674107E1,-3.0531494E1,-2.9985855E1,-4.840647E0,-2.3207378E1,6.697215E-1,2.3201013E0,2.3034302E1,2.683589E1,4.9144955E1,7.220085E1,7.3963714E0,8.547201E0,1.14701706E2,-4.127021E0,-3.355458E0,-5.462262E1,-1.2054814E0,-3.3338406E1,6.355814E-1,-4.251663E1,-2.7622152E1,-1.7098059E1,3.9346235E0,-2.840887E1,-9.848346E0,-1.735121E0,2.2492893E1,-1.3971726E1,6.85007E0,1.9501154E1,3.844166E1,1.67284E1,3.957777E1,4.4797028E1,6.718586E1,4.6740105E1,7.890163E1,3.6906815E0,6.0004644E0,-2.9181304E0,-2.215242E0,-1.899896E0,-4.585111E-1,-2.6833153E0,-1.8203562E0,-7.9121804E-1,-1.4717636E0,-1.3071065E0,-2.9715115E-1,-3.1036925E-1,8.6576396E-1,-1.658293E0,-1.0042661E0,-7.8439134E-1,7.5671524E-1,-4.628279E-1,1.7444831E-1,8.262234E-1,2.1025188E0,-1.2407521E0,-2.9059988E-1,-3.9573908E-1,4.993225E-1,5.7843834E-1,1.2037727E0,1.7041143E0,3.7805889E0,-3.7935397E-1,1.1365094E0,1.3438277E0,2.427038E0,2.1340687E0,3.2582262E0,2.0377147E0,3.5432546E0,8.092581E-1,2.5994852E0,2.9187458E0,4.147414E0],"categories":[],"categories_nodes":[],"categories_segments":[],"categories_sizes":[],"default_left":[0,0,0,0,0,0,0,0,0,0,0,0,0,0,0,0,0,0,0,0,0,0,0,0,0,0,0,0,0,0,0,0,0,0,0,0,0,0,0,0,0,0,0,0,0,0,0,0,0,0,0,0,0,0,0,0,0,0,0,0,0,0,0,0,0,0,0,0,0,0,0,0,0,0,0,0,0,0,0,0,0,0,0,0,0,0,0,0,0,0,0,0,0,0,0,0,0],"id":6,"left_children":[1,3,5,7,9,11,13,15,17,19,21,23,25,27,29,31,-1,33,35,37,39,41,43,45,47,49,51,53,-1,-1,55,-1,-1,57,-1,59,-1,61,63,65,67,69,71,73,75,77,79,81,83,85,87,89,91,93,95,-1,-1,-1,-1,-1,-1,-1,-1,-1,-1,-1,-1,-1,-1,-1,-1,-1,-1,-1,-1,-1,-1,-1,-1,-1,-1,-1,-1,-1,-1,-1,-1,-1,-1,-1,-1,-1,-1,-1,-1,-1,-1],"loss_changes":[2.7368062E6,5.400824E5,6.622359E5,6.9494125E4,9.176072E4,1.0997819E5,1.00259E5,5.701375E3,3.7441188E4,5.054375E4,4.4203844E4,4.2969094E4,3.724225E4,2.7226312E4,1.2177625E4,2.422E3,0E0,6.078375E3,1.2927953E4,9.244469E3,1.1362611E4,6.5261094E3,1.9564143E4,1.0501003E4,1.8515062E4,1.5559633E4,1.31378125E4,1.9672688E4,0E0,0E0,1.322125E3,0E0,0E0,7.244E3,0E0,1.0570195E4,0E0,1.7155781E3,5.925547E3,4.280455E3,8.52241E3,2.1001758E3,4.468165E3,1.3235199E4,3.6181953E3,2.5955464E3,5.2194565E3,1.0240594E4,7.9445E3,1.0681389E4,4.9490938E3,4.4902188E3,7.962031E2,4.124164E3,4.031625E3,0E0,0E0,0E0,0E0,0E0,0E0,0E0,0E0,0E0,0E0,0E0,0E0,0E0,0E0,0E0,0E0,0E0,0E0,0E0,0E0,0E0,0E0,0E0,0E0,0E0,0E0,0E0,0E0,0E0,0E0,0E0,0E0,0E0,0E0,0E0,0E0,0E0,0E0,0E0,0E0,0E0,0E0],"parents":[2147483647,0,0,1,1,2,2,3,3,4,4,5,5,6,6,7,7,8,8,9,9,10,10,11,11,12,12,13,13,14,14,15,15,17,17,18,18,19,19,20,20,21,21,22,22,23,23,24,24,25,25,26,26,27,27,30,30,33,33,35,35,37,37,38,38,39,39,40,40,41,41,42,42,43,43,44,44,45,45,46,46,47,47,48,48,49,49,50,50,51,51,52,52,53,53,54,54],"right_children":[2,4,6,8,10,12,14,16,18,20,22,24,26,28,30,32,-1,34,36,38,40,42,44,46,48,50,52,54,-1,-1,56,-1,-1,58,-1,60,-1,62,64,66,68,70,72,74,76,78,80,82,84,86,88,90,92,94,96,-1,-1,-1,-1,-1,-1,-1,-1,-1,-1,-1,-1,-1,-1,-1,-1,-1,-1,-1,-1,-1,-1,-1,-1,-1,-1,-1,-1,-1,-1,-1,-1,-1,-1,-1,-1,-1,-1,-1,-1,-1,-1],"split_conditions":[2.82E2,2.17E2,3.57E2,1.81E2,2.5E2,3.15E2,4.17E2,4.6E1,1.1E1,1.5E1,-1.6E1,-9E0,-1E1,3.9E1,3.27E2,1.67E2,-1.727795E0,1.41E1,1.71E1,-1.7E1,2.39E2,2.74E2,3E1,-3.3E1,1.9E1,3.35E2,2.1E1,-2.1E1,7.3963714E0,8.547201E0,2.0671429E1,-4.127021E0,-3.355458E0,2.08E2,-1.2054814E0,2.28E2,6.355814E-1,2.16E2,8.5E-1,2.27E2,9E0,1.42E1,2.4E0,2.64E2,1.4E0,2.92E2,2.69E2,2.92E2,8.4E-2,-3.6E1,3.21E2,6.5E-2,3.18E2,-5E1,1.1085714E1,3.6906815E0,6.0004644E0,-2.9181304E0,-2.215242E0,-1.899896E0,-4.585111E-1,-2.6833153E0,-1.8203562E0,-7.9121804E-1,-1.4717636E0,-1.3071065E0,-2.9715115E-1,-3.1036925E-1,8.6576396E-1,-1.658293E0,-1.0042661E0,-7.8439134E-1,7.5671524E-1,-4.628279E-1,1.7444831E-1,8.262234E-1,2.1025188E0,-1.2407521E0,-2.9059988E-1,-3.9573908E-1,4.993225E-1,5.7843834E-1,1.2037727E0,1.7041143E0,3.7805889E0,-3.7935397E-1,1.1365094E0,1.3438277E0,2.427038E0,2.1340687E0,3.2582262E0,2.0377147E0,3.5432546E0,8.092581E-1,2.5994852E0,2.9187458E0,4.147414E0],"split_indices":[8,8,8,8,8,8,8,22,22,22,22,22,22,22,12,8,0,13,13,22,10,10,22,22,22,8,22,22,0,0,18,0,0,8,0,9,0,10,6,8,23,15,13,8,0,8,10,8,21,22,10,21,8,22,18,0,0,0,0,0,0,0,0,0,0,0,0,0,0,0,0,0,0,0,0,0,0,0,0,0,0,0,0,0,0,0,0,0,0,0,0,0,0,0,0,0,0],"split_type":[0,0,0,0,0,0,0,0,0,0,0,0,0,0,0,0,0,0,0,0,0,0,0,0,0,0,0,0,0,0,0,0,0,0,0,0,0,0,0,0,0,0,0,0,0,0,0,0,0,0,0,0,0,0,0,0,0,0,0,0,0,0,0,0,0,0,0,0,0,0,0,0,0,0,0,0,0,0,0,0,0,0,0,0,0,0,0,0,0,0,0,0,0,0,0,0,0],"sum_hessian":[2.448E3,1.428E3,1.02E3,5.05E2,9.23E2,8.23E2,1.97E2,1.4E2,3.65E2,4.55E2,4.68E2,4.93E2,3.3E2,1.41E2,5.6E1,1.34E2,6E0,2.63E2,1.02E2,3.51E2,1.04E2,9.7E1,3.71E2,1.4E2,3.53E2,1.25E2,2.05E2,1.36E2,5E0,1E1,4.6E1,6.8E1,6.6E1,2.54E2,9E0,9.6E1,6E0,5.3E1,2.98E2,4.3E1,6.1E1,6.9E1,2.8E1,3.35E2,3.6E1,3E1,1.1E2,2.89E2,6.4E1,7.1E1,5.4E1,1.68E2,3.7E1,3E1,1.06E2,7E0,3.9E1,1.83E2,7.1E1,8E1,1.6E1,1.6E1,3.7E1,4.1E1,2.57E2,2.3E1,2E1,3.5E1,2.6E1,4.2E1,2.7E1,2.3E1,5E0,1.37E2,1.98E2,2.9E1,7E0,1.2E1,1.8E1,1.9E1,9.1E1,1.07E2,1.82E2,5.9E1,5E0,1.4E1,5.7E1,2.4E1,3E1,1.55E2,1.3E1,6E0,3.1E1,5E0,2.5E1,2E1,8.6E1],"tree_param":{"num_deleted":"0","num_feature":"28","num_nodes":"97","size_leaf_vector":"1"}},{"base_weights":[-2.9166695E-1,-2.5056778E1,3.76851E1,-4.640515E1,-1.1112212E1,2.178668E1,6.508859E1,-6.783966E1,-4.0233055E1,-2.0381966E1,-3.0999048E0,1.7516369E1,4.313299E1,5.403718E1,1.0442895E2,-3.5570305E1,-7.112027E1,-4.147572E1,9.8500437E-1,-2.5359888E1,-1.9573104E0,-5.9764423E0,2.1494091E1,4.002944E0,2.2700016E1,2.6059536E1,5.6153095E1,4.7663647E1,7.813428E1,8.533359E1,6.088928E0,-7.455782E-1,-2.2689714E0,-8.223776E1,-6.596618E1,-5.036804E1,-3.5360588E1,-2.7057291E1,3.7533653E0,1.5679231E0,-1.3713263E0,-1.6396477E1,-1.027519E0,6.7337613E0,3.5423878E1,-1.6451529E1,7.056373E0,1.8360497E0,2.600882E1,1.2688347E1,4.8116955E1,4.9527225E1,4.1165977E0,5.160894E1,2.1432972E1,6.0648117E1,9.084047E1,6.3526394E1,5.422601E0,-4.3314605E0,-2.401072E0,-3.3811314E0,-1.6434554E0,-2.9781632E0,-2.070795E0,-1.9537758E0,-8.68145E-1,-4.884088E-1,-1.4606999E0,-5.2042097E-1,1.0328143E0,-4.777271E-1,4.5920178E-1,-1.1167129E0,-3.9321843E-1,-3.6872977E-1,2.816182E-1,8.735394E-1,-4.7434002E-1,9.7281945E-1,2.9508111E0,-1.5990194E0,-4.3070254E-1,-2.2556739E-1,4.4514093E-1,-8.592002E-1,7.131854E-1,4.2314497E-1,1.4028797E0,-7.797571E-1,1.0206592E0,1.8078663E0,3.001126E0,2.1336145E0,3.7239735E0,1.9392077E0,2.8530602E0,-3.820652E-2,1.3971566E0,3.5425174E0,1.6180137E0,2.6756325E0,4.7978435E0,2.437805E0,4.255685E0],"categories":[],"categories_nodes":[],"categories_segments":[],"categories_sizes":[],"default_left":[0,0,0,0,0,0,0,0,0,0,0,0,0,0,0,0,0,0,0,0,0,0,0,0,0,0,0,0,0,0,0,0,0,0,0,0,0,0,0,0,0,0,0,0,0,0,0,0,0,0,0,0,0,0,0,0,0,0,0,0,0,0,0,0,0,0,0,0,0,0,0,0,0,0,0,0,0,0,0,0,0,0,0,0,0,0,0,0,0,0,0,0,0,0,0,0,0,0,0,0,0,0,0,0,0],"id":7,"left_children":[1,3,5,7,9,11,13,15,17,19,21,23,25,27,29,31,33,35,-1,37,39,41,43,45,47,49,51,53,55,57,-1,-1,-1,59,61,63,65,67,69,71,-1,73,75,77,79,81,83,85,87,89,91,93,-1,95,97,99,101,103,-1,-1,-1,-1,-1,-1,-1,-1,-1,-1,-1,-1,-1,-1,-1,-1,-1,-1,-1,-1,-1,-1,-1,-1,-1,-1,-1,-1,-1,-1,-1,-1,-1,-1,-1,-1,-1,-1,-1,-1,-1,-1,-1,-1,-1,-1,-1],"loss_changes":[2.3136298E6,4.4274462E5,4.2161112E5,7.504975E4,6.6927914E4,5.5390094E4,1.4911788E5,1.12218125E4,3.5004062E4,3.8285156E4,3.4438504E4,3.598161E4,2.120289E4,3.926675E4,1.50974375E4,2.1543105E3,1.264375E3,2.2680375E4,0E0,1.6362031E4,8.1262324E3,2.2413473E4,1.0243268E4,9.108854E3,2.563039E4,1.2950355E4,5.7962188E3,2.2067781E4,7.1399375E3,1.3259156E4,0E0,0E0,0E0,7.850156E2,2.4272812E3,1.2422406E4,1.7368062E4,1.1307156E4,4.7641587E3,6.864508E3,0E0,6.9139844E3,1.2553863E4,4.694716E3,8.638387E3,2.032894E3,2.731859E3,1.2536302E4,1.1298094E4,6.873388E3,2.4069531E2,5.020289E3,0E0,1.1342594E4,4.5037783E3,5.489125E3,7.7065625E2,3.1703672E3,0E0,0E0,0E0,0E0,0E0,0E0,0E0,0E0,0E0,0E0,0E0,0E0,0E0,0E0,0E0,0E0,0E0,0E0,0E0,0E0,0E0,0E0,0E0,0E0,0E0,0E0,0E0,0E0,0E0,0E0,0E0,0E0,0E0,0E0,0E0,0E0,0E0,0E0,0E0,0E0,0E0,0E0,0E0,0E0,0E0,0E0,0E0],"parents":[2147483647,0,0,1,1,2,2,3,3,4,4,5,5,6,6,7,7,8,8,9,9,10,10,11,11,12,12,13,13,14,14,15,15,16,16,17,17,19,19,20,20,21,21,22,22,23,23,24,24,25,25,26,26,27,27,28,28,29,29,33,33,34,34,35,35,36,36,37,37,38,38,39,39,41,41,42,42,43,43,44,44,45,45,46,46,47,47,48,48,49,49,50,50,51,51,53,53,54,54,55,55,56,56,57,57],"right_children":[2,4,6,8,10,12,14,16,18,20,22,24,26,28,30,32,34,36,-1,38,40,42,44,46,48,50,52,54,56,58,-1,-1,-1,60,62,64,66,68,70,72,-1,74,76,78,80,82,84,86,88,90,92,94,-1,96,98,100,102,104,-1,-1,-1,-1,-1,-1,-1,-1,-1,-1,-1,-1,-1,-1,-1,-1,-1,-1,-1,-1,-1,-1,-1,-1,-1,-1,-1,-1,-1,-1,-1,-1,-1,-1,-1,-1,-1,-1,-1,-1,-1,-1,-1,-1,-1,-1,-1],"split_conditions":[2.83E2,2.21E2,3.35E2,1.81E2,2.51E2,2.3E1,4.02E2,1.5533334E1,7.4E1,1.8E1,4.5E1,2.92E2,2.89E2,2.8E1,-4E0,-8.247651E-1,1.52E2,-4E0,9.8500437E-1,4.3E1,9.373419E-1,-9E0,1.6E1,-2E1,-4.2E1,5.8E1,7.3E-2,9E0,1.32E1,4.5E2,6.088928E0,-7.455782E-1,-2.2689714E0,-7.0214796E-1,2.6E1,2.05E2,2.2E2,7.3E-1,2.21E2,2.33E2,-1.3713263E0,4E-1,2.71E2,2.73E2,8E-1,-3.8E1,-2.4E1,3.24E2,-6.267267E-1,2.41E2,7.8E1,2.3333334E1,4.1165977E0,3.27E2,3.23E2,1.3271428E1,2E-1,2.0466667E1,5.422601E0,-4.3314605E0,-2.401072E0,-3.3811314E0,-1.6434554E0,-2.9781632E0,-2.070795E0,-1.9537758E0,-8.68145E-1,-4.884088E-1,-1.4606999E0,-5.2042097E-1,1.0328143E0,-4.777271E-1,4.5920178E-1,-1.1167129E0,-3.9321843E-1,-3.6872977E-1,2.816182E-1,8.735394E-1,-4.7434002E-1,9.7281945E-1,2.9508111E0,-1.5990194E0,-4.3070254E-1,-2.2556739E-1,4.4514093E-1,-8.592002E-1,7.131854E-1,4.2314497E-1,1.4028797E0,-7.797571E-1,1.0206592E0,1.8078663E0,3.001126E0,2.1336145E0,3.7239735E0,1.9392077E0,2.8530602E0,-3.820652E-2,1.3971566E0,3.5425174E0,1.6180137E0,2.6756325E0,4.7978435E0,2.437805E0,4.255685E0],"split_indices":[9,9,9,9,9,23,9,17,23,22,24,10,10,23,23,25,9,23,0,23,25,22,22,23,23,23,21,27,17,9,0,0,0,25,22,9,10,6,10,10,0,13,9,9,7,23,22,10,25,10,23,16,0,11,10,18,13,17,0,0,0,0,0,0,0,0,0,0,0,0,0,0,0,0,0,0,0,0,0,0,0,0,0,0,0,0,0,0,0,0,0,0,0,0,0,0,0,0,0,0,0,0,0,0,0],"split_type":[0,0,0,0,0,0,0,0,0,0,0,0,0,0,0,0,0,0,0,0,0,0,0,0,0,0,0,0,0,0,0,0,0,0,0,0,0,0,0,0,0,0,0,0,0,0,0,0,0,0,0,0,0,0,0,0,0,0,0,0,0,0,0,0,0,0,0,0,0,0,0,0,0,0,0,0,0,0,0,0,0,0,0,0,0,0,0,0,0,0,0,0,0,0,0,0,0,0,0,0,0,0,0,0,0],"sum_hessian":[2.458E3,1.488E3,9.7E2,5.87E2,9.01E2,6.15E2,3.55E2,1.29E2,4.58E2,4.17E2,4.84E2,5.14E2,1.01E2,2.79E2,7.6E1,1.3E1,1.16E2,4.49E2,9E0,3.28E2,8.9E1,4.34E2,5E1,1.43E2,3.71E2,4.5E1,5.6E1,2.23E2,5.6E1,3.9E1,3.7E1,5E0,8E0,3.2E1,8.4E1,1.8E2,2.69E2,3.1E2,1.8E1,7.9E1,1E1,1.39E2,2.95E2,2.5E1,2.5E1,1.8E1,1.25E2,5.1E1,3.2E2,2.9E1,1.6E1,4.7E1,9E0,1.93E2,3E1,2.6E1,3E1,2.2E1,1.7E1,2.7E1,5E0,7.9E1,5E0,8.6E1,9.4E1,2.22E2,4.7E1,3.5E1,2.75E2,1E1,8E0,3.2E1,4.7E1,8.1E1,5.8E1,1.51E2,1.44E2,1.5E1,1E1,1.6E1,9E0,5E0,1.3E1,1.7E1,1.08E2,2E1,3.1E1,3.4E1,2.86E2,6E0,2.3E1,1E1,6E0,3.9E1,8E0,6E1,1.33E2,7E0,2.3E1,1.8E1,8E0,5E0,2.5E1,1.5E1,7E0],"tree_param":{"num_deleted":"0","num_feature":"28","num_nodes":"105","size_leaf_vector":"1"}},{"base_weights":[5.962651E-1,-2.5725388E1,3.58426E1,-4.551273E1,-1.2008115E1,2.3764427E1,8.203179E1,-5.8988018E1,-3.573367E1,-2.0366476E1,-1.7298331E0,1.3617148E1,3.509637E1,7.003839E1,1.2865317E2,-6.51378E1,-4.7288544E1,-4.1768497E1,-1.7844063E1,-2.6463226E1,-7.626441E0,-1.4323105E1,5.3376493E0,-2.3563645E0,1.7976473E1,1.1642323E1,3.91462E1,6.565777E1,6.448665E0,8.378118E0,5.821511E0,-4.1664195E0,-6.1307175E1,-2.6038832E1,-5.2924446E1,-5.090448E1,-3.672238E1,-2.1103487E1,1.4557745E0,-1.732406E1,-2.8604057E1,-3.207892E1,-4.852266E0,1.2214931E1,-1.6796547E1,3.4901507E0,2.1738565E1,6.8297777E0,-1.0762488E1,1.53423195E1,2.9987244E1,4.0880384E0,2.0440466E0,3.4955357E1,5.7630283E1,5.3677357E1,7.58984E1,-3.1273565E0,-1.8769048E0,-1.6469857E0,-2.2150795E-1,-2.351383E0,-3.3747861E0,-2.6199894E0,-1.3264453E0,-8.83665E-1,-1.9122334E0,-1.3386823E0,-2.8182024E-1,-1.055224E0,-3.9256594E-1,-1.462455E0,-1.1017177E-1,-2.0845292E0,-5.3481627E-1,7.8696305E-1,-3.68283E-1,1.0472941E0,1.4859907E-1,-1.5392212E0,-6.546791E-1,-7.3933266E-2,4.4783518E-1,6.674594E-1,2.009573E0,1.9515908E-1,1.1281608E0,-9.2471784E-1,-3.8364895E-3,5.568491E-1,1.0642356E0,8.504979E-1,1.8434523E0,4.9309573E-1,-6.1039656E-1,1.4396706E0,2.1369307E0,2.4594955E0,3.4532616E0,1.8376296E0,2.9985259E0,4.469317E0,3.3334541E0],"categories":[],"categories_nodes":[],"categories_segments":[],"categories_sizes":[],"default_left":[0,0,0,0,0,0,0,0,0,0,0,0,0,0,0,0,0,0,0,0,0,0,0,0,0,0,0,0,0,0,0,0,0,0,0,0,0,0,0,0,0,0,0,0,0,0,0,0,0,0,0,0,0,0,0,0,0,0,0,0,0,0,0,0,0,0,0,0,0,0,0,0,0,0,0,0,0,0,0,0,0,0,0,0,0,0,0,0,0,0,0,0,0,0,0,0,0,0,0,0,0,0,0],"id":8,"left_children":[1,3,5,7,9,11,13,15,17,19,21,23,25,27,29,31,33,35,37,39,41,43,45,47,49,51,53,55,-1,-1,-1,-1,57,59,61,63,65,67,-1,69,71,73,75,77,79,81,83,85,87,89,91,93,-1,95,97,99,101,-1,-1,-1,-1,-1,-1,-1,-1,-1,-1,-1,-1,-1,-1,-1,-1,-1,-1,-1,-1,-1,-1,-1,-1,-1,-1,-1,-1,-1,-1,-1,-1,-1,-1,-1,-1,-1,-1,-1,-1,-1,-1,-1,-1,-1,-1],"loss_changes":[2.2655412E6,3.789045E5,5.804679E5,7.3258375E4,7.100978E4,9.484256E4,1.117455E5,1.4104375E4,3.5307594E4,3.521358E4,3.3186363E4,3.0613117E4,3.667822E4,3.6434375E4,9.125E2,5.607875E3,8.9135E3,9.601125E3,1.3776885E4,5.5260156E3,9.948134E3,9.00142E3,7.1634663E3,7.4097847E3,1.045057E4,1.2860107E4,2.3771781E4,1.6033625E4,0E0,0E0,0E0,0E0,1.5029688E3,2.832713E3,2.5712656E3,1.7365938E3,4.0741875E3,6.949617E3,0E0,2.015873E3,4.1557344E3,2.6316602E3,7.101965E3,9.037543E2,5.9635195E3,5.881048E3,3.1735225E3,2.0273743E3,4.1277676E3,6.881789E3,4.815207E3,4.636523E3,0E0,1.1903281E4,2.3817812E3,6.200547E3,4.7307812E3,0E0,0E0,0E0,0E0,0E0,0E0,0E0,0E0,0E0,0E0,0E0,0E0,0E0,0E0,0E0,0E0,0E0,0E0,0E0,0E0,0E0,0E0,0E0,0E0,0E0,0E0,0E0,0E0,0E0,0E0,0E0,0E0,0E0,0E0,0E0,0E0,0E0,0E0,0E0,0E0,0E0,0E0,0E0,0E0,0E0,0E0],"parents":[2147483647,0,0,1,1,2,2,3,3,4,4,5,5,6,6,7,7,8,8,9,9,10,10,11,11,12,12,13,13,14,14,15,15,16,16,17,17,18,18,19,19,20,20,21,21,22,22,23,23,24,24,25,25,26,26,27,27,32,32,33,33,34,34,35,35,36,36,37,37,39,39,40,40,41,41,42,42,43,43,44,44,45,45,46,46,47,47,48,48,49,49,50,50,51,51,53,53,54,54,55,55,56,56],"right_children":[2,4,6,8,10,12,14,16,18,20,22,24,26,28,30,32,34,36,38,40,42,44,46,48,50,52,54,56,-1,-1,-1,-1,58,60,62,64,66,68,-1,70,72,74,76,78,80,82,84,86,88,90,92,94,-1,96,98,100,102,-1,-1,-1,-1,-1,-1,-1,-1,-1,-1,-1,-1,-1,-1,-1,-1,-1,-1,-1,-1,-1,-1,-1,-1,-1,-1,-1,-1,-1,-1,-1,-1,-1,-1,-1,-1,-1,-1,-1,-1,-1,-1,-1,-1,-1,-1],"split_conditions":[2.81E2,2.21E2,3.57E2,1.95E2,2.56E2,3.1E2,4.4E2,8E0,1.2E1,9E0,-5E0,-1.2E1,-2E1,3.2E1,2.03E2,1.56E2,2.1914286E1,-6E0,6.3E1,9.9E-1,1.5E-1,6.1E-1,3E1,1.21E1,1.1E0,3.43E2,1.6E1,-9E0,6.448665E0,8.378118E0,5.821511E0,-4.1664195E0,5.7E0,3.3E1,2.32E1,2.54E2,1.29E1,2.3E2,1.4557745E0,7E-1,4.28E1,6E-1,5.2E-1,4.7E0,-3.2E1,2.77E2,1.7414286E1,1.3E0,-2.1E1,2.95E2,3E0,2.1E1,2.0440466E0,3.32E2,3.31E2,3.7E2,-4E-2,-3.1273565E0,-1.8769048E0,-1.6469857E0,-2.2150795E-1,-2.351383E0,-3.3747861E0,-2.6199894E0,-1.3264453E0,-8.83665E-1,-1.9122334E0,-1.3386823E0,-2.8182024E-1,-1.055224E0,-3.9256594E-1,-1.462455E0,-1.1017177E-1,-2.0845292E0,-5.3481627E-1,7.8696305E-1,-3.68283E-1,1.0472941E0,1.4859907E-1,-1.5392212E0,-6.546791E-1,-7.3933266E-2,4.4783518E-1,6.674594E-1,2.009573E0,1.9515908E-1,1.1281608E0,-9.2471784E-1,-3.8364895E-3,5.568491E-1,1.0642356E0,8.504979E-1,1.8434523E0,4.9309573E-1,-6.1039656E-1,1.4396706E0,2.1369307E0,2.4594955E0,3.4532616E0,1.8376296E0,2.9985259E0,4.469317E0,3.3334541E0],"split_indices":[8,8,8,8,8,8,8,22,22,22,22,22,22,22,12,8,18,22,22,6,5,6,22,1,0,8,22,22,0,0,0,0,0,23,17,10,1,10,0,7,15,0,6,1,22,10,18,0,22,8,22,24,0,8,8,8,21,0,0,0,0,0,0,0,0,0,0,0,0,0,0,0,0,0,0,0,0,0,0,0,0,0,0,0,0,0,0,0,0,0,0,0,0,0,0,0,0,0,0,0,0,0,0],"split_type":[0,0,0,0,0,0,0,0,0,0,0,0,0,0,0,0,0,0,0,0,0,0,0,0,0,0,0,0,0,0,0,0,0,0,0,0,0,0,0,0,0,0,0,0,0,0,0,0,0,0,0,0,0,0,0,0,0,0,0,0,0,0,0,0,0,0,0,0,0,0,0,0,0,0,0,0,0,0,0,0,0,0,0,0,0,0,0,0,0,0,0,0,0,0,0,0,0,0,0,0,0,0,0],"sum_hessian":[2.44E3,1.397E3,1.043E3,5.71E2,8.26E2,8.28E2,2.15E2,2.38E2,3.33E2,4.55E2,3.71E2,4.38E2,3.9E2,1.73E2,4.2E1,1.53E2,8.5E1,2.48E2,8.5E1,3.07E2,1.48E2,1.33E2,2.38E2,9.4E1,3.44E2,5.8E1,3.32E2,1.63E2,1E1,7E0,3.5E1,2.3E1,1.3E2,1.9E1,6.6E1,8.5E1,1.63E2,8E1,5E0,6E1,2.47E2,1.4E1,1.34E2,1.1E1,1.22E2,2.15E2,2.3E1,4.5E1,4.9E1,2.84E2,6E1,4.7E1,1.1E1,2.73E2,5.9E1,7.8E1,8.5E1,1.22E2,8E0,1.4E1,5E0,5E1,1.6E1,7.9E1,6E0,1.3E1,1.5E2,5.8E1,2.2E1,4.2E1,1.8E1,2.41E2,6E0,9E0,5E0,1.4E1,1.2E2,5E0,6E0,2.4E1,9.8E1,1.13E2,1.02E2,1.7E1,6E0,3.9E1,6E0,2.8E1,2.1E1,1.68E2,1.16E2,2.2E1,3.8E1,3.5E1,1.2E1,1.55E2,1.18E2,3.7E1,2.2E1,2.3E1,5.5E1,3.1E1,5.4E1],"tree_param":{"num_deleted":"0","num_feature":"28","num_nodes":"103","size_leaf_vector":"1"}},{"base_weights":[-9.708646E-2,-2.3180614E1,3.5275166E1,-4.0386036E1,-8.159226E0,2.6028276E1,8.530606E1,-5.622495E1,-3.2499153E1,-1.9273289E1,-1.5371578E0,1.9556093E1,4.515811E1,7.294447E1,1.1408011E2,-7.590322E1,-5.2942345E1,-3.7803642E1,-1.6669754E1,-2.4976492E1,-9.415805E0,-7.852637E0,7.2992263E0,-4.488544E0,2.2851688E1,3.3906094E1,5.4464325E1,5.4405056E1,9.080529E1,3.2625287E0,5.939265E0,-4.0628066E0,-2.3346403E0,-5.5272034E1,-3.1893814E1,-4.2460197E1,-3.1948923E1,-1.8938734E1,1.0838443E0,-2.5906727E1,3.5383102E-1,-2.4336716E1,-5.361819E0,-1.2615713E1,4.6878076E0,4.7239122E0,2.494279E1,-1.53257E1,2.438979E0,1.962207E1,3.9218548E1,2.01154E1,4.0270096E1,4.6647923E1,6.2590206E1,4.3017193E1,6.384631E1,8.21685E1,7.237436E0,-2.833944E0,-1.9884337E0,-2.0071182E0,-8.985659E-1,-2.467693E0,-1.9117168E0,-1.8542874E0,-1.1055998E0,-1.144554E0,-4.5264777E-2,-1.6932755E0,-1.1580396E0,-1.399555E0,-5.985413E-1,6.730289E-1,-4.1322708E-1,-1.2875543E0,-4.957989E-1,8.782941E-3,1.2111038E0,-5.9054326E-2,4.14435E-1,8.834962E-1,1.8352994E0,-1.0056853E0,1.2907131E-1,-4.8096544E-1,3.741869E-1,6.6637206E-1,1.3160403E0,4.4405347E-1,2.0677445E0,-4.9948167E-2,1.2515106E0,9.700724E-1,2.1245391E0,2.565691E0,1.1849922E0,2.0066733E0,3.2624238E0,2.4009163E0,1.3556381E0,2.0685768E0,3.468153E0,4.256544E0,2.3613362E0],"categories":[],"categories_nodes":[],"categories_segments":[],"categories_sizes":[],"default_left":[0,0,0,0,0,0,0,0,0,0,0,0,0,0,0,0,0,0,0,0,0,0,0,0,0,0,0,0,0,0,0,0,0,0,0,0,0,0,0,0,0,0,0,0,0,0,0,0,0,0,0,0,0,0,0,0,0,0,0,0,0,0,0,0,0,0,0,0,0,0,0,0,0,0,0,0,0,0,0,0,0,0,0,0,0,0,0,0,0,0,0,0,0,0,0,0,0,0,0,0,0,0,0,0,0],"id":9,"left_children":[1,3,5,7,9,11,13,15,17,19,21,23,25,27,29,31,33,35,37,39,41,43,45,47,49,51,53,55,57,-1,-1,-1,-1,59,61,63,65,67,-1,69,-1,71,73,75,77,79,81,83,85,87,89,91,93,95,97,99,101,103,-1,-1,-1,-1,-1,-1,-1,-1,-1,-1,-1,-1,-1,-1,-1,-1,-1,-1,-1,-1,-1,-1,-1,-1,-1,-1,-1,-1,-1,-1,-1,-1,-1,-1,-1,-1,-1,-1,-1,-1,-1,-1,-1,-1,-1,-1,-1],"loss_changes":[1.9808685E6,3.7906925E5,4.40968E5,8.3608875E4,5.7742793E4,9.9398E4,4.4658125E4,1.05673125E4,3.7905156E4,1.6233625E4,2.7569732E4,4.820389E4,1.9506094E4,3.0476E4,2.1100625E3,8.839375E2,7.888625E3,7.9871875E3,1.0590162E4,5.7013438E3,6.4598594E3,1.7262486E4,9.239375E3,5.5941904E3,2.7451094E4,7.521492E3,4.0560312E3,3.1561875E3,1.2776125E4,0E0,0E0,0E0,0E0,1.5750625E3,1.7992676E3,3.581E3,7.056797E3,7.8883594E3,0E0,3.1437188E3,0E0,7.0028906E2,4.864075E3,7.1526523E3,7.044627E3,3.8205625E3,1.5703252E3,2.54012E3,2.870008E3,1.8535625E4,5.2662812E3,3.3481484E3,2.1353594E3,5.2007734E3,4.153125E2,9.177031E2,5.909375E2,9.3484375E2,0E0,0E0,0E0,0E0,0E0,0E0,0E0,0E0,0E0,0E0,0E0,0E0,0E0,0E0,0E0,0E0,0E0,0E0,0E0,0E0,0E0,0E0,0E0,0E0,0E0,0E0,0E0,0E0,0E0,0E0,0E0,0E0,0E0,0E0,0E0,0E0,0E0,0E0,0E0,0E0,0E0,0E0,0E0,0E0,0E0,0E0,0E0],"parents":[2147483647,0,0,1,1,2,2,3,3,4,4,5,5,6,6,7,7,8,8,9,9,10,10,11,11,12,12,13,13,14,14,15,15,16,16,17,17,18,18,19,19,20,20,21,21,22,22,23,23,24,24,25,25,26,26,27,27,28,28,33,33,34,34,35,35,36,36,37,37,39,39,41,41,42,42,43,43,44,44,45,45,46,46,47,47,48,48,49,49,50,50,51,51,52,52,53,53,54,54,55,55,56,56,57,57],"right_children":[2,4,6,8,10,12,14,16,18,20,22,24,26,28,30,32,34,36,38,40,42,44,46,48,50,52,54,56,58,-1,-1,-1,-1,60,62,64,66,68,-1,70,-1,72,74,76,78,80,82,84,86,88,90,92,94,96,98,100,102,104,-1,-1,-1,-1,-1,-1,-1,-1,-1,-1,-1,-1,-1,-1,-1,-1,-1,-1,-1,-1,-1,-1,-1,-1,-1,-1,-1,-1,-1,-1,-1,-1,-1,-1,-1,-1,-1,-1,-1,-1,-1,-1,-1,-1,-1,-1,-1],"split_conditions":[2.83E2,2.29E2,3.7E2,1.93E2,-5E0,3.35E2,4.4E2,1.52E2,1.2E1,2.65E2,2.64E2,-2.3E1,-5E0,-9E0,1.8385714E1,5.83E0,2.6E1,1.9E-1,7.5E0,1.12E-1,2.43E2,2.1E1,2.2E1,2.72E2,1.9E1,3.25E2,8E0,-1.9E1,4.6E1,3.2625287E0,5.939265E0,-4.0628066E0,-2.3346403E0,-2.9025013E-2,3.4E0,-6E0,2.4E2,2.37E2,1.0838443E0,2.21E2,3.5383102E-1,2.78E-1,5.9E-1,1.79E-1,1.6E0,2.75E2,3.9E1,-3.2E1,3.02E2,3.05E2,1.5E0,2.94E2,-8.1E1,3.58E2,-4.7E-2,6.01E0,-3.2E1,1.7647098E-1,7.237436E0,-2.833944E0,-1.9884337E0,-2.0071182E0,-8.985659E-1,-2.467693E0,-1.9117168E0,-1.8542874E0,-1.1055998E0,-1.144554E0,-4.5264777E-2,-1.6932755E0,-1.1580396E0,-1.399555E0,-5.985413E-1,6.730289E-1,-4.1322708E-1,-1.2875543E0,-4.957989E-1,8.782941E-3,1.2111038E0,-5.9054326E-2,4.14435E-1,8.834962E-1,1.8352994E0,-1.0056853E0,1.2907131E-1,-4.8096544E-1,3.741869E-1,6.6637206E-1,1.3160403E0,4.4405347E-1,2.0677445E0,-4.9948167E-2,1.2515106E0,9.700724E-1,2.1245391E0,2.565691E0,1.1849922E0,2.0066733E0,3.2624238E0,2.4009163E0,1.3556381E0,2.0685768E0,3.468153E0,4.256544E0,2.3613362E0],"split_indices":[8,8,8,8,22,8,8,8,22,8,8,22,22,22,18,6,22,5,0,21,10,22,22,11,22,10,22,23,22,0,0,0,0,26,14,22,12,9,0,11,0,5,6,5,0,10,22,22,8,8,15,11,24,9,21,6,22,26,0,0,0,0,0,0,0,0,0,0,0,0,0,0,0,0,0,0,0,0,0,0,0,0,0,0,0,0,0,0,0,0,0,0,0,0,0,0,0,0,0,0,0,0,0,0,0],"split_type":[0,0,0,0,0,0,0,0,0,0,0,0,0,0,0,0,0,0,0,0,0,0,0,0,0,0,0,0,0,0,0,0,0,0,0,0,0,0,0,0,0,0,0,0,0,0,0,0,0,0,0,0,0,0,0,0,0,0,0,0,0,0,0,0,0,0,0,0,0,0,0,0,0,0,0,0,0,0,0,0,0,0,0,0,0,0,0,0,0,0,0,0,0,0,0,0,0,0,0,0,0,0,0,0,0],"sum_hessian":[2.424E3,1.467E3,9.57E2,6.83E2,7.84E2,8.09E2,1.48E2,2.25E2,4.58E2,2.92E2,4.92E2,6.06E2,2.03E2,1.06E2,4.2E1,2.9E1,1.96E2,3.42E2,1.16E2,1.84E2,1.08E2,2.87E2,2.05E2,7.3E1,5.33E2,9.4E1,1.09E2,5.4E1,5.2E1,5E0,3.7E1,2.3E1,6E0,1.75E2,2.1E1,1.87E2,1.55E2,1.1E2,6E0,1.79E2,5E0,2.2E1,8.6E1,2.08E2,7.9E1,1.8E2,2.5E1,2.8E1,4.5E1,4.47E2,8.6E1,3.1E1,6.3E1,5.9E1,5E1,2.7E1,2.7E1,4.7E1,5E0,1.58E2,1.7E1,1.2E1,9E0,6.7E1,1.2E2,1E2,5.5E1,9E1,2E1,4.3E1,1.36E2,1.6E1,6E0,1.1E1,7.5E1,3.4E1,1.74E2,6.5E1,1.4E1,6.8E1,1.12E2,1.7E1,8E0,2.2E1,6E0,1.3E1,3.2E1,2.32E2,2.15E2,6E0,8E1,6E0,2.5E1,7E0,5.6E1,4.8E1,1.1E1,7E0,4.3E1,1.9E1,8E0,7E0,2E1,4.2E1,5E0],"tree_param":{"num_deleted":"0","num_feature":"28","num_nodes":"105","size_leaf_vector":"1"}},{"base_weights":[1.7708088E-1,-1.9142767E1,3.7476986E1,-3.4886715E1,-3.0133014E0,2.8190197E1,8.064159E1,-5.5116665E1,-2.8219193E1,-1.7267424E1,1.7591529E0,1.9645561E1,4.0488586E1,6.5718575E1,9.955757E1,-6.1794186E1,-4.257137E1,-3.1936115E1,-1.0384312E1,-2.376096E1,-1.0730084E1,-5.3045464E0,8.675062E0,1.0103355E1,2.9328295E1,2.8744608E1,4.9546143E1,6.06485E1,6.07524E0,7.5960075E1,5.4894485E0,-4.3526634E1,-6.5001656E1,-2.3923943E1,-4.6658268E1,-3.7689613E1,-2.4767971E1,-1.4068168E1,1.3188764E0,-2.107817E0,-2.2317593E1,-2.319151E1,-5.3121576E0,-2.639305E1,-3.3171692E0,7.416176E0,2.413209E0,-4.8107095E0,1.4117117E1,2.331769E1,3.5283943E1,1.538411E1,3.4996845E1,4.4021458E1,3.1454968E0,2.1886775E0,6.639192E1,2.4857073E0,4.36998E0,-2.494712E0,-1.5443041E0,-3.3708036E0,-2.562194E0,-2.040509E0,-5.694904E-1,-1.6086801E0,-2.4330034E0,-1.9531891E0,-4.5877868E-1,-1.3148082E0,-2.2137323E-1,-1.2209109E0,-4.2977777E-1,-1.171122E0,-4.6960446E-1,-3.9241394E-1,-1.3757806E0,-3.9106807E-1,6.4156973E-1,-1.932353E0,-1.0696096E0,-2.3276377E-1,1.2804348E0,1.2701593E-1,5.793744E-1,-8.991467E-1,6.096959E-3,4.5307603E-1,9.5606947E-1,3.139246E-1,1.244903E0,1.6254987E0,3.120743E0,1.6444169E-1,1.2837996E0,1.8231446E0,5.0443834E-1,1.9230679E0,2.5373702E0,3.4926198E0,2.1566236E0],"categories":[],"categories_nodes":[],"categories_segments":[],"categories_sizes":[],"default_left":[0,0,0,0,0,0,0,0,0,0,0,0,0,0,0,0,0,0,0,0,0,0,0,0,0,0,0,0,0,0,0,0,0,0,0,0,0,0,0,0,0,0,0,0,0,0,0,0,0,0,0,0,0,0,0,0,0,0,0,0,0,0,0,0,0,0,0,0,0,0,0,0,0,0,0,0,0,0,0,0,0,0,0,0,0,0,0,0,0,0,0,0,0,0,0,0,0,0,0,0,0],"id":10,"left_children":[1,3,5,7,9,11,13,15,17,19,21,23,25,27,29,31,33,35,37,39,41,43,45,47,49,51,53,55,-1,57,-1,59,61,63,65,67,69,71,-1,-1,73,75,77,79,81,83,-1,85,87,89,91,93,95,97,-1,-1,99,-1,-1,-1,-1,-1,-1,-1,-1,-1,-1,-1,-1,-1,-1,-1,-1,-1,-1,-1,-1,-1,-1,-1,-1,-1,-1,-1,-1,-1,-1,-1,-1,-1,-1,-1,-1,-1,-1,-1,-1,-1,-1,-1,-1],"loss_changes":[1.7359929E6,4.0289612E5,3.2722312E5,1.0674794E5,5.3433242E4,7.0446375E4,3.437175E4,1.3945625E4,3.9836406E4,8.104324E3,2.8820129E4,3.684239E4,2.8032969E4,1.63713125E4,6.610875E3,4.6010938E3,4.363828E3,1.9722469E4,1.4724938E4,1.6547539E3,6.625462E3,1.2147437E4,1.4488281E4,1.2280588E4,6.295E3,9.731133E3,8.6636875E3,4.7394375E3,0E0,2.246586E3,0E0,2.2166406E2,5.45E1,2.7047754E3,1.08078125E2,1.04513125E4,6.9055312E3,5.2810664E3,0E0,0E0,1.1048398E3,1.7708838E3,3.3321938E3,6.992637E2,1.0490294E4,5.86738E3,0E0,2.862833E3,3.8971426E3,2.5872383E3,5.3369297E3,5.0164697E3,2.6583438E3,2.2651094E3,0E0,0E0,1.5636406E3,0E0,0E0,0E0,0E0,0E0,0E0,0E0,0E0,0E0,0E0,0E0,0E0,0E0,0E0,0E0,0E0,0E0,0E0,0E0,0E0,0E0,0E0,0E0,0E0,0E0,0E0,0E0,0E0,0E0,0E0,0E0,0E0,0E0,0E0,0E0,0E0,0E0,0E0,0E0,0E0,0E0,0E0,0E0,0E0],"parents":[2147483647,0,0,1,1,2,2,3,3,4,4,5,5,6,6,7,7,8,8,9,9,10,10,11,11,12,12,13,13,14,14,15,15,16,16,17,17,18,18,19,19,20,20,21,21,22,22,23,23,24,24,25,25,26,26,27,27,29,29,31,31,32,32,33,33,34,34,35,35,36,36,37,37,40,40,41,41,42,42,43,43,44,44,45,45,47,47,48,48,49,49,50,50,51,51,52,52,53,53,56,56],"right_children":[2,4,6,8,10,12,14,16,18,20,22,24,26,28,30,32,34,36,38,40,42,44,46,48,50,52,54,56,-1,58,-1,60,62,64,66,68,70,72,-1,-1,74,76,78,80,82,84,-1,86,88,90,92,94,96,98,-1,-1,100,-1,-1,-1,-1,-1,-1,-1,-1,-1,-1,-1,-1,-1,-1,-1,-1,-1,-1,-1,-1,-1,-1,-1,-1,-1,-1,-1,-1,-1,-1,-1,-1,-1,-1,-1,-1,-1,-1,-1,-1,-1,-1,-1,-1],"split_conditions":[2.92E2,2.38E2,3.7E2,1.92E2,-1.2E1,3.26E2,4.12E2,7E0,1.8E1,2.67E2,2.69E2,0E0,-5E0,3.1E1,3E0,2.1985714E1,2.18E1,2.2E2,6.7E1,1.95E2,-3.2E1,1.69E-1,4.2E1,-2.5E1,1E1,3.08E2,1.4E1,-1.8E1,6.07524E0,-2.2E1,5.4894485E0,2E-1,2.03E2,1.16E1,-9.785481E-1,4.7E0,9.2274404E-1,2.13E2,1.3188764E0,-2.107817E0,1.59E1,9.866667E0,2.4E0,-9.543881E-1,4.9E0,2.82E2,2.413209E0,-5.3E1,3.07E2,-6.660889E-1,1.54E1,3.0471924E-1,1.1E1,3.45E2,3.1454968E0,2.1886775E0,1.72E1,2.4857073E0,4.36998E0,-2.494712E0,-1.5443041E0,-3.3708036E0,-2.562194E0,-2.040509E0,-5.694904E-1,-1.6086801E0,-2.4330034E0,-1.9531891E0,-4.5877868E-1,-1.3148082E0,-2.2137323E-1,-1.2209109E0,-4.2977777E-1,-1.171122E0,-4.6960446E-1,-3.9241394E-1,-1.3757806E0,-3.9106807E-1,6.4156973E-1,-1.932353E0,-1.0696096E0,-2.3276377E-1,1.2804348E0,1.2701593E-1,5.793744E-1,-8.991467E-1,6.096959E-3,4.5307603E-1,9.5606947E-1,3.139246E-1,1.244903E0,1.6254987E0,3.120743E0,1.6444169E-1,1.2837996E0,1.8231446E0,5.0443834E-1,1.9230679E0,2.5373702E0,3.4926198E0,2.1566236E0],"split_indices":[8,8,8,8,22,8,8,22,22,8,8,22,22,22,14,18,16,8,22,11,22,5,22,22,22,11,22,22,0,22,0,0,11,16,25,0,26,9,0,0,14,16,0,26,7,9,0,22,8,25,13,25,27,8,0,0,14,0,0,0,0,0,0,0,0,0,0,0,0,0,0,0,0,0,0,0,0,0,0,0,0,0,0,0,0,0,0,0,0,0,0,0,0,0,0,0,0,0,0,0,0],"split_type":[0,0,0,0,0,0,0,0,0,0,0,0,0,0,0,0,0,0,0,0,0,0,0,0,0,0,0,0,0,0,0,0,0,0,0,0,0,0,0,0,0,0,0,0,0,0,0,0,0,0,0,0,0,0,0,0,0,0,0,0,0,0,0,0,0,0,0,0,0,0,0,0,0,0,0,0,0,0,0,0,0,0,0,0,0,0,0,0,0,0,0,0,0,0,0,0,0,0,0,0,0],"sum_hessian":[2.407E3,1.586E3,8.21E2,8.02E2,7.84E2,6.77E2,1.44E2,1.97E2,6.05E2,1.96E2,5.88E2,4.01E2,2.76E2,8.3E1,6.1E1,1.26E2,7.1E1,5E2,1.05E2,9.7E1,9.9E1,2.91E2,2.97E2,2.03E2,1.98E2,1.22E2,1.54E2,7.8E1,5E0,2.1E1,4E1,2.1E1,1.05E2,1.4E1,5.7E1,2.75E2,2.25E2,9.6E1,9E0,5E0,9.2E1,2.9E1,7E1,2.4E1,2.67E2,2.89E2,8E0,4.3E1,1.6E2,1.01E2,9.7E1,4E1,8.2E1,1.12E2,4.2E1,2.2E1,5.6E1,8E0,1.3E1,1.2E1,9E0,8.6E1,1.9E1,5E0,9E0,9E0,4.8E1,2.62E2,1.3E1,2.09E2,1.6E1,3.2E1,6.4E1,8.4E1,8E0,7E0,2.2E1,6.2E1,8E0,5E0,1.9E1,2.56E2,1.1E1,1.34E2,1.55E2,1.1E1,3.2E1,8.1E1,7.9E1,9E0,9.2E1,9E1,7E0,1.9E1,2.1E1,7.7E1,5E0,6.5E1,4.7E1,4.7E1,9E0],"tree_param":{"num_deleted":"0","num_feature":"28","num_nodes":"101","size_leaf_vector":"1"}},{"base_weights":[4.7265923E-1,-2.1707113E1,3.0038237E1,-4.6443787E1,-1.3551069E1,1.7414253E1,5.8986015E1,-6.045409E1,-3.9949474E1,-2.0260387E1,-3.3819506E0,1.3303261E1,3.6916656E1,4.8169827E1,9.846305E1,-1.5055329E0,-6.260093E1,-4.1351048E1,6.097702E-1,-2.6335968E1,-9.935751E0,-5.7908363E0,1.8261454E1,6.308801E0,2.0369858E1,2.514373E1,4.9446148E1,4.1264282E1,6.568488E1,7.912858E0,8.884779E1,-1.6711096E0,-3.222834E0,-4.596136E1,-3.108597E1,-2.9181238E1,-1.1118612E1,-1.4987859E1,7.6939E0,-2.3660109E1,-3.2279677E0,6.7584047E0,2.502782E0,-2.5671377E1,8.292893E0,1.0234879E1,2.6384739E1,3.2663776E1,1.0986619E0,3.6686226E1,5.6930923E1,7.813912E0,4.336978E1,4.238029E1,7.248676E1,6.2319576E1,4.9809465E0,-2.343215E0,-7.62975E-1,-1.1671283E0,-1.7358147E0,-2.0494819E0,-1.3136882E0,3.2216296E-1,-8.083401E-1,-9.033268E-1,1.3482401E-1,9.3025637E-1,-1.7492908E-1,-4.5144388E-1,-1.5458616E0,-5.5974E-1,4.029396E-2,-8.085767E-1,7.539849E-1,-1.6755542E0,-2.1950613E-1,-3.1566688E-1,5.30785E-1,-2.0512381E-1,7.177873E-1,7.04391E-1,1.4415963E0,1.231101E0,2.4354997E0,-6.361828E-1,4.9019477E-1,1.1617087E0,2.3654284E0,3.0049415E0,1.7603463E0,-2.2131582E-1,8.6017746E-1,1.8106616E0,2.5817373E0,1.4162036E0,2.8198776E0,3.2251995E0,4.9777017E0,1.6447932E0,3.6286447E0],"categories":[],"categories_nodes":[],"categories_segments":[],"categories_sizes":[],"default_left":[0,0,0,0,0,0,0,0,0,0,0,0,0,0,0,0,0,0,0,0,0,0,0,0,0,0,0,0,0,0,0,0,0,0,0,0,0,0,0,0,0,0,0,0,0,0,0,0,0,0,0,0,0,0,0,0,0,0,0,0,0,0,0,0,0,0,0,0,0,0,0,0,0,0,0,0,0,0,0,0,0,0,0,0,0,0,0,0,0,0,0,0,0,0,0,0,0,0,0,0,0],"id":11,"left_children":[1,3,5,7,9,11,13,15,17,19,21,23,25,27,29,-1,31,33,-1,35,37,39,41,43,45,47,49,51,53,-1,55,-1,-1,57,59,61,63,65,67,69,71,73,-1,75,77,79,81,83,85,87,89,91,93,95,97,99,-1,-1,-1,-1,-1,-1,-1,-1,-1,-1,-1,-1,-1,-1,-1,-1,-1,-1,-1,-1,-1,-1,-1,-1,-1,-1,-1,-1,-1,-1,-1,-1,-1,-1,-1,-1,-1,-1,-1,-1,-1,-1,-1,-1,-1],"loss_changes":[1.5941444E6,2.7960012E5,3.797498E5,2.8874438E4,7.129545E4,5.779053E4,1.30171625E5,5.076E3,1.7901406E4,3.9253438E4,2.1845416E4,2.9623883E4,1.733539E4,2.7516625E4,2.443525E4,0E0,3.1966562E3,9.543E3,0E0,1.6817312E4,2.1046768E4,1.7140457E4,1.50166875E4,1.9500441E4,1.7953555E4,1.2075684E4,3.632375E3,1.2474219E4,7.8540625E3,0E0,1.0919906E4,0E0,0E0,3.65875E3,1.2921562E3,1.0349094E4,5.7791E3,1.0013574E4,6.539159E3,4.7073496E3,1.0615264E4,6.3495684E3,0E0,2.8521885E3,9.804631E3,6.7362236E3,5.2168906E3,5.3743516E3,2.1699995E3,2.4660781E3,3.5207812E2,1.4566018E3,8.23575E3,1.9406562E3,4.7976875E3,3.635914E3,0E0,0E0,0E0,0E0,0E0,0E0,0E0,0E0,0E0,0E0,0E0,0E0,0E0,0E0,0E0,0E0,0E0,0E0,0E0,0E0,0E0,0E0,0E0,0E0,0E0,0E0,0E0,0E0,0E0,0E0,0E0,0E0,0E0,0E0,0E0,0E0,0E0,0E0,0E0,0E0,0E0,0E0,0E0,0E0,0E0],"parents":[2147483647,0,0,1,1,2,2,3,3,4,4,5,5,6,6,7,7,8,8,9,9,10,10,11,11,12,12,13,13,14,14,16,16,17,17,19,19,20,20,21,21,22,22,23,23,24,24,25,25,26,26,27,27,28,28,30,30,33,33,34,34,35,35,36,36,37,37,38,38,39,39,40,40,41,41,43,43,44,44,45,45,46,46,47,47,48,48,49,49,50,50,51,51,52,52,53,53,54,54,55,55],"right_children":[2,4,6,8,10,12,14,16,18,20,22,24,26,28,30,-1,32,34,-1,36,38,40,42,44,46,48,50,52,54,-1,56,-1,-1,58,60,62,64,66,68,70,72,74,-1,76,78,80,82,84,86,88,90,92,94,96,98,100,-1,-1,-1,-1,-1,-1,-1,-1,-1,-1,-1,-1,-1,-1,-1,-1,-1,-1,-1,-1,-1,-1,-1,-1,-1,-1,-1,-1,-1,-1,-1,-1,-1,-1,-1,-1,-1,-1,-1,-1,-1,-1,-1,-1,-1],"split_conditions":[2.8E2,2.05E2,3.38E2,1.77E2,2.51E2,2.3E1,4.12E2,1.51E1,2.46E1,8E0,4.5E1,3.05E2,3E2,1.9E1,2.03E2,-1.5055329E0,1.25E-1,1E1,6.097702E-1,2.57E2,2.35E2,-3.8E1,8E-1,-3.7E1,3.3122122E-1,1.1E1,1.6E1,3.2E2,3.26E2,7.912858E0,-3E1,-1.6711096E0,-3.222834E0,2.29E2,2.5328571E1,-2.1E1,9.2E-1,5.2E1,2.4E2,5E0,2.63E2,2.08E2,2.502782E0,4E-1,2.73E2,-7.7313834E-1,-2.6E1,5.4E1,2.43E2,3.15E2,8.9E0,2.97E-1,-1.3E1,1.6E1,6.1E1,4.5E2,4.9809465E0,-2.343215E0,-7.62975E-1,-1.1671283E0,-1.7358147E0,-2.0494819E0,-1.3136882E0,3.2216296E-1,-8.083401E-1,-9.033268E-1,1.3482401E-1,9.3025637E-1,-1.7492908E-1,-4.5144388E-1,-1.5458616E0,-5.5974E-1,4.029396E-2,-8.085767E-1,7.539849E-1,-1.6755542E0,-2.1950613E-1,-3.1566688E-1,5.30785E-1,-2.0512381E-1,7.177873E-1,7.04391E-1,1.4415963E0,1.231101E0,2.4354997E0,-6.361828E-1,4.9019477E-1,1.1617087E0,2.3654284E0,3.0049415E0,1.7603463E0,-2.2131582E-1,8.6017746E-1,1.8106616E0,2.5817373E0,1.4162036E0,2.8198776E0,3.2251995E0,4.9777017E0,1.6447932E0,3.6286447E0],"split_indices":[9,9,9,9,9,23,9,17,14,23,24,10,12,23,12,0,5,23,0,10,10,23,7,23,25,27,24,10,10,0,23,0,0,10,18,23,6,23,9,27,12,12,0,13,10,25,23,23,10,9,13,5,23,14,23,10,0,0,0,0,0,0,0,0,0,0,0,0,0,0,0,0,0,0,0,0,0,0,0,0,0,0,0,0,0,0,0,0,0,0,0,0,0,0,0,0,0,0,0,0,0],"split_type":[0,0,0,0,0,0,0,0,0,0,0,0,0,0,0,0,0,0,0,0,0,0,0,0,0,0,0,0,0,0,0,0,0,0,0,0,0,0,0,0,0,0,0,0,0,0,0,0,0,0,0,0,0,0,0,0,0,0,0,0,0,0,0,0,0,0,0,0,0,0,0,0,0,0,0,0,0,0,0,0,0,0,0,0,0,0,0,0,0,0,0,0,0,0,0,0,0,0,0,0,0],"sum_hessian":[2.429E3,1.388E3,1.041E3,3.43E2,1.045E3,7.26E2,3.15E2,1.06E2,2.37E2,6.29E2,4.16E2,6.01E2,1.25E2,2.49E2,6.6E1,8E0,9.8E1,2.31E2,6E0,3.95E2,2.34E2,3.75E2,4.1E1,3.03E2,2.98E2,6.6E1,5.9E1,1.81E2,6.8E1,7E0,5.9E1,7E0,9.1E1,1.57E2,7.4E1,3.32E2,6.3E1,1.82E2,5.2E1,4.6E1,3.29E2,3.1E1,1E1,1.7E1,2.86E2,1.12E2,1.86E2,5E1,1.6E1,2.4E1,3.5E1,1.1E1,1.7E2,1.7E1,5.1E1,1.9E1,4E1,1.52E2,5E0,2.6E1,4.8E1,6.3E1,2.69E2,1.4E1,4.9E1,1.55E2,2.7E1,2.6E1,2.6E1,1.6E1,3E1,1.1E2,2.19E2,8E0,2.3E1,1.2E1,5E0,3.9E1,2.47E2,2.5E1,8.7E1,3.2E1,1.54E2,3.5E1,1.5E1,6E0,1E1,1.2E1,1.2E1,2.9E1,6E0,5E0,6E0,9.4E1,7.6E1,1E1,7E0,4.2E1,9E0,6E0,1.3E1],"tree_param":{"num_deleted":"0","num_feature":"28","num_nodes":"101","size_leaf_vector":"1"}},{"base_weights":[9.492716E-2,-2.190605E1,2.8014538E1,-4.437701E1,-1.2640152E1,1.8971909E1,6.7616325E1,-5.593785E1,-3.762878E1,-2.1790462E1,-5.5833735E0,1.1699065E1,3.0302649E1,5.4880566E1,9.507687E1,-5.816625E1,-3.0924524E1,-3.888993E1,6.2967056E-1,-2.3331617E1,-9.7182386E-2,-9.679055E0,3.5698116E-1,7.422279E0,1.8480791E1,3.1751787E1,7.710616E0,5.240793E1,5.0469694E0,2.3403592E0,9.9410995E1,-6.8989044E1,-2.7080176E0,-2.0398052E0,-5.4732E-1,-3.513593E1,-4.8764877E1,-2.4181768E1,8.458354E0,1.075714E0,-6.674706E0,-1.1989483E1,2.4025614E0,-8.915907E0,3.5568058E0,3.1858377E0,1.2389628E1,1.272596E1,2.6589775E1,2.6446386E1,3.7584084E1,-6.134631E-1,1.4314654E1,3.110045E1,5.4633797E1,1.0316319E2,2.546608E0,-3.6569912E0,-2.1850994E0,-1.8117698E0,-6.1858314E-1,-3.4618797E0,-2.2780988E0,-1.240393E0,-3.436213E-2,-2.888977E-2,8.0507225E-1,-8.141815E-1,9.80834E-2,-9.034916E-1,-4.0405557E-1,6.4442927E-1,-4.4893193E-1,-8.183665E-1,3.6176488E-1,4.725587E-2,7.311911E-1,-7.036323E-1,2.4780054E-1,1.1633813E-1,7.634266E-1,-4.0934888E-1,6.934623E-1,1.0782181E0,2.526417E0,9.324393E-1,1.5871118E0,2.0604901E0,1.1946181E0,1.2904077E0,3.6833423E-1,4.560194E-1,2.058422E0,2.3217099E0,3.0540676E0,4.702184E0,6.7630243E0],"categories":[],"categories_nodes":[],"categories_segments":[],"categories_sizes":[],"default_left":[0,0,0,0,0,0,0,0,0,0,0,0,0,0,0,0,0,0,0,0,0,0,0,0,0,0,0,0,0,0,0,0,0,0,0,0,0,0,0,0,0,0,0,0,0,0,0,0,0,0,0,0,0,0,0,0,0,0,0,0,0,0,0,0,0,0,0,0,0,0,0,0,0,0,0,0,0,0,0,0,0,0,0,0,0,0,0,0,0,0,0,0,0,0,0,0,0],"id":12,"left_children":[1,3,5,7,9,11,13,15,17,19,21,23,25,27,29,31,33,35,-1,37,39,41,43,45,47,49,51,53,-1,-1,55,57,-1,-1,-1,59,61,63,65,-1,67,69,71,73,75,77,79,81,83,85,87,-1,89,91,93,95,-1,-1,-1,-1,-1,-1,-1,-1,-1,-1,-1,-1,-1,-1,-1,-1,-1,-1,-1,-1,-1,-1,-1,-1,-1,-1,-1,-1,-1,-1,-1,-1,-1,-1,-1,-1,-1,-1,-1,-1,-1],"loss_changes":[1.5024768E6,2.8426962E5,3.8474494E5,2.9013812E4,6.251017E4,7.207678E4,6.4713312E4,6.2745625E3,1.66435E4,1.4103984E4,1.3361449E4,1.5435398E4,1.09806875E4,1.0524906E4,8.3030625E3,1.9740625E3,2.3092764E3,7.50875E3,0E0,1.0854484E4,4.2644644E3,9.101719E3,6.7072896E3,6.924496E3,9.317516E3,8.9631875E3,3.0786885E3,4.6475938E3,0E0,0E0,4.91675E3,1.5071875E2,0E0,0E0,0E0,4.1521094E3,1.1616719E3,5.6289375E3,7.7056085E2,0E0,1.9420592E3,6.339004E3,6.4413203E3,7.099605E3,4.8404263E3,5.5679224E3,4.366158E3,3.0549824E3,9.128777E3,6.5057344E3,6.504875E3,0E0,1.1641218E3,2.9389248E3,3.4970625E3,2.1849375E3,0E0,0E0,0E0,0E0,0E0,0E0,0E0,0E0,0E0,0E0,0E0,0E0,0E0,0E0,0E0,0E0,0E0,0E0,0E0,0E0,0E0,0E0,0E0,0E0,0E0,0E0,0E0,0E0,0E0,0E0,0E0,0E0,0E0,0E0,0E0,0E0,0E0,0E0,0E0,0E0,0E0],"parents":[2147483647,0,0,1,1,2,2,3,3,4,4,5,5,6,6,7,7,8,8,9,9,10,10,11,11,12,12,13,13,14,14,15,15,16,16,17,17,19,19,20,20,21,21,22,22,23,23,24,24,25,25,26,26,27,27,30,30,31,31,35,35,36,36,37,37,38,38,40,40,41,41,42,42,43,43,44,44,45,45,46,46,47,47,48,48,49,49,50,50,52,52,53,53,54,54,55,55],"right_children":[2,4,6,8,10,12,14,16,18,20,22,24,26,28,30,32,34,36,-1,38,40,42,44,46,48,50,52,54,-1,-1,56,58,-1,-1,-1,60,62,64,66,-1,68,70,72,74,76,78,80,82,84,86,88,-1,90,92,94,96,-1,-1,-1,-1,-1,-1,-1,-1,-1,-1,-1,-1,-1,-1,-1,-1,-1,-1,-1,-1,-1,-1,-1,-1,-1,-1,-1,-1,-1,-1,-1,-1,-1,-1,-1,-1,-1,-1,-1,-1,-1],"split_conditions":[2.79E2,2.08E2,3.57E2,1.81E2,2.38E2,3.15E2,4.12E2,-1.8281692E-1,1.74E1,9.3392676E-1,2.64E2,2.86E-1,9.524422E-1,8.4E1,1.41E-1,1.52E2,5E0,2.1433332E1,6.2967056E-1,1.75E1,5.2E-1,3.4E1,2.48E2,2.92E2,7E0,3.35E2,2.64E-1,1.08E0,5.0469694E0,2.3403592E0,1.2546124E-1,5.83E0,-2.7080176E0,-2.0398052E0,-5.4732E-1,3.4E1,1.71E2,5.5E1,1.73E1,1.075714E0,2.48E2,2.45E-1,2.15E0,3.8E1,7E-1,-1.3E1,-2.9E1,2.72E2,3.28E2,-5E0,5.8482397E-1,-6.134631E-1,3.23E2,3E-1,1.9E1,1.18E2,2.546608E0,-3.6569912E0,-2.1850994E0,-1.8117698E0,-6.1858314E-1,-3.4618797E0,-2.2780988E0,-1.240393E0,-3.436213E-2,-2.888977E-2,8.0507225E-1,-8.141815E-1,9.80834E-2,-9.034916E-1,-4.0405557E-1,6.4442927E-1,-4.4893193E-1,-8.183665E-1,3.6176488E-1,4.725587E-2,7.311911E-1,-7.036323E-1,2.4780054E-1,1.1633813E-1,7.634266E-1,-4.0934888E-1,6.934623E-1,1.0782181E0,2.526417E0,9.324393E-1,1.5871118E0,2.0604901E0,1.1946181E0,1.2904077E0,3.6833423E-1,4.560194E-1,2.058422E0,2.3217099E0,3.0540676E0,4.702184E0,6.7630243E0],"split_indices":[8,8,8,8,8,8,8,26,13,26,8,5,26,23,5,8,24,17,0,13,6,24,12,10,23,8,5,6,0,0,26,6,0,0,0,23,10,24,2,0,12,5,6,24,7,23,23,10,12,23,26,0,8,13,24,24,0,0,0,0,0,0,0,0,0,0,0,0,0,0,0,0,0,0,0,0,0,0,0,0,0,0,0,0,0,0,0,0,0,0,0,0,0,0,0,0,0],"split_type":[0,0,0,0,0,0,0,0,0,0,0,0,0,0,0,0,0,0,0,0,0,0,0,0,0,0,0,0,0,0,0,0,0,0,0,0,0,0,0,0,0,0,0,0,0,0,0,0,0,0,0,0,0,0,0,0,0,0,0,0,0,0,0,0,0,0,0,0,0,0,0,0,0,0,0,0,0,0,0,0,0,0,0,0,0,0,0,0,0,0,0,0,0,0,0,0,0],"sum_hessian":[2.444E3,1.367E3,1.077E3,3.98E2,9.69E2,8.78E2,1.99E2,1.44E2,2.54E2,4.21E2,5.48E2,5.36E2,3.42E2,1.38E2,6.1E1,1.31E2,1.3E1,2.48E2,6E0,3.93E2,2.8E1,3.24E2,2.24E2,3.3E2,2.06E2,3.21E2,2.1E1,1.33E2,5E0,6E0,5.5E1,3.1E1,1E2,8E0,5E0,1.83E2,6.5E1,3.83E2,1E1,6E0,2.2E1,2.72E2,5.2E1,5.7E1,1.67E2,1.79E2,1.51E2,1.22E2,8.4E1,1.71E2,1.5E2,5E0,1.6E1,1.4E1,1.19E2,5E1,5E0,2.5E1,6E0,1.74E2,9E0,6E0,5.9E1,3.73E2,1E1,5E0,5E0,1E1,1.2E1,1.05E2,1.67E2,2.7E1,2.5E1,3.9E1,1.8E1,1.36E2,3.1E1,1.6E1,1.63E2,3.4E1,1.17E2,6E0,1.16E2,7.1E1,1.3E1,7.1E1,1E2,1.17E2,3.3E1,5E0,1.1E1,5E0,9E0,5.6E1,6.3E1,4.2E1,8E0],"tree_param":{"num_deleted":"0","num_feature":"28","num_nodes":"97","size_leaf_vector":"1"}},{"base_weights":[1.4305572E-1,-1.863456E1,2.9448662E1,-3.4924644E1,-8.352777E0,2.2839502E1,7.240972E1,-5.4047447E1,-3.104329E1,-1.5077484E1,-1.5060353E0,1.709085E1,3.767176E1,6.462019E1,1.2625681E2,-5.5978302E1,-1.289913E0,-3.9640797E1,-2.4537043E1,-1.8956884E1,-2.784207E0,-4.833572E0,1.0986874E1,1.0834399E1,2.4445076E1,2.8816738E1,4.507959E1,7.593283E1,4.7116653E1,8.753705E0,4.2165384E0,-4.6106194E1,-6.0970684E1,-4.213341E1,-2.9209873E1,-2.6625538E1,3.6264155E0,-2.7538643E1,-1.5379299E1,-7.2509637E0,1.3891857E1,2.1840317E0,-9.68743E0,7.7029343E0,1.9224228E0,-1.6198701E0,1.3824282E1,2.1639011E1,3.830409E1,1.34428005E1,3.3526245E1,3.8679905E1,5.907939E1,2.3525977E0,8.13768E1,5.7078125E1,3.423607E1,-2.500259E0,-1.1954694E0,-3.4828377E0,-2.523913E0,-1.8294423E0,-2.2792468E0,-1.7273449E0,-9.936256E-1,-1.6278969E0,-9.975676E-1,-3.1168482E-1,1.1421432E0,-1.8464285E0,-1.2246778E0,-8.198177E-1,6.832944E-1,7.2854805E-1,-5.4211575E-1,-4.9204302E-1,1.1177517E0,-3.4651935E-2,4.9859738E-1,-9.5713997E-1,-3.2959786E-1,2.2620842E-2,7.228904E-1,-5.756099E-1,5.7532084E-1,1.8174192E-1,8.281402E-1,6.5255445E-1,1.3770615E0,1.4506356E0,3.3956323E0,4.883613E-2,1.167194E0,1.3272772E0,2.0648067E0,6.545822E-2,2.045709E0,1.0689319E0,3.2149465E0,4.2055655E0,2.2504902E0,2.2445672E0,3.4249227E0,1.0155894E0,1.8974915E0],"categories":[],"categories_nodes":[],"categories_segments":[],"categories_sizes":[],"default_left":[0,0,0,0,0,0,0,0,0,0,0,0,0,0,0,0,0,0,0,0,0,0,0,0,0,0,0,0,0,0,0,0,0,0,0,0,0,0,0,0,0,0,0,0,0,0,0,0,0,0,0,0,0,0,0,0,0,0,0,0,0,0,0,0,0,0,0,0,0,0,0,0,0,0,0,0,0,0,0,0,0,0,0,0,0,0,0,0,0,0,0,0,0,0,0,0,0,0,0,0,0,0,0,0,0],"id":13,"left_children":[1,3,5,7,9,11,13,15,17,19,21,23,25,27,29,31,-1,33,35,37,39,41,43,45,47,49,51,53,55,-1,-1,57,59,61,63,65,67,69,71,73,75,77,79,81,-1,83,85,87,89,91,93,95,97,-1,99,101,103,-1,-1,-1,-1,-1,-1,-1,-1,-1,-1,-1,-1,-1,-1,-1,-1,-1,-1,-1,-1,-1,-1,-1,-1,-1,-1,-1,-1,-1,-1,-1,-1,-1,-1,-1,-1,-1,-1,-1,-1,-1,-1,-1,-1,-1,-1,-1,-1],"loss_changes":[1.347108E6,2.4960072E5,2.6978006E5,4.114E4,4.2150414E4,7.012103E4,4.50915E4,3.7840312E3,2.5982812E4,2.197807E4,1.896712E4,2.7338422E4,1.3846344E4,1.8785281E4,1.5910656E4,1.5645312E3,0E0,4.1182188E3,1.6391781E4,1.0348586E4,8.442713E3,1.2284393E4,8.356707E3,1.2162809E4,9.8596875E3,7.3642188E3,8.81475E3,6.692375E3,4.067289E3,0E0,0E0,1.7395391E3,1.5755781E3,1.4623438E3,1.4508711E3,9.560422E3,3.9335833E3,2.0058516E3,7.6094766E3,7.132557E3,5.0417446E3,3.3239832E3,6.105498E3,4.252908E3,0E0,8.442835E3,7.2765312E3,1.1345367E4,1.0399672E4,3.307314E3,3.3446016E3,7.2898906E3,5.8976797E3,0E0,1.6707812E3,3.9310156E2,4.1270898E2,0E0,0E0,0E0,0E0,0E0,0E0,0E0,0E0,0E0,0E0,0E0,0E0,0E0,0E0,0E0,0E0,0E0,0E0,0E0,0E0,0E0,0E0,0E0,0E0,0E0,0E0,0E0,0E0,0E0,0E0,0E0,0E0,0E0,0E0,0E0,0E0,0E0,0E0,0E0,0E0,0E0,0E0,0E0,0E0,0E0,0E0,0E0,0E0],"parents":[2147483647,0,0,1,1,2,2,3,3,4,4,5,5,6,6,7,7,8,8,9,9,10,10,11,11,12,12,13,13,14,14,15,15,17,17,18,18,19,19,20,20,21,21,22,22,23,23,24,24,25,25,26,26,27,27,28,28,31,31,32,32,33,33,34,34,35,35,36,36,37,37,38,38,39,39,40,40,41,41,42,42,43,43,45,45,46,46,47,47,48,48,49,49,50,50,51,51,52,52,54,54,55,55,56,56],"right_children":[2,4,6,8,10,12,14,16,18,20,22,24,26,28,30,32,-1,34,36,38,40,42,44,46,48,50,52,54,56,-1,-1,58,60,62,64,66,68,70,72,74,76,78,80,82,-1,84,86,88,90,92,94,96,98,-1,100,102,104,-1,-1,-1,-1,-1,-1,-1,-1,-1,-1,-1,-1,-1,-1,-1,-1,-1,-1,-1,-1,-1,-1,-1,-1,-1,-1,-1,-1,-1,-1,-1,-1,-1,-1,-1,-1,-1,-1,-1,-1,-1,-1,-1,-1,-1,-1,-1,-1],"split_conditions":[2.83E2,2.21E2,3.79E2,1.75E2,2.57E2,3.35E2,6.83E1,2.6E1,1.7E-1,1.2E1,1.5E1,1E0,-5E0,-8.9882547E-1,1.8633333E1,-7E-3,-1.289913E0,2.4893981E-1,4.1E1,1.9E-1,2.5E2,9.6E0,4.2E0,2.72E2,1.64E1,3.25E2,1.65E1,-4.5E1,3.4E0,8.753705E0,4.2165384E0,1.78E2,1.57E-1,5.12E0,-2E0,2.17E2,2.12E2,2.5733334E1,6.1E1,8.233334E0,2.1E0,4E0,4E-1,1.1E1,1.9224228E0,-1.2E1,2.24E-1,3.634816E-1,2.4E1,-2.1E1,0E0,2.83E2,-6.3E1,2.3525977E0,3.2333332E1,9.039462E-1,-5E-3,-2.500259E0,-1.1954694E0,-3.4828377E0,-2.523913E0,-1.8294423E0,-2.2792468E0,-1.7273449E0,-9.936256E-1,-1.6278969E0,-9.975676E-1,-3.1168482E-1,1.1421432E0,-1.8464285E0,-1.2246778E0,-8.198177E-1,6.832944E-1,7.2854805E-1,-5.4211575E-1,-4.9204302E-1,1.1177517E0,-3.4651935E-2,4.9859738E-1,-9.5713997E-1,-3.2959786E-1,2.2620842E-2,7.228904E-1,-5.756099E-1,5.7532084E-1,1.8174192E-1,8.281402E-1,6.5255445E-1,1.3770615E0,1.4506356E0,3.3956323E0,4.883613E-2,1.167194E0,1.3272772E0,2.0648067E0,6.545822E-2,2.045709E0,1.0689319E0,3.2149465E0,4.2055655E0,2.2504902E0,2.2445672E0,3.4249227E0,1.0155894E0,1.8974915E0],"split_indices":[9,9,9,9,10,9,15,22,5,22,22,22,22,26,16,21,0,25,22,5,9,1,7,11,14,10,2,24,14,0,0,10,5,6,24,12,9,16,24,16,14,24,14,24,0,22,5,25,22,22,21,12,24,0,16,25,21,0,0,0,0,0,0,0,0,0,0,0,0,0,0,0,0,0,0,0,0,0,0,0,0,0,0,0,0,0,0,0,0,0,0,0,0,0,0,0,0,0,0,0,0,0,0,0,0],"split_type":[0,0,0,0,0,0,0,0,0,0,0,0,0,0,0,0,0,0,0,0,0,0,0,0,0,0,0,0,0,0,0,0,0,0,0,0,0,0,0,0,0,0,0,0,0,0,0,0,0,0,0,0,0,0,0,0,0,0,0,0,0,0,0,0,0,0,0,0,0,0,0,0,0,0,0,0,0,0,0,0,0,0,0,0,0,0,0,0,0,0,0,0,0,0,0,0,0,0,0,0,0,0,0,0,0],"sum_hessian":[2.446E3,1.491E3,9.55E2,5.76E2,9.15E2,8.29E2,1.26E2,9.5E1,4.81E2,4.61E2,4.54E2,5.99E2,2.3E2,1.12E2,1.4E1,8.8E1,7E0,2.05E2,2.76E2,3.5E2,1.11E2,3.59E2,9.5E1,3.25E2,2.74E2,1.07E2,1.23E2,6.6E1,4.6E1,5E0,9E0,3.3E1,5.5E1,1.63E2,4.2E1,2.57E2,1.9E1,1.01E2,2.49E2,8.8E1,2.3E1,1.47E2,2.12E2,8.6E1,9E0,6.3E1,2.62E2,2.3E2,4.4E1,2.6E1,8.1E1,8.7E1,3.6E1,1.2E1,5.4E1,2.4E1,2.2E1,2.7E1,6E0,2.7E1,2.8E1,6.7E1,9.6E1,2.5E1,1.7E1,1.34E2,1.23E2,1.3E1,6E0,2.2E1,7.9E1,2.41E2,8E0,1.2E1,7.6E1,6E0,1.7E1,1.08E2,3.9E1,5.1E1,1.61E2,4.2E1,4.4E1,3.6E1,2.7E1,5.6E1,2.06E2,9.5E1,1.35E2,3.5E1,9E0,1.2E1,1.4E1,4.5E1,3.6E1,5E0,8.2E1,5E0,3.1E1,4.9E1,5E0,1.4E1,1E1,6E0,1.6E1],"tree_param":{"num_deleted":"0","num_feature":"28","num_nodes":"105","size_leaf_vector":"1"}},{"base_weights":[-1.3312967E-1,-1.9765789E1,2.5526157E1,-4.0133984E1,-1.2377818E1,1.7181784E1,6.1183994E1,-4.1550316E1,1.0562444E0,-2.090247E1,-5.0549293E0,7.5768867E0,2.425379E1,5.65712E1,1.1874981E2,-5.0526184E1,-3.6341206E1,-2.513754E1,-9.834848E0,-1.3019118E1,2.0778685E0,-3.746721E0,1.1949923E1,1.908419E1,3.726231E1,4.7504787E1,7.876669E1,4.0599623E0,7.7633677E0,-1.0964508E0,-5.1732265E1,-4.158821E1,-2.8050652E1,-3.0252306E1,-2.1449457E1,-3.248349E1,-7.0868163E0,-2.1318823E1,-9.538595E0,1.2982709E-2,2.1469011E1,-1.4217293E0,-4.8475257E-1,9.510211E0,2.5433048E1,1.4326851E1,2.7586246E1,3.483108E1,5.832653E1,4.121785E1,6.014124E1,8.223269E1,1.8947136E0,-2.871016E0,-2.2842166E0,-2.1170843E0,-8.843482E-1,-2.170731E0,-1.2146506E0,-1.5749072E0,-8.8818884E-1,-6.8017143E-1,-1.1910695E0,-1.0308847E0,-2.2425802E0,-4.344285E-1,8.105547E-1,-1.1703087E0,1.292967E-1,-8.185021E-1,-2.520031E-1,-4.1512616E-2,1.8213567E0,-2.0309861E-1,1.3600091E0,-6.6961545E-1,1.20376326E-1,5.228166E-1,-4.9618158E-1,4.0918985E-1,1.6715717E0,-2.4712442E-1,8.781938E-1,1.5834397E0,8.779883E-1,1.5133562E0,2.2420661E0,1.5996131E0,3.538696E0,1.708613E0,2.4562476E0,3.1236656E0,1.7665617E0,2.7835321E0,4.307542E0],"categories":[],"categories_nodes":[],"categories_segments":[],"categories_sizes":[],"default_left":[0,0,0,0,0,0,0,0,0,0,0,0,0,0,0,0,0,0,0,0,0,0,0,0,0,0,0,0,0,0,0,0,0,0,0,0,0,0,0,0,0,0,0,0,0,0,0,0,0,0,0,0,0,0,0,0,0,0,0,0,0,0,0,0,0,0,0,0,0,0,0,0,0,0,0,0,0,0,0,0,0,0,0,0,0,0,0,0,0,0,0,0,0,0,0],"id":14,"left_children":[1,3,5,7,9,11,13,15,-1,17,19,21,23,25,27,29,31,33,35,37,39,41,43,45,47,49,51,-1,-1,-1,53,55,57,59,61,63,65,67,69,71,73,-1,75,77,79,81,83,85,87,89,91,93,-1,-1,-1,-1,-1,-1,-1,-1,-1,-1,-1,-1,-1,-1,-1,-1,-1,-1,-1,-1,-1,-1,-1,-1,-1,-1,-1,-1,-1,-1,-1,-1,-1,-1,-1,-1,-1,-1,-1,-1,-1,-1,-1],"loss_changes":[1.2342124E6,2.0836369E5,3.1493094E5,3.2895312E4,6.356533E4,5.836517E4,4.6638062E4,1.5034125E4,0E0,2.1826047E4,3.1271969E4,1.8218898E4,3.2638656E4,3.4077438E4,6.5663125E3,3.3419688E3,8.9185625E3,5.7595938E3,7.981411E3,7.304258E3,1.1649357E4,8.2780205E3,8.471797E3,1.4040219E4,5.1287812E3,8.3154375E3,4.38E3,0E0,0E0,0E0,1.6322188E3,1.7663594E3,4.3076562E3,1.6137578E3,3.4128672E3,1.1233223E3,4.580884E3,3.8548281E3,5.6006797E3,8.140104E3,4.209827E3,0E0,3.4679084E3,4.2592246E3,5.2408906E3,1.449677E4,4.637547E3,4.483125E3,1.9868164E3,3.5497344E3,2.7089062E2,1.8528125E2,0E0,0E0,0E0,0E0,0E0,0E0,0E0,0E0,0E0,0E0,0E0,0E0,0E0,0E0,0E0,0E0,0E0,0E0,0E0,0E0,0E0,0E0,0E0,0E0,0E0,0E0,0E0,0E0,0E0,0E0,0E0,0E0,0E0,0E0,0E0,0E0,0E0,0E0,0E0,0E0,0E0,0E0,0E0],"parents":[2147483647,0,0,1,1,2,2,3,3,4,4,5,5,6,6,7,7,9,9,10,10,11,11,12,12,13,13,14,14,15,15,16,16,17,17,18,18,19,19,20,20,21,21,22,22,23,23,24,24,25,25,26,26,30,30,31,31,32,32,33,33,34,34,35,35,36,36,37,37,38,38,39,39,40,40,42,42,43,43,44,44,45,45,46,46,47,47,48,48,49,49,50,50,51,51],"right_children":[2,4,6,8,10,12,14,16,-1,18,20,22,24,26,28,30,32,34,36,38,40,42,44,46,48,50,52,-1,-1,-1,54,56,58,60,62,64,66,68,70,72,74,-1,76,78,80,82,84,86,88,90,92,94,-1,-1,-1,-1,-1,-1,-1,-1,-1,-1,-1,-1,-1,-1,-1,-1,-1,-1,-1,-1,-1,-1,-1,-1,-1,-1,-1,-1,-1,-1,-1,-1,-1,-1,-1,-1,-1,-1,-1,-1,-1,-1,-1],"split_conditions":[2.78E2,2.07E2,3.57E2,5.3E1,2.39E2,3.02E2,1.35E2,1.81E2,1.0562444E0,1.1E1,-1E0,-9E0,6E0,4.17E2,5.7E1,-9.850557E-1,1.2E0,2.22E2,2.03E2,2.37E2,3.7E1,2.28E2,1.9E0,3.31E2,1.52E1,4E0,1.2546124E-1,4.0599623E0,7.7633677E0,-1.0964508E0,2E0,2.7E1,-8E0,6.358985E-1,1.2642858E1,1.1E0,7.5E0,9.9E-2,2.4E-1,6.9E0,2.3E-1,-1.4217293E0,-3.5E1,1.82E1,3E0,-2.8E1,5.8482397E-1,3.37E2,1E1,3.79E2,9.7E1,1.46E-1,1.8947136E0,-2.871016E0,-2.2842166E0,-2.1170843E0,-8.843482E-1,-2.170731E0,-1.2146506E0,-1.5749072E0,-8.8818884E-1,-6.8017143E-1,-1.1910695E0,-1.0308847E0,-2.2425802E0,-4.344285E-1,8.105547E-1,-1.1703087E0,1.292967E-1,-8.185021E-1,-2.520031E-1,-4.1512616E-2,1.8213567E0,-2.0309861E-1,1.3600091E0,-6.6961545E-1,1.20376326E-1,5.228166E-1,-4.9618158E-1,4.0918985E-1,1.6715717E0,-2.4712442E-1,8.781938E-1,1.5834397E0,8.779883E-1,1.5133562E0,2.2420661E0,1.5996131E0,3.538696E0,1.708613E0,2.4562476E0,3.1236656E0,1.7665617E0,2.7835321E0,4.307542E0],"split_indices":[8,8,8,22,8,8,24,8,0,22,22,22,22,8,22,25,13,10,10,11,22,12,0,8,13,22,26,0,0,0,22,22,22,26,18,0,0,21,5,0,5,0,22,14,22,22,26,10,2,8,24,5,0,0,0,0,0,0,0,0,0,0,0,0,0,0,0,0,0,0,0,0,0,0,0,0,0,0,0,0,0,0,0,0,0,0,0,0,0,0,0,0,0,0,0],"split_type":[0,0,0,0,0,0,0,0,0,0,0,0,0,0,0,0,0,0,0,0,0,0,0,0,0,0,0,0,0,0,0,0,0,0,0,0,0,0,0,0,0,0,0,0,0,0,0,0,0,0,0,0,0,0,0,0,0,0,0,0,0,0,0,0,0,0,0,0,0,0,0,0,0,0,0,0,0,0,0,0,0,0,0,0,0,0,0,0,0,0,0,0,0,0,0],"sum_hessian":[2.448E3,1.387E3,1.061E3,3.68E2,1.019E3,8.61E2,2E2,3.6E2,8E0,4.7E2,5.49E2,3.66E2,4.95E2,1.87E2,1.3E1,1.29E2,2.31E2,3.39E2,1.31E2,2.59E2,2.9E2,1.02E2,2.64E2,3.56E2,1.39E2,1.35E2,5.2E1,8E0,5E0,6E0,1.23E2,1.39E2,9.2E1,1.39E2,2E2,1.3E1,1.18E2,7.5E1,1.84E2,2.63E2,2.7E1,1.1E1,9.1E1,2.25E2,3.9E1,2.3E2,1.26E2,1.27E2,1.2E1,9.3E1,4.2E1,4.7E1,5E0,5.9E1,6.4E1,1.34E2,5E0,1.6E1,7.6E1,1.25E2,1.4E1,4.8E1,1.52E2,8E0,5E0,1.11E2,7E0,6.9E1,6E0,7.2E1,1.12E2,2.58E2,5E0,5E0,2.2E1,1.6E1,7.5E1,2.15E2,1E1,1.3E1,2.6E1,3.3E1,1.97E2,8.8E1,3.8E1,9E1,3.7E1,5E0,7E0,5.2E1,4.1E1,3.7E1,5E0,8E0,3.9E1],"tree_param":{"num_deleted":"0","num_feature":"28","num_nodes":"95","size_leaf_vector":"1"}},{"base_weights":[1.3960224E-1,-2.2388071E1,2.0045341E1,-3.8865734E1,-1.4868015E1,1.018625E1,4.7050686E1,-3.982468E1,4.2066666E-1,-1.9585794E1,-4.5233855E0,4.1731787E0,1.8247137E1,3.9405033E1,8.180548E1,-4.8497944E1,-3.425624E1,-2.4109144E1,-1.2024509E1,-1.26679E1,7.222737E-1,9.5202345E-1,1.6903225E1,9.282678E0,2.4778784E1,3.68856E1,4.713491E0,7.372482E1,6.7374988E0,-1.0548817E0,-4.9599514E1,-4.102276E1,-2.9124395E1,-3.2432255E1,-2.2245815E1,-2.3753246E1,-9.484398E0,-1.5624923E1,9.149379E-1,-7.114782E0,7.777617E0,-8.175492E0,3.9097402E0,1.3807848E1,3.4412792E1,-8.389272E0,1.2166785E1,2.2110044E1,3.8988163E1,3.2774765E1,4.6260456E1,5.2935726E1,8.003703E1,-2.9087377E0,-2.31024E0,-2.1126645E0,-1.0015087E0,-1.6479982E0,-1.1441396E0,-1.9233946E0,-1.181346E0,-7.331826E-1,-1.195153E0,-1.3686723E0,-2.4152565E-1,-6.475649E-1,-7.596953E-2,-9.0560305E-1,6.059876E-1,-4.3717042E-1,4.7378054E-1,1.0523376E0,5.6022387E-2,-1.0555896E0,-3.09099E-1,8.4885275E-1,1.5101044E-1,5.6715673E-1,1.6930037E0,8.366909E-1,2.314634E0,5.0917256E-1,-7.397788E-1,3.9581314E-2,6.954975E-1,-1.3503818E-1,1.164382E0,1.5496187E0,2.6194358E0,1.2682403E0,1.9227756E0,1.5519141E0,2.6011212E0,3.0948694E0,1.627841E0,2.4442384E0,4.198893E0],"categories":[],"categories_nodes":[],"categories_segments":[],"categories_sizes":[],"default_left":[0,0,0,0,0,0,0,0,0,0,0,0,0,0,0,0,0,0,0,0,0,0,0,0,0,0,0,0,0,0,0,0,0,0,0,0,0,0,0,0,0,0,0,0,0,0,0,0,0,0,0,0,0,0,0,0,0,0,0,0,0,0,0,0,0,0,0,0,0,0,0,0,0,0,0,0,0,0,0,0,0,0,0,0,0,0,0,0,0,0,0,0,0,0,0,0,0],"id":15,"left_children":[1,3,5,7,9,11,13,15,-1,17,19,21,23,25,27,29,31,33,35,37,39,41,43,45,47,49,-1,51,-1,-1,53,55,57,59,61,63,65,67,-1,69,71,73,75,77,79,81,83,85,87,89,91,93,95,-1,-1,-1,-1,-1,-1,-1,-1,-1,-1,-1,-1,-1,-1,-1,-1,-1,-1,-1,-1,-1,-1,-1,-1,-1,-1,-1,-1,-1,-1,-1,-1,-1,-1,-1,-1,-1,-1,-1,-1,-1,-1,-1,-1],"loss_changes":[1.1031379E6,1.4241231E5,3.472352E5,1.6705188E4,3.8659125E4,4.635653E4,8.950169E4,1.5427375E4,0E0,1.8346766E4,1.0691182E4,2.2535125E4,2.371461E4,3.6319406E4,1.6569969E4,3.0514688E3,6.402953E3,4.546E3,5.9086074E3,9.259421E3,8.515248E3,1.1910044E4,5.5360703E3,8.970843E3,8.08125E3,9.151094E3,0E0,3.0985E3,0E0,0E0,1.0859688E3,1.5239531E3,2.304539E3,2.273664E3,3.1765312E3,2.3306953E3,4.7008467E3,6.430547E3,0E0,2.0552034E3,7.129327E3,2.6519355E3,3.8174482E3,4.356008E3,2.5794336E3,3.1256936E3,2.961838E3,5.937578E3,2.2253398E3,7.2686406E3,5.5691875E3,8.974336E2,9.14875E2,0E0,0E0,0E0,0E0,0E0,0E0,0E0,0E0,0E0,0E0,0E0,0E0,0E0,0E0,0E0,0E0,0E0,0E0,0E0,0E0,0E0,0E0,0E0,0E0,0E0,0E0,0E0,0E0,0E0,0E0,0E0,0E0,0E0,0E0,0E0,0E0,0E0,0E0,0E0,0E0,0E0,0E0,0E0,0E0],"parents":[2147483647,0,0,1,1,2,2,3,3,4,4,5,5,6,6,7,7,9,9,10,10,11,11,12,12,13,13,14,14,15,15,16,16,17,17,18,18,19,19,20,20,21,21,22,22,23,23,24,24,25,25,27,27,30,30,31,31,32,32,33,33,34,34,35,35,36,36,37,37,39,39,40,40,41,41,42,42,43,43,44,44,45,45,46,46,47,47,48,48,49,49,50,50,51,51,52,52],"right_children":[2,4,6,8,10,12,14,16,-1,18,20,22,24,26,28,30,32,34,36,38,40,42,44,46,48,50,-1,52,-1,-1,54,56,58,60,62,64,66,68,-1,70,72,74,76,78,80,82,84,86,88,90,92,94,96,-1,-1,-1,-1,-1,-1,-1,-1,-1,-1,-1,-1,-1,-1,-1,-1,-1,-1,-1,-1,-1,-1,-1,-1,-1,-1,-1,-1,-1,-1,-1,-1,-1,-1,-1,-1,-1,-1,-1,-1,-1,-1,-1,-1],"split_conditions":[2.65E2,2.07E2,3.35E2,5.3E1,9E0,2.98E2,4.17E2,1.81E2,4.2066666E-1,2.42E2,2.29E2,1E1,-6E0,4.3E1,1.66E1,-9.850557E-1,-1E0,-1.7E1,-2.2E1,2.52E2,2.62E-1,-1.5E1,1.6E0,-3.6E1,2.5E1,3.7E2,4.713491E0,-2.4E1,6.7374988E0,-1.0548817E0,1.52E2,2.87E-1,1.9E0,2.32E2,1.09E0,2.81E2,2E-1,1.65E1,9.149379E-1,1.8E0,2.8E-1,-9.231579E-1,-5.7E0,3.18E2,2.2E1,5.142857E0,2.78E2,-7.82597E-1,1E-1,-5E0,-1.9E1,2.962857E1,3.88E2,-2.9087377E0,-2.31024E0,-2.1126645E0,-1.0015087E0,-1.6479982E0,-1.1441396E0,-1.9233946E0,-1.181346E0,-7.331826E-1,-1.195153E0,-1.3686723E0,-2.4152565E-1,-6.475649E-1,-7.596953E-2,-9.0560305E-1,6.059876E-1,-4.3717042E-1,4.7378054E-1,1.0523376E0,5.6022387E-2,-1.0555896E0,-3.09099E-1,8.4885275E-1,1.5101044E-1,5.6715673E-1,1.6930037E0,8.366909E-1,2.314634E0,5.0917256E-1,-7.397788E-1,3.9581314E-2,6.954975E-1,-1.3503818E-1,1.164382E0,1.5496187E0,2.6194358E0,1.2682403E0,1.9227756E0,1.5519141E0,2.6011212E0,3.0948694E0,1.627841E0,2.4442384E0,4.198893E0],"split_indices":[8,8,8,22,22,8,8,8,0,8,9,22,22,22,13,25,22,22,22,8,5,22,7,22,22,8,0,23,0,0,8,5,13,8,6,10,7,13,0,0,5,25,2,10,23,18,10,25,7,22,23,18,10,0,0,0,0,0,0,0,0,0,0,0,0,0,0,0,0,0,0,0,0,0,0,0,0,0,0,0,0,0,0,0,0,0,0,0,0,0,0,0,0,0,0,0,0],"split_type":[0,0,0,0,0,0,0,0,0,0,0,0,0,0,0,0,0,0,0,0,0,0,0,0,0,0,0,0,0,0,0,0,0,0,0,0,0,0,0,0,0,0,0,0,0,0,0,0,0,0,0,0,0,0,0,0,0,0,0,0,0,0,0,0,0,0,0,0,0,0,0,0,0,0,0,0,0,0,0,0,0,0,0,0,0,0,0,0,0,0,0,0,0,0,0,0,0],"sum_hessian":[2.458E3,1.153E3,1.305E3,3.6E2,7.93E2,9.57E2,3.48E2,3.53E2,7E0,5.44E2,2.49E2,5.49E2,4.08E2,2.87E2,6.1E1,1.35E2,2.18E2,3.39E2,2.05E2,9.7E1,1.52E2,4.39E2,1.1E2,1.73E2,2.35E2,2.76E2,1.1E1,5.5E1,6E0,6E0,1.29E2,9.1E1,1.27E2,5.9E1,2.8E2,3.5E1,1.7E2,8.9E1,8E0,7.2E1,8E1,1.07E2,3.32E2,9.5E1,1.5E1,2.4E1,1.49E2,2E2,3.5E1,1.95E2,8.1E1,1.5E1,4E1,3.2E1,9.7E1,8.5E1,6E0,7.6E1,5.1E1,3.3E1,2.6E1,5.2E1,2.28E2,2.9E1,6E0,1.18E2,5.2E1,8.2E1,7E0,6.6E1,6E0,2.6E1,5.4E1,1.3E1,9.4E1,2E1,3.12E2,8.6E1,9E0,7E0,8E0,6E0,1.8E1,2E1,1.29E2,9E0,1.91E2,2.4E1,1.1E1,8.7E1,1.08E2,2.4E1,5.7E1,9E0,6E0,6E0,3.4E1],"tree_param":{"num_deleted":"0","num_feature":"28","num_nodes":"97","size_leaf_vector":"1"}},{"base_weights":[-2.2479987E-1,-1.687547E1,2.609874E1,-3.1501333E1,-7.0891843E0,1.9103376E1,6.0552227E1,-4.185232E1,-2.5250202E1,-1.1881317E1,5.902918E-1,1.4344132E1,3.231237E1,5.5216278E1,1.04118E2,-4.3796654E1,-2.4852917E1,-2.7263256E1,3.798258E-1,-1.4315915E1,5.700083E0,-2.0434473E1,2.6844313E0,7.798724E0,2.295103E1,2.8339382E1,4.958326E1,3.411987E1,6.1540894E1,6.667535E0,3.3276794E0,-4.4869827E1,-1.0781026E0,-1.0342402E1,-3.3830433E1,-3.3904175E1,-2.2311775E1,1.2610066E1,-1.9658733E1,-2.2805414E1,-1.2426289E1,1.1619891E0,2.6394514E1,-4.6813507E-2,-2.414427E1,-1.1544901E0,9.911798E0,-7.026493E0,1.1156924E1,1.5594511E1,2.7291693E1,1.8941057E1,3.2128246E1,5.3946796E1,1.6198511E0,2.9500916E1,2.575566E0,5.169247E1,7.115088E1,-2.6823375E0,-2.1018474E0,3.7847318E-2,-9.867342E-1,-1.9975022E0,-1.0557579E0,-1.4224129E0,-1.8931288E0,-1.2039504E0,-9.328656E-2,-9.496959E-2,1.3670839E0,-1.5132337E0,-2.8798363E-1,-1.2841872E0,-2.3295584E-1,-8.3488697E-1,-4.3588477E-1,6.8111485E-1,-1.4597766E-1,6.5230083E-1,1.7025576E0,-6.242125E-1,-1.3888869E0,-4.6879855E-1,7.522018E-2,3.7812194E-1,1.4034065E0,-1.2024264E0,-2.0007482E-1,1.6546242E-1,6.9640666E-1,5.8649623E-1,1.6847502E0,1.1231264E0,1.8165197E0,6.017294E-1,1.3746735E0,4.2446652E-1,1.654485E0,1.731695E0,2.9365218E0,7.386137E-1,1.5925877E0,1.4945151E0,2.7319982E0,3.7396584E0,1.8518565E0],"categories":[],"categories_nodes":[],"categories_segments":[],"categories_sizes":[],"default_left":[0,0,0,0,0,0,0,0,0,0,0,0,0,0,0,0,0,0,0,0,0,0,0,0,0,0,0,0,0,0,0,0,0,0,0,0,0,0,0,0,0,0,0,0,0,0,0,0,0,0,0,0,0,0,0,0,0,0,0,0,0,0,0,0,0,0,0,0,0,0,0,0,0,0,0,0,0,0,0,0,0,0,0,0,0,0,0,0,0,0,0,0,0,0,0,0,0,0,0,0,0,0,0,0,0,0,0],"id":16,"left_children":[1,3,5,7,9,11,13,15,17,19,21,23,25,27,29,31,33,35,37,39,41,43,45,47,49,51,53,55,57,-1,-1,59,-1,61,63,65,67,69,71,73,75,77,79,-1,81,83,85,87,89,91,93,95,97,99,-1,101,-1,103,105,-1,-1,-1,-1,-1,-1,-1,-1,-1,-1,-1,-1,-1,-1,-1,-1,-1,-1,-1,-1,-1,-1,-1,-1,-1,-1,-1,-1,-1,-1,-1,-1,-1,-1,-1,-1,-1,-1,-1,-1,-1,-1,-1,-1,-1,-1,-1,-1],"loss_changes":[1.0554385E6,2.1089384E5,2.2370188E5,3.7177375E4,3.257709E4,4.8377812E4,3.0732062E4,6.2092188E3,1.9154672E4,2.3410438E4,1.5066897E4,3.2098258E4,1.2653547E4,1.6837219E4,8.674781E3,3.726625E3,2.9024062E3,1.0549469E4,7.1093325E3,7.3971953E3,6.2587627E3,2.217252E3,8.641105E3,1.6358848E4,7.4573516E3,5.4042656E3,1.0183906E3,1.283832E3,6.5312188E3,0E0,0E0,2.384875E3,0E0,1.1635659E3,3.175293E2,2.0477656E3,7.179078E3,3.9019358E3,1.4436216E3,4.369172E3,6.0932734E3,2.8888484E3,7.7751465E2,0E0,7.5071387E2,4.4743413E3,4.390991E3,3.041953E3,5.7587812E3,6.1756074E3,5.9000547E3,2.6775918E3,2.4195234E3,5.4339844E2,0E0,5.635547E2,0E0,2.0212656E3,3.6798125E3,0E0,0E0,0E0,0E0,0E0,0E0,0E0,0E0,0E0,0E0,0E0,0E0,0E0,0E0,0E0,0E0,0E0,0E0,0E0,0E0,0E0,0E0,0E0,0E0,0E0,0E0,0E0,0E0,0E0,0E0,0E0,0E0,0E0,0E0,0E0,0E0,0E0,0E0,0E0,0E0,0E0,0E0,0E0,0E0,0E0,0E0,0E0,0E0],"parents":[2147483647,0,0,1,1,2,2,3,3,4,4,5,5,6,6,7,7,8,8,9,9,10,10,11,11,12,12,13,13,14,14,15,15,16,16,17,17,18,18,19,19,20,20,21,21,22,22,23,23,24,24,25,25,26,26,27,27,28,28,31,31,33,33,34,34,35,35,36,36,37,37,38,38,39,39,40,40,41,41,42,42,44,44,45,45,46,46,47,47,48,48,49,49,50,50,51,51,52,52,53,53,55,55,57,57,58,58],"right_children":[2,4,6,8,10,12,14,16,18,20,22,24,26,28,30,32,34,36,38,40,42,44,46,48,50,52,54,56,58,-1,-1,60,-1,62,64,66,68,70,72,74,76,78,80,-1,82,84,86,88,90,92,94,96,98,100,-1,102,-1,104,106,-1,-1,-1,-1,-1,-1,-1,-1,-1,-1,-1,-1,-1,-1,-1,-1,-1,-1,-1,-1,-1,-1,-1,-1,-1,-1,-1,-1,-1,-1,-1,-1,-1,-1,-1,-1,-1,-1,-1,-1,-1,-1,-1,-1,-1,-1,-1,-1],"split_conditions":[2.85E2,2.21E2,3.67E2,1.92E2,2.62E2,3.32E2,5.37E1,2.6E1,3.7E1,2.9E1,-2.9E1,1E0,1.1E1,-2.2E1,2.03E2,2.6E2,3.24E0,-1E0,2.43E2,-1.7E1,1.9E0,8E-1,6E0,-2.5E1,2.97E2,3.25E2,3.54E2,4.4E2,4.02E2,6.667535E0,3.3276794E0,1.62E2,-1.0781026E0,2.1022475E-1,1.67E2,1.7833334E1,3.9E0,2.13E2,2.3955657E-1,1.32E1,2.38E2,5.6E0,2.4E2,-4.6813507E-2,-3.4E-2,2.52E2,2.77E1,2.22E2,2.93E2,1.6E0,1.9E1,1.31E1,1.35E-1,1.6E1,1.6198511E0,3E-1,2.575566E0,8.828571E0,7.07E0,-2.6823375E0,-2.1018474E0,3.7847318E-2,-9.867342E-1,-1.9975022E0,-1.0557579E0,-1.4224129E0,-1.8931288E0,-1.2039504E0,-9.328656E-2,-9.496959E-2,1.3670839E0,-1.5132337E0,-2.8798363E-1,-1.2841872E0,-2.3295584E-1,-8.3488697E-1,-4.3588477E-1,6.8111485E-1,-1.4597766E-1,6.5230083E-1,1.7025576E0,-6.242125E-1,-1.3888869E0,-4.6879855E-1,7.522018E-2,3.7812194E-1,1.4034065E0,-1.2024264E0,-2.0007482E-1,1.6546242E-1,6.9640666E-1,5.8649623E-1,1.6847502E0,1.1231264E0,1.8165197E0,6.017294E-1,1.3746735E0,4.2446652E-1,1.654485E0,1.731695E0,2.9365218E0,7.386137E-1,1.5925877E0,1.4945151E0,2.7319982E0,3.7396584E0,1.8518565E0],"split_indices":[8,8,8,8,8,8,15,22,22,22,22,22,22,22,12,12,6,22,12,22,0,6,22,22,10,10,12,8,8,0,0,8,0,26,8,17,0,9,26,14,8,1,8,0,21,12,15,12,8,0,22,1,5,22,0,14,0,18,6,0,0,0,0,0,0,0,0,0,0,0,0,0,0,0,0,0,0,0,0,0,0,0,0,0,0,0,0,0,0,0,0,0,0,0,0,0,0,0,0,0,0,0,0,0,0,0,0],"split_type":[0,0,0,0,0,0,0,0,0,0,0,0,0,0,0,0,0,0,0,0,0,0,0,0,0,0,0,0,0,0,0,0,0,0,0,0,0,0,0,0,0,0,0,0,0,0,0,0,0,0,0,0,0,0,0,0,0,0,0,0,0,0,0,0,0,0,0,0,0,0,0,0,0,0,0,0,0,0,0,0,0,0,0,0,0,0,0,0,0,0,0,0,0,0,0,0,0,0,0,0,0,0,0,0,0,0,0],"sum_hessian":[2.406E3,1.474E3,9.32E2,5.9E2,8.84E2,7.76E2,1.56E2,2.2E2,3.7E2,5.44E2,3.4E2,5.72E2,2.04E2,1.41E2,1.5E1,1.96E2,2.4E1,3.43E2,2.7E1,4.78E2,6.6E1,3E1,3.1E2,3.26E2,2.46E2,1.68E2,3.6E1,3.4E1,1.07E2,7E0,8E0,1.86E2,1E1,1E1,1.4E1,1.44E2,1.99E2,1.7E1,1E1,8.5E1,3.93E2,5.5E1,1.1E1,5E0,2.5E1,2.03E2,1.07E2,6E1,2.66E2,9.3E1,1.53E2,5E1,1.18E2,2.7E1,9E0,2.9E1,5E0,5.6E1,5.1E1,4.1E1,1.45E2,5E0,5E0,8E0,6E0,6.4E1,8E1,1.83E2,1.6E1,9E0,8E0,5E0,5E0,7.3E1,1.2E1,1.81E2,2.12E2,1.3E1,4.2E1,5E0,6E0,7E0,1.8E1,4.9E1,1.54E2,9.6E1,1.1E1,8E0,5.2E1,7E1,1.96E2,7.8E1,1.5E1,1.02E2,5.1E1,2.9E1,2.1E1,5E0,1.13E2,7E0,2E1,5E0,2.4E1,8E0,4.8E1,4.5E1,6E0],"tree_param":{"num_deleted":"0","num_feature":"28","num_nodes":"107","size_leaf_vector":"1"}},{"base_weights":[-2.6231036E-1,-1.8442709E1,1.8701996E1,-3.2529404E1,-1.1967879E1,9.883708E0,3.9407932E1,-3.383052E1,1.1049708E1,-2.2840822E1,-6.3545303E0,-5.895526E0,1.4224933E1,3.21144E1,6.4709305E1,-4.2807327E1,-2.920747E1,-6.948443E-2,1.1868694E0,-2.5700672E1,-1.1055196E1,-9.015124E0,7.455733E0,-1.5296878E1,1.4427323E0,1.0442943E1,2.7260166E1,2.2758568E1,4.339849E1,5.676291E1,5.9656787E0,-4.7727753E1,-3.4371727E1,-3.5386555E1,-2.384586E1,-3.1394001E1,-2.1976849E1,-1.975493E1,-1.6708087E0,-1.4599655E1,-1.970808E0,-3.3616283E0,1.6007812E1,-1.5854812E0,-1.0953115E1,-4.285125E0,1.5335761E1,5.482855E0,1.6940306E1,2.2082275E1,3.955346E1,8.768069E0,2.7467E1,2.8452816E1,5.2150364E1,6.571718E1,4.2629982E1,-2.46463E0,-1.2511611E0,-1.4872535E0,-2.2068527E0,-1.8493795E0,-9.9858505E-1,-1.2807773E0,-5.3096545E-1,-1.6296291E0,-4.6824333E-1,-1.5678253E0,-9.01443E-1,-3.128158E-1,-1.11002E0,4.2718998E-1,-3.349786E-1,-8.421853E-1,-3.207328E-1,2.71536E-1,-2.9505163E-1,-1.2262318E0,8.569166E-2,5.62216E-1,1.7201852E0,-7.620102E-1,1.4272077E-1,7.4227935E-1,-2.9557917E-1,3.381476E-1,1.2321523E0,2.0798142E-1,8.5996896E-1,2.4646862E-1,9.373542E-1,6.305421E-1,1.4487002E0,2.2907062E0,8.867882E-1,7.465396E-1,-1.431291E0,7.522533E-1,1.5667623E0,1.1295284E0,2.3054254E0,2.102555E0,3.1240718E0,2.2119148E0,3.47903E0,2.3118978E0,1.0237558E0],"categories":[],"categories_nodes":[],"categories_segments":[],"categories_sizes":[],"default_left":[0,0,0,0,0,0,0,0,0,0,0,0,0,0,0,0,0,0,0,0,0,0,0,0,0,0,0,0,0,0,0,0,0,0,0,0,0,0,0,0,0,0,0,0,0,0,0,0,0,0,0,0,0,0,0,0,0,0,0,0,0,0,0,0,0,0,0,0,0,0,0,0,0,0,0,0,0,0,0,0,0,0,0,0,0,0,0,0,0,0,0,0,0,0,0,0,0,0,0,0,0,0,0,0,0,0,0],"id":17,"left_children":[1,3,5,7,9,11,13,15,17,19,21,23,25,27,29,31,33,-1,-1,35,37,39,41,43,45,47,49,51,53,55,-1,57,59,61,63,65,67,69,71,73,75,77,79,-1,81,83,85,87,89,91,93,95,97,99,101,103,105,-1,-1,-1,-1,-1,-1,-1,-1,-1,-1,-1,-1,-1,-1,-1,-1,-1,-1,-1,-1,-1,-1,-1,-1,-1,-1,-1,-1,-1,-1,-1,-1,-1,-1,-1,-1,-1,-1,-1,-1,-1,-1,-1,-1,-1,-1,-1,-1,-1,-1],"loss_changes":[8.3333006E5,1.12158125E5,2.1561062E5,2.237625E4,5.154742E4,5.7009195E4,6.3053562E4,1.4388094E4,1.9291471E3,9.419266E3,2.0643736E4,1.2441572E4,3.1854578E4,2.8143562E4,2.7054562E4,3.5811562E3,7.4989844E3,0E0,0E0,4.2021406E3,4.7000674E3,1.8458992E4,8.473572E3,5.2805684E3,8.183704E3,1.6244215E4,8.413781E3,9.834164E3,1.4727656E4,6.0461406E3,0E0,1.4948281E3,9.3878906E2,2.0937656E3,2.9545E3,2.0405078E3,4.7251406E3,8.485752E2,1.546694E3,4.7019336E3,6.111834E3,4.4482056E3,4.0776523E3,0E0,3.833164E3,2.3582842E3,2.2238862E3,4.406866E3,4.657758E3,6.484285E3,4.9180156E3,9.643963E3,5.00175E3,3.9196094E3,5.3960156E3,3.1275E2,1.444625E3,0E0,0E0,0E0,0E0,0E0,0E0,0E0,0E0,0E0,0E0,0E0,0E0,0E0,0E0,0E0,0E0,0E0,0E0,0E0,0E0,0E0,0E0,0E0,0E0,0E0,0E0,0E0,0E0,0E0,0E0,0E0,0E0,0E0,0E0,0E0,0E0,0E0,0E0,0E0,0E0,0E0,0E0,0E0,0E0,0E0,0E0,0E0,0E0,0E0,0E0],"parents":[2147483647,0,0,1,1,2,2,3,3,4,4,5,5,6,6,7,7,8,8,9,9,10,10,11,11,12,12,13,13,14,14,15,15,16,16,19,19,20,20,21,21,22,22,23,23,24,24,25,25,26,26,27,27,28,28,29,29,31,31,32,32,33,33,34,34,35,35,36,36,37,37,38,38,39,39,40,40,41,41,42,42,44,44,45,45,46,46,47,47,48,48,49,49,50,50,51,51,52,52,53,53,54,54,55,55,56,56],"right_children":[2,4,6,8,10,12,14,16,18,20,22,24,26,28,30,32,34,-1,-1,36,38,40,42,44,46,48,50,52,54,56,-1,58,60,62,64,66,68,70,72,74,76,78,80,-1,82,84,86,88,90,92,94,96,98,100,102,104,106,-1,-1,-1,-1,-1,-1,-1,-1,-1,-1,-1,-1,-1,-1,-1,-1,-1,-1,-1,-1,-1,-1,-1,-1,-1,-1,-1,-1,-1,-1,-1,-1,-1,-1,-1,-1,-1,-1,-1,-1,-1,-1,-1,-1,-1,-1,-1,-1,-1,-1],"split_conditions":[2.71E2,2.09E2,3.35E2,8E1,-8E0,-2.2E1,1.2E1,1.82E2,1.93E2,2.6E2,4.3E1,-4.1E1,1.7E1,3.65E2,6.9E1,1E1,1E0,-6.948443E-2,1.1868694E0,-2.2E1,-2.3E1,2.42E2,1.1E1,2.21E2,3.12E2,2.99E2,4.8E1,3.15E2,-4.1E1,4.7275922E-1,5.9656787E0,-1.8281692E-1,2.1433332E1,3E0,2.6E1,4.7E0,2.21E2,2.13E2,2.57E2,1.6E1,8.1E0,2.19E2,8.3E1,-1.5854812E0,2.4E0,5.2E-1,-1E0,6.7E0,1.6E0,2.97E2,7.614175E-1,1.6166666E1,1.7117706E-1,6E-1,4.02E2,3.43E2,1.28E1,-2.46463E0,-1.2511611E0,-1.4872535E0,-2.2068527E0,-1.8493795E0,-9.9858505E-1,-1.2807773E0,-5.3096545E-1,-1.6296291E0,-4.6824333E-1,-1.5678253E0,-9.01443E-1,-3.128158E-1,-1.11002E0,4.2718998E-1,-3.349786E-1,-8.421853E-1,-3.207328E-1,2.71536E-1,-2.9505163E-1,-1.2262318E0,8.569166E-2,5.62216E-1,1.7201852E0,-7.620102E-1,1.4272077E-1,7.4227935E-1,-2.9557917E-1,3.381476E-1,1.2321523E0,2.0798142E-1,8.5996896E-1,2.4646862E-1,9.373542E-1,6.305421E-1,1.4487002E0,2.2907062E0,8.867882E-1,7.465396E-1,-1.431291E0,7.522533E-1,1.5667623E0,1.1295284E0,2.3054254E0,2.102555E0,3.1240718E0,2.2119148E0,3.47903E0,2.3118978E0,1.0237558E0],"split_indices":[10,10,10,23,23,23,23,10,10,10,23,23,23,10,23,23,23,0,0,23,23,10,15,12,10,10,23,11,23,25,0,26,17,0,15,0,10,12,11,15,1,11,23,0,13,6,22,13,15,10,26,17,25,13,10,10,14,0,0,0,0,0,0,0,0,0,0,0,0,0,0,0,0,0,0,0,0,0,0,0,0,0,0,0,0,0,0,0,0,0,0,0,0,0,0,0,0,0,0,0,0,0,0,0,0,0,0],"split_type":[0,0,0,0,0,0,0,0,0,0,0,0,0,0,0,0,0,0,0,0,0,0,0,0,0,0,0,0,0,0,0,0,0,0,0,0,0,0,0,0,0,0,0,0,0,0,0,0,0,0,0,0,0,0,0,0,0,0,0,0,0,0,0,0,0,0,0,0,0,0,0,0,0,